{"learner":{"attributes":{"scikit_learn":"{\"_estimator_type\": \"classifier\"}"},"feature_names":[],"feature_types":[],"gradient_booster":{"model":{"gbtree_model_param":{"num_parallel_tree":"1","num_trees":"100"},"iteration_indptr":[0,1,2,3,4,5,6,7,8,9,10,11,12,13,14,15,16,17,18,19,20,21,22,23,24,25,26,27,28,29,30,31,32,33,34,35,36,37,38,39,40,41,42,43,44,45,46,47,48,49,50,51,52,53,54,55,56,57,58,59,60,61,62,63,64,65,66,67,68,69,70,71,72,73,74,75,76,77,78,79,80,81,82,83,84,85,86,87,88,89,90,91,92,93,94,95,96,97,98,99,100],"tree_info":[0,0,0,0,0,0,0,0,0,0,0,0,0,0,0,0,0,0,0,0,0,0,0,0,0,0,0,0,0,0,0,0,0,0,0,0,0,0,0,0,0,0,0,0,0,0,0,0,0,0,0,0,0,0,0,0,0,0,0,0,0,0,0,0,0,0,0,0,0,0,0,0,0,0,0,0,0,0,0,0,0,0,0,0,0,0,0,0,0,0,0,0,0,0,0,0,0,0,0,0],"trees":[{"base_weights":[-3.518983E-1,-7.877198E-1,1.7272286E0,-9.814402E-1,3.3022606E-1,-1.6182144E-1,3.6706438E0,-2.792708E-2,-1.083578E0,-4.927467E-1,2.0069141E0,2.1776814E0,-6.5900993E-1,4.394181E0,3.4953728E-1,-4.6231607E-1,2.7146785E0,1.7114516E0,-1.1013575E0,2.2067986E0,-7.871367E-1,-1.0198509E-1,3.5173967E0,3.4642923E0,-7.0083034E-1,-8.5767E-1,2.4869008E0,1.9845954E-1,4.706323E0,1.0324075E0,-5.890477E-1,1.7597846E0,-7.7170324E-1,-1.0445336E-1,1.1086632E0,-4.5792155E-2,8.2443726E-1,6.085804E-1,-1.1254239E0,-1.3302071E-1,1.0541888E0,-9.286548E-1,5.585914E-1,-8.270513E-1,7.0471084E-1,4.4808564E0,4.2529085E-1,-8.7414294E-2,1.2971117E0,-4.5792155E-2,-2.5166562E-1,4.8999953E-1,-1.0619868E0,8.774648E-1,2.4428432E-1,5.3436077E-1,-2.5713035E-1,4.8507433E0,-6.803337E-2,3.705469E-1,-3.242415E-1,8.79135E-1,-2.2320344E-1,-2.8827506E-1,2.6605976E-1,-2.38717E-1,9.6429724E-1,-3.5007596E-1,-8.243315E-2,2.3406473E-1,-3.113871E-1,-3.3011606E-1,2.4428432E-1,1.451946E0,2.0210895E-1,-2.6666766E-1,6.7090094E-1,-2.8753397E-1,6.5134174E-1,-3.5254195E-1,9.18505E-2,1.6535746E-1,1.4935597E0],"categories":[],"categories_nodes":[],"categories_segments":[],"categories_sizes":[],"default_left":[0,0,0,0,0,0,0,0,0,0,0,0,0,0,0,0,0,0,0,0,0,0,0,0,0,0,0,0,0,0,0,0,0,0,0,0,0,0,0,0,0,0,0,0,0,0,0,0,0,0,0,0,0,0,0,0,0,0,0,0,0,0,0,0,0,0,0,0,0,0,0,0,0,0,0,0,0,0,0,0,0,0,0],"id":0,"left_children":[1,3,5,7,9,11,13,15,17,19,21,23,25,27,29,31,33,35,37,39,41,43,45,47,49,51,53,55,57,-1,59,61,63,-1,-1,-1,-1,65,67,-1,-1,69,-1,71,-1,73,75,-1,-1,-1,-1,77,79,-1,-1,-1,-1,81,-1,-1,-1,-1,-1,-1,-1,-1,-1,-1,-1,-1,-1,-1,-1,-1,-1,-1,-1,-1,-1,-1,-1,-1,-1],"loss_changes":[6.1868604E2,1.2244833E2,4.351681E2,4.680188E1,1.16941345E2,7.23703E1,1.3877063E2,5.790718E1,2.3468018E1,4.7169846E1,8.9115486E1,4.287423E1,3.4045692E1,6.174353E1,3.549101E1,3.016743E1,2.1257053E1,6.481271E0,1.8470215E1,2.1942448E1,2.1330296E1,2.4334875E1,4.6544205E1,2.6163895E1,1.9020748E-1,1.3950275E1,2.8112411E-2,8.80732E0,3.280359E1,0E0,1.00364895E1,1.808539E1,1.2613979E1,0E0,0E0,0E0,0E0,2.6882114E1,1.4735413E1,0E0,0E0,1.0205017E1,0E0,5.590154E0,0E0,1.3541779E1,1.3812922E1,0E0,0E0,0E0,0E0,1.9382505E1,6.965313E0,0E0,0E0,0E0,0E0,2.103479E1,0E0,0E0,0E0,0E0,0E0,0E0,0E0,0E0,0E0,0E0,0E0,0E0,0E0,0E0,0E0,0E0,0E0,0E0,0E0,0E0,0E0,0E0,0E0,0E0,0E0],"parents":[2147483647,0,0,1,1,2,2,3,3,4,4,5,5,6,6,7,7,8,8,9,9,10,10,11,11,12,12,13,13,14,14,15,15,16,16,17,17,18,18,19,19,20,20,21,21,22,22,23,23,24,24,25,25,26,26,27,27,28,28,30,30,31,31,32,32,37,37,38,38,41,41,43,43,45,45,46,46,51,51,52,52,57,57],"right_children":[2,4,6,8,10,12,14,16,18,20,22,24,26,28,30,32,34,36,38,40,42,44,46,48,50,52,54,56,58,-1,60,62,64,-1,-1,-1,-1,66,68,-1,-1,70,-1,72,-1,74,76,-1,-1,-1,-1,78,80,-1,-1,-1,-1,82,-1,-1,-1,-1,-1,-1,-1,-1,-1,-1,-1,-1,-1,-1,-1,-1,-1,-1,-1,-1,-1,-1,-1,-1,-1],"split_conditions":[5.2797053E-2,4.746888E-2,4.245316E-2,-6.5470636E-2,2.6938904E-2,-5.89459E-2,-1.987375E-2,3.313394E-2,-9.9084586E-2,-7.406782E-2,-3.931809E-3,1.9284448E-2,5.7205725E-2,-2.1960491E-2,-4.6851683E-2,-4.3616362E-2,-4.282308E-3,3.405078E-2,-7.326601E-2,-1.9827257E-3,4.6075024E-2,3.7536737E-2,2.6678532E-2,-1.3666155E-2,-1.0313862E-2,-5.8908556E-2,-2.6160868E-2,-1.884199E-2,3.2856848E-2,1.0324075E0,-3.6225606E-2,6.7064893E-3,5.1380202E-2,-1.0445336E-1,1.1086632E0,-4.5792155E-2,8.2443726E-1,2.8901188E-2,2.3590528E-34,-1.3302071E-1,1.0541888E0,-3.7532605E-2,5.585914E-1,1.6269539E-2,7.0471084E-1,4.278782E-3,2.1091687E-2,-8.7414294E-2,1.2971117E0,-4.5792155E-2,-2.5166562E-1,1.5805248E-2,4.99851E-2,8.774648E-1,2.4428432E-1,5.3436077E-1,-2.5713035E-1,-3.9533716E-2,-6.803337E-2,3.705469E-1,-3.242415E-1,8.79135E-1,-2.2320344E-1,-2.8827506E-1,2.6605976E-1,-2.38717E-1,9.6429724E-1,-3.5007596E-1,-8.243315E-2,2.3406473E-1,-3.113871E-1,-3.3011606E-1,2.4428432E-1,1.451946E0,2.0210895E-1,-2.6666766E-1,6.7090094E-1,-2.8753397E-1,6.5134174E-1,-3.5254195E-1,9.18505E-2,1.6535746E-1,1.4935597E0],"split_indices":[710,496,763,343,333,343,651,695,57,343,282,745,365,503,411,91,514,0,643,311,372,503,445,89,3,326,8,23,458,0,753,376,470,0,0,0,0,357,756,0,0,50,0,7,0,191,277,0,0,0,0,627,104,0,0,0,0,203,0,0,0,0,0,0,0,0,0,0,0,0,0,0,0,0,0,0,0,0,0,0,0,0,0],"split_type":[0,0,0,0,0,0,0,0,0,0,0,0,0,0,0,0,0,0,0,0,0,0,0,0,0,0,0,0,0,0,0,0,0,0,0,0,0,0,0,0,0,0,0,0,0,0,0,0,0,0,0,0,0,0,0,0,0,0,0,0,0,0,0,0,0,0,0,0,0,0,0,0,0,0,0,0,0,0,0,0,0,0,0],"sum_hessian":[6.802784E2,5.629048E2,1.1737358E2,4.7987326E2,8.303151E1,5.9984158E1,5.7389423E1,4.655259E1,4.3332068E2,5.6168373E1,2.6863134E1,9.921044E0,5.0063114E1,4.6857853E1,1.05315695E1,4.0905228E1,5.6473637E0,2.1368403E0,4.3118384E2,4.8842063E0,5.1284164E1,1.159999E1,1.52631445E1,6.7157836E0,3.2052603E0,4.7773643E1,2.2894716E0,3.3578918E0,4.349996E1,1.8315773E0,8.699992E0,4.426312E0,3.6478916E1,1.5263145E0,4.121049E0,1.0684202E0,1.0684202E0,5.6473637E0,4.2553647E2,1.8315773E0,3.052629E0,4.9299957E1,1.9842088E0,9.46315E0,2.1368403E0,1.1294727E1,3.9684176E0,1.373683E0,5.3421006E0,1.0684202E0,2.1368403E0,6.105258E0,4.1668385E1,1.2210516E0,1.0684202E0,1.0684202E0,2.2894716E0,4.227891E1,1.2210516E0,1.5263145E0,7.173678E0,2.8999975E0,1.5263145E0,3.3121025E1,3.3578918E0,4.121049E0,1.5263145E0,4.0538913E2,2.014735E1,2.5947347E0,4.6705223E1,8.39473E0,1.0684202E0,1.0073675E1,1.2210516E0,2.5947347E0,1.373683E0,3.5105233E0,2.5947347E0,3.8615757E1,3.052629E0,1.373683E0,4.0905228E1],"tree_param":{"num_deleted":"0","num_feature":"768","num_nodes":"83","size_leaf_vector":"1"}},{"base_weights":[-3.4823358E-1,-7.6174337E-1,7.433695E-1,5.314337E-1,-8.983442E-1,-1.7606035E-1,1.4514959E0,1.4172858E0,-6.833724E-1,-9.696386E-1,3.475989E-1,5.991045E-1,-9.338552E-1,1.767887E0,1.8058738E-2,-6.209348E-1,1.8295038E0,-9.0773374E-1,3.366093E-1,2.8261194E-1,-1.0251577E0,1.9311626E0,-6.379862E-1,1.3284113E0,-4.137653E-1,-1.0564989E0,5.564706E-1,-3.132867E-1,1.8920807E0,1.1282469E0,-7.332341E-1,-2.6204273E-1,5.8083978E-2,2.0662222E0,-1.3455097E-1,1.10016175E-1,-1.0463583E0,-3.3167183E-1,1.1970556E0,-9.587416E-2,-1.0653706E0,-3.0033648E-1,2.793604E0,4.5253417E-1,-1.0370462E0,-2.5925642E-1,1.6967068E0,4.3926477E-1,-7.0282626E-1,-1.130106E0,4.5870017E-2,-1.9639708E-1,4.2063302E-1,-2.7260694E-1,3.1196746E-1,1.9522986E0,-2.0928207E-1,-4.0966293E-1,5.762738E-1,-1.0156841E0,3.1766766E-1,6.7528933E-1,-7.1558817E-3,-4.5458183E-2,-3.2880926E-1,-1.6813512E-1,6.4479107E-1,-3.1673557E-1,4.2811197E-1,2.4331076E-1,-3.2288796E-1,-2.0594692E-1,8.048884E-2,1.8786003E-1,9.2297614E-1,-3.3227903E-1,-3.554418E-2,5.907542E-1,-2.2788543E-1,4.1157004E-1,-2.9695272E-1,-5.8101222E-2,-3.45918E-1,6.018088E-1,-1.03509955E-1,-2.3520263E-1,7.777481E-2,-4.0490817E-2,-3.2825595E-1],"categories":[],"categories_nodes":[],"categories_segments":[],"categories_sizes":[],"default_left":[0,0,0,0,0,0,0,0,0,0,0,0,0,0,0,0,0,0,0,0,0,0,0,0,0,0,0,0,0,0,0,0,0,0,0,0,0,0,0,0,0,0,0,0,0,0,0,0,0,0,0,0,0,0,0,0,0,0,0,0,0,0,0,0,0,0,0,0,0,0,0,0,0,0,0,0,0,0,0,0,0,0,0,0,0,0,0,0,0],"id":1,"left_children":[1,3,5,7,9,11,13,15,17,19,21,23,25,27,29,31,33,35,-1,37,39,41,43,45,47,49,51,53,55,57,59,-1,-1,61,-1,-1,63,-1,65,67,69,71,73,-1,75,-1,77,-1,79,81,-1,-1,-1,-1,-1,83,-1,85,-1,87,-1,-1,-1,-1,-1,-1,-1,-1,-1,-1,-1,-1,-1,-1,-1,-1,-1,-1,-1,-1,-1,-1,-1,-1,-1,-1,-1,-1,-1],"loss_changes":[2.7880966E2,7.953815E1,1.1084568E2,4.766001E1,3.632782E1,4.4495117E1,4.3535477E1,2.2490715E1,8.70315E0,2.6952454E1,3.660712E1,2.831181E1,7.572258E0,2.0930084E1,1.6157457E1,1.2022207E0,1.2463486E1,3.4626064E0,0E0,2.2985933E1,1.3628784E1,1.8050892E1,1.4174746E1,1.930244E1,9.983608E0,3.3464966E0,4.564468E0,5.2061863E0,1.296347E1,1.03101225E1,6.93098E0,0E0,0E0,7.6058044E0,0E0,0E0,5.4408073E-1,0E0,1.9225803E1,2.539285E1,8.089264E0,9.298544E-1,2.0892563E0,0E0,7.116823E-1,0E0,1.4378487E1,0E0,1.0272725E1,5.01606E-1,0E0,0E0,0E0,0E0,0E0,9.699036E0,0E0,1.0749631E0,0E0,5.784998E-1,0E0,0E0,0E0,0E0,0E0,0E0,0E0,0E0,0E0,0E0,0E0,0E0,0E0,0E0,0E0,0E0,0E0,0E0,0E0,0E0,0E0,0E0,0E0,0E0,0E0,0E0,0E0,0E0,0E0],"parents":[2147483647,0,0,1,1,2,2,3,3,4,4,5,5,6,6,7,7,8,8,9,9,10,10,11,11,12,12,13,13,14,14,15,15,16,16,17,17,19,19,20,20,21,21,22,22,23,23,24,24,25,25,26,26,27,27,28,28,29,29,30,30,33,33,36,36,38,38,39,39,40,40,41,41,42,42,44,44,46,46,48,48,49,49,55,55,57,57,59,59],"right_children":[2,4,6,8,10,12,14,16,18,20,22,24,26,28,30,32,34,36,-1,38,40,42,44,46,48,50,52,54,56,58,60,-1,-1,62,-1,-1,64,-1,66,68,70,72,74,-1,76,-1,78,-1,80,82,-1,-1,-1,-1,-1,84,-1,86,-1,88,-1,-1,-1,-1,-1,-1,-1,-1,-1,-1,-1,-1,-1,-1,-1,-1,-1,-1,-1,-1,-1,-1,-1,-1,-1,-1,-1,-1,-1],"split_conditions":[4.187744E-2,-5.0038956E-2,3.8188472E-2,-2.3353864E-2,2.397038E-34,-1.0006836E-2,1.7257204E-2,-9.281178E-3,5.5646375E-2,-8.712118E-2,-7.125683E-3,-3.0709844E-2,3.3626344E-2,1.5382735E-2,-2.511726E-2,4.791178E-2,1.8710028E-2,-5.3847186E-2,3.366093E-1,-9.149907E-3,-6.334379E-2,1.4698024E-2,-3.051048E-2,-2.9397864E-2,-5.005393E-2,8.855075E-2,8.4960135E-3,3.0850615E-2,3.532733E-2,6.964813E-5,3.8320407E-2,-2.6204273E-1,5.8083978E-2,1.340269E-2,-1.3455097E-1,1.10016175E-1,-1.933218E-2,-3.3167183E-1,4.3535482E-2,2.4457347E-2,-6.9777E-2,-5.525046E-4,8.3846675E-4,4.5253417E-1,2.8539648E-2,-2.5925642E-1,2.8499575E-2,4.3926477E-1,-4.8608955E-2,-6.1557528E-2,4.5870017E-2,-1.9639708E-1,4.2063302E-1,-2.7260694E-1,3.1196746E-1,1.5942978E-2,-2.0928207E-1,5.873043E-3,5.762738E-1,-7.053188E-2,3.1766766E-1,6.7528933E-1,-7.1558817E-3,-4.5458183E-2,-3.2880926E-1,-1.6813512E-1,6.4479107E-1,-3.1673557E-1,4.2811197E-1,2.4331076E-1,-3.2288796E-1,-2.0594692E-1,8.048884E-2,1.8786003E-1,9.2297614E-1,-3.3227903E-1,-3.554418E-2,5.907542E-1,-2.2788543E-1,4.1157004E-1,-2.9695272E-1,-5.8101222E-2,-3.45918E-1,6.018088E-1,-1.03509955E-1,-2.3520263E-1,7.777481E-2,-4.0490817E-2,-3.2825595E-1],"split_indices":[496,643,710,329,756,184,315,243,308,343,472,326,282,763,343,498,753,256,0,446,296,0,640,556,499,675,12,200,411,20,311,0,0,604,0,0,731,0,532,619,281,0,333,0,562,0,650,0,182,125,0,0,0,0,0,643,0,28,0,580,0,0,0,0,0,0,0,0,0,0,0,0,0,0,0,0,0,0,0,0,0,0,0,0,0,0,0,0,0],"split_type":[0,0,0,0,0,0,0,0,0,0,0,0,0,0,0,0,0,0,0,0,0,0,0,0,0,0,0,0,0,0,0,0,0,0,0,0,0,0,0,0,0,0,0,0,0,0,0,0,0,0,0,0,0,0,0,0,0,0,0,0,0,0,0,0,0,0,0,0,0,0,0,0,0,0,0,0,0,0,0,0,0,0,0,0,0,0,0,0,0],"sum_hessian":[6.154166E2,4.4655823E2,1.6885838E2,4.238798E1,4.0417026E2,7.379477E1,9.5063614E1,2.441649E1,1.7971493E1,3.8250464E2,2.166562E1,3.6582817E1,3.7211952E1,7.768378E1,1.7379837E1,4.0222187E0,2.0394272E1,1.6427256E1,1.5442375E0,1.6064926E1,3.664397E2,7.943384E0,1.3722238E1,2.1087465E1,1.5495352E1,3.4651466E1,2.5604854E0,4.2889657E0,7.3394806E1,6.811991E0,1.0567845E1,3.015084E0,1.0071348E0,1.8558718E1,1.8355545E0,1.4501144E0,1.497714E1,6.2968655E0,9.76806E0,1.5339576E1,3.5110013E2,2.3959115E0,5.5474725E0,1.7154274E0,1.200681E1,2.839056E0,1.824841E1,1.5246342E0,1.3970717E1,3.272529E1,1.9261798E0,1.1455989E0,1.4148865E0,3.2065501E0,1.0824156E0,7.1967476E1,1.4273316E0,2.4812045E0,4.3307867E0,9.503317E0,1.0645286E0,1.6980803E1,1.5779144E0,1.0006849E0,1.3976456E1,3.5772297E0,6.19083E0,9.597126E0,5.74245E0,1.6079855E0,3.4949213E2,1.3034718E0,1.0924397E0,1.0116867E0,4.535786E0,1.0959291E1,1.0475188E0,1.6604803E1,1.6436069E0,1.2384655E0,1.2732252E1,1.0087665E0,3.171652E1,7.0446655E1,1.5208261E0,1.4805654E0,1.0006392E0,1.0002999E0,8.503016E0],"tree_param":{"num_deleted":"0","num_feature":"768","num_nodes":"89","size_leaf_vector":"1"}},{"base_weights":[-3.163015E-1,6.6989356E-1,-6.557224E-1,-3.6607474E-1,1.1307775E0,2.7734593E-1,-8.27917E-1,4.834046E-1,-7.802974E-1,-1.5199955E-1,1.3821597E0,-6.692733E-1,1.0994611E0,4.2691696E-1,-8.9384377E-1,1.2181566E0,-5.881475E-1,1.0202123E-1,-1.0309035E0,8.3019036E-1,-3.0845127E-1,1.4896382E0,-4.2490155E-2,-9.542927E-1,1.0727706E0,1.5071968E0,-6.358535E-1,-8.451458E-1,1.4054652E0,-2.9519165E-1,-9.8508996E-1,-1.975645E-1,1.6406752E0,2.0214775E-1,-2.8138456E-1,-7.2184944E-1,1.1114016E0,-3.252931E-1,4.4305506E-3,-2.2514732E-1,1.3838416E0,-1.9012628E-1,1.5367628E0,9.5100975E-1,-2.6314837E-1,8.502414E-2,-1.0444583E0,-9.12523E-2,4.7975656E-1,-5.4836273E-1,1.7316775E0,1.6787586E-1,-2.813067E-1,3.5462666E-2,-3.0237496E-1,-2.0461492E-1,1.8664289E0,5.1691926E-1,-8.6982775E-1,-1.0378888E0,-3.3557394E-1,3.6610698E-3,5.7958776E-1,-2.4461435E-1,-5.7873074E-2,-7.167807E-2,5.2539426E-1,3.448234E-2,5.122777E-1,4.7372022E-1,-1.4731853E-1,7.960727E-4,4.0588662E-1,-3.2754427E-1,6.857742E-3,-3.2923613E-2,-2.0511644E-1,-2.1491487E-2,5.5781734E-1,6.2442315E-1,4.4598967E-2,-1.4524324E-1,4.2679408E-1,1.7592688E-1,-3.219779E-1,-4.056506E-2,-3.1709942E-1,-2.6129055E-1,2.7343062E-1],"categories":[],"categories_nodes":[],"categories_segments":[],"categories_sizes":[],"default_left":[0,0,0,0,0,0,0,0,0,0,0,0,0,0,0,0,0,0,0,0,0,0,0,0,0,0,0,0,0,0,0,0,0,0,0,0,0,0,0,0,0,0,0,0,0,0,0,0,0,0,0,0,0,0,0,0,0,0,0,0,0,0,0,0,0,0,0,0,0,0,0,0,0,0,0,0,0,0,0,0,0,0,0,0,0,0,0,0,0],"id":2,"left_children":[1,3,5,7,9,11,13,15,17,19,21,23,25,27,29,31,33,35,37,39,-1,41,43,45,47,49,51,53,55,57,59,-1,61,-1,-1,63,65,-1,-1,-1,67,-1,69,71,-1,-1,73,-1,-1,75,77,-1,-1,-1,-1,-1,79,81,83,85,87,-1,-1,-1,-1,-1,-1,-1,-1,-1,-1,-1,-1,-1,-1,-1,-1,-1,-1,-1,-1,-1,-1,-1,-1,-1,-1,-1,-1],"loss_changes":[1.7547044E2,6.457544E1,6.281256E1,1.520216E1,3.027987E1,4.8545185E1,2.7605453E1,1.2075622E1,6.4520283E0,1.4777894E1,1.2017105E1,1.5510164E1,2.4489567E1,2.247729E1,1.6805511E1,8.125321E0,3.520395E0,6.8391237E0,1.2694569E0,8.198944E0,0E0,8.240585E0,6.1818023E0,3.1532688E0,3.801269E0,1.35127945E1,3.0616202E0,1.3831191E0,1.0936388E1,2.0433466E1,8.950623E0,0E0,3.5521564E0,0E0,0E0,7.043719E-2,3.5776696E0,0E0,0E0,0E0,2.4374733E0,0E0,6.894989E0,1.3016176E0,0E0,0E0,1.2419434E0,0E0,0E0,1.2920403E-1,5.841713E0,0E0,0E0,0E0,0E0,0E0,2.8271236E0,1.7346346E1,8.1690445E0,4.1744995E0,1.5390337E1,0E0,0E0,0E0,0E0,0E0,0E0,0E0,0E0,0E0,0E0,0E0,0E0,0E0,0E0,0E0,0E0,0E0,0E0,0E0,0E0,0E0,0E0,0E0,0E0,0E0,0E0,0E0,0E0],"parents":[2147483647,0,0,1,1,2,2,3,3,4,4,5,5,6,6,7,7,8,8,9,9,10,10,11,11,12,12,13,13,14,14,15,15,16,16,17,17,18,18,19,19,21,21,22,22,23,23,24,24,25,25,26,26,27,27,28,28,29,29,30,30,32,32,35,35,36,36,40,40,42,42,43,43,46,46,49,49,50,50,56,56,57,57,58,58,59,59,60,60],"right_children":[2,4,6,8,10,12,14,16,18,20,22,24,26,28,30,32,34,36,38,40,-1,42,44,46,48,50,52,54,56,58,60,-1,62,-1,-1,64,66,-1,-1,-1,68,-1,70,72,-1,-1,74,-1,-1,76,78,-1,-1,-1,-1,-1,80,82,84,86,88,-1,-1,-1,-1,-1,-1,-1,-1,-1,-1,-1,-1,-1,-1,-1,-1,-1,-1,-1,-1,-1,-1,-1,-1,-1,-1,-1,-1],"split_conditions":[-3.8617376E-2,2.337493E-2,-6.828983E-2,-1.7705236E-2,4.9520144E-3,1.5685817E-2,-7.341669E-2,-3.0709844E-2,-2.7065618E-2,-2.9099856E-2,2.6477702E-2,4.841708E-2,2.2861795E-3,6.6536455E-3,-5.89459E-2,-1.77057E-2,-3.263378E-2,1.8246373E-2,5.6379013E-2,1.0970455E-2,-3.0845127E-1,-7.315235E-2,-1.3231746E-2,-5.6524094E-2,2.1446534E-2,-5.756011E-3,-3.103709E-2,-3.3431124E-2,-1.1244594E-2,-9.880709E-3,5.8944013E-2,-1.975645E-1,-2.3539277E-2,2.0214775E-1,-2.8138456E-1,1.6030839E-2,-2.0555401E-2,-3.252931E-1,4.4305506E-3,-2.2514732E-1,1.5745634E-34,-1.9012628E-1,4.9799625E-2,3.1042106E-3,-2.6314837E-1,8.502414E-2,7.453669E-2,-9.12523E-2,4.7975656E-1,-1.9551167E-2,-3.0261973E-2,1.6787586E-1,-2.813067E-1,3.5462666E-2,-3.0237496E-1,-2.0461492E-1,1.5739094E-2,3.209946E-2,-5.4640777E-2,-4.623729E-2,4.95936E-2,3.6610698E-3,5.7958776E-1,-2.4461435E-1,-5.7873074E-2,-7.167807E-2,5.2539426E-1,3.448234E-2,5.122777E-1,4.7372022E-1,-1.4731853E-1,7.960727E-4,4.0588662E-1,-3.2754427E-1,6.857742E-3,-3.2923613E-2,-2.0511644E-1,-2.1491487E-2,5.5781734E-1,6.2442315E-1,4.4598967E-2,-1.4524324E-1,4.2679408E-1,1.7592688E-1,-3.219779E-1,-4.056506E-2,-3.1709942E-1,-2.6129055E-1,2.7343062E-1],"split_indices":[643,710,55,664,60,96,326,326,481,343,315,399,411,96,343,41,315,349,751,104,0,424,411,197,88,496,191,150,679,643,81,0,8,0,0,213,623,0,0,0,756,0,445,298,0,0,496,0,0,24,87,0,0,0,0,0,355,212,648,72,41,0,0,0,0,0,0,0,0,0,0,0,0,0,0,0,0,0,0,0,0,0,0,0,0,0,0,0,0],"split_type":[0,0,0,0,0,0,0,0,0,0,0,0,0,0,0,0,0,0,0,0,0,0,0,0,0,0,0,0,0,0,0,0,0,0,0,0,0,0,0,0,0,0,0,0,0,0,0,0,0,0,0,0,0,0,0,0,0,0,0,0,0,0,0,0,0,0,0,0,0,0,0,0,0,0,0,0,0,0,0,0,0,0,0,0,0,0,0,0,0],"sum_hessian":[5.218944E2,1.3338057E2,3.8851385E2,4.113149E1,9.224907E1,6.043344E1,3.280804E2,1.3427544E1,2.7703947E1,1.5180405E1,7.7068665E1,2.817613E1,3.2257313E1,1.6103065E1,3.1197736E2,7.8844466E0,5.5430965E0,6.259341E0,2.1444607E1,7.1819277E0,7.9984775E0,7.1619896E1,5.44877E0,2.4602983E1,3.573146E0,2.6226496E1,6.030816E0,7.060762E0,9.042304E0,4.1822357E1,2.70155E2,1.3462354E0,6.5382113E0,1.0019739E0,4.541123E0,3.603209E0,2.6561317E0,2.0367409E1,1.0771985E0,1.7707847E0,5.411143E0,1.2846876E0,7.033521E1,2.4240577E0,3.0247126E0,1.525067E0,2.3077917E1,1.1049976E0,2.4681485E0,2.4400704E0,2.3786427E1,1.0436049E0,4.987211E0,1.0601358E0,6.000626E0,1.5488015E0,7.493502E0,1.7371843E1,2.4450512E1,2.492922E2,2.086278E1,1.1501276E0,5.388084E0,2.6016264E0,1.0015826E0,1.055489E0,1.6006428E0,1.375413E0,4.03573E0,6.911464E1,1.2205696E0,1.0212076E0,1.40285E0,2.2075497E1,1.0024203E0,1.0024614E0,1.437609E0,1.6022162E0,2.218421E1,6.471843E0,1.0216595E0,8.472738E0,8.899105E0,2.7662063E0,2.1684307E1,5.335452E0,2.4395676E2,1.4807037E1,6.055742E0],"tree_param":{"num_deleted":"0","num_feature":"768","num_nodes":"89","size_leaf_vector":"1"}},{"base_weights":[-2.885672E-1,-6.4959437E-1,4.495746E-1,-7.700144E-1,4.738491E-1,8.5674095E-1,-4.1102755E-1,3.7696344E-1,-8.5081494E-1,1.286652E0,-4.5069367E-1,1.094942E0,-3.7887576E-1,-7.8036094E-1,4.2452222E-1,-8.039027E-1,9.502255E-1,-2.985253E-1,-9.820333E-1,1.7711638E0,1.7644176E-1,-7.602425E-1,8.967928E-1,-1.3862783E-1,1.2363405E0,-7.780474E-1,7.473654E-1,4.652819E-1,-9.5496505E-1,-2.6703125E-1,8.7957513E-1,-2.8778473E-1,5.4063513E-3,1.2911487E0,-5.2435726E-1,-5.8358955E-1,9.003185E-1,2.1088971E-1,-9.9798554E-1,1.08607985E-1,1.9374628E0,2.9265752E-1,-2.3283562E-1,-3.034768E-1,1.17748804E-1,3.8411334E-1,1.3402636E-2,8.499237E-1,-2.820213E-1,1.3228552E0,-4.5716095E-1,3.0483913E-1,-3.1312633E-1,-8.7792985E-2,3.6533082E-1,-1.7510495E-1,2.9969135E-1,-3.2343397E-1,-9.0192355E-2,1.2046783E0,-2.0939463E-1,2.1508578E-2,4.366542E-1,-4.1742902E-2,-1.929483E-1,3.0641124E-1,-2.3677243E-1,3.793674E-1,-1.9745992E-1,4.616931E-2,-3.0360132E-1,6.1144304E-1,1.7537594E-1,3.707919E-1,-6.7728944E-2,-1.6744341E-1,4.1717803E-1,-2.3657186E-1,9.539839E-2,3.4266967E-1,-1.8638289E-1,2.2567828E-1,-2.2683989E-1,-3.4743156E-2,4.4667527E-1],"categories":[],"categories_nodes":[],"categories_segments":[],"categories_sizes":[],"default_left":[0,0,0,0,0,0,0,0,0,0,0,0,0,0,0,0,0,0,0,0,0,0,0,0,0,0,0,0,0,0,0,0,0,0,0,0,0,0,0,0,0,0,0,0,0,0,0,0,0,0,0,0,0,0,0,0,0,0,0,0,0,0,0,0,0,0,0,0,0,0,0,0,0,0,0,0,0,0,0,0,0,0,0,0,0],"id":3,"left_children":[1,3,5,7,9,11,13,15,17,19,21,23,25,27,29,31,33,35,37,39,41,43,45,47,49,51,53,55,57,-1,59,-1,-1,61,63,65,67,-1,69,-1,71,-1,-1,-1,-1,-1,-1,73,-1,75,77,79,-1,-1,-1,-1,-1,-1,81,83,-1,-1,-1,-1,-1,-1,-1,-1,-1,-1,-1,-1,-1,-1,-1,-1,-1,-1,-1,-1,-1,-1,-1,-1,-1],"loss_changes":[1.16601715E2,4.0071854E1,5.0791862E1,2.4923767E1,2.2397902E1,2.9270233E1,1.480645E1,1.3059803E1,1.7701874E1,8.138042E0,6.656414E0,1.4552879E1,8.038929E0,7.5956573E0,9.7717905E0,8.4456587E-1,7.0545406E0,1.7307434E1,6.0828857E0,1.8355942E0,5.23563E0,3.9287028E0,9.6737385E-1,8.229061E0,1.1457375E1,3.9830904E0,2.7295353E0,3.2224739E0,3.0087852E0,0E0,6.823538E0,0E0,0E0,2.0187855E0,5.2078366E-2,1.4100938E1,6.4107575E0,0E0,3.3649597E0,0E0,9.620285E-2,0E0,0E0,0E0,0E0,0E0,0E0,2.240824E0,0E0,9.788147E0,1.3665502E0,3.256094E0,0E0,0E0,0E0,0E0,0E0,0E0,3.22073E0,3.940343E0,0E0,0E0,0E0,0E0,0E0,0E0,0E0,0E0,0E0,0E0,0E0,0E0,0E0,0E0,0E0,0E0,0E0,0E0,0E0,0E0,0E0,0E0,0E0,0E0,0E0],"parents":[2147483647,0,0,1,1,2,2,3,3,4,4,5,5,6,6,7,7,8,8,9,9,10,10,11,11,12,12,13,13,14,14,15,15,16,16,17,17,18,18,19,19,20,20,21,21,22,22,23,23,24,24,25,25,26,26,27,27,28,28,30,30,33,33,34,34,35,35,36,36,38,38,40,40,47,47,49,49,50,50,51,51,58,58,59,59],"right_children":[2,4,6,8,10,12,14,16,18,20,22,24,26,28,30,32,34,36,38,40,42,44,46,48,50,52,54,56,58,-1,60,-1,-1,62,64,66,68,-1,70,-1,72,-1,-1,-1,-1,-1,-1,74,-1,76,78,80,-1,-1,-1,-1,-1,-1,82,84,-1,-1,-1,-1,-1,-1,-1,-1,-1,-1,-1,-1,-1,-1,-1,-1,-1,-1,-1,-1,-1,-1,-1,-1,-1],"split_conditions":[3.85179E-2,2.2981576E-34,1.0535962E-2,-8.712118E-2,-9.090918E-3,-1.1838358E-2,4.1360073E-2,1.4519823E-2,-4.6326853E-2,1.3999163E-2,2.9929543E-2,-2.535672E-2,8.984561E-3,-3.5737723E-2,-4.767327E-3,2.8531196E-2,8.879234E-3,4.9649984E-2,-9.133854E-2,-4.495198E-3,-3.8062483E-2,3.0395977E-2,-1.9853039E-2,-2.2298666E-2,2.023035E-2,-5.7793437E-3,2.2706898E-2,-6.3070527E-4,4.2506468E-2,-2.6703125E-1,-7.7653974E-3,-2.8778473E-1,5.4063513E-3,-2.2994516E-2,2.6415192E-2,-3.853252E-2,1.3107932E-2,2.1088971E-1,-5.4090347E-2,1.08607985E-1,6.713886E-3,2.9265752E-1,-2.3283562E-1,-3.034768E-1,1.17748804E-1,3.8411334E-1,1.3402636E-2,2.219989E-2,-2.820213E-1,-3.386187E-2,1.7075809E-2,-1.8980604E-2,-3.1312633E-1,-8.7792985E-2,3.6533082E-1,-1.7510495E-1,2.9969135E-1,-3.2343397E-1,-1.167692E-2,1.5361265E-3,-2.0939463E-1,2.1508578E-2,4.366542E-1,-4.1742902E-2,-1.929483E-1,3.0641124E-1,-2.3677243E-1,3.793674E-1,-1.9745992E-1,4.616931E-2,-3.0360132E-1,6.1144304E-1,1.7537594E-1,3.707919E-1,-6.7728944E-2,-1.6744341E-1,4.1717803E-1,-2.3657186E-1,9.539839E-2,3.4266967E-1,-1.8638289E-1,2.2567828E-1,-2.2683989E-1,-3.4743156E-2,4.4667527E-1],"split_indices":[496,756,315,343,359,55,515,120,326,635,89,81,424,430,7,7,664,474,682,96,411,104,494,119,334,135,485,349,0,0,643,0,0,455,219,123,753,0,663,0,647,0,0,0,0,0,0,717,0,7,86,67,0,0,0,0,0,0,162,246,0,0,0,0,0,0,0,0,0,0,0,0,0,0,0,0,0,0,0,0,0,0,0,0,0],"split_type":[0,0,0,0,0,0,0,0,0,0,0,0,0,0,0,0,0,0,0,0,0,0,0,0,0,0,0,0,0,0,0,0,0,0,0,0,0,0,0,0,0,0,0,0,0,0,0,0,0,0,0,0,0,0,0,0,0,0,0,0,0,0,0,0,0,0,0,0,0,0,0,0,0,0,0,0,0,0,0,0,0,0,0,0,0],"sum_hessian":[4.3545166E2,2.9250607E2,1.4294557E2,2.6447235E2,2.8033745E1,9.7039116E1,4.5906467E1,1.716381E1,2.4730853E2,1.4709962E1,1.3323784E1,8.145093E1,1.5588186E1,3.188054E1,1.4025926E1,5.477776E0,1.1686035E1,4.810648E1,1.9920206E2,9.826286E0,4.883675E0,1.11891775E1,2.134606E0,8.378235E0,7.307269E1,1.1737315E1,3.8508708E0,3.7147028E0,2.8165838E1,3.360771E0,1.0665154E1,4.466326E0,1.0114497E0,9.592621E0,2.0934145E0,3.9279663E1,8.826816E0,1.4643015E0,1.9773775E2,1.3725895E0,8.453697E0,2.6426785E0,2.2409966E0,9.286718E0,1.902459E0,1.1254122E0,1.0091937E0,3.7241442E0,4.6540904E0,6.972934E1,3.3433492E0,2.2835302E0,9.453785E0,1.3170081E0,2.5338628E0,1.2210519E0,2.493651E0,2.4438908E1,3.7269309E0,9.038802E0,1.6263527E0,1.3099647E0,8.282656E0,1.0052263E0,1.0881883E0,4.010918E0,3.5268745E1,7.3075843E0,1.5192313E0,2.2576168E0,1.9548013E2,7.3967104E0,1.0569865E0,2.6309307E0,1.0932136E0,2.1721413E0,6.7557205E1,2.3299062E0,1.013443E0,1.0766581E0,1.2068721E0,1.5881754E0,2.1387553E0,1.7059652E0,7.332837E0],"tree_param":{"num_deleted":"0","num_feature":"768","num_nodes":"85","size_leaf_vector":"1"}},{"base_weights":[-2.6084596E-1,2.3270129E-1,-7.2406304E-1,-2.6897797E-1,8.3919716E-1,1.6697796E-2,-8.696716E-1,4.1599846E-1,-6.8397766E-1,-6.529805E-1,1.084096E0,6.909628E-1,-6.147807E-1,-8.9577353E-1,2.9342607E-1,-1.6508849E-1,1.1003022E0,3.8030067E-1,-8.3664984E-1,2.00628E-1,-2.846413E-1,1.2742667E0,6.7872226E-2,1.0313542E0,-2.3594663E-1,-8.249066E-1,3.1223145E-1,-5.8512714E-2,-9.4687027E-1,4.443875E-1,-7.9445887E-1,1.6418172E-1,1.6121852E0,-5.5772126E-1,9.3010205E-1,3.2102596E-2,-9.399012E-1,-1.3134769E-1,1.3229976E0,-4.6520263E-1,1.12804E0,1.2596793E0,-1.8997543E-1,1.3256164E-1,-9.499711E-1,6.879682E-1,-7.356418E-1,-1.0328654E0,-5.48835E-1,2.776209E-1,-2.2696783E-1,1.082024E-1,-2.8648102E-1,-1.5907998E-1,3.237383E-1,5.385951E-1,4.201069E-2,-3.2226566E-2,-2.0581356E-1,3.764047E-1,-4.6039872E-2,-2.0454434E-1,2.5519228E-1,-3.472495E-2,-3.0761975E-1,4.0880197E-1,-5.701266E-2,-2.838125E-1,1.8307456E-1,3.9645368E-1,7.846762E-2,-3.753669E-2,4.2739403E-1,-3.0418584E-1,-1.4419591E-2,-1.1539528E-1,3.4094593E-1,-2.7498344E-1,1.6255794E-2,-3.1656176E-1,-2.1309463E-2,-2.1437311E-1,2.9149514E-1],"categories":[],"categories_nodes":[],"categories_segments":[],"categories_sizes":[],"default_left":[0,0,0,0,0,0,0,0,0,0,0,0,0,0,0,0,0,0,0,0,0,0,0,0,0,0,0,0,0,0,0,0,0,0,0,0,0,0,0,0,0,0,0,0,0,0,0,0,0,0,0,0,0,0,0,0,0,0,0,0,0,0,0,0,0,0,0,0,0,0,0,0,0,0,0,0,0,0,0,0,0,0,0],"id":4,"left_children":[1,3,5,7,9,11,13,15,17,19,21,23,25,27,-1,29,31,33,35,-1,-1,37,39,41,-1,43,-1,45,47,49,51,53,55,57,59,61,63,-1,65,67,69,71,-1,-1,73,75,77,79,81,-1,-1,-1,-1,-1,-1,-1,-1,-1,-1,-1,-1,-1,-1,-1,-1,-1,-1,-1,-1,-1,-1,-1,-1,-1,-1,-1,-1,-1,-1,-1,-1,-1,-1],"loss_changes":[8.2799255E1,5.3698944E1,2.0151001E1,2.7841478E1,2.9870766E1,1.3900651E1,8.401924E0,1.4972183E1,1.0188412E1,5.277705E0,1.3234367E1,8.745613E0,6.728043E0,6.5494995E0,0E0,8.40239E0,7.98271E0,4.803528E0,4.8234596E0,0E0,0E0,5.418846E0,7.2623935E0,5.835704E0,0E0,2.8801756E0,0E0,5.5334325E0,4.411484E0,7.228996E0,2.3246603E0,5.1455564E0,2.7178268E0,1.398356E-1,2.1666498E0,4.462131E0,3.2490044E0,0E0,3.659706E0,5.045747E0,3.7199068E-1,2.917591E0,0E0,0E0,7.85223E-1,2.9616525E0,8.641834E-1,2.4706573E0,7.7439413E0,0E0,0E0,0E0,0E0,0E0,0E0,0E0,0E0,0E0,0E0,0E0,0E0,0E0,0E0,0E0,0E0,0E0,0E0,0E0,0E0,0E0,0E0,0E0,0E0,0E0,0E0,0E0,0E0,0E0,0E0,0E0,0E0,0E0,0E0],"parents":[2147483647,0,0,1,1,2,2,3,3,4,4,5,5,6,6,7,7,8,8,9,9,10,10,11,11,12,12,13,13,15,15,16,16,17,17,18,18,21,21,22,22,23,23,25,25,27,27,28,28,29,29,30,30,31,31,32,32,33,33,34,34,35,35,36,36,38,38,39,39,40,40,41,41,44,44,45,45,46,46,47,47,48,48],"right_children":[2,4,6,8,10,12,14,16,18,20,22,24,26,28,-1,30,32,34,36,-1,-1,38,40,42,-1,44,-1,46,48,50,52,54,56,58,60,62,64,-1,66,68,70,72,-1,-1,74,76,78,80,82,-1,-1,-1,-1,-1,-1,-1,-1,-1,-1,-1,-1,-1,-1,-1,-1,-1,-1,-1,-1,-1,-1,-1,-1,-1,-1,-1,-1,-1,-1,-1,-1,-1,-1],"split_conditions":[-2.9296916E-2,1.722967E-2,-2.9177055E-2,-3.593473E-2,-1.4800653E-2,-7.010401E-2,1.0874636E-1,2.839582E-2,-6.2411863E-2,-1.6988866E-2,1.8710028E-2,-8.537285E-3,4.445633E-2,-8.49412E-2,2.9342607E-1,-2.497862E-2,2.4395809E-2,3.2459963E-2,-3.7335224E-2,2.00628E-1,-2.846413E-1,-2.6604636E-2,3.4468964E-2,1.2742092E-2,-2.3594663E-1,-8.259385E-2,3.1223145E-1,-1.956527E-2,1.7474286E-2,1.1527134E-2,-6.0273625E-2,7.946509E-2,-1.0547793E-2,-1.3895208E-2,1.6748549E-3,6.0334285E-3,-2.7797462E-2,-1.3134769E-1,9.541222E-3,1.712007E-2,-8.234043E-3,-7.545842E-3,-1.8997543E-1,1.3256164E-1,3.1542536E-2,2.8841829E-2,3.5042915E-2,8.029127E-2,9.3657844E-2,2.776209E-1,-2.2696783E-1,1.082024E-1,-2.8648102E-1,-1.5907998E-1,3.237383E-1,5.385951E-1,4.201069E-2,-3.2226566E-2,-2.0581356E-1,3.764047E-1,-4.6039872E-2,-2.0454434E-1,2.5519228E-1,-3.472495E-2,-3.0761975E-1,4.0880197E-1,-5.701266E-2,-2.838125E-1,1.8307456E-1,3.9645368E-1,7.846762E-2,-3.753669E-2,4.2739403E-1,-3.0418584E-1,-1.4419591E-2,-1.1539528E-1,3.4094593E-1,-2.7498344E-1,1.6255794E-2,-3.1656176E-1,-2.1309463E-2,-2.1437311E-1,2.9149514E-1],"split_indices":[326,81,318,343,41,181,203,470,305,458,753,651,320,343,0,643,298,474,548,0,0,485,679,411,0,682,0,465,446,538,18,120,62,565,254,667,753,0,95,88,553,109,0,0,729,532,257,496,532,0,0,0,0,0,0,0,0,0,0,0,0,0,0,0,0,0,0,0,0,0,0,0,0,0,0,0,0,0,0,0,0,0,0],"split_type":[0,0,0,0,0,0,0,0,0,0,0,0,0,0,0,0,0,0,0,0,0,0,0,0,0,0,0,0,0,0,0,0,0,0,0,0,0,0,0,0,0,0,0,0,0,0,0,0,0,0,0,0,0,0,0,0,0,0,0,0,0,0,0,0,0,0,0,0,0,0,0,0,0,0,0,0,0,0,0,0,0,0,0],"sum_hessian":[3.6043362E2,1.7474472E2,1.856889E2,9.594104E1,7.880369E1,3.0649532E1,1.5503937E2,3.619579E1,5.974525E1,1.0875083E1,6.7928604E1,1.477705E1,1.5872483E1,1.5338779E2,1.6515836E0,1.9984444E1,1.6211344E1,7.308272E0,5.2436977E1,1.758305E0,9.116777E0,5.700674E1,1.0921864E1,1.2255444E1,2.5216057E0,1.4530036E1,1.3424469E0,8.94598E0,1.444418E2,1.0302004E1,9.682441E0,6.1977587E0,1.0013586E1,2.6953323E0,4.61294E0,5.643329E0,4.6793648E1,1.3566904E0,5.565005E1,7.6410036E0,3.2808602E0,1.0991109E1,1.2643354E0,1.0779837E0,1.3452052E1,4.2474723E0,4.698508E0,1.1746804E2,2.697376E1,7.5196114E0,2.7823925E0,1.0288906E0,8.65355E0,3.7624674E0,2.435291E0,8.710501E0,1.3030847E0,1.0051814E0,1.6901509E0,3.4281337E0,1.1848062E0,3.1035194E0,2.5398097E0,4.6193695E0,4.217428E1,5.43249E1,1.3251486E0,5.3633547E0,2.277649E0,2.2527146E0,1.0281456E0,1.1956751E0,9.795433E0,1.2444967E1,1.0070853E0,1.294384E0,2.9530885E0,3.6920455E0,1.0064626E0,1.1470669E2,2.7613535E0,2.4800402E1,2.1733592E0],"tree_param":{"num_deleted":"0","num_feature":"768","num_nodes":"83","size_leaf_vector":"1"}},{"base_weights":[-2.3660482E-1,2.7996424E-1,-6.255707E-1,-4.1583034E-1,6.8778974E-1,1.4597785E-1,-7.818613E-1,-8.1831807E-1,9.3236715E-2,2.0596748E-2,1.0230459E0,8.345511E-1,-6.336698E-1,-8.256839E-1,2.9415578E-1,-1.6930595E-1,-3.04396E-1,7.9148215E-1,-4.277407E-1,5.584954E-1,-5.28809E-1,1.1973033E0,1.9649588E-1,-1.0830367E-1,1.2646909E0,4.791198E-1,-9.0904474E-1,-2.7467227E-1,-9.2755604E-1,-2.1356677E-1,9.110394E-1,5.3099084E-1,-6.939122E-1,1.0898489E0,-1.8510923E-1,-7.83604E-1,4.2277446E-1,9.223171E-1,-4.4070807E-1,3.858449E-1,-8.307844E-1,-1.2055302E-1,1.2439412E0,-7.876635E-1,7.255236E-1,5.7865053E-1,-2.3091944E-1,4.0539062E-1,5.8739122E-2,3.0661798E-1,-1.18651845E-1,-3.7594233E-2,-2.911139E-1,-5.7731897E-1,1.1021504E0,-9.5150125E-1,2.6294935E-1,3.5288197E-1,5.0692126E-2,-6.5639056E-2,2.7872074E-1,-2.4102691E-1,-4.3259222E-2,-5.7126228E-2,4.0883735E-1,-2.8719878E-1,7.346514E-2,2.9329962E-1,-1.802014E-1,-7.500401E-2,3.6082786E-1,1.3749176E-1,-2.453083E-1,-1.3941666E-1,2.4791034E-1,2.0000286E-2,-2.87007E-1,-5.61696E-3,3.8439178E-1,-5.8480155E-2,-2.7392346E-1,2.9919153E-1,-1.3134415E-1,-4.406942E-2,2.8532818E-1,1.727032E-1,-2.3918748E-1,-2.4851732E-2,4.416921E-1,-2.9178017E-1,1.6778342E-1],"categories":[],"categories_nodes":[],"categories_segments":[],"categories_sizes":[],"default_left":[0,0,0,0,0,0,0,0,0,0,0,0,0,0,0,0,0,0,0,0,0,0,0,0,0,0,0,0,0,0,0,0,0,0,0,0,0,0,0,0,0,0,0,0,0,0,0,0,0,0,0,0,0,0,0,0,0,0,0,0,0,0,0,0,0,0,0,0,0,0,0,0,0,0,0,0,0,0,0,0,0,0,0,0,0,0,0,0,0,0,0],"id":5,"left_children":[1,3,5,7,9,11,13,15,17,19,21,23,25,27,29,31,-1,33,35,37,39,41,43,45,47,49,51,53,55,-1,57,59,61,63,-1,65,67,69,71,73,75,-1,77,79,81,83,-1,-1,-1,-1,-1,-1,-1,85,87,89,-1,-1,-1,-1,-1,-1,-1,-1,-1,-1,-1,-1,-1,-1,-1,-1,-1,-1,-1,-1,-1,-1,-1,-1,-1,-1,-1,-1,-1,-1,-1,-1,-1,-1,-1],"loss_changes":[6.0022194E1,3.678689E1,2.064048E1,9.943347E0,1.820322E1,1.6374249E1,6.9248734E0,3.2681599E0,8.400044E0,8.64943E0,7.572159E0,6.6684847E0,4.8515344E0,7.4030457E0,4.547681E0,3.112872E0,0E0,4.799471E0,4.3690767E0,5.77594E0,4.325056E0,3.8240356E0,6.1082997E0,3.15644E0,7.665901E-1,2.0727284E0,4.5030117E-1,1.0098267E1,5.789528E0,0E0,6.541157E-1,1.3272953E0,1.6734838E-1,3.2175665E0,0E0,1.9775524E0,3.1909955E0,3.9668636E0,1.9402694E0,1.9882687E0,1.331233E0,0E0,2.0787582E0,1.340332E-1,2.7880461E0,1.0848728E0,0E0,0E0,0E0,0E0,0E0,0E0,0E0,5.3468194E0,2.0676084E0,4.168068E0,0E0,0E0,0E0,0E0,0E0,0E0,0E0,0E0,0E0,0E0,0E0,0E0,0E0,0E0,0E0,0E0,0E0,0E0,0E0,0E0,0E0,0E0,0E0,0E0,0E0,0E0,0E0,0E0,0E0,0E0,0E0,0E0,0E0,0E0,0E0],"parents":[2147483647,0,0,1,1,2,2,3,3,4,4,5,5,6,6,7,7,8,8,9,9,10,10,11,11,12,12,13,13,14,14,15,15,17,17,18,18,19,19,20,20,21,21,22,22,23,23,24,24,25,25,26,26,27,27,28,28,30,30,31,31,32,32,33,33,35,35,36,36,37,37,38,38,39,39,40,40,42,42,43,43,44,44,45,45,53,53,54,54,55,55],"right_children":[2,4,6,8,10,12,14,16,18,20,22,24,26,28,30,32,-1,34,36,38,40,42,44,46,48,50,52,54,56,-1,58,60,62,64,-1,66,68,70,72,74,76,-1,78,80,82,84,-1,-1,-1,-1,-1,-1,-1,86,88,90,-1,-1,-1,-1,-1,-1,-1,-1,-1,-1,-1,-1,-1,-1,-1,-1,-1,-1,-1,-1,-1,-1,-1,-1,-1,-1,-1,-1,-1,-1,-1,-1,-1,-1,-1],"split_conditions":[-2.3478074E-2,2.4988752E-2,-6.828983E-2,-1.3235175E-2,5.210793E-3,-5.707214E-3,2.5464328E-34,-5.09179E-2,-6.351826E-2,-5.524051E-3,9.038794E-3,1.5117222E-2,-4.5854576E-2,-5.89459E-2,1.3940766E-3,-1.0382147E-2,-3.04396E-1,7.335011E-3,2.7984606E-2,-1.5876248E-3,-2.9073363E-2,-2.5513912E-2,2.1078885E-2,-8.067962E-3,-1.8315585E-2,-1.3139177E-2,-4.6574634E-2,5.2165914E-2,6.1715346E-2,-2.1356677E-1,7.903763E-3,1.4292897E-2,-1.866265E-3,1.6290037E-2,-1.8510923E-1,4.853167E-2,-5.805115E-3,1.0083481E-3,-6.464841E-2,-8.4351E-3,-5.0817434E-2,-1.2055302E-1,-5.6667733E-3,1.3368536E-2,-1.4165278E-2,2.0498412E-2,-2.3091944E-1,4.0539062E-1,5.8739122E-2,3.0661798E-1,-1.18651845E-1,-3.7594233E-2,-2.911139E-1,-4.1997675E-2,7.3817098E-3,9.621738E-2,2.6294935E-1,3.5288197E-1,5.0692126E-2,-6.5639056E-2,2.7872074E-1,-2.4102691E-1,-4.3259222E-2,-5.7126228E-2,4.0883735E-1,-2.8719878E-1,7.346514E-2,2.9329962E-1,-1.802014E-1,-7.500401E-2,3.6082786E-1,1.3749176E-1,-2.453083E-1,-1.3941666E-1,2.4791034E-1,2.0000286E-2,-2.87007E-1,-5.61696E-3,3.8439178E-1,-5.8480155E-2,-2.7392346E-1,2.9919153E-1,-1.3134415E-1,-4.406942E-2,2.8532818E-1,1.727032E-1,-2.3918748E-1,-2.4851732E-2,4.416921E-1,-2.9178017E-1,1.6778342E-1],"split_indices":[643,710,55,88,121,438,756,97,129,430,411,503,411,343,333,552,0,256,413,394,359,663,423,191,716,563,78,92,153,0,68,668,108,763,0,333,247,96,343,103,201,0,365,486,164,226,0,0,0,0,0,0,0,91,168,495,0,0,0,0,0,0,0,0,0,0,0,0,0,0,0,0,0,0,0,0,0,0,0,0,0,0,0,0,0,0,0,0,0,0,0],"split_type":[0,0,0,0,0,0,0,0,0,0,0,0,0,0,0,0,0,0,0,0,0,0,0,0,0,0,0,0,0,0,0,0,0,0,0,0,0,0,0,0,0,0,0,0,0,0,0,0,0,0,0,0,0,0,0,0,0,0,0,0,0,0,0,0,0,0,0,0,0,0,0,0,0,0,0,0,0,0,0,0,0,0,0,0,0,0,0,0,0,0,0],"sum_hessian":[2.9685364E2,1.2763167E2,1.6922197E2,4.715703E1,8.047464E1,2.8515844E1,1.4070613E2,2.5996067E1,2.1160961E1,2.7268686E1,5.3205956E1,1.5104953E1,1.3410892E1,1.3542343E2,5.2826967E0,6.470222E0,1.9525845E1,8.820272E0,1.234069E1,1.3770278E1,1.3498408E1,4.3571445E1,9.634508E0,4.9665728E0,1.013838E1,2.5135918E0,1.08973E1,2.1707418E1,1.1371601E2,1.9494411E0,3.3332558E0,2.7658796E0,3.7043424E0,7.465162E0,1.3551109E0,8.755837E0,3.5848515E0,1.01510935E1,3.6191847E0,3.2814574E0,1.0216951E1,1.0188895E0,4.2552555E1,3.1974142E0,6.4370937E0,2.4976647E0,2.4689078E0,9.134053E0,1.0043267E0,1.4468592E0,1.0667324E0,1.0117962E0,9.885504E0,1.8271706E1,3.4357128E0,1.1269282E2,1.0231953E0,2.0245094E0,1.3087463E0,1.1153898E0,1.6504898E0,2.7041178E0,1.0002247E0,1.3649646E0,6.1001973E0,7.549769E0,1.206069E0,2.353542E0,1.2313094E0,1.9805064E0,8.170587E0,1.0055354E0,2.6136494E0,1.1008973E0,2.1805599E0,1.3148968E0,8.902054E0,1.2373613E0,4.1315197E1,1.004465E0,2.1929493E0,5.3337355E0,1.103358E0,1.0526342E0,1.4450305E0,2.6683562E0,1.5603349E1,1.0025223E0,2.4331903E0,1.1149197E2,1.2008501E0],"tree_param":{"num_deleted":"0","num_feature":"768","num_nodes":"91","size_leaf_vector":"1"}},{"base_weights":[-2.1351765E-1,1.8427016E-1,-6.412234E-1,-3.748299E-1,5.6992054E-1,-1.580562E-1,-8.4753525E-1,-6.4281076E-1,7.388659E-1,-1.0290209E-1,9.185087E-1,-3.761873E-1,9.4734484E-1,-8.8884103E-1,2.55234E-1,-7.7158684E-1,7.293995E-1,1.0776315E0,-2.6037642E-1,7.662604E-1,-6.5789247E-1,1.0343062E0,-3.290579E-1,-7.82625E-1,2.8606814E-1,-1.4295873E-1,1.3395985E0,2.0913422E-1,-9.350924E-1,-9.4831955E-1,-2.688032E-1,3.9508232E-1,-1.6232747E-1,4.867889E-2,3.9425108E-1,-1.9297798E-1,1.0362154E-1,1.0454088E0,-1.2445728E-1,2.1131276E-1,-8.0538046E-1,1.1344482E0,1.0531953E-1,-2.987803E-1,1.8422554E-1,-9.655559E-1,1.407178E-1,-2.127117E-1,7.675051E-1,3.8684243E-1,5.69503E-1,2.21619E-1,-1.7889981E-1,-9.632298E-1,8.651759E-2,-2.9965192E-1,7.024415E-2,1.12853795E-1,-2.4131972E-1,-1.8037798E-2,3.6895946E-1,-2.6948252E-1,5.3561896E-2,-5.3339172E-2,3.5359645E-1,-1.9678843E-1,2.2901633E-1,-2.981095E-1,-7.9458065E-2,2.5226933E-1,-1.6606763E-1,-1.3823706E-1,3.0267859E-1,2.0306215E-1,-2.8705122E-2,-2.955989E-1,1.01090305E-1],"categories":[],"categories_nodes":[],"categories_segments":[],"categories_sizes":[],"default_left":[0,0,0,0,0,0,0,0,0,0,0,0,0,0,0,0,0,0,0,0,0,0,0,0,0,0,0,0,0,0,0,0,0,0,0,0,0,0,0,0,0,0,0,0,0,0,0,0,0,0,0,0,0,0,0,0,0,0,0,0,0,0,0,0,0,0,0,0,0,0,0,0,0,0,0,0,0],"id":6,"left_children":[1,3,5,7,9,11,13,15,17,19,21,23,25,27,-1,29,31,33,35,37,39,41,43,45,47,-1,49,51,53,55,57,-1,-1,-1,-1,-1,-1,59,-1,-1,61,63,65,-1,-1,67,69,-1,71,73,-1,-1,-1,75,-1,-1,-1,-1,-1,-1,-1,-1,-1,-1,-1,-1,-1,-1,-1,-1,-1,-1,-1,-1,-1,-1,-1],"loss_changes":[4.1803955E1,2.7753094E1,1.1657604E1,1.6215343E1,1.7915497E1,9.187517E0,6.55521E0,8.169384E0,3.9007587E0,1.3446734E1,7.5856133E0,8.65004E0,4.168432E0,4.318695E0,0E0,3.2851143E0,3.8530931E0,1.5581894E0,1.0370251E0,4.0334167E0,3.9654188E0,4.1723976E0,3.7679243E0,3.4577522E0,6.5987773E0,0E0,2.0432673E0,2.1890938E0,2.9661713E0,1.9711761E0,4.3641024E0,0E0,0E0,0E0,0E0,0E0,0E0,1.9326859E0,0E0,0E0,1.597867E0,2.6194458E0,3.301968E0,0E0,0E0,6.300354E-2,2.4706573E0,0E0,3.1329985E0,5.1045966E-1,0E0,0E0,0E0,2.5321198E0,0E0,0E0,0E0,0E0,0E0,0E0,0E0,0E0,0E0,0E0,0E0,0E0,0E0,0E0,0E0,0E0,0E0,0E0,0E0,0E0,0E0,0E0,0E0],"parents":[2147483647,0,0,1,1,2,2,3,3,4,4,5,5,6,6,7,7,8,8,9,9,10,10,11,11,12,12,13,13,15,15,16,16,17,17,18,18,19,19,20,20,21,21,22,22,23,23,24,24,26,26,27,27,28,28,29,29,30,30,37,37,40,40,41,41,42,42,45,45,46,46,48,48,49,49,53,53],"right_children":[2,4,6,8,10,12,14,16,18,20,22,24,26,28,-1,30,32,34,36,38,40,42,44,46,48,-1,50,52,54,56,58,-1,-1,-1,-1,-1,-1,60,-1,-1,62,64,66,-1,-1,68,70,-1,72,74,-1,-1,-1,76,-1,-1,-1,-1,-1,-1,-1,-1,-1,-1,-1,-1,-1,-1,-1,-1,-1,-1,-1,-1,-1,-1,-1],"split_conditions":[-2.7996099E-2,9.948334E-3,-1.697481E-2,6.973778E-2,6.4724814E-3,5.6387328E-2,1.0874636E-1,5.6075882E-2,6.081958E-3,-4.8758045E-2,3.1182371E-2,3.0055622E-2,1.4483173E-2,-9.635461E-2,2.55234E-1,1.8614687E-2,-2.2229375E-2,-9.120082E-3,4.3733545E-2,6.8546394E-3,-4.3554477E-2,1.459208E-2,1.1470144E-2,3.9288875E-2,1.9617392E-2,-1.4295873E-1,9.009539E-3,-1.1902717E-2,4.747947E-2,5.8893967E-2,-2.1120328E-2,3.9508232E-1,-1.6232747E-1,4.867889E-2,3.9425108E-1,-1.9297798E-1,1.0362154E-1,-2.7432466E-2,-1.2445728E-1,2.1131276E-1,7.3955305E-2,-4.3526575E-2,-1.4234963E-2,-2.987803E-1,1.8422554E-1,4.6894964E-2,-3.036449E-2,-2.127117E-1,1.3940766E-3,-4.8031386E-2,5.69503E-1,2.21619E-1,-1.7889981E-1,1.255143E-1,8.651759E-2,-2.9965192E-1,7.024415E-2,1.12853795E-1,-2.4131972E-1,-1.8037798E-2,3.6895946E-1,-2.6948252E-1,5.3561896E-2,-5.3339172E-2,3.5359645E-1,-1.9678843E-1,2.2901633E-1,-2.981095E-1,-7.9458065E-2,2.5226933E-1,-1.6606763E-1,-1.3823706E-1,3.0267859E-1,2.0306215E-1,-2.8705122E-2,-2.955989E-1,1.01090305E-1],"split_indices":[326,96,318,763,333,652,203,412,380,343,650,709,222,343,0,241,488,182,241,454,368,411,758,96,734,0,340,147,455,7,489,0,0,0,0,0,0,59,0,0,542,382,639,0,0,249,184,0,333,438,0,0,0,120,0,0,0,0,0,0,0,0,0,0,0,0,0,0,0,0,0,0,0,0,0,0,0],"split_type":[0,0,0,0,0,0,0,0,0,0,0,0,0,0,0,0,0,0,0,0,0,0,0,0,0,0,0,0,0,0,0,0,0,0,0,0,0,0,0,0,0,0,0,0,0,0,0,0,0,0,0,0,0,0,0,0,0,0,0,0,0,0,0,0,0,0,0,0,0,0,0,0,0,0,0,0,0],"sum_hessian":[2.440144E2,1.2672394E2,1.1729047E2,5.17406E1,7.498334E1,3.5625137E1,8.166533E1,4.2046143E1,9.694458E0,2.5830927E1,4.915241E1,3.0304726E1,5.3204117E0,8.0191574E1,1.4737564E0,3.8838978E1,3.2071662E0,7.1813655E0,2.5130925E0,9.917929E0,1.5912999E1,4.5134064E1,4.018343E0,1.8666817E1,1.1637909E1,1.1027175E0,4.2176943E0,3.0991106E0,7.709246E1,2.8081833E1,1.0757143E1,2.1680062E0,1.0391601E0,1.8208696E0,5.360496E0,1.5019311E0,1.0111614E0,8.114925E0,1.8030033E0,1.1856799E0,1.4727319E1,4.0542534E1,4.5915294E0,2.3211403E0,1.6972027E0,1.5541957E1,3.1248605E0,3.6404717E0,7.9974365E0,2.184717E0,2.032977E0,1.919736E0,1.1793746E0,7.55673E1,1.525162E0,2.7080143E1,1.0016896E0,5.0152516E0,5.741892E0,1.2567352E0,6.85819E0,1.3536359E1,1.1909596E0,1.2227937E0,3.931974E1,2.1303048E0,2.4612246E0,1.4539826E1,1.0021304E0,1.4506702E0,1.6741903E0,1.1644422E0,6.8329945E0,1.1129729E0,1.0717441E0,7.454245E1,1.0248511E0],"tree_param":{"num_deleted":"0","num_feature":"768","num_nodes":"77","size_leaf_vector":"1"}},{"base_weights":[-1.9182207E-1,3.433862E-1,-4.6964258E-1,6.7260176E-1,-3.3874705E-1,-6.4841235E-1,1.441661E-1,9.5980763E-1,-6.422262E-2,-6.859734E-1,5.06307E-1,-7.6723367E-1,7.196912E-2,6.1661136E-1,-3.530723E-1,-2.0776132E-1,1.0708654E0,4.2401823E-1,-6.3454515E-1,1.6032822E-1,-8.5781765E-1,8.846403E-1,-1.1312541E-1,3.2161844E-1,-8.043543E-1,-6.1425596E-1,6.865956E-1,-3.7575373E-1,8.393701E-1,-6.5063506E-1,5.1871055E-1,-2.0047705E-1,1.3474345E-1,-9.364837E-2,1.1382618E0,7.4969596E-1,-1.7510842E-1,-2.4787629E-1,5.308361E-2,-2.9167342E-1,3.3270422E-2,3.0568385E-1,4.716793E-2,2.2033474E-1,-8.581795E-1,1.412197E-1,-2.5461218E-1,-1.2654115E-1,1.049693E0,-2.0772952E-1,6.9763176E-2,-8.670731E-2,9.686671E-1,-8.595631E-1,1.1189058E-1,-4.4446338E-2,2.6113617E-1,3.568343E-1,-4.4313774E-2,-3.935241E-2,2.7927184E-1,-1.4708604E-1,3.5437194E-1,6.0786713E-2,-2.7138752E-1,3.786704E-1,1.1198459E-3,3.1699902E-1,3.674537E-5,-2.8489247E-1,-1.4418826E-2],"categories":[],"categories_nodes":[],"categories_segments":[],"categories_sizes":[],"default_left":[0,0,0,0,0,0,0,0,0,0,0,0,0,0,0,0,0,0,0,0,0,0,0,0,0,0,0,0,0,0,0,0,0,0,0,0,0,0,0,0,0,0,0,0,0,0,0,0,0,0,0,0,0,0,0,0,0,0,0,0,0,0,0,0,0,0,0,0,0,0,0],"id":7,"left_children":[1,3,5,7,9,11,13,15,17,19,21,23,25,27,29,31,33,35,37,-1,39,41,-1,-1,43,45,47,49,51,53,55,-1,-1,-1,57,59,-1,-1,-1,-1,-1,-1,-1,61,63,-1,-1,-1,65,-1,-1,-1,67,69,-1,-1,-1,-1,-1,-1,-1,-1,-1,-1,-1,-1,-1,-1,-1,-1,-1],"loss_changes":[3.0197876E1,1.585899E1,1.4731586E1,1.0067503E1,7.190868E0,8.913906E0,7.478371E0,4.64205E0,4.22265E0,4.014294E0,2.7959828E0,6.933796E0,6.987766E0,3.8993764E0,4.408773E0,1.4490277E0,3.2715034E0,3.1448548E0,1.2272971E0,0E0,1.7978516E0,3.7295246E-1,0E0,0E0,5.028187E0,2.4048252E0,3.9378872E0,8.6662877E-1,2.2568731E0,2.91775E0,1.196269E0,0E0,0E0,0E0,2.1535301E0,1.1871154E0,0E0,0E0,0E0,0E0,0E0,0E0,0E0,4.112448E0,4.3004227E0,0E0,0E0,0E0,1.5132642E0,0E0,0E0,0E0,1.0555706E0,7.137251E-1,0E0,0E0,0E0,0E0,0E0,0E0,0E0,0E0,0E0,0E0,0E0,0E0,0E0,0E0,0E0,0E0,0E0],"parents":[2147483647,0,0,1,1,2,2,3,3,4,4,5,5,6,6,7,7,8,8,9,9,10,10,11,11,12,12,13,13,14,14,15,15,16,16,17,17,18,18,20,20,21,21,24,24,25,25,26,26,27,27,28,28,29,29,30,30,34,34,35,35,43,43,44,44,48,48,52,52,53,53],"right_children":[2,4,6,8,10,12,14,16,18,20,22,24,26,28,30,32,34,36,38,-1,40,42,-1,-1,44,46,48,50,52,54,56,-1,-1,-1,58,60,-1,-1,-1,-1,-1,-1,-1,62,64,-1,-1,-1,66,-1,-1,-1,68,70,-1,-1,-1,-1,-1,-1,-1,-1,-1,-1,-1,-1,-1,-1,-1,-1,-1],"split_conditions":[-2.7973097E-2,-1.2455379E-2,5.241555E-2,9.782315E-3,4.8499614E-2,9.702191E-2,-3.2717264E-3,-2.8110513E-2,1.720532E-2,-5.527761E-2,-4.041496E-3,-6.9777E-2,1.862551E-2,-2.1307131E-2,1.9333677E-6,4.811851E-2,-6.8578176E-2,7.178529E-4,3.7402425E-2,1.6032822E-1,7.149869E-2,2.234078E-2,-1.1312541E-1,3.2161844E-1,-5.6434054E-2,-4.5256596E-2,9.705387E-4,1.8955557E-2,-8.139934E-3,3.7932128E-2,7.176328E-3,-2.0047705E-1,1.3474345E-1,-9.364837E-2,2.9373629E-2,-1.3193209E-2,-1.7510842E-1,-2.4787629E-1,5.308361E-2,-2.9167342E-1,3.3270422E-2,3.0568385E-1,4.716793E-2,5.8917594E-3,-6.699346E-2,1.412197E-1,-2.5461218E-1,-1.2654115E-1,-5.7413583E-3,-2.0772952E-1,6.9763176E-2,-8.670731E-2,1.6791536E-2,6.382103E-2,1.1189058E-1,-4.4446338E-2,2.6113617E-1,3.568343E-1,-4.4313774E-2,-3.935241E-2,2.7927184E-1,-1.4708604E-1,3.5437194E-1,6.0786713E-2,-2.7138752E-1,3.786704E-1,1.1198459E-3,3.1699902E-1,3.674537E-5,-2.8489247E-1,-1.4418826E-2],"split_indices":[296,343,496,671,711,54,380,564,66,14,128,281,503,7,34,474,424,279,361,0,147,176,0,0,142,371,21,638,94,653,695,0,0,0,632,572,0,0,0,0,0,0,0,95,643,0,0,0,197,0,0,0,210,147,0,0,0,0,0,0,0,0,0,0,0,0,0,0,0,0,0],"split_type":[0,0,0,0,0,0,0,0,0,0,0,0,0,0,0,0,0,0,0,0,0,0,0,0,0,0,0,0,0,0,0,0,0,0,0,0,0,0,0,0,0,0,0,0,0,0,0,0,0,0,0,0,0,0,0,0,0,0,0,0,0,0,0,0,0,0,0,0,0,0,0],"sum_hessian":[2.0100575E2,6.860514E1,1.3240062E2,4.6282135E1,2.2323008E1,1.0249338E2,2.9907234E1,3.308381E1,1.3198325E1,1.5955332E1,6.3676767E0,8.792568E1,1.4567696E1,1.521285E1,1.4694385E1,2.7979324E0,3.0285877E1,7.2490764E0,5.949249E0,1.7089297E0,1.4246402E1,4.457314E0,1.9103627E0,1.1878587E0,8.673782E1,6.8832307E0,7.6844645E0,2.6629376E0,1.25499115E1,1.1144234E1,3.5501513E0,1.6347106E0,1.1632218E0,1.2385305E0,2.9047346E1,5.67201E0,1.5770664E0,4.797645E0,1.1516038E0,1.2738111E1,1.5082912E0,3.4242916E0,1.0330224E0,4.1744237E0,8.25634E1,1.0440044E0,5.8392262E0,1.8562745E0,5.82819E0,1.6602868E0,1.002651E0,1.1631938E0,1.1386718E1,9.388252E0,1.7559814E0,1.4257989E0,2.1243525E0,2.8007616E1,1.0397315E0,1.0148579E0,4.657152E0,2.6812873E0,1.4931364E0,3.322224E0,7.924118E1,4.672047E0,1.1561426E0,1.0354947E1,1.0317708E0,8.297032E0,1.0912191E0],"tree_param":{"num_deleted":"0","num_feature":"768","num_nodes":"71","size_leaf_vector":"1"}},{"base_weights":[-1.6760518E-1,-6.0733235E-1,1.3825952E-1,2.8205457E-1,-6.9770247E-1,-4.3488494E-1,4.3679836E-1,-2.0921084E-1,8.182314E-1,-7.401528E-1,2.1689714E-1,-7.156839E-1,2.7918607E-1,-6.090886E-1,6.414177E-1,-1.869357E-2,3.2148606E-1,8.1938274E-2,-8.1348187E-1,1.02269106E-1,-8.143979E-1,7.510704E-1,-3.0751875E-1,1.0474937E-1,-7.773335E-1,-2.4972303E-1,8.3125645E-1,6.6669744E-1,-4.9941093E-1,-8.7472564E-1,5.3554226E-2,4.0457584E-2,-8.889535E-1,9.9450326E-1,-5.2519828E-2,1.1876964E-1,-2.1401362E-1,-2.7613184E-1,-1.3339934E-2,-7.6838595E-1,4.5498812E-1,5.3231217E-2,1.0178958E0,2.8714645E-1,1.35629205E-2,-1.9058497E-1,-2.2541966E-2,-2.7301314E-1,5.1745664E-2,-2.1520707E-1,2.8005132E-1,1.9252108E-2,-2.8372875E-1,3.2975927E-1,9.609473E-2,-1.1183553E-2,-2.6833978E-1,-7.5987734E-2,2.1750285E-1,2.2458617E-1,-1.1687191E-1,-1.4693907E-2,3.2633525E-1],"categories":[],"categories_nodes":[],"categories_segments":[],"categories_sizes":[],"default_left":[0,0,0,0,0,0,0,0,0,0,0,0,0,0,0,0,0,0,0,0,0,0,0,0,0,0,0,0,0,0,0,0,0,0,0,0,0,0,0,0,0,0,0,0,0,0,0,0,0,0,0,0,0,0,0,0,0,0,0,0,0,0,0],"id":8,"left_children":[1,3,5,7,9,11,13,-1,15,17,-1,19,21,23,25,-1,-1,27,29,-1,31,33,35,-1,37,39,41,43,45,47,49,-1,51,53,-1,-1,-1,-1,-1,55,57,59,61,-1,-1,-1,-1,-1,-1,-1,-1,-1,-1,-1,-1,-1,-1,-1,-1,-1,-1,-1,-1],"loss_changes":[2.2898897E1,5.804762E0,1.7447353E1,4.3242545E0,4.3723164E0,7.226394E0,1.4689563E1,0E0,1.2000575E0,3.8207169E0,0E0,2.9302921E0,3.1685E0,2.1167111E0,9.743664E0,0E0,0E0,2.375477E0,3.087677E0,0E0,1.7869387E0,1.5653849E0,1.835264E0,0E0,1.0126972E0,4.2489576E0,6.7271957E0,5.747483E-1,1.589092E-1,2.1373634E0,3.8718224E0,0E0,1.2503643E0,3.390789E-3,0E0,0E0,0E0,0E0,0E0,5.674057E-1,1.1687799E0,3.3987515E0,2.8575478E0,0E0,0E0,0E0,0E0,0E0,0E0,0E0,0E0,0E0,0E0,0E0,0E0,0E0,0E0,0E0,0E0,0E0,0E0,0E0,0E0],"parents":[2147483647,0,0,1,1,2,2,3,3,4,4,5,5,6,6,8,8,9,9,11,11,12,12,13,13,14,14,17,17,18,18,20,20,21,21,22,22,24,24,25,25,26,26,27,27,28,28,29,29,30,30,32,32,33,33,39,39,40,40,41,41,42,42],"right_children":[2,4,6,8,10,12,14,-1,16,18,-1,20,22,24,26,-1,-1,28,30,-1,32,34,36,-1,38,40,42,44,46,48,50,-1,52,54,-1,-1,-1,-1,-1,56,58,60,62,-1,-1,-1,-1,-1,-1,-1,-1,-1,-1,-1,-1,-1,-1,-1,-1,-1,-1,-1,-1],"split_conditions":[2.2001186E-2,-5.4814015E-2,9.386112E-3,3.6644164E-2,7.259232E-2,3.748744E-2,-5.6766782E-2,-2.0921084E-1,3.6510404E-2,-5.3262502E-2,2.1689714E-1,-6.699346E-2,-1.6054079E-2,-5.1956717E-2,-9.478253E-3,-1.869357E-2,3.2148606E-1,-2.4130967E-2,3.1435475E-2,1.02269106E-1,-5.842562E-2,-8.910124E-3,-4.333153E-2,1.0474937E-1,4.166993E-2,2.838676E-2,-2.3037558E-2,-1.9298336E-2,3.6841974E-2,5.8379713E-2,4.3507144E-2,4.0457584E-2,-8.180516E-2,-8.013001E-3,-5.2519828E-2,1.1876964E-1,-2.1401362E-1,-2.7613184E-1,-1.3339934E-2,-9.7527895E-3,8.096007E-3,-5.3575806E-2,-2.3277104E-2,2.8714645E-1,1.35629205E-2,-1.9058497E-1,-2.2541966E-2,-2.7301314E-1,5.1745664E-2,-2.1520707E-1,2.8005132E-1,1.9252108E-2,-2.8372875E-1,3.2975927E-1,9.609473E-2,-1.1183553E-2,-2.6833978E-1,-7.5987734E-2,2.1750285E-1,2.2458617E-1,-1.1687191E-1,-1.4693907E-2,3.2633525E-1],"split_indices":[763,164,470,426,592,70,424,0,13,91,0,643,24,643,574,0,0,404,141,0,57,318,419,0,212,94,378,408,711,721,710,0,329,484,0,0,0,0,0,280,679,289,249,0,0,0,0,0,0,0,0,0,0,0,0,0,0,0,0,0,0,0,0],"split_type":[0,0,0,0,0,0,0,0,0,0,0,0,0,0,0,0,0,0,0,0,0,0,0,0,0,0,0,0,0,0,0,0,0,0,0,0,0,0,0,0,0,0,0,0,0,0,0,0,0,0,0,0,0,0,0,0,0,0,0,0,0,0,0],"sum_hessian":[1.6863147E2,6.8773476E1,9.9857994E1,6.147832E0,6.2625645E1,3.4043495E1,6.58145E1,2.068574E0,4.079258E0,6.12738E1,1.3518425E0,2.4433203E1,9.610292E0,1.0445728E1,5.5368774E1,1.0800604E0,2.9991977E0,5.008311E0,5.626549E1,1.8780619E0,2.255514E1,5.171071E0,4.439222E0,1.3994881E0,9.046241E0,9.66832E0,4.5700455E1,2.4236422E0,2.5846689E0,5.254506E1,3.7204301E0,1.5836012E0,2.0971539E1,4.036315E0,1.1347558E0,1.6331924E0,2.8060293E0,7.354244E0,1.6919962E0,5.5172806E0,4.151039E0,9.090594E0,3.660986E1,1.2836263E0,1.1400158E0,1.5810022E0,1.0036665E0,5.095746E1,1.5876024E0,2.0815718E0,1.6388582E0,1.1723571E0,1.9799183E1,2.9481022E0,1.0882128E0,1.0020877E0,4.515193E0,1.162829E0,2.9882102E0,3.26793E0,5.822664E0,2.2691698E0,3.434069E1],"tree_param":{"num_deleted":"0","num_feature":"768","num_nodes":"63","size_leaf_vector":"1"}},{"base_weights":[-1.4673676E-1,1.8979828E-1,-5.18668E-1,-4.174865E-1,4.413586E-1,5.2277118E-2,-7.003735E-1,1.3871211E-1,-7.0921564E-1,3.6775254E-2,8.330632E-1,1.1028655E0,-2.641232E-1,-7.602721E-1,1.9671528E-1,-1.6659197E-1,4.8594573E-1,-8.1255865E-1,9.2867166E-2,6.0225374E-1,-3.7768933E-1,-8.6294994E-2,9.316957E-1,7.727332E-2,4.4320086E-1,-7.01712E-1,3.4766445E-1,2.0500635E-1,-8.0590117E-1,7.892887E-1,-8.6033925E-2,5.2337494E-2,-9.051094E-1,8.639868E-1,-1.7378227E-1,-7.0170844E-1,2.3985931E-1,1.0128536E0,-1.2546872E-1,-2.5523034E-1,3.6037534E-2,-1.8069537E-1,6.99399E-1,-8.4824353E-1,1.1352267E-1,6.0447853E-2,2.6879272E-1,-5.740279E-2,-2.8480023E-1,3.03504E-1,3.1690504E-2,1.4687543E-1,-1.794302E-1,8.1255704E-2,-2.497067E-1,1.6524343E-1,-1.900589E-1,1.49366995E-2,3.2680953E-1,-1.4248986E-2,2.7881667E-1,1.2208858E-2,-2.7075562E-1],"categories":[],"categories_nodes":[],"categories_segments":[],"categories_sizes":[],"default_left":[0,0,0,0,0,0,0,0,0,0,0,0,0,0,0,0,0,0,0,0,0,0,0,0,0,0,0,0,0,0,0,0,0,0,0,0,0,0,0,0,0,0,0,0,0,0,0,0,0,0,0,0,0,0,0,0,0,0,0,0,0,0,0],"id":9,"left_children":[1,3,5,7,9,11,13,15,17,19,21,23,25,27,-1,-1,29,31,-1,33,35,-1,37,-1,-1,39,41,-1,43,45,-1,-1,47,49,51,53,55,57,-1,-1,-1,-1,59,61,-1,-1,-1,-1,-1,-1,-1,-1,-1,-1,-1,-1,-1,-1,-1,-1,-1,-1,-1],"loss_changes":[1.8114418E1,1.18397455E1,7.157545E0,3.8078032E0,8.595884E0,6.108922E0,4.7335854E0,2.3668566E0,1.8475556E0,6.7483444E0,3.3200817E0,9.6287537E-1,4.0608463E0,3.8703442E0,0E0,0E0,1.7108665E0,1.440362E0,0E0,2.6186051E0,3.5039108E0,0E0,3.2297363E0,0E0,0E0,1.1610141E0,2.6312866E0,0E0,2.7937202E0,1.2137914E-1,0E0,0E0,2.2861958E-1,9.2976856E-1,1.3899221E0,1.6470246E0,2.109299E0,1.7475986E0,0E0,0E0,0E0,0E0,9.527793E-1,2.348587E0,0E0,0E0,0E0,0E0,0E0,0E0,0E0,0E0,0E0,0E0,0E0,0E0,0E0,0E0,0E0,0E0,0E0,0E0,0E0],"parents":[2147483647,0,0,1,1,2,2,3,3,4,4,5,5,6,6,7,7,8,8,9,9,10,10,11,11,12,12,13,13,16,16,17,17,19,19,20,20,22,22,25,25,26,26,28,28,29,29,32,32,33,33,34,34,35,35,36,36,37,37,42,42,43,43],"right_children":[2,4,6,8,10,12,14,16,18,20,22,24,26,28,-1,-1,30,32,-1,34,36,-1,38,-1,-1,40,42,-1,44,46,-1,-1,48,50,52,54,56,58,-1,-1,-1,-1,60,62,-1,-1,-1,-1,-1,-1,-1,-1,-1,-1,-1,-1,-1,-1,-1,-1,-1,-1,-1],"split_conditions":[-2.9296916E-2,-7.10201E-3,-1.9084254E-2,-3.7181344E-2,1.722967E-2,-3.720004E-2,1.0874636E-1,4.998541E-2,6.2184338E-2,-9.973731E-3,-4.0459946E-2,2.3491167E-2,-3.695176E-4,-9.133854E-2,1.9671528E-1,-1.6659197E-1,5.444577E-2,-6.463594E-2,9.2867166E-2,9.230465E-3,1.5553758E-2,-8.6294994E-2,4.3857813E-2,7.727332E-2,4.4320086E-1,4.299576E-2,2.0153668E-2,2.0500635E-1,7.40659E-2,1.117075E-2,-8.6033925E-2,5.2337494E-2,-6.77102E-2,1.6077973E-2,-5.330839E-2,-3.4401316E-2,-3.5776526E-3,-1.001396E-2,-1.2546872E-1,-2.5523034E-1,3.6037534E-2,-1.8069537E-1,-3.2119341E-3,-6.3044615E-2,1.1352267E-1,6.0447853E-2,2.6879272E-1,-5.740279E-2,-2.8480023E-1,3.03504E-1,3.1690504E-2,1.4687543E-1,-1.794302E-1,8.1255704E-2,-2.497067E-1,1.6524343E-1,-1.900589E-1,1.49366995E-2,3.2680953E-1,-1.4248986E-2,2.7881667E-1,1.2208858E-2,-2.7075562E-1],"split_indices":[326,41,458,703,81,359,203,120,365,481,521,627,424,682,0,0,317,119,0,387,20,0,753,0,0,252,734,0,212,503,0,0,456,315,643,123,362,121,0,0,0,0,149,643,0,0,0,0,0,0,0,0,0,0,0,0,0,0,0,0,0,0,0],"split_type":[0,0,0,0,0,0,0,0,0,0,0,0,0,0,0,0,0,0,0,0,0,0,0,0,0,0,0,0,0,0,0,0,0,0,0,0,0,0,0,0,0,0,0,0,0,0,0,0,0,0,0,0,0,0,0,0,0,0,0,0,0,0,0],"sum_hessian":[1.429345E2,7.529495E1,6.763954E1,2.1861097E1,5.3433853E1,1.6501553E1,5.113799E1,7.7017603E0,1.4159336E1,2.6822918E1,2.6610937E1,3.2440875E0,1.3257464E1,4.939555E1,1.7424387E0,2.36853E0,5.3332305E0,1.3039083E1,1.1202538E0,1.1153056E1,1.5669862E1,1.9975351E0,2.4613401E1,1.5141226E0,1.729965E0,7.6434236E0,5.614041E0,1.0852069E0,4.831034E1,3.8144038E0,1.5188265E0,1.0419629E0,1.199712E1,8.255423E0,2.8976336E0,1.0188052E1,5.4818087E0,2.3453089E1,1.1603125E0,6.440173E0,1.20325E0,1.3244575E0,4.2895837E0,4.6916706E1,1.3936355E0,1.0297257E0,2.7846782E0,1.010744E0,1.0986376E1,6.6301208E0,1.6253023E0,1.0703949E0,1.8272387E0,1.0794296E0,9.108623E0,4.3149133E0,1.1668955E0,1.8476067E0,2.1605482E1,1.1967154E0,3.092868E0,2.7141123E0,4.4202595E1],"tree_param":{"num_deleted":"0","num_feature":"768","num_nodes":"63","size_leaf_vector":"1"}},{"base_weights":[-1.2458683E-1,2.159069E-1,-4.6002087E-1,-3.2124484E-1,4.773523E-1,1.751824E-1,-6.3457197E-1,1.9926554E-1,-7.501344E-1,-2.643547E-1,6.701681E-1,5.5221176E-1,-5.334076E-1,-7.785469E-1,2.25508E-1,-2.8132635E-1,7.9343987E-1,-8.779406E-1,8.109238E-2,-7.131633E-1,3.691316E-1,7.9703856E-1,-3.3186394E-1,-2.900088E-1,8.324062E-1,-2.3116821E-1,7.160819E-2,-8.8377804E-1,-7.333679E-2,7.4146426E-1,-4.0630385E-1,1.6188106E-1,-5.387772E-1,-7.683919E-2,1.26123E0,-2.779325E-1,-6.533284E-2,-2.485587E-2,-2.481582E-1,2.1044464E-1,-1.16305985E-1,-9.647346E-2,9.27156E-1,8.865442E-2,-2.0139797E-1,-1.6464427E-1,3.5311E-2,-4.2987145E-2,1.0059179E0,-9.319673E-1,3.6617637E-2,4.769566E-1,-1.9523296E-1,2.7858815E-1,2.2663211E-2,-2.054141E-1,6.982564E-2,6.536017E-2,-2.3813549E-1,4.581739E-1,1.004475E-1,-1.845387E-1,1.4741413E-1,-6.4073384E-2,3.0068153E-1,7.928748E-2,3.2931623E-1,-2.883683E-1,7.4096797E-3,2.4156934E-1,-6.400057E-2],"categories":[],"categories_nodes":[],"categories_segments":[],"categories_sizes":[],"default_left":[0,0,0,0,0,0,0,0,0,0,0,0,0,0,0,0,0,0,0,0,0,0,0,0,0,0,0,0,0,0,0,0,0,0,0,0,0,0,0,0,0,0,0,0,0,0,0,0,0,0,0,0,0,0,0,0,0,0,0,0,0,0,0,0,0,0,0,0,0,0,0],"id":10,"left_children":[1,3,5,7,9,11,13,15,17,19,21,23,25,27,29,31,33,35,-1,37,39,41,43,45,47,-1,-1,49,51,53,55,-1,57,-1,59,-1,-1,-1,-1,-1,-1,61,63,-1,-1,-1,-1,-1,65,67,-1,69,-1,-1,-1,-1,-1,-1,-1,-1,-1,-1,-1,-1,-1,-1,-1,-1,-1,-1,-1],"loss_changes":[1.4107343E1,8.796546E0,6.996804E0,4.7809696E0,6.154951E0,4.080335E0,6.2348156E0,3.1251245E0,1.7481179E0,2.9191184E0,4.5179224E0,2.5400238E0,1.1781942E0,3.0624008E0,2.84133E0,1.6341441E0,2.6826534E0,1.3540745E-1,0E0,3.489635E-1,1.4120387E0,3.5763035E0,1.1495459E0,3.9942697E-1,1.4252458E0,0E0,0E0,1.8867073E0,2.3955827E0,5.085578E-1,8.975051E-1,0E0,1.2031512E0,0E0,3.4947777E-1,0E0,0E0,0E0,0E0,0E0,0E0,1.7407782E0,2.4653587E0,0E0,0E0,0E0,0E0,0E0,1.557908E-1,1.0040741E0,0E0,1.063954E0,0E0,0E0,0E0,0E0,0E0,0E0,0E0,0E0,0E0,0E0,0E0,0E0,0E0,0E0,0E0,0E0,0E0,0E0,0E0],"parents":[2147483647,0,0,1,1,2,2,3,3,4,4,5,5,6,6,7,7,8,8,9,9,10,10,11,11,12,12,13,13,14,14,15,15,16,16,17,17,19,19,20,20,21,21,22,22,23,23,24,24,27,27,28,28,29,29,30,30,32,32,34,34,41,41,42,42,48,48,49,49,51,51],"right_children":[2,4,6,8,10,12,14,16,18,20,22,24,26,28,30,32,34,36,-1,38,40,42,44,46,48,-1,-1,50,52,54,56,-1,58,-1,60,-1,-1,-1,-1,-1,-1,62,64,-1,-1,-1,-1,-1,66,68,-1,70,-1,-1,-1,-1,-1,-1,-1,-1,-1,-1,-1,-1,-1,-1,-1,-1,-1,-1,-1],"split_conditions":[-1.8588433E-2,1.2972731E-2,-6.215303E-2,-2.5667597E-2,-2.0146692E-2,-7.325417E-3,5.6387328E-2,-8.527946E-3,6.388986E-2,1.784157E-3,-6.482763E-4,2.9053489E-2,3.9234895E-2,4.1067358E-2,1.0334878E-2,-4.8051305E-2,-1.5793554E-2,6.387229E-2,8.109238E-2,-2.3156902E-2,1.4560054E-2,-3.1997595E-2,-4.5894958E-2,3.3959284E-2,-1.9428741E-2,-2.3116821E-1,7.160819E-2,7.84301E-2,-1.524684E-2,-7.118117E-3,2.967481E-2,1.6188106E-1,-9.126936E-2,-7.683919E-2,-4.4570835E-3,-2.779325E-1,-6.533284E-2,-2.485587E-2,-2.481582E-1,2.1044464E-1,-1.16305985E-1,2.4974762E-2,-2.0503841E-2,8.865442E-2,-2.0139797E-1,-1.6464427E-1,3.5311E-2,-4.2987145E-2,-5.7375077E-3,4.8646294E-2,3.6617637E-2,-2.0513928E-2,-1.9523296E-1,2.7858815E-1,2.2663211E-2,-2.054141E-1,6.982564E-2,6.536017E-2,-2.3813549E-1,4.581739E-1,1.004475E-1,-1.845387E-1,1.4741413E-1,-6.4073384E-2,3.0068153E-1,7.928748E-2,3.2931623E-1,-2.883683E-1,7.4096797E-3,2.4156934E-1,-6.400057E-2],"split_indices":[682,147,343,343,81,664,652,724,357,667,643,426,271,365,522,91,353,41,0,159,47,446,325,224,616,0,0,495,387,227,41,0,181,0,311,0,0,0,0,0,0,658,423,0,0,0,0,0,51,372,0,356,0,0,0,0,0,0,0,0,0,0,0,0,0,0,0,0,0,0,0],"split_type":[0,0,0,0,0,0,0,0,0,0,0,0,0,0,0,0,0,0,0,0,0,0,0,0,0,0,0,0,0,0,0,0,0,0,0,0,0,0,0,0,0,0,0,0,0,0,0,0,0,0,0,0,0,0,0,0,0,0,0,0,0,0,0,0,0,0,0,0,0,0,0],"sum_hessian":[1.2164801E2,6.054554E1,6.1102474E1,1.9746567E1,4.0798973E1,1.3170504E1,4.793197E1,9.162335E0,1.0584232E1,8.341313E0,3.2457657E1,8.740509E0,4.429995E0,4.1140038E1,6.79193E0,5.356395E0,3.8059402E0,9.530253E0,1.0539784E0,4.8086996E0,3.5326142E0,2.8991526E1,3.4661312E0,2.1731958E0,6.567313E0,3.3905687E0,1.0394264E0,3.5577908E1,5.5621295E0,3.643218E0,3.1487124E0,1.017132E0,4.339263E0,1.3128327E0,2.4931076E0,8.50226E0,1.0279938E0,1.0011847E0,3.8075147E0,2.5054731E0,1.0271412E0,3.718091E0,2.5273436E1,1.2624302E0,2.203701E0,1.1176542E0,1.0555415E0,1.0178547E0,5.5494585E0,3.4021397E1,1.5565114E0,2.9371114E0,2.6250184E0,2.5359614E0,1.1072567E0,2.143454E0,1.0052582E0,1.1305132E0,3.2087495E0,1.4330388E0,1.0600687E0,1.9506558E0,1.7674351E0,1.4475241E0,2.382591E1,1.0385411E0,4.510917E0,3.300708E1,1.0143172E0,1.8776635E0,1.0594479E0],"tree_param":{"num_deleted":"0","num_feature":"768","num_nodes":"71","size_leaf_vector":"1"}},{"base_weights":[-1.121525E-1,1.6058068E-1,-4.7477728E-1,3.1476355E-1,-6.409704E-1,-6.409435E-1,2.396929E-1,-1.8121658E-1,5.6675625E-1,-2.5253358E-1,3.469253E-2,1.4985654E-1,-7.0909953E-1,5.893982E-1,-3.7565458E-1,-5.794299E-1,4.1901013E-1,-1.4771818E-2,7.845187E-1,-8.378135E-1,1.3977707E-2,2.4544035E-1,-8.291987E-3,-2.0033717E-1,6.1910007E-2,-8.403811E-1,1.9146724E-1,6.7030877E-1,-1.2943687E-1,4.9088186E-1,-6.8806475E-1,-1.03268415E-1,8.777293E-1,3.1191995E-2,-9.016952E-1,-1.8080999E-1,4.2239827E-1,-6.969613E-2,-2.676353E-1,-9.6329175E-2,2.2747011E-1,2.4733125E-1,-1.863449E-2,-3.2730717E-2,3.008531E-1,-4.9666636E-2,-2.3437609E-1,-2.8182508E-2,2.88225E-1,1.53600685E-2,-2.8304067E-1,2.206609E-1,-7.452341E-2],"categories":[],"categories_nodes":[],"categories_segments":[],"categories_sizes":[],"default_left":[0,0,0,0,0,0,0,0,0,0,0,0,0,0,0,0,0,0,0,0,0,0,0,0,0,0,0,0,0,0,0,0,0,0,0,0,0,0,0,0,0,0,0,0,0,0,0,0,0,0,0,0,0],"id":11,"left_children":[1,3,5,7,9,11,13,15,17,-1,-1,-1,19,21,23,25,27,29,31,33,35,-1,-1,-1,-1,37,39,41,-1,43,45,-1,47,-1,49,-1,51,-1,-1,-1,-1,-1,-1,-1,-1,-1,-1,-1,-1,-1,-1,-1,-1],"loss_changes":[1.0405245E1,7.6607428E0,5.5060587E0,6.5129623E0,1.6267176E0,3.218504E0,2.2086272E0,4.5539575E0,4.3490753E0,0E0,0E0,0E0,3.2863598E0,9.0862536E-1,8.1063455E-1,2.4266167E0,1.9507033E0,3.8489397E0,2.9259624E0,1.8916874E0,1.8414105E0,0E0,0E0,0E0,0E0,6.329203E-2,1.3075216E0,7.728493E-1,0E0,2.0978708E0,1.0631704E-1,0E0,1.9712849E0,0E0,1.1664352E0,0E0,1.1023625E0,0E0,0E0,0E0,0E0,0E0,0E0,0E0,0E0,0E0,0E0,0E0,0E0,0E0,0E0,0E0,0E0],"parents":[2147483647,0,0,1,1,2,2,3,3,4,4,5,5,6,6,7,7,8,8,12,12,13,13,14,14,15,15,16,16,17,17,18,18,19,19,20,20,25,25,26,26,27,27,29,29,30,30,32,32,34,34,36,36],"right_children":[2,4,6,8,10,12,14,16,18,-1,-1,-1,20,22,24,26,28,30,32,34,36,-1,-1,-1,-1,38,40,42,-1,44,46,-1,48,-1,50,-1,52,-1,-1,-1,-1,-1,-1,-1,-1,-1,-1,-1,-1,-1,-1,-1,-1],"split_conditions":[-1.54138515E-2,2.3845403E-2,5.609151E-2,9.386112E-3,1.644787E-2,-5.3805757E-2,-3.2406966E-3,2.7124316E-2,1.4839843E-3,-2.5253358E-1,3.469253E-2,1.4985654E-1,3.250149E-2,-2.7350124E-2,2.3770353E-2,2.6348269E-2,5.568063E-3,-4.5127673E-3,-3.1304574E-3,-3.7830357E-2,2.6554652E-2,2.4544035E-1,-8.291987E-3,-2.0033717E-1,6.1910007E-2,-6.045676E-2,1.4960908E-2,5.6137447E-3,-1.2943687E-1,1.9006409E-2,-4.261645E-2,-1.03268415E-1,-3.7237275E-2,3.1191995E-2,-7.4755855E-2,-1.8080999E-1,-3.2340117E-2,-6.969613E-2,-2.676353E-1,-9.6329175E-2,2.2747011E-1,2.4733125E-1,-1.863449E-2,-3.2730717E-2,3.008531E-1,-4.9666636E-2,-2.3437609E-1,-2.8182508E-2,2.88225E-1,1.53600685E-2,-2.8304067E-1,2.206609E-1,-7.452341E-2],"split_indices":[343,664,474,470,88,315,256,70,503,0,0,0,679,99,466,485,318,482,711,72,709,0,0,0,0,326,133,80,0,301,29,0,678,0,650,0,80,0,0,0,0,0,0,0,0,0,0,0,0,0,0,0,0],"split_type":[0,0,0,0,0,0,0,0,0,0,0,0,0,0,0,0,0,0,0,0,0,0,0,0,0,0,0,0,0,0,0,0,0,0,0,0,0,0,0,0,0,0,0,0,0,0,0,0,0,0,0,0,0],"sum_hessian":[1.0343908E2,5.935491E1,4.4084164E1,5.028887E1,9.06604E0,3.584947E1,8.234697E0,1.7036991E1,3.325188E1,7.075586E0,1.990454E0,1.6646987E0,3.418477E1,5.277586E0,2.957111E0,1.0262863E1,6.7741275E0,9.313262E0,2.393862E1,2.8884417E1,5.300353E0,3.6125185E0,1.6650676E0,1.8707529E0,1.086358E0,7.600078E0,2.6627848E0,5.392552E0,1.3815755E0,5.4735003E0,3.8397615E0,1.6206099E0,2.231801E1,1.7949183E0,2.7089499E1,1.9222488E0,3.3781042E0,1.0264641E0,6.573614E0,1.6258649E0,1.03692E0,4.351259E0,1.0412927E0,2.882408E0,2.591092E0,1.0014114E0,2.83835E0,1.7464191E0,2.0571592E1,1.1282169E0,2.596128E1,2.2372515E0,1.1408528E0],"tree_param":{"num_deleted":"0","num_feature":"768","num_nodes":"53","size_leaf_vector":"1"}},{"base_weights":[-1.0245769E-1,2.4315028E-1,-3.7905142E-1,-4.6657845E-1,5.227657E-1,1.8554558E-1,-5.409341E-1,-6.845961E-1,1.5862109E-1,7.276472E-1,9.698907E-3,6.4139277E-1,-5.6978005E-1,-7.227119E-1,9.9972345E-2,-7.959189E-1,2.701378E-2,-1.0711343E-1,1.5884465E-1,8.129381E-1,-9.3280405E-2,3.827793E-1,-5.5404913E-1,-1.0873064E-1,9.0095544E-1,-2.2101606E-1,1.5561677E-2,-2.5746971E-2,-8.566101E-1,-5.304536E-1,4.7512645E-1,-5.877076E-2,-2.5920883E-1,8.781722E-1,-3.731189E-2,-6.538886E-2,7.0282906E-1,-2.2500679E-1,9.940514E-3,1.0845959E0,-1.5296395E-2,-1.7965977E-1,5.2021813E-1,8.049676E-2,-9.138599E-1,-2.0879517E-1,-4.1572046E-3,-9.603255E-2,7.270703E-1,6.0728822E-2,2.9944557E-1,5.386644E-2,2.4228226E-1,3.6866763E-1,7.386649E-2,8.109335E-3,2.1634774E-1,-2.8516483E-1,-1.8371247E-2,2.7752143E-1,-5.3225616E-3],"categories":[],"categories_nodes":[],"categories_segments":[],"categories_sizes":[],"default_left":[0,0,0,0,0,0,0,0,0,0,0,0,0,0,0,0,0,0,0,0,0,0,0,0,0,0,0,0,0,0,0,0,0,0,0,0,0,0,0,0,0,0,0,0,0,0,0,0,0,0,0,0,0,0,0,0,0,0,0,0,0],"id":12,"left_children":[1,3,5,7,9,11,13,15,17,19,21,23,25,27,29,31,-1,-1,-1,33,-1,35,37,-1,39,-1,-1,41,43,45,47,-1,-1,49,-1,-1,51,-1,-1,53,-1,-1,55,-1,57,-1,-1,-1,59,-1,-1,-1,-1,-1,-1,-1,-1,-1,-1,-1,-1],"loss_changes":[8.700766E0,8.309391E0,4.7079964E0,1.7462862E0,3.1072903E0,4.489671E0,4.6664667E0,8.561139E-1,9.3840706E-1,2.1270638E0,2.203471E0,2.3954494E0,5.610261E-1,2.8562527E0,2.5205586E0,1.5992928E-1,0E0,0E0,0E0,1.3217106E0,0E0,1.3623682E0,5.057634E-1,0E0,1.2083654E0,0E0,0E0,2.1894119E0,1.9094372E0,3.3675933E-1,1.5432348E0,0E0,0E0,1.3111038E0,0E0,0E0,9.2932224E-2,0E0,0E0,3.7174845E-1,0E0,0E0,3.3813125E-1,0E0,7.1811485E-1,0E0,0E0,0E0,7.9402184E-1,0E0,0E0,0E0,0E0,0E0,0E0,0E0,0E0,0E0,0E0,0E0,0E0],"parents":[2147483647,0,0,1,1,2,2,3,3,4,4,5,5,6,6,7,7,8,8,9,9,10,10,11,11,12,12,13,13,14,14,15,15,19,19,21,21,22,22,24,24,27,27,28,28,29,29,30,30,33,33,36,36,39,39,42,42,44,44,48,48],"right_children":[2,4,6,8,10,12,14,16,18,20,22,24,26,28,30,32,-1,-1,-1,34,-1,36,38,-1,40,-1,-1,42,44,46,48,-1,-1,50,-1,-1,52,-1,-1,54,-1,-1,56,-1,58,-1,-1,-1,60,-1,-1,-1,-1,-1,-1,-1,-1,-1,-1,-1,-1],"split_conditions":[-6.919009E-2,-1.3259194E-2,-5.4051783E-2,5.3192403E-2,1.938612E-2,4.1960416E-4,3.7021928E-2,5.1846515E-2,1.3968947E-3,4.9799625E-2,1.9324698E-2,-2.1912662E-2,5.1925894E-2,-7.824854E-2,1.1026229E-2,-2.9542672E-2,2.701378E-2,-1.0711343E-1,1.5884465E-1,4.4024568E-2,-9.3280405E-2,-1.3184499E-2,-7.573299E-5,-1.0873064E-1,2.6136912E-2,-2.2101606E-1,1.5561677E-2,3.4248862E-2,-5.1260605E-2,-1.591562E-2,1.1402532E-2,-5.877076E-2,-2.5920883E-1,-2.249555E-2,-3.731189E-2,-6.538886E-2,-7.6248725E-3,-2.2500679E-1,9.940514E-3,2.068403E-2,-1.5296395E-2,-1.7965977E-1,5.1380202E-2,8.049676E-2,7.414124E-2,-2.0879517E-1,-4.1572046E-3,-9.603255E-2,-5.710784E-3,6.0728822E-2,2.9944557E-1,5.386644E-2,2.4228226E-1,3.6866763E-1,7.386649E-2,8.109335E-3,2.1634774E-1,-2.8516483E-1,-1.8371247E-2,2.7752143E-1,-5.3225616E-3],"split_indices":[181,81,289,58,240,672,0,405,141,445,66,616,310,129,213,411,0,0,0,694,0,90,564,0,525,0,0,236,72,287,567,0,0,20,0,0,505,0,0,0,0,0,470,0,710,0,0,0,624,0,0,0,0,0,0,0,0,0,0,0,0],"split_type":[0,0,0,0,0,0,0,0,0,0,0,0,0,0,0,0,0,0,0,0,0,0,0,0,0,0,0,0,0,0,0,0,0,0,0,0,0,0,0,0,0,0,0,0,0,0,0,0,0,0,0,0,0,0,0,0,0,0,0,0,0],"sum_hessian":[8.9054695E1,3.9642155E1,4.9412544E1,1.1014968E1,2.8627186E1,1.0978106E1,3.843444E1,8.096558E0,2.9184105E0,2.0158941E1,8.468244E0,6.9403615E0,4.037744E0,2.9842642E1,8.591797E0,7.0551977E0,1.0413597E0,1.2364442E0,1.6819663E0,1.882985E1,1.3290923E0,5.2890415E0,3.1792023E0,1.3444657E0,5.595896E0,3.0370631E0,1.0006807E0,5.0014496E0,2.4841192E1,3.050924E0,5.540873E0,1.1143787E0,5.940819E0,1.7663607E1,1.1662416E0,1.9492388E0,3.3398027E0,2.175729E0,1.0034733E0,4.5741434E0,1.0217525E0,2.3927748E0,2.6086748E0,1.0244453E0,2.3816748E1,2.0475795E0,1.0033447E0,1.2680012E0,4.2728715E0,3.06851E0,1.4595098E1,1.0099032E0,2.3298995E0,3.5050676E0,1.0690757E0,1.0836068E0,1.5250679E0,2.2724049E1,1.0926981E0,3.184329E0,1.0885427E0],"tree_param":{"num_deleted":"0","num_feature":"768","num_nodes":"61","size_leaf_vector":"1"}},{"base_weights":[-9.193367E-2,-3.2205805E-1,2.7383515E-1,3.473872E-2,-6.794703E-1,5.109679E-1,-2.8849414E-1,-5.003697E-1,2.82188E-1,-8.040076E-1,-9.606904E-2,-2.3520611E-1,7.085385E-1,3.4171045E-1,-5.983439E-1,-7.4763215E-1,8.403097E-2,5.791197E-1,-2.0578375E-1,-2.2107162E-1,-9.108975E-1,1.3748339E-1,-5.251429E-1,2.3905684E-1,-1.936243E-1,8.937919E-1,1.0474855E-1,2.1734522E-1,-1.1050283E-1,-2.4599783E-1,-9.483221E-3,-4.918745E-2,-2.4740626E-1,-2.896473E-2,7.926217E-1,2.5675786E-1,-1.9618176E-1,1.3360152E-1,-1.7566894E-1,-2.8243944E-1,-6.837015E-2,-1.8332781E-1,-4.674888E-2,1.8003702E-1,-7.84885E-2,1.7301988E-2,9.864016E-1,3.8995662E-1,-1.2635827E-1,1.4164756E-1,-1.1388639E-1,3.1924084E-2,2.6873425E-1,1.7715436E-1,-9.810898E-2,6.743753E-2,3.213903E-1,-3.148284E-2,1.809123E-1],"categories":[],"categories_nodes":[],"categories_segments":[],"categories_sizes":[],"default_left":[0,0,0,0,0,0,0,0,0,0,0,0,0,0,0,0,0,0,0,0,0,0,0,0,0,0,0,0,0,0,0,0,0,0,0,0,0,0,0,0,0,0,0,0,0,0,0,0,0,0,0,0,0,0,0,0,0,0,0],"id":13,"left_children":[1,3,5,7,9,11,13,15,17,19,21,23,25,27,29,31,-1,33,35,37,39,-1,41,43,-1,45,47,-1,-1,-1,-1,-1,-1,49,51,53,-1,-1,-1,-1,-1,-1,-1,-1,-1,-1,55,57,-1,-1,-1,-1,-1,-1,-1,-1,-1,-1,-1],"loss_changes":[6.630994E0,6.1666803E0,4.2223454E0,3.4592052E0,1.6747627E0,3.3886414E0,2.0992296E0,1.8081E0,2.6945295E0,1.028389E0,1.5197823E0,1.1904804E0,1.8671103E0,1.3091223E0,8.368802E-1,1.599853E-1,0E0,1.4915934E0,1.7146647E0,1.324349E0,1.2694454E-1,0E0,1.5788913E-2,7.354969E-1,0E0,9.714956E-1,9.51515E-1,0E0,0E0,0E0,0E0,0E0,0E0,8.6533165E-1,4.9985456E-1,1.0484824E0,0E0,0E0,0E0,0E0,0E0,0E0,0E0,0E0,0E0,0E0,5.282879E-1,4.7690517E-1,0E0,0E0,0E0,0E0,0E0,0E0,0E0,0E0,0E0,0E0,0E0],"parents":[2147483647,0,0,1,1,2,2,3,3,4,4,5,5,6,6,7,7,8,8,9,9,10,10,11,11,12,12,13,13,14,14,15,15,17,17,18,18,19,19,20,20,22,22,23,23,25,25,26,26,33,33,34,34,35,35,46,46,47,47],"right_children":[2,4,6,8,10,12,14,16,18,20,22,24,26,28,30,32,-1,34,36,38,40,-1,42,44,-1,46,48,-1,-1,-1,-1,-1,-1,50,52,54,-1,-1,-1,-1,-1,-1,-1,-1,-1,-1,56,58,-1,-1,-1,-1,-1,-1,-1,-1,-1,-1,-1],"split_conditions":[1.9438306E-2,-2.5667597E-2,9.994954E-3,2.0270891E-2,5.4670732E-2,-1.34609705E-2,-2.5219603E-2,3.9738815E-2,-2.974256E-2,-5.967018E-2,-3.7445784E-2,-3.431852E-2,1.9001888E-2,-7.3159025E-3,3.188797E-2,-5.0376125E-2,8.403097E-2,-1.9032583E-3,-8.871408E-3,-1.7565304E-2,2.3748175E-34,1.3748339E-1,5.236595E-3,-3.3719085E-2,-1.936243E-1,-2.6233086E-2,-2.6398588E-2,2.1734522E-1,-1.1050283E-1,-2.4599783E-1,-9.483221E-3,-4.918745E-2,-2.4740626E-1,-1.2751961E-2,-1.3736543E-2,-4.586388E-3,-1.9618176E-1,1.3360152E-1,-1.7566894E-1,-2.8243944E-1,-6.837015E-2,-1.8332781E-1,-4.674888E-2,1.8003702E-1,-7.84885E-2,1.7301988E-2,-2.675789E-2,1.7006533E-2,-1.2635827E-1,1.4164756E-1,-1.1388639E-1,3.1924084E-2,2.6873425E-1,1.7715436E-1,-9.810898E-2,6.743753E-2,3.213903E-1,-3.148284E-2,1.809123E-1],"split_indices":[572,343,315,584,474,104,582,109,326,451,457,325,240,438,118,289,0,231,637,66,756,0,391,256,0,41,326,0,0,0,0,0,0,318,41,56,0,0,0,0,0,0,0,0,0,0,278,241,0,0,0,0,0,0,0,0,0,0,0],"split_type":[0,0,0,0,0,0,0,0,0,0,0,0,0,0,0,0,0,0,0,0,0,0,0,0,0,0,0,0,0,0,0,0,0,0,0,0,0,0,0,0,0,0,0,0,0,0,0,0,0,0,0,0,0,0,0,0,0,0,0],"sum_hessian":[7.673104E1,4.7172096E1,2.9558943E1,2.4058165E1,2.3113934E1,2.085555E1,8.703392E0,7.284134E0,1.677403E1,1.8736217E1,4.377715E0,4.3261786E0,1.6529371E1,2.8348184E0,5.8685737E0,5.5636015E0,1.7205325E0,1.031223E1,6.4618006E0,3.3786404E0,1.5357577E1,1.8803333E0,2.4973817E0,2.1999419E0,2.1262367E0,1.2281031E1,4.248341E0,1.8286898E0,1.0061287E0,3.8974204E0,1.9711533E0,1.013605E0,4.5499964E0,2.9044042E0,7.4078264E0,3.3900282E0,3.0717723E0,1.1161484E0,2.2624922E0,1.4337476E1,1.0201014E0,1.4948211E0,1.0025607E0,1.1627944E0,1.0371475E0,1.3864393E0,1.0894591E1,2.9222312E0,1.3261098E0,1.0530262E0,1.851378E0,1.2335926E0,6.174234E0,2.1495745E0,1.2404535E0,1.4585018E0,9.4360895E0,1.0322601E0,1.8899711E0],"tree_param":{"num_deleted":"0","num_feature":"768","num_nodes":"59","size_leaf_vector":"1"}},{"base_weights":[-8.4680595E-2,2.0956865E-1,-3.5606152E-1,4.1978878E-1,-3.8755387E-1,6.371646E-3,-6.681572E-1,5.71004E-1,-2.7432835E-1,9.097557E-2,-5.466464E-1,4.25916E-1,-4.2318836E-1,1.6751774E-1,-7.965012E-1,7.1111995E-1,-6.1340854E-2,7.572331E-2,-4.748588E-1,3.380526E-2,-7.134885E-1,-1.5573223E-1,7.4455476E-1,1.0117224E-1,-6.023742E-1,1.5583374E-1,-6.444563E-2,1.9663386E-2,-8.702844E-1,-3.8734056E-2,7.8429794E-1,2.9933032E-1,-1.469971E-1,-1.9651039E-1,1.1332342E-2,-2.365751E-2,-2.498959E-1,-1.5507945E-1,9.624555E-2,-8.622061E-3,9.035658E-1,-2.420208E-1,5.4058734E-2,-2.7162486E-1,-5.9708E-2,5.5354785E-2,2.6690605E-1,1.668744E-1,-2.5605561E-2,6.993021E-2,3.280493E-1],"categories":[],"categories_nodes":[],"categories_segments":[],"categories_sizes":[],"default_left":[0,0,0,0,0,0,0,0,0,0,0,0,0,0,0,0,0,0,0,0,0,0,0,0,0,0,0,0,0,0,0,0,0,0,0,0,0,0,0,0,0,0,0,0,0,0,0,0,0,0,0],"id":14,"left_children":[1,3,5,7,9,11,13,15,17,-1,19,21,23,25,27,29,31,-1,33,-1,35,37,39,-1,41,-1,-1,-1,43,-1,45,47,-1,-1,-1,-1,-1,-1,-1,-1,49,-1,-1,-1,-1,-1,-1,-1,-1,-1,-1],"loss_changes":[5.4628983E0,4.30558E0,4.0167456E0,2.769147E0,1.167386E0,3.316684E0,2.1787138E0,1.8831954E0,6.615062E-1,0E0,9.345274E-1,1.8400855E0,1.4431881E0,5.643699E-1,1.119523E0,1.1511879E0,8.712321E-1,0E0,3.9983898E-1,0E0,4.1457915E-1,8.7493795E-1,7.862716E-1,0E0,1.3806639E0,0E0,0E0,0E0,1.8432522E-1,0E0,8.3765984E-1,3.6036915E-1,0E0,0E0,0E0,0E0,0E0,0E0,0E0,0E0,4.0212393E-1,0E0,0E0,0E0,0E0,0E0,0E0,0E0,0E0,0E0,0E0],"parents":[2147483647,0,0,1,1,2,2,3,3,4,4,5,5,6,6,7,7,8,8,10,10,11,11,12,12,13,13,14,14,15,15,16,16,18,18,20,20,21,21,22,22,24,24,28,28,30,30,31,31,40,40],"right_children":[2,4,6,8,10,12,14,16,18,-1,20,22,24,26,28,30,32,-1,34,-1,36,38,40,-1,42,-1,-1,-1,44,-1,46,48,-1,-1,-1,-1,-1,-1,-1,-1,50,-1,-1,-1,-1,-1,-1,-1,-1,-1,-1],"split_conditions":[-2.2631658E-2,7.8411475E-3,4.143124E-3,1.5007603E-2,-4.0223923E-2,1.3782994E-3,-4.525083E-2,8.286575E-3,-3.0982042E-2,9.097557E-2,-3.0456778E-2,-2.3643265E-3,-6.2948346E-2,-3.5693265E-2,-1.3370086E-1,-5.447463E-2,6.311903E-4,7.572331E-2,1.0966918E-2,3.380526E-2,-4.1895736E-2,7.1554054E-3,-2.2745742E-2,1.0117224E-1,4.519449E-2,1.5583374E-1,-6.444563E-2,1.9663386E-2,5.7217885E-2,-3.8734056E-2,-8.32494E-3,-2.7514474E-2,-1.469971E-1,-1.9651039E-1,1.1332342E-2,-2.365751E-2,-2.498959E-1,-1.5507945E-1,9.624555E-2,-8.622061E-3,1.357776E-3,-2.420208E-1,5.4058734E-2,-2.7162486E-1,-5.9708E-2,5.5354785E-2,2.6690605E-1,1.668744E-1,-2.5605561E-2,6.993021E-2,3.280493E-1],"split_indices":[643,582,380,279,371,481,454,296,508,0,408,278,124,582,181,534,672,0,90,0,703,382,165,0,232,0,0,0,503,0,41,454,0,0,0,0,0,0,0,0,286,0,0,0,0,0,0,0,0,0,0],"split_type":[0,0,0,0,0,0,0,0,0,0,0,0,0,0,0,0,0,0,0,0,0,0,0,0,0,0,0,0,0,0,0,0,0,0,0,0,0,0,0,0,0,0,0,0,0,0,0,0,0,0,0],"sum_hessian":[6.6476944E1,3.2003925E1,3.4473015E1,2.3890226E1,8.113701E0,1.6403454E1,1.8069561E1,1.9762321E1,4.1279044E0,1.349185E0,6.7645154E0,8.302763E0,8.100691E0,2.3650436E0,1.5704517E1,1.6075672E1,3.6866498E0,1.0668529E0,3.0610516E0,1.431618E0,5.332897E0,3.1195483E0,5.183214E0,1.3766E0,6.724091E0,1.0447639E0,1.3202796E0,1.2469873E0,1.445753E1,1.2266648E0,1.4849007E1,2.1659126E0,1.5207372E0,2.0594356E0,1.0016161E0,1.1080687E0,4.2248287E0,1.7263411E0,1.3932072E0,1.0237617E0,4.1594524E0,5.3072624E0,1.416829E0,1.3407009E1,1.0505213E0,2.6303205E0,1.2218686E1,1.0312071E0,1.1347057E0,1.4098666E0,2.749586E0],"tree_param":{"num_deleted":"0","num_feature":"768","num_nodes":"51","size_leaf_vector":"1"}},{"base_weights":[-7.3555805E-2,1.4435975E-1,-4.0298042E-1,-3.4928522E-1,3.2710806E-1,-5.8513594E-1,2.3722827E-1,-6.916251E-1,1.8329746E-1,-2.0961571E-2,5.9473515E-1,-7.7521807E-1,-8.00684E-2,5.253576E-1,-9.992018E-2,-2.9660715E-2,-2.3524928E-1,4.972408E-1,-1.4199458E-1,2.2029544E-1,-6.01114E-1,-1.1142404E-1,7.071556E-1,1.8989112E-2,-8.646469E-1,-1.6208665E-1,2.4927564E-1,2.3006205E-2,1.9508858E-1,-2.2246665E-3,2.0823683E-1,4.7082457E-1,-3.4925932E-1,-2.0404112E-1,-5.4639798E-2,8.0604714E-1,-3.5253417E-2,-2.719902E-1,-7.739553E-2,1.685847E-1,-5.162056E-2,-6.270769E-4,2.0441358E-1,3.7208002E-2,-1.8050331E-1,2.6915628E-1,-1.303398E-2],"categories":[],"categories_nodes":[],"categories_segments":[],"categories_sizes":[],"default_left":[0,0,0,0,0,0,0,0,0,0,0,0,0,0,0,0,0,0,0,0,0,0,0,0,0,0,0,0,0,0,0,0,0,0,0,0,0,0,0,0,0,0,0,0,0,0,0],"id":15,"left_children":[1,3,5,7,9,11,13,15,17,19,21,23,25,27,-1,-1,-1,29,-1,31,33,-1,35,-1,37,-1,39,-1,-1,-1,-1,41,43,-1,-1,45,-1,-1,-1,-1,-1,-1,-1,-1,-1,-1,-1],"loss_changes":[4.3227706E0,3.406199E0,2.9277856E0,2.012505E0,2.541394E0,1.7530522E0,1.162352E0,2.7930832E-1,1.2325307E0,1.9193017E0,1.9333191E0,1.0761824E0,1.0873091E0,1.9565511E-1,0E0,0E0,0E0,3.7876558E-1,0E0,1.5554785E0,9.153128E-3,0E0,1.2464657E0,0E0,8.137131E-2,0E0,6.694735E-1,0E0,0E0,0E0,0E0,7.180009E-1,4.9899843E-1,0E0,0E0,1.025177E0,0E0,0E0,0E0,0E0,0E0,0E0,0E0,0E0,0E0,0E0,0E0],"parents":[2147483647,0,0,1,1,2,2,3,3,4,4,5,5,6,6,7,7,8,8,9,9,10,10,11,11,12,12,13,13,17,17,19,19,20,20,22,22,24,24,26,26,31,31,32,32,35,35],"right_children":[2,4,6,8,10,12,14,16,18,20,22,24,26,28,-1,-1,-1,30,-1,32,34,-1,36,-1,38,-1,40,-1,-1,-1,-1,42,44,-1,-1,46,-1,-1,-1,-1,-1,-1,-1,-1,-1,-1,-1],"split_conditions":[-5.9436173E-3,-3.170678E-2,2.8736765E-2,3.3007134E-2,-4.0072408E-3,2.5416462E-2,-3.969288E-2,-7.881549E-3,2.7790237E-2,-1.1502982E-2,-2.0788923E-2,-4.4057366E-2,-1.9064491E-3,3.8188472E-2,-9.992018E-2,-2.9660715E-2,-2.3524928E-1,7.7378586E-2,-1.4199458E-1,-3.2886737E-3,1.7850207E-2,-1.1142404E-1,1.4240382E-3,1.8989112E-2,6.628158E-2,-1.6208665E-1,-1.1636034E-2,2.3006205E-2,1.9508858E-1,-2.2246665E-3,2.0823683E-1,3.2093007E-2,-4.2695105E-2,-2.0404112E-1,-5.4639798E-2,2.5301933E-2,-3.5253417E-2,-2.719902E-1,-7.739553E-2,1.685847E-1,-5.162056E-2,-6.270769E-4,2.0441358E-1,3.7208002E-2,-1.8050331E-1,2.6915628E-1,-1.303398E-2],"split_indices":[650,382,679,229,90,311,129,522,635,329,503,274,320,710,0,0,0,54,0,300,419,0,334,0,147,0,230,0,0,0,0,221,55,0,0,464,0,0,0,0,0,0,0,0,0,0,0],"split_type":[0,0,0,0,0,0,0,0,0,0,0,0,0,0,0,0,0,0,0,0,0,0,0,0,0,0,0,0,0,0,0,0,0,0,0,0,0,0,0,0,0,0,0,0,0,0,0],"sum_hessian":[5.8406452E1,3.5490887E1,2.2915565E1,9.342735E0,2.6148151E1,1.7906685E1,5.0088806E0,5.5053287E0,3.8374062E0,1.1766538E1,1.4381615E1,1.2621649E1,5.2850366E0,3.3800046E0,1.6288759E0,1.0227222E0,4.4826064E0,2.7603369E0,1.0770693E0,8.7486725E0,3.017865E0,1.2588854E0,1.3122729E1,1.2445481E0,1.13771E1,1.9373345E0,3.3477018E0,1.0877025E0,2.2923021E0,1.0447423E0,1.7155944E0,6.196413E0,2.55226E0,2.0145876E0,1.0032774E0,1.1737752E1,1.3849772E0,1.0178204E1,1.1988971E0,1.7301083E0,1.6175936E0,2.213917E0,3.9824958E0,1.0646607E0,1.4875993E0,1.0549748E1,1.1880033E0],"tree_param":{"num_deleted":"0","num_feature":"768","num_nodes":"47","size_leaf_vector":"1"}},{"base_weights":[-7.2981924E-2,1.8873027E-1,-3.2361382E-1,3.5200462E-1,-3.4626338E-1,7.525111E-2,-5.690985E-1,-2.208784E-1,5.1477545E-1,-6.066347E-1,8.83903E-2,-4.027661E-1,3.3481488E-1,-6.6860306E-1,7.984719E-2,-2.0158058E-1,1.2760568E-1,-6.863857E-2,6.126777E-1,-6.7116935E-3,-2.2362879E-1,3.477935E-2,-1.7749307E-1,5.231723E-1,-9.031285E-2,-7.508168E-1,5.94648E-2,7.183311E-1,-1.8929705E-2,-1.0659089E-2,2.1987943E-1,-8.182416E-1,2.0721124E-2,2.3951043E-1,-2.8062401E-2,-1.0859704E-1,9.5334366E-2,-2.6224115E-1,-1.9778363E-2],"categories":[],"categories_nodes":[],"categories_segments":[],"categories_sizes":[],"default_left":[0,0,0,0,0,0,0,0,0,0,0,0,0,0,0,0,0,0,0,0,0,0,0,0,0,0,0,0,0,0,0,0,0,0,0,0,0,0,0],"id":16,"left_children":[1,3,5,7,9,11,13,15,17,19,-1,21,23,25,-1,-1,-1,-1,27,-1,-1,-1,-1,29,-1,31,-1,33,35,-1,-1,37,-1,-1,-1,-1,-1,-1,-1],"loss_changes":[3.5152795E0,2.4273E0,2.7127984E0,2.0455515E0,1.2926741E0,1.5334203E0,1.5905504E0,1.825919E0,1.3364944E0,3.9477408E-1,0E0,5.016813E-1,1.0978271E0,1.2514153E0,0E0,0E0,0E0,0E0,1.0007863E0,0E0,0E0,0E0,0E0,7.7868235E-1,0E0,8.492613E-1,0E0,8.9986944E-1,4.7246367E-1,0E0,0E0,5.028486E-1,0E0,0E0,0E0,0E0,0E0,0E0,0E0],"parents":[2147483647,0,0,1,1,2,2,3,3,4,4,5,5,6,6,7,7,8,8,9,9,11,11,12,12,13,13,18,18,23,23,25,25,27,27,28,28,31,31],"right_children":[2,4,6,8,10,12,14,16,18,20,-1,22,24,26,-1,-1,-1,-1,28,-1,-1,-1,-1,30,-1,32,-1,34,36,-1,-1,38,-1,-1,-1,-1,-1,-1,-1],"split_conditions":[-2.2234058E-2,1.34847425E-2,-3.2351505E-2,1.3098579E-2,5.517999E-2,1.49616E-4,1.1517765E-1,3.0392455E-2,1.2313088E-3,-1.68248E-2,8.83903E-2,-4.0498484E-2,-1.6888417E-2,4.5840736E-2,7.984719E-2,-2.0158058E-1,1.2760568E-1,-6.863857E-2,1.781928E-2,-6.7116935E-3,-2.2362879E-1,3.477935E-2,-1.7749307E-1,-7.556709E-3,-9.031285E-2,9.814902E-2,5.94648E-2,1.948062E-2,2.25925E-2,-1.0659089E-2,2.1987943E-1,4.2925406E-2,2.0721124E-2,2.3951043E-1,-2.8062401E-2,-1.0859704E-1,9.5334366E-2,-2.6224115E-1,-1.9778363E-2],"split_indices":[682,164,256,763,147,231,54,81,711,636,0,643,560,520,0,0,0,0,637,0,0,0,0,596,0,120,0,582,405,0,0,695,0,0,0,0,0,0,0],"split_type":[0,0,0,0,0,0,0,0,0,0,0,0,0,0,0,0,0,0,0,0,0,0,0,0,0,0,0,0,0,0,0,0,0,0,0,0,0,0,0],"sum_hessian":[5.1660824E1,2.5392607E1,2.6268215E1,1.9717175E1,5.675432E0,1.02718725E1,1.5996344E1,4.283636E0,1.5433538E1,4.0738497E0,1.6015826E0,3.420646E0,6.8512263E0,1.4471827E1,1.5245166E0,2.4993563E0,1.78428E0,1.640082E0,1.3793456E1,1.0048933E0,3.0689564E0,1.0161881E0,2.404458E0,5.4222374E0,1.4289888E0,1.3340379E1,1.1314474E0,1.1699151E1,2.0943055E0,1.7067765E0,3.7154608E0,1.232853E1,1.0118493E0,1.0664449E1,1.0347025E0,1.0001838E0,1.0941216E0,1.132516E1,1.0033703E0],"tree_param":{"num_deleted":"0","num_feature":"768","num_nodes":"39","size_leaf_vector":"1"}},{"base_weights":[-6.7685425E-2,3.5653943E-1,-2.2192597E-1,5.9970057E-1,-1.329045E-1,-5.4490614E-1,4.5858532E-2,7.051405E-1,-2.787516E-2,1.0766273E-1,-4.9298933E-1,-6.8532187E-1,1.908197E-1,3.625098E-1,-3.2760087E-1,2.5906561E-2,2.3522322E-1,-4.2705826E-2,-1.7553526E-1,-7.862925E-1,7.871489E-2,-7.916028E-2,1.561561E-1,5.0692016E-1,-8.3126575E-2,2.765578E-2,-6.2023807E-1,-8.43721E-1,-3.377127E-2,6.1515886E-1,-5.2187957E-2,-1.2068057E-1,3.570865E-1,-1.7537557E-2,-2.2393446E-1,-7.380223E-2,-2.634506E-1,-1.0935873E-2,2.2066544E-1,1.5797704E-1,-9.321992E-3],"categories":[],"categories_nodes":[],"categories_segments":[],"categories_sizes":[],"default_left":[0,0,0,0,0,0,0,0,0,0,0,0,0,0,0,0,0,0,0,0,0,0,0,0,0,0,0,0,0,0,0,0,0,0,0,0,0,0,0,0,0],"id":17,"left_children":[1,3,5,7,9,11,13,15,-1,-1,17,19,21,23,25,-1,-1,-1,-1,27,-1,-1,-1,29,-1,31,33,35,-1,37,-1,-1,39,-1,-1,-1,-1,-1,-1,-1,-1],"loss_changes":[3.1555529E0,1.6173673E0,3.060464E0,7.091389E-1,1.0812688E0,1.7822866E0,2.4969234E0,3.1158042E-1,0E0,0E0,2.5553584E-2,1.5117278E0,6.3869154E-1,1.1894971E0,1.0310568E0,0E0,0E0,0E0,0E0,3.917055E-1,0E0,0E0,0E0,8.159075E-1,0E0,9.0311754E-1,3.3855128E-1,1.9446373E-2,0E0,6.952033E-1,0E0,0E0,2.5097027E-1,0E0,0E0,0E0,0E0,0E0,0E0,0E0,0E0],"parents":[2147483647,0,0,1,1,2,2,3,3,4,4,5,5,6,6,7,7,10,10,11,11,12,12,13,13,14,14,19,19,23,23,25,25,26,26,27,27,29,29,32,32],"right_children":[2,4,6,8,10,12,14,16,-1,-1,18,20,22,24,26,-1,-1,-1,-1,28,-1,-1,-1,30,-1,32,34,36,-1,38,-1,-1,40,-1,-1,-1,-1,-1,-1,-1,-1],"split_conditions":[-5.89459E-2,8.675857E-3,6.257151E-3,-1.2479733E-3,-3.1682145E-2,4.762018E-2,3.4261018E-4,1.7082542E-2,-2.787516E-2,1.0766273E-1,-3.046609E-2,7.1563035E-2,1.7238775E-2,-1.1582891E-2,-8.459355E-3,2.5906561E-2,2.3522322E-1,-4.2705826E-2,-1.7553526E-1,2.7979538E-2,7.871489E-2,-7.916028E-2,1.561561E-1,1.8316468E-2,-8.3126575E-2,-1.2353227E-2,-4.427188E-2,-6.431653E-2,-3.377127E-2,-8.834693E-3,-5.2187957E-2,-1.2068057E-1,2.9622437E-3,-1.7537557E-2,-2.2393446E-1,-7.380223E-2,-2.634506E-1,-1.0935873E-2,2.2066544E-1,1.5797704E-1,-9.321992E-3],"split_indices":[343,445,104,334,454,252,279,532,0,0,396,495,231,326,32,0,0,0,0,715,0,0,0,664,0,693,650,326,0,503,0,0,635,0,0,0,0,0,0,0,0],"split_type":[0,0,0,0,0,0,0,0,0,0,0,0,0,0,0,0,0,0,0,0,0,0,0,0,0,0,0,0,0,0,0,0,0,0,0,0,0,0,0,0,0],"sum_hessian":[4.601669E1,1.1920056E1,3.409663E1,7.8131356E0,4.1069207E0,1.4986387E1,1.9110245E1,6.765167E0,1.047968E0,1.7374218E0,2.3694992E0,1.2642107E1,2.3442795E0,1.0357542E1,8.752703E0,1.0022807E0,5.7628865E0,1.0226167E0,1.3468823E0,1.1578795E1,1.0633122E0,1.0692966E0,1.2749829E0,8.618967E0,1.7385757E0,4.362362E0,4.3903403E0,1.0436825E1,1.1419708E0,7.5200386E0,1.098928E0,1.7966012E0,2.5657609E0,1.0738155E0,3.3165247E0,1.0123671E0,9.424458E0,1.2814646E0,6.238574E0,1.5376569E0,1.028104E0],"tree_param":{"num_deleted":"0","num_feature":"768","num_nodes":"41","size_leaf_vector":"1"}},{"base_weights":[-6.29788E-2,-3.156381E-1,1.7427938E-1,-6.055285E-1,-2.091604E-3,-3.3806384E-1,3.522197E-1,-7.1778864E-1,7.308753E-2,-5.647892E-1,2.8070006E-1,1.2853007E-1,-1.8852082E-1,-2.3450096E-1,4.7184658E-1,-2.4091697E-1,-5.773857E-2,-3.8071975E-2,-2.0093404E-1,4.5439252E-1,-1.254997E-1,-5.8858745E-2,1.1995282E-1,7.282273E-2,-1.5595543E-1,6.441898E-1,1.141466E-2,-2.6794301E-2,6.292255E-1,-2.0679897E-2,7.2698945E-1,1.2725113E-1,-2.987194E-1,2.551911E-2,2.2127242E-1,2.4477708E-1,3.31903E-2,2.3216827E-2,-1.522613E-1],"categories":[],"categories_nodes":[],"categories_segments":[],"categories_sizes":[],"default_left":[0,0,0,0,0,0,0,0,0,0,0,0,0,0,0,0,0,0,0,0,0,0,0,0,0,0,0,0,0,0,0,0,0,0,0,0,0,0,0],"id":18,"left_children":[1,3,5,7,9,11,13,15,-1,17,19,21,-1,23,25,-1,-1,-1,-1,27,-1,-1,-1,-1,-1,29,31,-1,33,-1,35,-1,37,-1,-1,-1,-1,-1,-1],"loss_changes":[2.578099E0,1.8837891E0,2.156709E0,1.2017772E0,1.9035892E0,9.304099E-1,1.309376E0,2.8298998E-1,0E0,9.889352E-2,1.1573539E0,3.6353606E-1,0E0,6.1106366E-1,1.1447179E0,0E0,0E0,0E0,0E0,7.0832694E-1,0E0,0E0,0E0,0E0,0E0,6.728244E-1,7.63209E-1,0E0,2.5065255E-1,0E0,4.3242645E-1,0E0,3.083387E-1,0E0,0E0,0E0,0E0,0E0,0E0],"parents":[2147483647,0,0,1,1,2,2,3,3,4,4,5,5,6,6,7,7,9,9,10,10,11,11,13,13,14,14,19,19,25,25,26,26,28,28,30,30,32,32],"right_children":[2,4,6,8,10,12,14,16,-1,18,20,22,-1,24,26,-1,-1,-1,-1,28,-1,-1,-1,-1,-1,30,32,-1,34,-1,36,-1,38,-1,-1,-1,-1,-1,-1],"split_conditions":[-1.3235175E-2,2.62848E-3,-7.845901E-3,3.6983434E-2,-2.1867633E-2,-1.887866E-2,4.2439583E-3,6.288164E-2,7.308753E-2,-4.377778E-2,2.4050005E-2,2.84087E-2,-1.8852082E-1,-2.544007E-2,6.3662454E-3,-2.4091697E-1,-5.773857E-2,-3.8071975E-2,-2.0093404E-1,-1.0777074E-3,-1.254997E-1,-5.8858745E-2,1.1995282E-1,7.282273E-2,-1.5595543E-1,-4.079753E-2,-6.6196546E-2,-2.6794301E-2,1.20401215E-2,-2.0679897E-2,8.542736E-3,1.2725113E-1,-4.2836487E-2,2.551911E-2,2.2127242E-1,2.4477708E-1,3.31903E-2,2.3216827E-2,-1.522613E-1],"split_indices":[88,679,574,446,382,507,711,113,0,326,315,298,0,102,671,0,0,0,0,349,0,0,0,0,0,19,343,0,470,0,472,0,453,0,0,0,0,0,0],"split_type":[0,0,0,0,0,0,0,0,0,0,0,0,0,0,0,0,0,0,0,0,0,0,0,0,0,0,0,0,0,0,0,0,0,0,0,0,0,0,0],"sum_hessian":[4.1089737E1,1.973903E1,2.1350706E1,9.772558E0,9.966473E0,5.2717876E0,1.6078918E1,8.768096E0,1.0044621E0,2.9999647E0,6.966508E0,2.2358837E0,3.035904E0,2.5604918E0,1.3518428E1,7.0888033E0,1.6792927E0,1.0073552E0,1.9926095E0,5.8603287E0,1.1061791E0,1.1437857E0,1.092098E0,1.0139679E0,1.5465238E0,9.546137E0,3.9722903E0,1.5449347E0,4.315394E0,1.0105058E0,8.535631E0,1.5464407E0,2.4258497E0,1.012983E0,3.3024108E0,7.1763635E0,1.3592682E0,1.090718E0,1.3351316E0],"tree_param":{"num_deleted":"0","num_feature":"768","num_nodes":"39","size_leaf_vector":"1"}},{"base_weights":[-5.9932314E-2,1.3859957E-1,-3.642308E-1,3.1078637E-1,-2.8140667E-1,1.6155435E-1,-5.094828E-1,-2.7160165E-1,4.337263E-1,-5.801593E-1,1.9378005E-1,-6.66878E-2,1.11412674E-1,-6.302138E-1,3.7843667E-2,-1.522075E-1,4.3566138E-2,6.376298E-1,6.877168E-2,-2.0863831E-2,-2.0911865E-1,1.3528614E-1,-6.767832E-2,-2.0737408E-2,-7.320105E-1,9.3608415E-3,7.155027E-1,3.9078173E-1,-2.7163556E-1,-7.90231E-1,-4.2699534E-2,2.3823209E-1,2.779469E-2,1.6264974E-1,-1.8362384E-3,-1.4003615E-1,1.3350158E-2,-7.050901E-2,-2.5182676E-1],"categories":[],"categories_nodes":[],"categories_segments":[],"categories_sizes":[],"default_left":[0,0,0,0,0,0,0,0,0,0,0,0,0,0,0,0,0,0,0,0,0,0,0,0,0,0,0,0,0,0,0,0,0,0,0,0,0,0,0],"id":19,"left_children":[1,3,5,7,9,11,13,15,17,19,21,-1,-1,23,-1,-1,-1,25,27,-1,-1,-1,-1,-1,29,-1,31,33,35,37,-1,-1,-1,-1,-1,-1,-1,-1,-1],"loss_changes":[2.3356674E0,1.7953278E0,1.2439525E0,1.3510392E0,1.1617184E0,4.0887398E-1,1.0125637E0,4.2913163E-1,1.0431478E0,2.3735964E-1,4.903E-1,0E0,0E0,5.425458E-1,0E0,0E0,0E0,4.1451812E-1,8.029405E-1,0E0,0E0,0E0,0E0,0E0,1.8571854E-1,0E0,3.2554626E-1,2.2423232E-1,2.478095E-1,1.2611866E-2,0E0,0E0,0E0,0E0,0E0,0E0,0E0,0E0,0E0],"parents":[2147483647,0,0,1,1,2,2,3,3,4,4,5,5,6,6,7,7,8,8,9,9,10,10,13,13,17,17,18,18,24,24,26,26,27,27,28,28,29,29],"right_children":[2,4,6,8,10,12,14,16,18,20,22,-1,-1,24,-1,-1,-1,26,28,-1,-1,-1,-1,-1,30,-1,32,34,36,38,-1,-1,-1,-1,-1,-1,-1,-1,-1],"split_conditions":[1.0974009E-2,1.1617934E-2,-2.6467903E-2,-1.7031495E-2,4.655219E-2,8.82939E-3,2.310825E-2,2.7651505E-3,1.7944967E-2,-4.827662E-2,-3.2201514E-2,-6.66878E-2,1.11412674E-1,-9.157687E-2,3.7843667E-2,-1.522075E-1,4.3566138E-2,-1.5918575E-2,-1.7272793E-2,-2.0863831E-2,-2.0911865E-1,1.3528614E-1,-6.767832E-2,-2.0737408E-2,3.8472544E-2,9.3608415E-3,2.6570464E-2,-1.5974985E-2,-1.591085E-3,-4.1653518E-2,-4.2699534E-2,2.3823209E-1,2.779469E-2,1.6264974E-1,-1.8362384E-3,-1.4003615E-1,1.3350158E-2,-7.050901E-2,-2.5182676E-1],"split_indices":[445,279,691,514,675,754,141,379,635,703,391,0,0,651,0,0,0,41,691,0,0,0,0,0,572,0,359,605,667,91,0,0,0,0,0,0,0,0,0],"split_type":[0,0,0,0,0,0,0,0,0,0,0,0,0,0,0,0,0,0,0,0,0,0,0,0,0,0,0,0,0,0,0,0,0,0,0,0,0,0,0],"sum_hessian":[3.682608E1,2.2615618E1,1.4210462E1,1.6224304E1,6.3913126E0,3.0516877E0,1.1158774E1,2.617156E0,1.3607148E1,3.7885325E0,2.60278E0,1.0575559E0,1.9941318E0,9.384756E0,1.7740177E0,1.5329218E0,1.0842341E0,8.250417E0,5.3567314E0,1.0029054E0,2.7856271E0,1.5667177E0,1.0360622E0,1.6990235E0,7.6857333E0,1.0982898E0,7.1521273E0,2.6767051E0,2.6800263E0,6.6855474E0,1.0001858E0,6.106532E0,1.0455949E0,1.6727161E0,1.003989E0,1.3624464E0,1.3175799E0,1.014397E0,5.67115E0],"tree_param":{"num_deleted":"0","num_feature":"768","num_nodes":"39","size_leaf_vector":"1"}},{"base_weights":[-5.6707736E-2,-2.8536272E-1,2.0816706E-1,4.160602E-2,-5.015001E-1,3.1832868E-1,-1.2958197E-1,2.9769918E-1,-3.7774903E-1,-6.472215E-1,2.4525542E-2,-1.3655539E-1,4.9595517E-1,4.8988554E-1,-8.8115424E-2,-1.7433669E-1,2.0032343E-2,-7.3163295E-1,-2.5806053E-2,-8.959299E-2,1.0675596E-1,2.0922393E-1,-1.4595053E-1,6.579687E-1,7.934915E-2,3.3813608E-3,1.9199577E-1,-6.102321E-2,-2.3723257E-1,-2.7978553E-2,1.22642815E-1,3.462944E-2,2.173175E-1,-8.765709E-2,1.1666696E-1],"categories":[],"categories_nodes":[],"categories_segments":[],"categories_sizes":[],"default_left":[0,0,0,0,0,0,0,0,0,0,0,0,0,0,0,0,0,0,0,0,0,0,0,0,0,0,0,0,0,0,0,0,0,0,0],"id":20,"left_children":[1,3,5,7,9,11,-1,13,15,17,19,21,23,25,-1,-1,-1,27,-1,-1,-1,29,-1,31,33,-1,-1,-1,-1,-1,-1,-1,-1,-1,-1],"loss_changes":[2.1495721E0,1.3596253E0,1.3057549E0,1.0212618E0,8.959601E-1,1.2563304E0,0E0,8.0462426E-1,3.6870778E-1,3.6470342E-1,4.761245E-1,6.9655234E-1,6.764295E-1,3.3490717E-1,0E0,0E0,0E0,8.012724E-2,0E0,0E0,0E0,2.2960204E-1,0E0,1.9154191E-1,5.9203714E-1,0E0,0E0,0E0,0E0,0E0,0E0,0E0,0E0,0E0,0E0],"parents":[2147483647,0,0,1,1,2,2,3,3,4,4,5,5,7,7,8,8,9,9,10,10,11,11,12,12,13,13,17,17,21,21,23,23,24,24],"right_children":[2,4,6,8,10,12,-1,14,16,18,20,22,24,26,-1,-1,-1,28,-1,-1,-1,30,-1,32,34,-1,-1,-1,-1,-1,-1,-1,-1,-1,-1],"split_conditions":[1.54887205E-2,-7.722467E-4,2.6748706E-2,1.2016092E-2,2.1446534E-2,-1.1040664E-2,-1.2958197E-1,2.442118E-2,1.5402313E-2,4.9015686E-2,3.0602267E-2,5.0747287E-3,-8.82466E-3,-2.8578225E-3,-8.8115424E-2,-1.7433669E-1,2.0032343E-2,-8.059495E-3,-2.5806053E-2,-8.959299E-2,1.0675596E-1,-1.3819884E-2,-1.4595053E-1,-1.7898144E-2,1.6861958E-2,3.3813608E-3,1.9199577E-1,-6.102321E-2,-2.3723257E-1,-2.7978553E-2,1.22642815E-1,3.462944E-2,2.173175E-1,-8.765709E-2,1.1666696E-1],"split_indices":[96,398,411,280,88,89,0,598,88,41,319,380,67,372,0,0,0,486,0,0,0,88,0,503,81,0,0,0,0,0,0,0,0,0,0],"split_type":[0,0,0,0,0,0,0,0,0,0,0,0,0,0,0,0,0,0,0,0,0,0,0,0,0,0,0,0,0,0,0,0,0,0,0],"sum_hessian":[3.3511204E1,1.7943771E1,1.5567433E1,7.462357E0,1.0481415E1,1.3710558E1,1.8568754E0,4.813149E0,2.649208E0,8.027274E0,2.454141E0,3.9152384E0,9.79532E0,3.762248E0,1.050901E0,1.6067938E0,1.0424143E0,6.713753E0,1.3135207E0,1.2923049E0,1.1618359E0,2.1716115E0,1.743627E0,6.6354938E0,3.1598256E0,1.1548738E0,2.6073742E0,1.123015E0,5.5907383E0,1.075038E0,1.0965735E0,1.0224042E0,5.6130896E0,1.4615681E0,1.6982574E0],"tree_param":{"num_deleted":"0","num_feature":"768","num_nodes":"35","size_leaf_vector":"1"}},{"base_weights":[-5.351325E-2,-4.0576905E-1,1.0994578E-1,2.0102777E-1,-5.8637303E-1,-2.8105602E-1,2.9388845E-1,-1.9892195E-2,1.1199017E-1,1.5706812E-3,-7.252885E-1,-5.322339E-1,1.4382154E-1,4.4812477E-1,-1.3149856E-1,-2.4279146E-1,-3.8615637E-2,-2.0427594E-1,2.4882108E-3,1.1438567E-1,-6.2156644E-2,5.4559803E-1,-4.5198776E-2,-1.5632091E-1,1.4277282E-1,-3.3672053E-2,6.293458E-1,1.21344686E-1,-3.9174236E-2,1.1073637E-2,2.1082416E-1],"categories":[],"categories_nodes":[],"categories_segments":[],"categories_sizes":[],"default_left":[0,0,0,0,0,0,0,0,0,0,0,0,0,0,0,0,0,0,0,0,0,0,0,0,0,0,0,0,0,0,0],"id":21,"left_children":[1,3,5,7,9,11,13,-1,-1,-1,15,17,19,21,23,-1,-1,-1,-1,-1,-1,25,-1,-1,27,-1,29,-1,-1,-1,-1],"loss_changes":[1.8562384E0,1.2341179E0,1.6848383E0,1.6664393E-1,6.6986847E-1,8.917179E-1,1.0850083E0,0E0,0E0,0E0,2.2515965E-1,4.0855432E-1,3.8116693E-1,7.6533794E-1,6.016527E-1,0E0,0E0,0E0,0E0,0E0,0E0,6.371119E-1,0E0,0E0,3.1613848E-1,0E0,3.7727523E-1,0E0,0E0,0E0,0E0],"parents":[2147483647,0,0,1,1,2,2,3,3,4,4,5,5,6,6,10,10,11,11,12,12,13,13,14,14,21,21,24,24,26,26],"right_children":[2,4,6,8,10,12,14,-1,-1,-1,16,18,20,22,24,-1,-1,-1,-1,-1,-1,26,-1,-1,28,-1,30,-1,-1,-1,-1],"split_conditions":[2.8436527E-2,-3.967021E-2,-1.8398343E-2,7.204236E-2,-4.5174073E-2,4.7055513E-2,-3.0350871E-3,-1.9892195E-2,1.1199017E-1,1.5706812E-3,5.630951E-2,2.8256558E-2,-2.459626E-3,3.0056078E-2,-1.4198968E-2,-2.4279146E-1,-3.8615637E-2,-2.0427594E-1,2.4882108E-3,1.1438567E-1,-6.2156644E-2,-1.6607085E-2,-4.5198776E-2,-1.5632091E-1,-1.8404998E-2,-3.3672053E-2,-2.0039286E-2,1.21344686E-1,-3.9174236E-2,1.1073637E-2,2.1082416E-1],"split_indices":[426,359,353,54,296,584,343,0,0,0,710,301,671,671,550,0,0,0,0,0,0,94,0,0,223,0,366,0,0,0,0],"split_type":[0,0,0,0,0,0,0,0,0,0,0,0,0,0,0,0,0,0,0,0,0,0,0,0,0,0,0,0,0,0,0],"sum_hessian":[3.0463093E1,9.185615E0,2.127748E1,2.080941E0,7.1046734E0,6.6384206E0,1.4639058E1,1.056521E0,1.02442E0,1.5340071E0,5.570667E0,4.0132203E0,2.6252003E0,1.0704413E1,3.934645E0,4.570408E0,1.0002587E0,2.9437397E0,1.0694807E0,1.5144198E0,1.1107805E0,9.282238E0,1.4221753E0,1.2538549E0,2.68079E0,1.009828E0,8.27241E0,1.1244936E0,1.5562965E0,1.0776241E0,7.194786E0],"tree_param":{"num_deleted":"0","num_feature":"768","num_nodes":"31","size_leaf_vector":"1"}},{"base_weights":[-5.321028E-2,1.9381452E-1,-2.676865E-1,-3.4305865E-1,3.6431062E-1,-5.693045E-1,-3.350366E-2,-1.617023E-1,5.428167E-3,-3.3440217E-2,4.758386E-1,3.1004658E-2,-2.1618809E-1,2.638818E-1,-4.0068024E-1,5.698204E-1,-3.9315566E-2,4.9401718E-1,-4.2266257E-2,1.1983785E-2,-1.6674307E-1,6.735707E-1,-1.8748995E-2,3.3364397E-2,1.7519784E-1,5.96133E-2,2.1921669E-1],"categories":[],"categories_nodes":[],"categories_segments":[],"categories_sizes":[],"default_left":[0,0,0,0,0,0,0,0,0,0,0,0,0,0,0,0,0,0,0,0,0,0,0,0,0,0,0],"id":22,"left_children":[1,3,5,7,9,11,13,-1,-1,-1,15,-1,-1,17,19,21,-1,23,-1,-1,-1,25,-1,-1,-1,-1,-1],"loss_changes":[1.5771799E0,1.4027679E0,1.0990573E0,2.8430796E-1,6.409688E-1,7.7236104E-1,1.1947892E0,0E0,0E0,0E0,5.9745455E-1,0E0,0E0,6.39082E-1,3.5441875E-1,5.750284E-1,0E0,7.693601E-2,0E0,0E0,0E0,4.6492577E-2,0E0,0E0,0E0,0E0,0E0],"parents":[2147483647,0,0,1,1,2,2,3,3,4,4,5,5,6,6,10,10,13,13,14,14,15,15,17,17,21,21],"right_children":[2,4,6,8,10,12,14,-1,-1,-1,16,-1,-1,18,20,22,-1,24,-1,-1,-1,26,-1,-1,-1,-1,-1],"split_conditions":[-6.919009E-2,-1.9488417E-2,1.950808E-2,8.37347E-3,-2.0421773E-2,1.9794096E-7,-8.347032E-3,-1.617023E-1,5.428167E-3,-3.3440217E-2,3.790098E-2,3.1004658E-2,-2.1618809E-1,-4.7777058E-3,-2.033141E-2,-9.146446E-3,-3.9315566E-2,1.6366309E-2,-4.2266257E-2,1.1983785E-2,-1.6674307E-1,-1.316334E-3,-1.8748995E-2,3.3364397E-2,1.7519784E-1,5.96133E-2,2.1921669E-1],"split_indices":[181,81,532,117,260,688,499,0,0,0,573,0,0,738,753,35,0,640,0,0,0,572,0,0,0,0,0],"split_type":[0,0,0,0,0,0,0,0,0,0,0,0,0,0,0,0,0,0,0,0,0,0,0,0,0,0,0],"sum_hessian":[2.7789568E1,1.2959588E1,1.482998E1,2.8796794E0,1.0079908E1,5.85629E0,8.97369E0,1.5475605E0,1.332119E0,1.9142535E0,8.165655E0,1.1337246E0,4.722565E0,5.1134787E0,3.8602118E0,7.123593E0,1.0420624E0,3.1194153E0,1.9940634E0,1.1985078E0,2.661704E0,6.063461E0,1.060132E0,1.0192127E0,2.1002026E0,1.1323048E0,4.931156E0],"tree_param":{"num_deleted":"0","num_feature":"768","num_nodes":"27","size_leaf_vector":"1"}},{"base_weights":[-4.6938643E-2,1.5525644E-1,-2.9475915E-1,-1.8223472E-1,3.474047E-1,-7.502016E-3,-5.429987E-1,6.505502E-2,-4.1735741E-1,-7.8081615E-2,5.243663E-1,1.16319485E-1,-2.1322083E-1,-6.73221E-1,2.6553674E-2,-2.5829414E-3,-1.6237596E-1,-1.0802276E-1,8.069682E-2,-6.1407825E-4,6.095106E-1,-3.8720527E-1,6.640904E-2,-2.3236553E-1,-3.1895924E-2,2.083541E-1,2.4934156E-2,8.808521E-3,-1.6120794E-1],"categories":[],"categories_nodes":[],"categories_segments":[],"categories_sizes":[],"default_left":[0,0,0,0,0,0,0,0,0,0,0,0,0,0,0,0,0,0,0,0,0,0,0,0,0,0,0,0,0],"id":23,"left_children":[1,3,5,7,9,11,13,-1,15,17,19,-1,21,23,-1,-1,-1,-1,-1,-1,25,27,-1,-1,-1,-1,-1,-1,-1],"loss_changes":[1.3745844E0,1.0528224E0,8.7018466E-1,6.71496E-1,7.9894876E-1,6.2722284E-1,5.992881E-1,0E0,2.0996869E-1,4.7146177E-1,3.2573748E-1,0E0,4.675461E-1,2.3687005E-1,0E0,0E0,0E0,0E0,0E0,0E0,2.2126651E-1,2.640974E-1,0E0,0E0,0E0,0E0,0E0,0E0,0E0],"parents":[2147483647,0,0,1,1,2,2,3,3,4,4,5,5,6,6,8,8,9,9,10,10,12,12,13,13,20,20,21,21],"right_children":[2,4,6,8,10,12,14,-1,16,18,20,-1,22,24,-1,-1,-1,-1,-1,-1,26,28,-1,-1,-1,-1,-1,-1,-1],"split_conditions":[-2.9296916E-2,-1.7404082E-4,-8.4556835E-3,-1.507541E-2,2.1204637E-2,-5.4772686E-2,5.6355726E-2,6.505502E-2,-2.295995E-2,2.3370862E-2,-2.4497123E-2,1.16319485E-1,4.445814E-2,3.183588E-2,2.6553674E-2,-2.5829414E-3,-1.6237596E-1,-1.0802276E-1,8.069682E-2,-6.1407825E-4,3.581E-2,-2.894198E-2,6.640904E-2,-2.3236553E-1,-3.1895924E-2,2.083541E-1,2.4934156E-2,8.808521E-3,-1.6120794E-1],"split_indices":[326,231,318,191,584,175,212,0,685,422,41,0,652,203,0,0,0,0,0,0,52,411,0,0,0,0,0,0,0],"split_type":[0,0,0,0,0,0,0,0,0,0,0,0,0,0,0,0,0,0,0,0,0,0,0,0,0,0,0,0,0],"sum_hessian":[2.5519094E1,1.4258882E1,1.1260212E1,5.1917076E0,9.067174E0,5.6974607E0,5.562752E0,1.9535577E0,3.23815E0,2.8275003E0,6.2396736E0,1.6474881E0,4.0499725E0,4.557013E0,1.0057386E0,1.0019811E0,2.2361686E0,1.5393294E0,1.288171E0,1.0045989E0,5.235075E0,2.9699743E0,1.0799983E0,3.555241E0,1.001772E0,4.232271E0,1.002804E0,1.0000464E0,1.9699278E0],"tree_param":{"num_deleted":"0","num_feature":"768","num_nodes":"29","size_leaf_vector":"1"}},{"base_weights":[-4.224353E-2,1.6293341E-1,-2.712387E-1,3.4770715E-1,-1.4911975E-1,-4.281489E-1,1.20000266E-1,-3.7104048E-2,4.7754505E-1,-3.2808173E-1,6.6810265E-2,-5.4167813E-1,5.6752563E-2,-4.7678787E-2,1.2292478E-1,8.089789E-3,5.9843814E-1,2.1597527E-2,-1.4611255E-1,-6.389054E-1,1.40749235E-2,4.3506823E-2,1.9993505E-1,-2.2012834E-1,-2.05939E-2],"categories":[],"categories_nodes":[],"categories_segments":[],"categories_sizes":[],"default_left":[0,0,0,0,0,0,0,0,0,0,0,0,0,0,0,0,0,0,0,0,0,0,0,0,0],"id":24,"left_children":[1,3,5,7,9,11,13,-1,15,17,-1,19,-1,-1,-1,-1,21,-1,-1,23,-1,-1,-1,-1,-1],"loss_changes":[1.1955098E0,8.330712E-1,7.8530097E-1,5.9827745E-1,4.5493454E-1,7.1584296E-1,4.0483117E-1,0E0,3.7133455E-1,3.0715552E-1,0E0,4.678359E-1,0E0,0E0,0E0,0E0,7.484627E-2,0E0,0E0,3.0852985E-1,0E0,0E0,0E0,0E0,0E0],"parents":[2147483647,0,0,1,1,2,2,3,3,4,4,5,5,6,6,8,8,9,9,11,11,16,16,19,19],"right_children":[2,4,6,8,10,12,14,-1,16,18,-1,20,-1,-1,-1,-1,22,-1,-1,24,-1,-1,-1,-1,-1],"split_conditions":[-2.2855543E-2,1.0011627E-2,4.29229E-2,2.0999158E-2,2.8736765E-2,5.351424E-2,3.969645E-2,-3.7104048E-2,1.2824343E-2,-5.2400675E-2,6.6810265E-2,1.2158568E-2,5.6752563E-2,-4.7678787E-2,1.2292478E-1,8.089789E-3,-2.624756E-2,2.1597527E-2,-1.4611255E-1,5.4670732E-2,1.40749235E-2,4.3506823E-2,1.9993505E-1,-2.2012834E-1,-2.05939E-2],"split_indices":[289,671,70,437,679,407,584,0,584,97,0,38,0,0,0,0,143,0,0,474,0,0,0,0,0],"split_type":[0,0,0,0,0,0,0,0,0,0,0,0,0,0,0,0,0,0,0,0,0,0,0,0,0],"sum_hessian":[2.3504148E1,1.2548937E1,1.0955211E1,7.8101273E0,4.738809E0,7.7518964E0,3.2033143E0,1.6968822E0,6.113245E0,3.278473E0,1.4603363E0,6.651237E0,1.1006595E0,1.8621712E0,1.3411431E0,1.551971E0,4.561274E0,1.0877963E0,2.1906767E0,5.634949E0,1.0162882E0,1.0035071E0,3.5577672E0,4.585492E0,1.0494568E0],"tree_param":{"num_deleted":"0","num_feature":"768","num_nodes":"25","size_leaf_vector":"1"}},{"base_weights":[-3.1176703E-2,1.0637957E-1,-3.6337453E-1,-3.4876293E-1,2.4153063E-1,2.2833612E-2,-5.289997E-1,2.5550338E-2,-1.5680426E-1,3.8946122E-1,-1.3925536E-1,-1.1125705E-2,-1.9317165E-1,-3.6962625E-2,4.9609149E-1,-4.0515804E-1,1.01556495E-1,5.7271457E-1,2.8975504E-3,-1.5806893E-1,-1.7712457E-2,2.1196878E-2,1.9305594E-1],"categories":[],"categories_nodes":[],"categories_segments":[],"categories_sizes":[],"default_left":[0,0,0,0,0,0,0,0,0,0,0,0,0,0,0,0,0,0,0,0,0,0,0],"id":25,"left_children":[1,3,5,7,9,-1,11,-1,-1,13,15,-1,-1,-1,17,19,-1,21,-1,-1,-1,-1,-1],"loss_changes":[1.084375E0,1.1272963E0,5.445223E-1,3.683889E-1,8.239952E-1,0E0,2.676258E-1,0E0,0E0,6.1353457E-1,7.164715E-1,0E0,0E0,0E0,3.136747E-1,1.1151165E-1,0E0,2.1693587E-1,0E0,0E0,0E0,0E0,0E0],"parents":[2147483647,0,0,1,1,2,2,3,3,4,4,6,6,9,9,10,10,14,14,15,15,17,17],"right_children":[2,4,6,8,10,-1,12,-1,-1,14,16,-1,-1,-1,18,20,-1,22,-1,-1,-1,-1,-1],"split_conditions":[6.444349E-3,-6.1759166E-3,-2.8658396E-2,-1.5679628E-2,1.0848789E-2,2.2833612E-2,-7.5744525E-2,2.5550338E-2,-1.5680426E-1,-1.7356375E-2,-1.211614E-2,-1.1125705E-2,-1.9317165E-1,-3.6962625E-2,1.34847425E-2,1.578249E-2,1.01556495E-1,-5.090351E-3,2.8975504E-3,-1.5806893E-1,-1.7712457E-2,2.1196878E-2,1.9305594E-1],"split_indices":[582,298,387,380,279,0,513,0,0,41,287,0,0,0,164,574,0,365,0,0,0,0,0],"split_type":[0,0,0,0,0,0,0,0,0,0,0,0,0,0,0,0,0,0,0,0,0,0,0],"sum_hessian":[2.188432E1,1.5956735E1,5.9275846E0,3.291511E0,1.2665224E1,1.7703675E0,4.157217E0,1.0877758E0,2.203735E0,9.105189E0,3.5600345E0,1.0376717E0,3.1195452E0,1.5409496E0,7.5642395E0,2.384792E0,1.1752424E0,6.3816276E0,1.182612E0,1.3778547E0,1.0069375E0,1.0356985E0,5.345929E0],"tree_param":{"num_deleted":"0","num_feature":"768","num_nodes":"23","size_leaf_vector":"1"}},{"base_weights":[-3.3856608E-2,1.1718994E-1,-3.1865728E-1,-2.7782926E-1,2.577646E-1,3.9017983E-2,