{"learner":{"attributes":{"scikit_learn":"{\"_estimator_type\": \"classifier\"}"},"feature_names":[],"feature_types":[],"gradient_booster":{"model":{"gbtree_model_param":{"num_parallel_tree":"1","num_trees":"100"},"iteration_indptr":[0,1,2,3,4,5,6,7,8,9,10,11,12,13,14,15,16,17,18,19,20,21,22,23,24,25,26,27,28,29,30,31,32,33,34,35,36,37,38,39,40,41,42,43,44,45,46,47,48,49,50,51,52,53,54,55,56,57,58,59,60,61,62,63,64,65,66,67,68,69,70,71,72,73,74,75,76,77,78,79,80,81,82,83,84,85,86,87,88,89,90,91,92,93,94,95,96,97,98,99,100],"tree_info":[0,0,0,0,0,0,0,0,0,0,0,0,0,0,0,0,0,0,0,0,0,0,0,0,0,0,0,0,0,0,0,0,0,0,0,0,0,0,0,0,0,0,0,0,0,0,0,0,0,0,0,0,0,0,0,0,0,0,0,0,0,0,0,0,0,0,0,0,0,0,0,0,0,0,0,0,0,0,0,0,0,0,0,0,0,0,0,0,0,0,0,0,0,0,0,0,0,0,0,0],"trees":[{"base_weights":[-3.6051524E-8,-1.164367E0,1.0938659E0,9.524166E-1,-1.485017E0,1.578685E0,-5.755849E-1,1.5473384E0,-4.9910456E-1,4.6858764E-1,-1.6751475E0,1.7197291E0,-8.43209E-1,-1.0919088E0,8.2291657E-1,-2.7507043E-1,1.8070254E0,1.075074E0,-1.2759335E0,1.488855E0,-8.5469717E-1,-1.8012987E0,-6.496447E-1,1.8249947E0,3.465948E-1,5.798111E-1,-1.3736734E0,1.2443738E0,-1.2831603E0,-1.1818888E0,1.3237104E0,1.4116967E0,-1.4584025E0,1.8489151E0,-3.8825187E-1,-1.3600607E0,1.447298E0,-1.4937422E0,7.7771354E-1,1.7754794E0,-1.3050388E-1,9.5993066E-1,-1.3520267E0,-1.8216034E0,9.858473E-1,-1.4567882E0,4.2849976E-1,2.5345024E-1,1.8594294E0,1.1357309E0,-1.0896235E0,-1.2000664E0,1.284483E0,6.315143E-1,-1.5448657E0,1.5870264E0,-7.5868297E-1,4.362927E-1,-1.4735415E0,9.4111276E-1,-1.6439059E0,1.5953605E0,-6.0681057E-1,5.225604E-1,-3.60013E-1,3.5998702E-1,-5.066874E-1,5.6320965E-1,-3.2309192E-1,-4.8573184E-1,-1.0836125E-5,-1.5001807E-1,5.272517E-1,-5.2474463E-1,1.22249955E-2,-2.8001592E-1,5.039818E-1,5.4875904E-1,-3.81832E-1,3.7140897E-1,-3.5557562E-1,-4.2001736E-1,4.4283652E-1,2.6845295E-2,-4.9832648E-1,-5.617194E-1,-3.3947107E-1,-4.1054344E-1,5.142656E-1,-5.040215E-1,1.2970924E-1,5.249789E-1,-5.5193838E-2,4.4743672E-1,-3.6971778E-1,5.6653064E-1,1.0700583E-1,-2.0489867E-1,4.470374E-1,1.9997972E-1,-4.794471E-1,-5.122147E-1,2.3075424E-1,-1.5557402E-1,5.1597923E-1,-4.2858693E-1,4.7141E-1,-4.972507E-1,2.9998267E-1,-3.600159E-1,5.49979E-1,-4.8573184E-1,2.9998556E-1,4.0135828E-1,-3.721725E-1,-5.1633847E-1,-2.1316318E-1,-3.60013E-1,4.7141E-1,2.7271348E-1,-5.395894E-1,-2.6898423E-1,5.122234E-1,2.526122E-1,-4.69111E-1],"categories":[],"categories_nodes":[],"categories_segments":[],"categories_sizes":[],"default_left":[0,0,0,0,0,0,0,0,0,0,0,0,0,0,0,0,0,0,0,0,0,0,0,0,0,0,0,0,0,0,0,0,0,0,0,0,0,0,0,0,0,0,0,0,0,0,0,0,0,0,0,0,0,0,0,0,0,0,0,0,0,0,0,0,0,0,0,0,0,0,0,0,0,0,0,0,0,0,0,0,0,0,0,0,0,0,0,0,0,0,0,0,0,0,0,0,0,0,0,0,0,0,0,0,0,0,0,0,0,0,0,0,0,0,0,0,0,0,0,0,0,0,0,0,0],"id":0,"left_children":[1,3,5,7,9,11,13,15,17,19,21,23,25,27,29,31,33,35,37,39,41,43,45,47,49,51,53,55,57,59,61,63,65,67,-1,69,71,73,75,77,79,81,83,85,87,89,91,93,95,97,99,101,103,105,107,109,111,113,115,117,119,121,123,-1,-1,-1,-1,-1,-1,-1,-1,-1,-1,-1,-1,-1,-1,-1,-1,-1,-1,-1,-1,-1,-1,-1,-1,-1,-1,-1,-1,-1,-1,-1,-1,-1,-1,-1,-1,-1,-1,-1,-1,-1,-1,-1,-1,-1,-1,-1,-1,-1,-1,-1,-1,-1,-1,-1,-1,-1,-1,-1,-1,-1,-1],"loss_changes":[8.822334E3,2.2787783E3,2.8916147E3,3.824576E2,1.0832544E3,9.4698193E2,5.8181177E2,1.4898108E2,1.5942732E2,3.5128705E2,3.4243262E2,3.7749365E2,1.16290276E2,2.6432544E2,2.1993321E2,8.189905E1,3.8085144E1,4.11709E1,4.007701E1,6.83454E1,1.03727974E2,1.3560791E2,2.5516281E2,1.3100293E2,2.1374469E2,5.453266E1,3.933632E1,3.2089912E1,1.787221E2,4.4705074E1,9.248044E1,1.6749779E1,1.6736248E1,2.4622131E1,0E0,2.201867E0,2.3834106E1,3.1032883E1,1.5462216E1,2.2755188E1,3.4666924E1,3.2521774E1,4.0022278E1,8.016992E1,3.278398E1,7.138071E1,1.02299835E2,9.979044E1,1.02947266E2,7.932999E1,6.09029E1,1.3801163E1,2.5034973E1,2.0639027E1,3.1252838E1,2.8793404E1,1.258951E1,8.480929E1,9.134204E1,1.3356218E1,1.6052765E1,4.432254E1,3.2163998E1,0E0,0E0,0E0,0E0,0E0,0E0,0E0,0E0,0E0,0E0,0E0,0E0,0E0,0E0,0E0,0E0,0E0,0E0,0E0,0E0,0E0,0E0,0E0,0E0,0E0,0E0,0E0,0E0,0E0,0E0,0E0,0E0,0E0,0E0,0E0,0E0,0E0,0E0,0E0,0E0,0E0,0E0,0E0,0E0,0E0,0E0,0E0,0E0,0E0,0E0,0E0,0E0,0E0,0E0,0E0,0E0,0E0,0E0,0E0,0E0,0E0,0E0],"parents":[2147483647,0,0,1,1,2,2,3,3,4,4,5,5,6,6,7,7,8,8,9,9,10,10,11,11,12,12,13,13,14,14,15,15,16,16,17,17,18,18,19,19,20,20,21,21,22,22,23,23,24,24,25,25,26,26,27,27,28,28,29,29,30,30,31,31,32,32,33,33,35,35,36,36,37,37,38,38,39,39,40,40,41,41,42,42,43,43,44,44,45,45,46,46,47,47,48,48,49,49,50,50,51,51,52,52,53,53,54,54,55,55,56,56,57,57,58,58,59,59,60,60,61,61,62,62],"right_children":[2,4,6,8,10,12,14,16,18,20,22,24,26,28,30,32,34,36,38,40,42,44,46,48,50,52,54,56,58,60,62,64,66,68,-1,70,72,74,76,78,80,82,84,86,88,90,92,94,96,98,100,102,104,106,108,110,112,114,116,118,120,122,124,-1,-1,-1,-1,-1,-1,-1,-1,-1,-1,-1,-1,-1,-1,-1,-1,-1,-1,-1,-1,-1,-1,-1,-1,-1,-1,-1,-1,-1,-1,-1,-1,-1,-1,-1,-1,-1,-1,-1,-1,-1,-1,-1,-1,-1,-1,-1,-1,-1,-1,-1,-1,-1,-1,-1,-1,-1,-1,-1,-1,-1,-1],"split_conditions":[1.5351268E-2,1.8532758E-34,9.466194E-3,-4.3840082E-3,-3.383567E-2,2.1135204E-2,5.644727E-2,-1.8431505E-2,-3.471059E-2,-1.3752141E-2,3.593179E-2,1.4320352E-2,-1.700309E-2,1.6974021E-34,-7.49963E-3,-5.219434E-33,5.0374642E-2,-3.0876344E-2,6.56537E-2,-1.433363E-2,-3.7747454E-2,9.755507E-2,-7.99451E-3,-4.7105543E-2,9.664058E-3,4.0658237E-3,-7.337498E-2,7.886453E-3,-4.5043085E-2,-6.862867E-2,1.4087238E-2,2.2811303E-2,-4.3593783E-2,6.593693E-2,-3.8825187E-1,3.0563474E-2,-1.0724654E-2,6.1687157E-2,-5.294093E-2,4.805466E-2,-3.7313677E-2,-4.083344E-2,-4.002758E-2,1.9730227E-2,-6.962799E-3,3.382496E-2,-4.3130986E-2,-3.7224498E-2,3.667311E-2,-2.3864869E-2,2.4929668E-7,2.4518954E-2,-3.3835214E-2,-2.1804601E-2,2.9899877E-2,-1.8223222E-2,6.187221E-3,-4.675363E-2,1.6323831E-2,-7.659123E-3,-6.52535E-2,-3.7678283E-2,-1.6698355E-2,5.225604E-1,-3.60013E-1,3.5998702E-1,-5.066874E-1,5.6320965E-1,-3.2309192E-1,-4.8573184E-1,-1.0836125E-5,-1.5001807E-1,5.272517E-1,-5.2474463E-1,1.22249955E-2,-2.8001592E-1,5.039818E-1,5.4875904E-1,-3.81832E-1,3.7140897E-1,-3.5557562E-1,-4.2001736E-1,4.4283652E-1,2.6845295E-2,-4.9832648E-1,-5.617194E-1,-3.3947107E-1,-4.1054344E-1,5.142656E-1,-5.040215E-1,1.2970924E-1,5.249789E-1,-5.5193838E-2,4.4743672E-1,-3.6971778E-1,5.6653064E-1,1.0700583E-1,-2.0489867E-1,4.470374E-1,1.9997972E-1,-4.794471E-1,-5.122147E-1,2.3075424E-1,-1.5557402E-1,5.1597923E-1,-4.2858693E-1,4.7141E-1,-4.972507E-1,2.9998267E-1,-3.600159E-1,5.49979E-1,-4.8573184E-1,2.9998556E-1,4.0135828E-1,-3.721725E-1,-5.1633847E-1,-2.1316318E-1,-3.60013E-1,4.7141E-1,2.7271348E-1,-5.395894E-1,-2.6898423E-1,5.122234E-1,2.526122E-1,-4.69111E-1],"split_indices":[418,756,422,517,482,517,73,458,493,553,679,603,596,756,401,555,354,212,763,53,53,752,458,750,689,361,116,497,767,116,374,182,22,131,0,1,458,673,1,609,309,700,116,458,323,725,305,116,498,458,688,643,448,683,82,219,577,116,327,214,55,738,482,0,0,0,0,0,0,0,0,0,0,0,0,0,0,0,0,0,0,0,0,0,0,0,0,0,0,0,0,0,0,0,0,0,0,0,0,0,0,0,0,0,0,0,0,0,0,0,0,0,0,0,0,0,0,0,0,0,0,0,0,0,0],"split_type":[0,0,0,0,0,0,0,0,0,0,0,0,0,0,0,0,0,0,0,0,0,0,0,0,0,0,0,0,0,0,0,0,0,0,0,0,0,0,0,0,0,0,0,0,0,0,0,0,0,0,0,0,0,0,0,0,0,0,0,0,0,0,0,0,0,0,0,0,0,0,0,0,0,0,0,0,0,0,0,0,0,0,0,0,0,0,0,0,0,0,0,0,0,0,0,0,0,0,0,0,0,0,0,0,0,0,0,0,0,0,0,0,0,0,0,0,0,0,0,0,0,0,0,0,0],"sum_hessian":[6.92475E3,3.35425E3,3.5705E3,4.41E2,2.91325E3,2.767E3,8.035E2,3.1275E2,1.2825E2,2.5825E2,2.655E3,2.615E3,1.52E2,5.87E2,2.165E2,3.9E1,2.7375E2,4.225E1,8.6E1,1.4575E2,1.125E2,2.3635E3,2.915E2,2.4285E3,1.865E2,4.125E1,1.1075E2,4.4E1,5.43E2,4.3E1,1.735E2,1.6E1,2.3E1,2.705E2,3.25E0,5.25E0,3.7E1,7.8E1,8E0,1.2375E2,2.2E1,2.4E1,8.85E1,2.34675E3,1.675E1,1.665E2,1.25E2,5.225E1,2.37625E3,1.205E2,6.6E1,1.15E1,2.975E1,8.5E0,1.0225E2,3.775E1,6.25E0,5.4E1,4.89E2,7.5E0,3.55E1,1.5225E2,2.125E1,1.45E1,1.5E0,1.5E0,2.15E1,2.6825E2,2.25E0,4.25E0,1E0,5E0,3.2E1,6.675E1,1.125E1,2.75E0,5.25E0,1.22E2,1.75E0,9.5E0,1.25E1,4E0,2E1,1.575E1,7.275E1,2.18425E3,1.625E2,3.75E0,1.3E1,1.49E2,1.75E1,3.9E1,8.6E1,2.85E1,2.375E1,2.331E3,4.525E1,1.95E1,1.01E2,1.475E1,5.125E1,9.25E0,2.25E0,5.75E0,2.4E1,2.5E0,6E0,9.825E1,4E0,2.75E0,3.5E1,4.25E0,2E0,3.525E1,1.875E1,3.6825E2,1.2075E2,1.5E0,6E0,1.75E0,3.375E1,6.25E0,1.46E2,8.5E0,1.275E1],"tree_param":{"num_deleted":"0","num_feature":"768","num_nodes":"125","size_leaf_vector":"1"}},{"base_weights":[1.9310617E-4,7.9200184E-1,-9.677226E-1,1.2191247E0,-5.6783146E-1,5.7254887E-1,-1.1703333E0,1.2964326E0,-6.485474E-1,2.3292889E-1,-1.2939074E0,-9.3923384E-1,1.0774927E0,4.568186E-1,-1.2880452E0,1.4396763E0,5.984513E-1,6.657337E-1,-1.2896488E0,6.3817406E-1,-9.4048876E-1,2.8587604E-1,-1.4342791E0,-1.2658104E0,8.08083E-1,1.2851127E0,-1.3443555E0,1.0680498E0,-1.2739596E0,-1.3948224E0,-1.5028769E-1,-1.7845781E-1,1.4694679E0,-8.749576E-1,8.947096E-1,-7.725044E-1,1.2366524E0,4.165359E-1,-1.4398485E0,-5.7642287E-1,9.7857E-1,-1.3220598E0,6.82876E-1,1.3100896E0,-6.9153684E-1,1.1769519E0,-1.4619361E0,8.533618E-1,-1.4336454E0,-3.529575E-1,4.4078183E-1,1.4650578E0,-7.7398494E-2,-1.5633068E0,2.8787377E-1,1.351399E0,-6.109882E-1,6.577125E-1,-1.417068E0,-6.2831575E-1,-1.4856874E0,1.0396605E0,-8.093401E-1,2.3161909E-1,-3.3055416E-1,4.490696E-1,1.4093651E-1,2.3140815E-1,-3.5481834E-1,-1.5884341E-1,3.3111852E-1,-4.3920773E-1,2.7400368E-1,4.593667E-1,-1.51446E-1,3.6606628E-1,-3.7263E-1,1.7607385E-1,-4.5636097E-1,1.3138892E-1,-3.5338098E-1,-2.8889054E-2,3.7483808E-1,9.188825E-2,-4.4718698E-1,-2.8993586E-1,4.350894E-1,4.5739418E-1,-2.9956618E-1,2.5792518E-1,-3.2634595E-1,-3.23293E-2,4.861789E-1,-5.846881E-2,-4.5265338E-1,4.423557E-1,-2.666317E-1,-4.4935617E-1,3.3844644E-1,4.503703E-1,-4.125927E-1,3.9664483E-1,-2.677719E-1,-5.050476E-1,4.482945E-2,4.400478E-1,-2.818911E-1,-4.0978312E-1,3.097246E-1,3.335221E-1,-5.9652723E-2,-4.5456818E-1,1.9626623E-1,-3.4836563E-1,1.16650306E-1,1.09236114E-1,-4.487703E-1,3.8111457E-1,-4.2066148E-1,1.2156313E-1,-3.8269547E-1],"categories":[],"categories_nodes":[],"categories_segments":[],"categories_sizes":[],"default_left":[0,0,0,0,0,0,0,0,0,0,0,0,0,0,0,0,0,0,0,0,0,0,0,0,0,0,0,0,0,0,0,0,0,0,0,0,0,0,0,0,0,0,0,0,0,0,0,0,0,0,0,0,0,0,0,0,0,0,0,0,0,0,0,0,0,0,0,0,0,0,0,0,0,0,0,0,0,0,0,0,0,0,0,0,0,0,0,0,0,0,0,0,0,0,0,0,0,0,0,0,0,0,0,0,0,0,0,0,0,0,0,0,0,0,0,0,0,0,0,0,0],"id":1,"left_children":[1,3,5,7,9,11,13,15,17,19,21,23,25,27,29,31,33,35,37,39,41,43,45,47,49,51,53,55,57,59,61,63,65,67,69,71,73,75,77,79,81,83,85,87,89,91,93,95,97,-1,-1,99,101,103,-1,105,107,109,111,113,115,117,119,-1,-1,-1,-1,-1,-1,-1,-1,-1,-1,-1,-1,-1,-1,-1,-1,-1,-1,-1,-1,-1,-1,-1,-1,-1,-1,-1,-1,-1,-1,-1,-1,-1,-1,-1,-1,-1,-1,-1,-1,-1,-1,-1,-1,-1,-1,-1,-1,-1,-1,-1,-1,-1,-1,-1,-1,-1,-1],"loss_changes":[4.952451E3,2.0650918E3,9.080679E2,3.9141406E2,4.9464328E2,2.5955142E2,4.9282153E2,2.5887842E2,9.2014694E1,1.9326932E2,9.9328735E1,4.9716797E1,1.2962112E2,1.8555383E2,2.909724E2,1.04137695E2,1.946273E2,3.0622213E1,1.9321732E1,1.2532531E2,6.557928E1,3.8180977E1,3.1318237E1,2.6933266E1,2.0162186E1,5.767575E1,1.1877644E1,6.230005E1,1.3619598E1,1.5167139E2,1.6299138E2,3.582412E1,5.73208E1,3.8837013E1,1.107952E2,1.40235615E1,1.4237724E1,1.0428979E1,1.2001114E1,4.1205696E1,6.885841E1,2.3755112E1,2.7388191E1,1.0699844E1,1.30502405E1,2.9385257E0,2.3835632E1,7.7293525E0,1.2768768E1,0E0,0E0,2.3380005E1,3.351186E1,4.1970024E0,0E0,3.0697205E1,2.541267E1,1.7178283E0,9.743614E0,1.2725912E2,3.753955E1,4.354831E1,7.6197174E1,0E0,0E0,0E0,0E0,0E0,0E0,0E0,0E0,0E0,0E0,0E0,0E0,0E0,0E0,0E0,0E0,0E0,0E0,0E0,0E0,0E0,0E0,0E0,0E0,0E0,0E0,0E0,0E0,0E0,0E0,0E0,0E0,0E0,0E0,0E0,0E0,0E0,0E0,0E0,0E0,0E0,0E0,0E0,0E0,0E0,0E0,0E0,0E0,0E0,0E0,0E0,0E0,0E0,0E0,0E0,0E0,0E0,0E0],"parents":[2147483647,0,0,1,1,2,2,3,3,4,4,5,5,6,6,7,7,8,8,9,9,10,10,11,11,12,12,13,13,14,14,15,15,16,16,17,17,18,18,19,19,20,20,21,21,22,22,23,23,24,24,25,25,26,26,27,27,28,28,29,29,30,30,31,31,32,32,33,33,34,34,35,35,36,36,37,37,38,38,39,39,40,40,41,41,42,42,43,43,44,44,45,45,46,46,47,47,48,48,51,51,52,52,53,53,55,55,56,56,57,57,58,58,59,59,60,60,61,61,62,62],"right_children":[2,4,6,8,10,12,14,16,18,20,22,24,26,28,30,32,34,36,38,40,42,44,46,48,50,52,54,56,58,60,62,64,66,68,70,72,74,76,78,80,82,84,86,88,90,92,94,96,98,-1,-1,100,102,104,-1,106,108,110,112,114,116,118,120,-1,-1,-1,-1,-1,-1,-1,-1,-1,-1,-1,-1,-1,-1,-1,-1,-1,-1,-1,-1,-1,-1,-1,-1,-1,-1,-1,-1,-1,-1,-1,-1,-1,-1,-1,-1,-1,-1,-1,-1,-1,-1,-1,-1,-1,-1,-1,-1,-1,-1,-1,-1,-1,-1,-1,-1,-1,-1],"split_conditions":[7.583836E-3,-9.221298E-4,1.8532758E-34,2.6889127E-2,-2.0044777E-3,-1.0724654E-2,-7.217533E-33,6.3922196E-3,-1.6698355E-2,1.672438E-2,1.8915307E-34,4.1005757E-2,2.6199354E-2,2.9765112E-2,4.2178657E-2,-2.3465531E-2,-3.0145112E-2,-6.559677E-3,2.3809167E-7,-3.2710176E-2,5.450484E-2,-3.0357632E-4,-7.305062E-2,-4.024969E-2,-1.2847778E-2,1.2305915E-2,6.9400094E-2,2.4285458E-2,-5.6023717E-2,-3.7697963E-2,-2.195152E-2,-2.3801202E-2,5.9485156E-2,-4.2270727E-2,-2.6342753E-2,3.4083456E-2,2.9654862E-34,1.7856816E-2,-7.376199E-2,-1.0693173E-2,-5.809376E-3,-3.869963E-2,-1.9541888E-2,4.1857157E-2,-4.2711653E-2,3.6658846E-2,-4.137209E-2,1.1843778E-2,5.361077E-2,-3.529575E-1,4.4078183E-1,4.1444317E-2,-3.0173145E-2,4.3409925E-2,2.8787377E-1,5.017429E-2,1.8154165E-2,-4.3844567E-3,4.0952876E-2,2.7531793E-2,-9.5712736E-2,2.3509702E-2,-2.0607257E-2,2.3161909E-1,-3.3055416E-1,4.490696E-1,1.4093651E-1,2.3140815E-1,-3.5481834E-1,-1.5884341E-1,3.3111852E-1,-4.3920773E-1,2.7400368E-1,4.593667E-1,-1.51446E-1,3.6606628E-1,-3.7263E-1,1.7607385E-1,-4.5636097E-1,1.3138892E-1,-3.5338098E-1,-2.8889054E-2,3.7483808E-1,9.188825E-2,-4.4718698E-1,-2.8993586E-1,4.350894E-1,4.5739418E-1,-2.9956618E-1,2.5792518E-1,-3.2634595E-1,-3.23293E-2,4.861789E-1,-5.846881E-2,-4.5265338E-1,4.423557E-1,-2.666317E-1,-4.4935617E-1,3.3844644E-1,4.503703E-1,-4.125927E-1,3.9664483E-1,-2.677719E-1,-5.050476E-1,4.482945E-2,4.400478E-1,-2.818911E-1,-4.0978312E-1,3.097246E-1,3.335221E-1,-5.9652723E-2,-4.5456818E-1,1.9626623E-1,-3.4836563E-1,1.16650306E-1,1.09236114E-1,-4.487703E-1,3.8111457E-1,-4.2066148E-1,1.2156313E-1,-3.8269547E-1],"split_indices":[257,517,756,374,108,458,555,422,482,482,756,483,553,609,418,747,750,71,688,750,219,754,538,210,657,517,483,630,108,517,422,116,11,658,230,711,756,596,549,706,744,599,489,384,345,713,482,40,730,0,0,463,493,622,0,384,280,20,447,728,116,689,210,0,0,0,0,0,0,0,0,0,0,0,0,0,0,0,0,0,0,0,0,0,0,0,0,0,0,0,0,0,0,0,0,0,0,0,0,0,0,0,0,0,0,0,0,0,0,0,0,0,0,0,0,0,0,0,0,0,0],"split_type":[0,0,0,0,0,0,0,0,0,0,0,0,0,0,0,0,0,0,0,0,0,0,0,0,0,0,0,0,0,0,0,0,0,0,0,0,0,0,0,0,0,0,0,0,0,0,0,0,0,0,0,0,0,0,0,0,0,0,0,0,0,0,0,0,0,0,0,0,0,0,0,0,0,0,0,0,0,0,0,0,0,0,0,0,0,0,0,0,0,0,0,0,0,0,0,0,0,0,0,0,0,0,0,0,0,0,0,0,0,0,0,0,0,0,0,0,0,0,0,0,0],"sum_hessian":[6.4599316E3,3.5533093E3,2.9066223E3,2.704067E3,8.4924243E2,3.3768365E2,2.5689385E3,2.5968809E3,1.0718596E2,4.0417407E2,4.4506836E2,8.43332E1,2.5335046E2,1.7311118E2,2.3958274E3,2.1538025E3,4.4307828E2,3.512992E1,7.205604E1,3.0076102E2,1.03413055E2,3.6234806E1,4.0883356E2,7.12854E1,1.3047796E1,2.3377849E2,1.9571972E1,1.282146E2,4.4896584E1,2.1900664E3,2.0576108E2,3.884661E1,2.114956E3,7.3848305E1,3.6922998E2,9.882128E0,2.5247795E1,5.686574E0,6.636946E1,6.568635E1,2.3507466E2,8.3882195E1,1.953086E1,1.7527592E1,1.8707214E1,3.849281E0,4.0498428E2,4.9316235E0,6.6353775E1,3.0658932E0,9.981903E0,2.0643907E2,2.7339409E1,1.8166962E1,1.4050107E0,1.09868645E2,1.834595E1,2.8487217E0,4.204786E1,2.3294406E2,1.9571223E3,7.313504E1,1.3262604E2,1.9222832E1,1.9623777E1,2.0579883E3,5.69676E1,1.1393915E1,6.245439E1,4.7058086E1,3.221719E2,7.100956E0,2.7811716E0,2.1698267E1,3.5495293E0,4.008564E0,1.67801E0,2.3214574E0,6.4048004E1,2.4552753E1,4.1133595E1,4.7448406E1,1.8762625E2,7.7920885E0,7.609011E1,6.119531E0,1.341133E1,1.6347868E1,1.1797247E0,3.568489E0,1.5138726E1,1.1823876E0,2.6668935E0,1.4642102E1,3.9034216E2,3.7486553E0,1.1829681E0,6.513652E1,1.2172588E0,2.0430835E2,2.1307204E0,9.833925E0,1.7505484E1,1.6991705E1,1.1752559E0,1.04941246E2,4.9273977E0,1.2686698E1,5.6592503E0,1.667122E0,1.1815999E0,4.0401672E1,1.6461889E0,1.5276573E2,8.017833E1,1.0556499E1,1.9465658E3,6.725971E1,5.8753324E0,3.6829987E1,9.579604E1],"tree_param":{"num_deleted":"0","num_feature":"768","num_nodes":"121","size_leaf_vector":"1"}},{"base_weights":[-2.8122394E-4,5.9032136E-1,-9.008178E-1,-6.238578E-1,8.967595E-1,3.366147E-1,-1.17962E0,3.2774308E-1,-1.1372774E0,1.1643374E0,1.900917E-1,-1.0754194E0,6.6309494E-1,-1.2726882E0,-5.5317825E-1,-4.6366185E-1,1.024044E0,2.1991976E-1,-1.2282662E0,1.2257187E0,-2.117503E-1,8.562571E-1,-5.4126346E-1,3.3664316E-1,-1.1878045E0,9.650055E-1,-6.25779E-1,8.171648E-2,-1.2947338E0,-1.2761401E0,6.9170654E-2,5.312549E-1,-1.0646698E0,1.164324E0,-8.6985725E-1,9.2679423E-1,-1.2388263E0,3.107953E-1,-1.2760948E0,1.2608495E0,-3.9599076E-1,-9.694665E-1,6.35391E-1,1.0448363E0,-3.0907843E-1,2.6509494E-1,-1.1499805E0,2.0763539E-1,-1.2411649E0,1.1203874E0,-9.452479E-1,-1.1206617E0,4.6068907E-1,1.2596221E0,-1.2684041E0,-3.3122727E-1,-1.3158491E0,9.0987813E-1,-1.3396115E0,-7.2613186E-1,8.041413E-1,3.0627185E-1,-3.107694E-1,-3.599642E-1,1.9313785E-1,1.7610356E-2,4.0442E-1,2.447109E-1,-3.74179E-1,3.7737405E-1,-3.244768E-1,-4.5385286E-1,1.6722986E-1,3.889666E-1,-2.5105208E-1,-3.9338467E-1,1.6806082E-1,-1.9839063E-1,3.838345E-1,2.8945202E-1,-2.4931942E-1,1.5165001E-1,-3.9457658E-1,-3.039228E-1,3.1189424E-1,-2.6159263E-1,3.3468136E-1,3.008871E-1,-3.6504248E-1,3.229778E-1,-1.4612338E-1,-3.8769484E-1,6.631878E-2,-4.0115792E-1,-1.870747E-2,-2.2008584E-1,3.7017176E-1,3.059618E-1,-3.672343E-1,2.0842554E-1,-3.7297043E-1,3.496168E-1,-3.335618E-1,-1.094503E-1,4.2176E-1,1.0432536E-1,-4.317714E-1,3.2374865E-1,-3.6342967E-1,1.8214943E-1,-3.9756927E-1,4.0543917E-1,-3.925071E-2,-4.1681942E-1,8.857757E-2,3.199537E-1,-3.4428364E-1,3.5255164E-1,-2.0969833E-1],"categories":[],"categories_nodes":[],"categories_segments":[],"categories_sizes":[],"default_left":[0,0,0,0,0,0,0,0,0,0,0,0,0,0,0,0,0,0,0,0,0,0,0,0,0,0,0,0,0,0,0,0,0,0,0,0,0,0,0,0,0,0,0,0,0,0,0,0,0,0,0,0,0,0,0,0,0,0,0,0,0,0,0,0,0,0,0,0,0,0,0,0,0,0,0,0,0,0,0,0,0,0,0,0,0,0,0,0,0,0,0,0,0,0,0,0,0,0,0,0,0,0,0,0,0,0,0,0,0,0,0,0,0,0,0,0,0,0,0],"id":2,"left_children":[1,3,5,7,9,11,13,15,17,19,21,23,25,27,29,31,33,35,37,39,41,43,45,-1,47,49,51,53,55,57,59,61,63,65,67,69,71,73,75,77,79,81,83,85,87,89,91,-1,93,95,97,99,101,103,105,107,109,111,113,115,117,-1,-1,-1,-1,-1,-1,-1,-1,-1,-1,-1,-1,-1,-1,-1,-1,-1,-1,-1,-1,-1,-1,-1,-1,-1,-1,-1,-1,-1,-1,-1,-1,-1,-1,-1,-1,-1,-1,-1,-1,-1,-1,-1,-1,-1,-1,-1,-1,-1,-1,-1,-1,-1,-1,-1,-1,-1,-1],"loss_changes":[3.0171416E3,1.2752589E3,7.755615E2,3.3797333E2,5.171184E2,1.9153357E2,1.0621777E2,1.3434703E2,5.5724304E1,1.6786841E2,3.671479E2,2.06249E1,1.3166599E2,4.775879E1,1.0761678E2,6.896666E1,3.5429977E1,3.1115734E1,3.1386658E1,1.08731445E2,5.5552757E1,8.696405E1,1.7670164E2,0E0,8.362389E0,8.217462E1,3.521205E1,4.374383E1,3.1514404E1,1.656578E1,7.6208916E1,3.4626347E1,1.7322899E1,2.451004E1,7.064559E0,1.4759388E1,5.7230797E0,1.6349442E1,2.7129822E1,6.732959E1,2.5101389E1,2.3908405E1,2.838404E1,4.703531E1,6.754043E1,9.5380424E1,4.028546E1,0E0,8.190598E0,5.4191223E1,1.2811037E1,1.0793999E1,2.4460253E1,3.9945335E0,4.047325E0,4.47759E1,2.8523682E1,1.8847609E0,9.192001E0,4.8570965E1,3.858636E1,0E0,0E0,0E0,0E0,0E0,0E0,0E0,0E0,0E0,0E0,0E0,0E0,0E0,0E0,0E0,0E0,0E0,0E0,0E0,0E0,0E0,0E0,0E0,0E0,0E0,0E0,0E0,0E0,0E0,0E0,0E0,0E0,0E0,0E0,0E0,0E0,0E0,0E0,0E0,0E0,0E0,0E0,0E0,0E0,0E0,0E0,0E0,0E0,0E0,0E0,0E0,0E0,0E0,0E0,0E0,0E0,0E0,0E0],"parents":[2147483647,0,0,1,1,2,2,3,3,4,4,5,5,6,6,7,7,8,8,9,9,10,10,11,11,12,12,13,13,14,14,15,15,16,16,17,17,18,18,19,19,20,20,21,21,22,22,24,24,25,25,26,26,27,27,28,28,29,29,30,30,31,31,32,32,33,33,34,34,35,35,36,36,37,37,38,38,39,39,40,40,41,41,42,42,43,43,44,44,45,45,46,46,48,48,49,49,50,50,51,51,52,52,53,53,54,54,55,55,56,56,57,57,58,58,59,59,60,60],"right_children":[2,4,6,8,10,12,14,16,18,20,22,24,26,28,30,32,34,36,38,40,42,44,46,-1,48,50,52,54,56,58,60,62,64,66,68,70,72,74,76,78,80,82,84,86,88,90,92,-1,94,96,98,100,102,104,106,108,110,112,114,116,118,-1,-1,-1,-1,-1,-1,-1,-1,-1,-1,-1,-1,-1,-1,-1,-1,-1,-1,-1,-1,-1,-1,-1,-1,-1,-1,-1,-1,-1,-1,-1,-1,-1,-1,-1,-1,-1,-1,-1,-1,-1,-1,-1,-1,-1,-1,-1,-1,-1,-1,-1,-1,-1,-1,-1,-1,-1,-1],"split_conditions":[5.618508E-3,-2.87232E-2,-3.34978E-2,-1.2633585E-2,-4.04723E-5,-3.3220857E-2,1.7177006E-2,-5.965459E-3,-7.160952E-2,4.948257E-2,-6.0552424E-3,-3.779529E-2,1.9861829E-2,-8.2631074E-2,6.5504266E-3,-4.4535454E-3,2.6848853E-2,2.0338729E-2,-7.336348E-2,3.070811E-2,2.2742605E-2,3.7485793E-2,-2.0002792E-2,3.3664316E-1,-8.933786E-2,2.0025413E-2,4.156678E-2,-3.0619364E-2,-7.613359E-2,-6.1452027E-2,4.9228477E-3,1.5634192E-2,2.7982933E-2,-1.5312203E-2,-1.566929E-2,3.1137012E-2,9.46499E-3,-2.4078077E-2,7.373519E-2,-4.7365177E-2,-3.486642E-2,-3.1682175E-2,-1.2160675E-2,-3.357038E-2,-1.5160012E-2,-1.4987522E-2,5.394814E-2,2.0763539E-1,7.223061E-2,-1.4319389E-2,-3.7231524E-2,-8.545226E-2,-6.3349837E-3,3.8781803E-2,-4.0950354E-2,-2.1321293E-2,-1.1888835E-1,-9.642459E-3,8.866417E-2,-4.4551127E-2,2.9418208E-3,3.0627185E-1,-3.107694E-1,-3.599642E-1,1.9313785E-1,1.7610356E-2,4.0442E-1,2.447109E-1,-3.74179E-1,3.7737405E-1,-3.244768E-1,-4.5385286E-1,1.6722986E-1,3.889666E-1,-2.5105208E-1,-3.9338467E-1,1.6806082E-1,-1.9839063E-1,3.838345E-1,2.8945202E-1,-2.4931942E-1,1.5165001E-1,-3.9457658E-1,-3.039228E-1,3.1189424E-1,-2.6159263E-1,3.3468136E-1,3.008871E-1,-3.6504248E-1,3.229778E-1,-1.4612338E-1,-3.8769484E-1,6.631878E-2,-4.0115792E-1,-1.870747E-2,-2.2008584E-1,3.7017176E-1,3.059618E-1,-3.672343E-1,2.0842554E-1,-3.7297043E-1,3.496168E-1,-3.335618E-1,-1.094503E-1,4.2176E-1,1.0432536E-1,-4.317714E-1,3.2374865E-1,-3.6342967E-1,1.8214943E-1,-3.9756927E-1,4.0543917E-1,-3.925071E-2,-4.1681942E-1,8.857757E-2,3.199537E-1,-3.4428364E-1,3.5255164E-1,-2.0969833E-1],"split_indices":[482,750,108,706,689,750,725,317,116,41,350,709,630,434,752,609,422,289,348,517,535,630,767,0,178,19,433,348,116,538,327,257,69,347,374,114,247,636,551,752,482,702,9,174,257,55,551,0,426,174,449,434,344,627,233,599,477,87,378,345,708,0,0,0,0,0,0,0,0,0,0,0,0,0,0,0,0,0,0,0,0,0,0,0,0,0,0,0,0,0,0,0,0,0,0,0,0,0,0,0,0,0,0,0,0,0,0,0,0,0,0,0,0,0,0,0,0,0,0],"split_type":[0,0,0,0,0,0,0,0,0,0,0,0,0,0,0,0,0,0,0,0,0,0,0,0,0,0,0,0,0,0,0,0,0,0,0,0,0,0,0,0,0,0,0,0,0,0,0,0,0,0,0,0,0,0,0,0,0,0,0,0,0,0,0,0,0,0,0,0,0,0,0,0,0,0,0,0,0,0,0,0,0,0,0,0,0,0,0,0,0,0,0,0,0,0,0,0,0,0,0,0,0,0,0,0,0,0,0,0,0,0,0,0,0,0,0,0,0,0,0],"sum_hessian":[5.67082E3,3.4249595E3,2.2458606E3,6.899966E2,2.7349626E3,4.1292624E2,1.8329344E3,2.4193755E2,4.4805905E2,1.9833317E3,7.5163104E2,7.711372E1,3.3581253E2,1.5949474E3,2.3798706E2,1.1339203E2,1.2854552E2,2.80623E1,4.1999677E2,1.8987461E3,8.458559E1,3.932567E2,3.5837433E2,3.314653E0,7.379907E1,2.7228317E2,6.3529346E1,2.550175E1,1.5694456E3,1.0960828E2,1.2837878E2,4.274592E1,7.064611E1,1.20039505E2,8.506017E0,1.9148193E1,8.914106E0,1.2492904E1,4.0750385E2,1.8587039E3,4.004223E1,4.457319E1,4.0012394E1,3.3857117E2,5.4685547E1,1.5440323E2,2.0397112E2,1.7065221E0,7.2092545E1,2.5218378E2,2.0099396E1,4.3626255E1,1.9903095E1,1.36552925E1,1.18464575E1,3.401487E1,1.5354307E3,2.7164357E0,1.0689184E2,6.1664467E1,6.671432E1,3.283523E1,9.910688E0,6.5740944E1,4.9051723E0,1.7294405E1,1.02745094E2,1.3436601E0,7.162357E0,1.6758854E1,2.3893392E0,7.8711553E0,1.0429511E0,6.6506095E0,5.842294E0,4.0012256E2,7.3812885E0,1.7481293E1,1.8412227E3,9.4056015E0,3.0636627E1,8.377398E0,3.619579E1,7.5833154E0,3.242908E1,1.1651783E1,3.269194E2,2.231969E1,3.2365856E1,7.406515E1,8.033808E1,1.8483934E2,1.913177E1,6.6537865E1,5.5546784E0,1.4234821E1,2.3794896E2,2.1675885E0,1.7931808E1,2.4640107E0,4.1162243E1,1.3922869E1,5.9802265E0,1.0043604E0,1.2650932E1,1.0335022E0,1.0812955E1,1.2984009E1,2.103086E1,7.1451325E0,1.5282855E3,1.6975532E0,1.0188825E0,1.0387859E2,3.0132487E0,1.1447108E1,5.0217358E1,5.3681805E1,1.3032514E1],"tree_param":{"num_deleted":"0","num_feature":"768","num_nodes":"119","size_leaf_vector":"1"}},{"base_weights":[-1.7081249E-3,-6.607034E-1,6.155478E-1,4.1303238E-1,-8.909849E-1,9.2878056E-1,-2.7606553E-1,-5.4754627E-1,8.644048E-1,3.6904946E-1,-1.002403E0,1.0560671E0,-4.0052064E-2,4.0946147E-1,-7.419923E-1,-8.352365E-1,1.0712992E0,-4.2204008E-1,1.0353743E0,8.8593197E-1,-7.9864365E-1,-1.1743454E0,-6.1056304E-1,1.128836E0,2.7168566E-1,-7.989953E-1,6.858656E-1,-1.015691E0,7.550481E-1,2.4079407E-2,-1.0830443E0,7.920705E-1,-1.0374067E0,3.6991373E-1,-2.0052017E-1,-1.1146134E0,7.262693E-1,1.1127838E0,-8.638338E-1,1.1839576E0,-1.2412021E-1,-1.1448355E0,5.267278E-1,-1.1989607E0,1.437134E-1,3.196251E-1,-8.940743E-1,-7.7677196E-1,1.1472504E0,9.079065E-1,-9.8745674E-1,-1.0159509E0,4.002915E-1,1.0897537E0,-3.3733568E-1,-1.1769406E0,5.3797513E-1,-4.7200322E-1,1.006384E0,-9.051737E-1,6.478634E-1,-2.7197963E-1,-1.175102E0,-1.3219142E-1,4.130976E-1,2.0381613E-1,-3.3328053E-1,-3.7225392E-1,1.392973E-1,-2.7844638E-1,4.093023E-1,-2.3382257E-1,3.515671E-1,2.1074085E-1,-3.5399184E-1,3.7879345E-1,-1.9473271E-1,-3.3679917E-1,2.2621153E-1,-1.4950304E-2,-4.1310516E-1,3.5254973E-1,-3.1790516E-1,2.1409619E-1,-3.6200756E-1,4.4829163E-1,-2.7293774E-1,2.4147913E-1,-1.602365E-1,-3.062021E-1,3.938876E-2,-4.296514E-1,2.558693E-1,3.5027513E-1,2.2557382E-2,3.0998576E-1,-3.0569503E-1,1.8640457E-1,-4.0237057E-1,-1.0852246E-2,-3.6917955E-1,3.3259743E-1,-1.4489202E-1,3.6227542E-1,-1.00249104E-1,-3.492614E-1,1.3198408E-1,2.2782432E-1,-3.7868318E-1,-2.1565922E-1,3.154813E-1,-3.6172312E-1,9.919346E-2,3.66662E-1,7.763262E-2,-3.907335E-1,-3.3349223E-2,3.1893876E-1,-2.1092522E-1,-2.939302E-1,1.9188446E-1,-3.633775E-1,2.3363744E-1],"categories":[],"categories_nodes":[],"categories_segments":[],"categories_sizes":[],"default_left":[0,0,0,0,0,0,0,0,0,0,0,0,0,0,0,0,0,0,0,0,0,0,0,0,0,0,0,0,0,0,0,0,0,0,0,0,0,0,0,0,0,0,0,0,0,0,0,0,0,0,0,0,0,0,0,0,0,0,0,0,0,0,0,0,0,0,0,0,0,0,0,0,0,0,0,0,0,0,0,0,0,0,0,0,0,0,0,0,0,0,0,0,0,0,0,0,0,0,0,0,0,0,0,0,0,0,0,0,0,0,0,0,0,0,0,0,0,0,0,0,0,0,0],"id":3,"left_children":[1,3,5,7,9,11,13,15,17,19,21,23,25,27,29,31,33,35,37,39,41,43,45,47,49,51,53,55,57,59,61,63,65,-1,-1,67,69,71,73,75,77,79,81,83,85,87,89,91,93,95,97,99,101,103,105,107,109,111,113,115,117,119,121,-1,-1,-1,-1,-1,-1,-1,-1,-1,-1,-1,-1,-1,-1,-1,-1,-1,-1,-1,-1,-1,-1,-1,-1,-1,-1,-1,-1,-1,-1,-1,-1,-1,-1,-1,-1,-1,-1,-1,-1,-1,-1,-1,-1,-1,-1,-1,-1,-1,-1,-1,-1,-1,-1,-1,-1,-1,-1,-1,-1],"loss_changes":[1.967669E3,5.788499E2,6.978375E2,1.7990308E2,2.7086353E2,2.2801392E2,2.0795963E2,6.279292E1,6.24449E1,9.562322E1,1.1856592E2,9.2959595E1,1.1934785E2,1.3065033E2,1.0124661E2,3.8133926E1,6.590788E0,2.7677052E1,3.758969E1,3.310321E1,2.2984083E1,4.0060425E1,1.4323149E2,5.334961E1,1.1307917E2,2.7956177E1,4.6137527E1,1.3634178E1,6.610943E1,7.0332016E1,1.969757E1,1.0052376E1,1.3543846E1,0E0,0E0,4.8550205E0,1.5322597E1,2.7735474E1,5.939105E0,1.3026901E1,2.3512808E1,9.844444E0,1.2341977E1,1.8708374E1,3.4699932E1,5.319574E1,5.4094635E1,1.7140326E1,3.2197144E1,2.365422E1,2.7860306E1,1.8871284E1,1.1132785E1,1.376651E1,2.1148727E1,8.779282E0,4.3489676E0,2.2107851E1,2.8236237E1,1.5231319E1,4.1463654E1,1.9098354E1,1.7931152E1,0E0,0E0,0E0,0E0,0E0,0E0,0E0,0E0,0E0,0E0,0E0,0E0,0E0,0E0,0E0,0E0,0E0,0E0,0E0,0E0,0E0,0E0,0E0,0E0,0E0,0E0,0E0,0E0,0E0,0E0,0E0,0E0,0E0,0E0,0E0,0E0,0E0,0E0,0E0,0E0,0E0,0E0,0E0,0E0,0E0,0E0,0E0,0E0,0E0,0E0,0E0,0E0,0E0,0E0,0E0,0E0,0E0,0E0,0E0,0E0],"parents":[2147483647,0,0,1,1,2,2,3,3,4,4,5,5,6,6,7,7,8,8,9,9,10,10,11,11,12,12,13,13,14,14,15,15,16,16,17,17,18,18,19,19,20,20,21,21,22,22,23,23,24,24,25,25,26,26,27,27,28,28,29,29,30,30,31,31,32,32,35,35,36,36,37,37,38,38,39,39,40,40,41,41,42,42,43,43,44,44,45,45,46,46,47,47,48,48,49,49,50,50,51,51,52,52,53,53,54,54,55,55,56,56,57,57,58,58,59,59,60,60,61,61,62,62],"right_children":[2,4,6,8,10,12,14,16,18,20,22,24,26,28,30,32,34,36,38,40,42,44,46,48,50,52,54,56,58,60,62,64,66,-1,-1,68,70,72,74,76,78,80,82,84,86,88,90,92,94,96,98,100,102,104,106,108,110,112,114,116,118,120,122,-1,-1,-1,-1,-1,-1,-1,-1,-1,-1,-1,-1,-1,-1,-1,-1,-1,-1,-1,-1,-1,-1,-1,-1,-1,-1,-1,-1,-1,-1,-1,-1,-1,-1,-1,-1,-1,-1,-1,-1,-1,-1,-1,-1,-1,-1,-1,-1,-1,-1,-1,-1,-1,-1,-1,-1,-1,-1,-1,-1],"split_conditions":[1.5351268E-2,2.0320587E-34,7.300621E-3,-4.455436E-3,-3.6722887E-2,1.1517476E-2,-2.0583713E-2,6.0379125E-2,-2.1174552E-2,-2.084202E-2,1.3315189E-2,1.607168E-2,-1.1210499E-2,-1.5402211E-2,-1.1134297E-2,-4.9634848E-2,4.6464773E-3,1.6983211E-2,3.4037303E-2,1.3046893E-2,2.0132208E-2,4.5794725E-2,4.1380386E-5,-4.934131E-2,-1.8242851E-3,2.572894E-2,2.1973502E-2,6.329072E-2,-5.7438994E-3,-6.8199006E-5,-1.4715103E-2,7.843543E-3,-6.963703E-2,3.6991373E-1,-2.0052017E-1,4.6157964E-2,-5.8668996E-3,-3.203749E-2,-5.3394005E-2,3.7410203E-2,-2.8927906E-3,-2.2053137E-2,-6.6692284E-3,-6.95674E-2,-1.5616507E-2,1.1736763E-2,3.311916E-2,5.1091738E-2,3.8806174E-2,1.3567021E-2,-3.1482704E-2,-1.956676E-2,-1.3314188E-3,1.4165E-2,1.6636878E-2,-5.7970483E-2,6.510644E-3,-2.9224264E-3,1.2770735E-2,-1.4712923E-2,6.553259E-3,-9.263168E-3,3.5671346E-2,-1.3219142E-1,4.130976E-1,2.0381613E-1,-3.3328053E-1,-3.7225392E-1,1.392973E-1,-2.7844638E-1,4.093023E-1,-2.3382257E-1,3.515671E-1,2.1074085E-1,-3.5399184E-1,3.7879345E-1,-1.9473271E-1,-3.3679917E-1,2.2621153E-1,-1.4950304E-2,-4.1310516E-1,3.5254973E-1,-3.1790516E-1,2.1409619E-1,-3.6200756E-1,4.4829163E-1,-2.7293774E-1,2.4147913E-1,-1.602365E-1,-3.062021E-1,3.938876E-2,-4.296514E-1,2.558693E-1,3.5027513E-1,2.2557382E-2,3.0998576E-1,-3.0569503E-1,1.8640457E-1,-4.0237057E-1,-1.0852246E-2,-3.6917955E-1,3.3259743E-1,-1.4489202E-1,3.6227542E-1,-1.00249104E-1,-3.492614E-1,1.3198408E-1,2.2782432E-1,-3.7868318E-1,-2.1565922E-1,3.154813E-1,-3.6172312E-1,9.919346E-2,3.66662E-1,7.763262E-2,-3.907335E-1,-3.3349223E-2,3.1893876E-1,-2.1092522E-1,-2.939302E-1,1.9188446E-1,-3.633775E-1,2.3363744E-1],"split_indices":[418,756,422,752,482,603,708,483,211,116,679,354,287,327,41,702,354,610,191,384,288,643,544,82,210,327,709,401,511,423,135,681,459,0,0,327,533,745,497,22,431,553,388,274,706,630,423,673,636,727,118,596,388,482,437,706,745,761,350,35,171,472,458,0,0,0,0,0,0,0,0,0,0,0,0,0,0,0,0,0,0,0,0,0,0,0,0,0,0,0,0,0,0,0,0,0,0,0,0,0,0,0,0,0,0,0,0,0,0,0,0,0,0,0,0,0,0,0,0,0,0,0,0],"split_type":[0,0,0,0,0,0,0,0,0,0,0,0,0,0,0,0,0,0,0,0,0,0,0,0,0,0,0,0,0,0,0,0,0,0,0,0,0,0,0,0,0,0,0,0,0,0,0,0,0,0,0,0,0,0,0,0,0,0,0,0,0,0,0,0,0,0,0,0,0,0,0,0,0,0,0,0,0,0,0,0,0,0,0,0,0,0,0,0,0,0,0,0,0,0,0,0,0,0,0,0,0,0,0,0,0,0,0,0,0,0,0,0,0,0,0,0,0,0,0,0,0,0,0],"sum_hessian":[4.8353164E3,2.3385554E3,2.4967612E3,4.1283438E2,1.9257211E3,1.8476287E3,6.4913245E2,1.3190675E2,2.8092764E2,1.5625969E2,1.7694614E3,1.6329938E3,2.14635E2,2.627154E2,3.8641702E2,1.1241345E2,1.9493303E1,3.2783386E1,2.4814426E2,1.084814E2,4.7778286E1,1.2284232E3,5.410382E2,1.4939567E3,1.3903706E2,1.0488137E2,1.0975362E2,5.0894474E1,2.1182094E2,1.1932295E2,2.670941E2,1.210004E1,1.0031341E2,1.8101562E1,1.3917415E0,2.0467987E1,1.2315398E1,2.3882413E2,9.320123E0,8.3632614E1,2.4848785E1,3.7991093E1,9.787193E0,1.2059911E3,2.2432032E1,1.2635281E2,4.146854E2,1.3904095E1,1.4800526E3,9.25515E1,4.6485573E1,8.894394E1,1.5937433E1,7.864503E1,3.1108587E1,4.632866E1,4.5658145E0,3.5861736E1,1.759592E2,4.7745384E1,7.157757E1,2.7628704E1,2.3946538E2,3.9732268E0,8.126814E0,3.7814543E0,9.653196E1,1.9151028E1,1.3169607E0,3.3012156E0,9.014182E0,6.865033E0,2.3195909E2,1.3600008E0,7.9601216E0,8.048869E1,3.1439164E0,1.1497119E1,1.3351667E1,6.8587785E0,3.1132313E1,7.1314697E0,2.6557233E0,4.4875984E0,1.2015035E3,9.646645E0,1.2785387E1,8.059592E1,4.57569E1,3.6911633E2,4.5569088E1,1.0002578E1,3.9015174E0,1.452416E3,2.7636522E1,8.7332664E1,5.218834E0,8.243228E0,3.8242344E1,1.6193926E1,7.2750015E1,8.702758E0,7.234676E0,7.277475E1,5.870277E0,1.4832291E1,1.6276297E1,1.6221342E0,4.4706528E1,1.2086636E0,3.3571508E0,1.847271E1,1.7389027E1,1.3604916E2,3.9910027E1,3.1396343E1,1.6349041E1,5.4911457E1,1.666611E1,1.5510854E1,1.211785E1,2.3548781E2,3.9775672E0],"tree_param":{"num_deleted":"0","num_feature":"768","num_nodes":"123","size_leaf_vector":"1"}},{"base_weights":[-1.8331162E-3,5.315844E-1,-6.3478124E-1,8.3091724E-1,-2.9702392E-1,-9.5351654E-1,-7.358956E-3,9.892612E-1,2.0645559E-1,4.9863958E-1,-6.9015753E-1,-1.0309054E0,-7.280464E-2,5.90167E-1,-5.350318E-1,8.525881E-2,1.0532107E0,-3.6595246E-1,8.3186173E-1,9.8299617E-1,-3.128479E-1,-9.6730536E-1,1.2026026E-1,-1.0680802E0,2.1140578E-1,5.7666296E-1,-7.7301073E-1,9.9680734E-1,-7.6283716E-2,-9.02971E-1,1.0374777E-1,7.435397E-1,-7.6487285E-1,1.0820996E0,-1.155717E-1,3.6777773E-1,-8.980608E-1,9.758085E-1,-7.179229E-1,1.1145082E0,-4.56625E-1,6.613534E-1,-8.759785E-1,2.569442E-1,-1.0794996E0,8.077214E-1,-4.5864356E-1,-1.3888763E-1,-1.0949184E0,-7.851013E-1,8.70612E-1,-6.542766E-1,9.596114E-1,-1.0833124E0,4.256798E-1,1.065207E0,-9.885572E-1,5.791013E-1,-5.715331E-1,2.4641776E-1,-9.962335E-1,8.748599E-1,-4.8455858E-1,3.1443655E-1,-2.0861179E-1,2.2268456E-1,-2.9223308E-1,3.3741894E-1,1.4445752E-1,-2.9130194E-1,2.4133061E-1,-2.9304805E-1,1.916904E-1,-1.2056195E-2,-3.595567E-1,-5.5790924E-2,3.3472905E-1,2.458512E-1,-3.9561576E-1,1.2475842E-1,3.8110197E-1,2.1423052E-1,-3.2876235E-1,3.7697455E-1,-1.2838121E-1,9.023674E-2,-3.3388948E-1,2.6900727E-1,-3.3673292E-1,-3.2927772E-1,4.5904732E-1,-4.7871027E-2,3.3549473E-1,-3.323245E-1,1.3310377E-3,2.6295877E-1,-2.9784596E-1,-2.1415028E-1,-3.436455E-1,-3.33741E-1,1.23226546E-1,3.6092672E-1,-9.135318E-2,9.69449E-2,-3.591422E-1,-9.457906E-2,3.5032415E-1,-3.7068546E-1,4.0421516E-2,-2.6540807E-1,2.7369505E-1,3.361431E-1,-2.5826794E-1,5.0593268E-2,-3.7008235E-1,2.6078668E-1,-2.3452178E-1,1.9842716E-1,-2.7578998E-1,2.4916118E-1,-2.7095246E-1,-3.1441352E-1,2.561486E-1,-1.5821488E-1,3.33935E-1,1.707933E-1,-2.6031014E-1],"categories":[],"categories_nodes":[],"categories_segments":[],"categories_sizes":[],"default_left":[0,0,0,0,0,0,0,0,0,0,0,0,0,0,0,0,0,0,0,0,0,0,0,0,0,0,0,0,0,0,0,0,0,0,0,0,0,0,0,0,0,0,0,0,0,0,0,0,0,0,0,0,0,0,0,0,0,0,0,0,0,0,0,0,0,0,0,0,0,0,0,0,0,0,0,0,0,0,0,0,0,0,0,0,0,0,0,0,0,0,0,0,0,0,0,0,0,0,0,0,0,0,0,0,0,0,0,0,0,0,0,0,0,0,0,0,0,0,0,0,0,0,0,0,0,0,0],"id":4,"left_children":[1,3,5,7,9,11,13,15,17,19,21,23,25,27,29,31,33,35,37,39,41,43,45,47,49,51,53,55,57,59,61,63,65,67,69,71,73,75,77,79,81,83,85,87,89,91,93,95,97,99,101,103,105,107,109,111,113,115,117,119,121,123,125,-1,-1,-1,-1,-1,-1,-1,-1,-1,-1,-1,-1,-1,-1,-1,-1,-1,-1,-1,-1,-1,-1,-1,-1,-1,-1,-1,-1,-1,-1,-1,-1,-1,-1,-1,-1,-1,-1,-1,-1,-1,-1,-1,-1,-1,-1,-1,-1,-1,-1,-1,-1,-1,-1,-1,-1,-1,-1,-1,-1,-1,-1,-1,-1],"loss_changes":[1.3735676E3,5.4783264E2,3.720738E2,1.6019019E2,1.8384236E2,8.401648E1,1.9825545E2,7.470166E1,1.1821878E2,7.678604E1,8.839749E1,5.259973E1,4.625522E1,7.999067E1,7.8571846E1,4.9010414E1,4.0918823E1,6.774555E1,3.5883385E1,2.3623955E1,4.0894547E1,4.052179E1,4.0586346E1,2.7311035E1,2.2876497E1,2.5532452E1,1.8649895E1,2.593254E1,3.6902023E1,2.2967651E1,5.6192684E1,2.2332005E1,1.2791206E1,2.9647217E1,2.442722E1,2.7350317E1,2.5825089E1,2.3740051E1,1.3993305E1,1.1682877E1,8.961645E0,1.8360588E1,1.3441662E1,2.3425264E1,1.4361328E1,1.4165728E1,1.6685986E1,2.8669977E1,1.9805542E1,5.928628E0,8.495883E0,7.3542366E0,1.1168243E1,7.4251366E0,7.6771393E0,1.986995E1,2.0853982E0,2.0026627E1,2.8341553E1,1.1971113E1,1.9707306E1,1.8480267E1,2.891048E1,0E0,0E0,0E0,0E0,0E0,0E0,0E0,0E0,0E0,0E0,0E0,0E0,0E0,0E0,0E0,0E0,0E0,0E0,0E0,0E0,0E0,0E0,0E0,0E0,0E0,0E0,0E0,0E0,0E0,0E0,0E0,0E0,0E0,0E0,0E0,0E0,0E0,0E0,0E0,0E0,0E0,0E0,0E0,0E0,0E0,0E0,0E0,0E0,0E0,0E0,0E0,0E0,0E0,0E0,0E0,0E0,0E0,0E0,0E0,0E0,0E0,0E0,0E0,0E0],"parents":[2147483647,0,0,1,1,2,2,3,3,4,4,5,5,6,6,7,7,8,8,9,9,10,10,11,11,12,12,13,13,14,14,15,15,16,16,17,17,18,18,19,19,20,20,21,21,22,22,23,23,24,24,25,25,26,26,27,27,28,28,29,29,30,30,31,31,32,32,33,33,34,34,35,35,36,36,37,37,38,38,39,39,40,40,41,41,42,42,43,43,44,44,45,45,46,46,47,47,48,48,49,49,50,50,51,51,52,52,53,53,54,54,55,55,56,56,57,57,58,58,59,59,60,60,61,61,62,62],"right_children":[2,4,6,8,10,12,14,16,18,20,22,24,26,28,30,32,34,36,38,40,42,44,46,48,50,52,54,56,58,60,62,64,66,68,70,72,74,76,78,80,82,84,86,88,90,92,94,96,98,100,102,104,106,108,110,112,114,116,118,120,122,124,126,-1,-1,-1,-1,-1,-1,-1,-1,-1,-1,-1,-1,-1,-1,-1,-1,-1,-1,-1,-1,-1,-1,-1,-1,-1,-1,-1,-1,-1,-1,-1,-1,-1,-1,-1,-1,-1,-1,-1,-1,-1,-1,-1,-1,-1,-1,-1,-1,-1,-1,-1,-1,-1,-1,-1,-1,-1,-1,-1,-1,-1,-1,-1,-1],"split_conditions":[6.5637664E-3,-2.7380164E-3,6.4163045E-3,7.912479E-3,-4.7923554E-2,4.473853E-2,-1.3789381E-2,-9.16251E-3,4.188908E-2,1.4483818E-2,8.086445E-3,4.9948487E-2,-5.587569E-3,-5.0941603E-3,1.113923E-3,-9.471729E-3,6.390331E-2,-4.002758E-2,6.491175E-2,2.1936053E-2,-2.3994481E-2,1.7124572E-34,-3.0802269E-2,-5.5212006E-2,-7.357092E-3,-9.715093E-3,4.650705E-2,6.996765E-2,-4.0597945E-2,2.3673032E-7,-3.1537417E-2,1.3603231E-2,-6.676663E-2,2.672326E-2,-3.310781E-3,-4.3952726E-2,2.2569193E-34,-3.4052882E-2,-2.2068778E-2,-5.1741386E-3,-5.36413E-4,5.959278E-3,-1.06340675E-2,2.2477366E-2,6.689352E-2,1.0074862E-2,6.248218E-3,5.9587294E-3,-3.244833E-2,1.5022829E-2,-5.5227866E-3,-7.03763E-3,-1.0056227E-3,4.212161E-2,-4.5729805E-2,4.498978E-2,-1.44276945E-2,5.0032347E-2,-2.5200589E-2,3.1446476E-2,8.223728E-2,3.5035003E-3,-3.0444665E-2,3.1443655E-1,-2.0861179E-1,2.2268456E-1,-2.9223308E-1,3.3741894E-1,1.4445752E-1,-2.9130194E-1,2.4133061E-1,-2.9304805E-1,1.916904E-1,-1.2056195E-2,-3.595567E-1,-5.5790924E-2,3.3472905E-1,2.458512E-1,-3.9561576E-1,1.2475842E-1,3.8110197E-1,2.1423052E-1,-3.2876235E-1,3.7697455E-1,-1.2838121E-1,9.023674E-2,-3.3388948E-1,2.6900727E-1,-3.3673292E-1,-3.2927772E-1,4.5904732E-1,-4.7871027E-2,3.3549473E-1,-3.323245E-1,1.3310377E-3,2.6295877E-1,-2.9784596E-1,-2.1415028E-1,-3.436455E-1,-3.33741E-1,1.23226546E-1,3.6092672E-1,-9.135318E-2,9.69449E-2,-3.591422E-1,-9.457906E-2,3.5032415E-1,-3.7068546E-1,4.0421516E-2,-2.6540807E-1,2.7369505E-1,3.361431E-1,-2.5826794E-1,5.0593268E-2,-3.7008235E-1,2.6078668E-1,-2.3452178E-1,1.9842716E-1,-2.7578998E-1,2.4916118E-1,-2.7095246E-1,-3.1441352E-1,2.561486E-1,-1.5821488E-1,3.33935E-1,1.707933E-1,-2.6031014E-1],"split_indices":[257,517,327,41,116,418,517,747,627,753,725,411,354,689,725,482,11,116,365,19,491,756,369,553,287,694,673,41,344,688,344,303,116,498,723,707,756,489,596,761,697,147,382,706,672,121,232,454,108,483,183,263,577,545,707,666,736,403,422,596,466,217,534,0,0,0,0,0,0,0,0,0,0,0,0,0,0,0,0,0,0,0,0,0,0,0,0,0,0,0,0,0,0,0,0,0,0,0,0,0,0,0,0,0,0,0,0,0,0,0,0,0,0,0,0,0,0,0,0,0,0,0,0,0,0,0,0],"split_type":[0,0,0,0,0,0,0,0,0,0,0,0,0,0,0,0,0,0,0,0,0,0,0,0,0,0,0,0,0,0,0,0,0,0,0,0,0,0,0,0,0,0,0,0,0,0,0,0,0,0,0,0,0,0,0,0,0,0,0,0,0,0,0,0,0,0,0,0,0,0,0,0,0,0,0,0,0,0,0,0,0,0,0,0,0,0,0,0,0,0,0,0,0,0,0,0,0,0,0,0,0,0,0,0,0,0,0,0,0,0,0,0,0,0,0,0,0,0,0,0,0,0,0,0,0,0,0],"sum_hessian":[4.066317E3,2.206743E3,1.8595741E3,1.6211157E3,5.8562726E2,1.2327883E3,6.267857E2,1.2927345E3,3.2838126E2,1.935774E2,3.9204987E2,1.1330554E3,9.973298E1,2.9388165E2,3.3290402E2,8.5560936E1,1.2071735E3,1.7167195E2,1.5670929E2,1.2109029E2,7.2487114E1,2.919983E2,1.00051575E2,1.1002711E3,3.2784218E1,5.1832664E1,4.7900314E1,1.8220941E2,1.1167226E2,2.1097061E2,1.219334E2,4.8292263E1,3.7268677E1,1.1781278E3,2.9045652E1,7.22939E1,9.9378044E1,1.4372977E2,1.2979523E1,1.1116133E2,9.928952E0,2.6488417E1,4.59987E1,2.4404913E1,2.6759338E2,4.5556713E1,5.4494865E1,3.1060703E1,1.0692104E3,1.2976682E1,1.9807535E1,1.2130898E1,3.9701767E1,3.8126793E1,9.773522E0,1.7658904E2,5.620366E0,4.799245E1,6.367981E1,1.5710355E1,1.9526027E2,5.2557503E1,6.93759E1,4.007992E1,8.212339E0,4.23269E0,3.3035988E1,1.0992291E3,7.889868E1,1.5022292E1,1.402336E1,1.1696886E1,6.0597015E1,2.6071846E1,7.33062E1,1.5417656E1,1.2831212E2,3.5446908E0,9.434832E0,2.0941618E1,9.021971E1,3.4653633E0,6.463589E0,1.7029367E1,9.459048E0,7.6655912E0,3.8333107E1,1.691147E1,7.4934425E0,2.6632635E2,1.2670201E0,1.1190891E1,3.436582E1,2.211038E1,3.2384487E1,1.4176665E1,1.6884037E1,1.2702571E2,9.4218475E2,1.0242501E1,2.734181E0,1.542075E1,4.3867855E0,4.476213E0,7.654685E0,5.499778E0,3.420199E1,3.3876442E1,4.25035E0,2.4251955E0,7.348327E0,1.7206972E2,4.519317E0,1.0366755E0,4.5836906E0,3.985494E1,8.137511E0,1.38114395E1,4.986837E1,1.0601277E1,5.109077E0,1.9036261E2,4.8976564E0,7.4569077E0,4.5100594E1,1.8367733E1,5.1008167E1],"tree_param":{"num_deleted":"0","num_feature":"768","num_nodes":"127","size_leaf_vector":"1"}},{"base_weights":[-1.8383715E-3,-5.863129E-1,4.5471746E-1,4.870897E-1,-8.058076E-1,7.3747945E-1,-2.7788284E-1,-2.6787928E-1,8.245339E-1,-9.511293E-1,-1.428549E-1,9.366053E-1,1.8187106E-1,2.3410581E-1,-7.36991E-1,-8.4157616E-1,3.959959E-1,-7.4471676E-1,9.3243444E-1,-2.5970468E-1,-1.0276424E0,5.6345433E-1,-6.012331E-1,-1.4904663E-1,9.841646E-1,-3.1472892E-1,6.6229105E-1,-3.544373E-1,6.907429E-1,-8.8516235E-1,4.4805872E-1,-1.1097959E0,9.3511105E-2,9.138926E-1,-5.065697E-1,2.3152955E-1,-1.1288875E0,9.8769385E-1,-8.7456864E-1,3.2282287E-1,-8.405698E-1,-1.0535412E0,6.387782E-1,8.243201E-1,-8.274574E-1,3.8646293E-1,-8.854183E-1,-1.0844502E0,6.2478083E-1,1.0275041E0,-1.591241E-3,-8.85962E-1,1.5076475E-1,-3.7231088E-1,8.4972364E-1,-8.942411E-1,2.8378707E-1,9.145482E-1,-3.3660537E-1,-7.769012E-2,-9.9421096E-1,1.0624112E0,-6.5934426E-1,-3.5672724E-1,7.611109E-2,2.9250976E-1,-2.3463002E-1,-1.0814406E-1,3.6261904E-1,1.2228573E-1,-3.674273E-1,-3.6803696E-1,-4.0003903E-2,3.085237E-1,-2.7203372E-1,2.0942879E-1,-4.8131698E-1,2.7321237E-1,-1.0560117E-1,1.3526183E-1,-3.1046098E-1,-1.0492905E-1,-3.2481676E-1,-2.2510311E-1,3.3975923E-1,-1.1920466E-1,3.174817E-1,2.9906702E-1,-3.1415024E-1,2.6071694E-1,-1.5283239E-1,2.4128257E-1,-2.9465842E-1,2.1812947E-1,-3.801289E-1,3.0580223E-1,-1.8644011E-1,2.5238717E-2,3.158957E-1,2.357964E-1,-3.19137E-1,2.8438926E-1,-3.0456114E-1,1.7862393E-1,-1.805891E-1,-2.964338E-1,1.6325969E-1,-8.928843E-2,3.0038002E-1,-3.060841E-1,2.6599422E-1,-1.8942119E-1,2.1741079E-1,-3.711366E-2,3.129268E-1,3.1461284E-1,-2.613412E-1,-2.3568065E-1,1.8298064E-1,-3.1442836E-1,5.0057385E-2,4.1590792E-1,-6.533959E-2,3.0175993E-1,-3.257998E-1],"categories":[],"categories_nodes":[],"categories_segments":[],"categories_sizes":[],"default_left":[0,0,0,0,0,0,0,0,0,0,0,0,0,0,0,0,0,0,0,0,0,0,0,0,0,0,0,0,0,0,0,0,0,0,0,0,0,0,0,0,0,0,0,0,0,0,0,0,0,0,0,0,0,0,0,0,0,0,0,0,0,0,0,0,0,0,0,0,0,0,0,0,0,0,0,0,0,0,0,0,0,0,0,0,0,0,0,0,0,0,0,0,0,0,0,0,0,0,0,0,0,0,0,0,0,0,0,0,0,0,0,0,0,0,0,0,0,0,0,0,0,0,0,0,0],"id":5,"left_children":[1,3,5,7,9,11,13,15,17,19,21,23,25,27,29,31,33,35,37,39,41,43,45,47,49,51,53,55,57,59,61,63,65,67,69,-1,71,73,75,77,79,81,83,85,87,89,91,93,95,97,99,101,103,105,107,109,111,113,115,117,119,121,123,-1,-1,-1,-1,-1,-1,-1,-1,-1,-1,-1,-1,-1,-1,-1,-1,-1,-1,-1,-1,-1,-1,-1,-1,-1,-1,-1,-1,-1,-1,-1,-1,-1,-1,-1,-1,-1,-1,-1,-1,-1,-1,-1,-1,-1,-1,-1,-1,-1,-1,-1,-1,-1,-1,-1,-1,-1,-1,-1,-1,-1,-1],"loss_changes":[9.0974695E2,3.526643E2,3.9671295E2,6.5046585E1,1.19492615E2,1.5265393E2,1.2563983E2,3.055717E1,3.0512482E1,5.3603638E1,7.299875E1,5.2638855E1,8.745205E1,6.826869E1,4.985338E1,1.0860821E1,1.7976353E1,7.7956324E0,1.7361282E1,3.5053974E1,4.0227173E1,3.2917892E1,3.8680027E1,3.219034E1,4.1617554E1,4.8127335E1,3.642237E1,3.857937E1,3.3156616E1,2.1997192E1,2.2448793E1,3.9135857E0,8.853646E0,9.514643E0,9.890486E0,0E0,8.0027485E-1,1.3335358E1,7.3556776E0,2.0968449E1,1.3451656E1,1.8163147E1,1.089678E1,2.1945782E1,6.867935E0,1.39384575E1,1.818396E1,7.5637474E0,1.2660929E1,2.2341553E1,3.599039E1,2.0205269E1,3.3930443E1,1.7047789E1,2.7759377E1,1.4486889E1,2.133355E1,1.5821152E1,2.0378845E1,1.5526683E1,1.3987473E1,8.987705E0,9.634668E0,0E0,0E0,0E0,0E0,0E0,0E0,0E0,0E0,0E0,0E0,0E0,0E0,0E0,0E0,0E0,0E0,0E0,0E0,0E0,0E0,0E0,0E0,0E0,0E0,0E0,0E0,0E0,0E0,0E0,0E0,0E0,0E0,0E0,0E0,0E0,0E0,0E0,0E0,0E0,0E0,0E0,0E0,0E0,0E0,0E0,0E0,0E0,0E0,0E0,0E0,0E0,0E0,0E0,0E0,0E0,0E0,0E0,0E0,0E0,0E0,0E0,0E0],"parents":[2147483647,0,0,1,1,2,2,3,3,4,4,5,5,6,6,7,7,8,8,9,9,10,10,11,11,12,12,13,13,14,14,15,15,16,16,17,17,18,18,19,19,20,20,21,21,22,22,23,23,24,24,25,25,26,26,27,27,28,28,29,29,30,30,31,31,32,32,33,33,34,34,36,36,37,37,38,38,39,39,40,40,41,41,42,42,43,43,44,44,45,45,46,46,47,47,48,48,49,49,50,50,51,51,52,52,53,53,54,54,55,55,56,56,57,57,58,58,59,59,60,60,61,61,62,62],"right_children":[2,4,6,8,10,12,14,16,18,20,22,24,26,28,30,32,34,36,38,40,42,44,46,48,50,52,54,56,58,60,62,64,66,68,70,-1,72,74,76,78,80,82,84,86,88,90,92,94,96,98,100,102,104,106,108,110,112,114,116,118,120,122,124,-1,-1,-1,-1,-1,-1,-1,-1,-1,-1,-1,-1,-1,-1,-1,-1,-1,-1,-1,-1,-1,-1,-1,-1,-1,-1,-1,-1,-1,-1,-1,-1,-1,-1,-1,-1,-1,-1,-1,-1,-1,-1,-1,-1,-1,-1,-1,-1,-1,-1,-1,-1,-1,-1,-1,-1,-1,-1,-1,-1,-1,-1],"split_conditions":[2.0122488E-3,-5.9124127E-2,-2.7380164E-3,-8.956066E-3,2.9981209E-2,6.3922196E-3,2.5842814E-3,4.8563257E-3,-3.1014422E-2,2.4588383E-7,-1.8540269E-2,-3.0726328E-2,1.8830098E-2,8.562415E-3,3.0655298E-2,1.6195178E-2,-1.8980077E-2,-3.883563E-2,6.601342E-2,-7.988643E-3,1.1380617E-1,2.672326E-2,2.0593862E-34,5.3659338E-3,1.3861552E-2,8.924449E-3,-3.9589655E-2,-6.534354E-3,2.0603552E-3,-3.368193E-2,-7.5930865E-3,3.231265E-2,-1.7525936E-2,-2.5457911E-2,-3.7952028E-3,2.3152955E-1,7.6222806E-3,4.546242E-2,1.1211588E-2,-1.32857E-3,-4.0641952E-2,-5.1138528E-2,-7.339604E-3,-3.0118005E-2,-6.437791E-2,3.1958355E-3,-5.4611992E-2,-5.6869455E-2,7.489436E-3,-6.372893E-2,2.2008625E-34,-5.591057E-2,1.0422957E-2,2.0476107E-2,-3.0145112E-2,7.810709E-2,-5.6723477E-3,-2.2170374E-2,-1.2994839E-2,7.1254284E-3,6.2493682E-2,-2.6450785E-2,-2.382649E-2,-3.5672724E-1,7.611109E-2,2.9250976E-1,-2.3463002E-1,-1.0814406E-1,3.6261904E-1,1.2228573E-1,-3.674273E-1,-3.6803696E-1,-4.0003903E-2,3.085237E-1,-2.7203372E-1,2.0942879E-1,-4.8131698E-1,2.7321237E-1,-1.0560117E-1,1.3526183E-1,-3.1046098E-1,-1.0492905E-1,-3.2481676E-1,-2.2510311E-1,3.3975923E-1,-1.1920466E-1,3.174817E-1,2.9906702E-1,-3.1415024E-1,2.6071694E-1,-1.5283239E-1,2.4128257E-1,-2.9465842E-1,2.1812947E-1,-3.801289E-1,3.0580223E-1,-1.8644011E-1,2.5238717E-2,3.158957E-1,2.357964E-1,-3.19137E-1,2.8438926E-1,-3.0456114E-1,1.7862393E-1,-1.805891E-1,-2.964338E-1,1.6325969E-1,-8.928843E-2,3.0038002E-1,-3.060841E-1,2.6599422E-1,-1.8942119E-1,2.1741079E-1,-3.711366E-2,3.129268E-1,3.1461284E-1,-2.613412E-1,-2.3568065E-1,1.8298064E-1,-3.1442836E-1,5.0057385E-2,4.1590792E-1,-6.533959E-2,3.0175993E-1,-3.257998E-1],"split_indices":[327,116,517,472,431,422,708,437,657,688,108,752,752,745,9,148,387,538,403,767,203,498,756,317,62,526,489,69,387,41,441,643,183,260,183,0,746,481,380,706,597,342,443,720,41,517,70,619,618,489,756,145,498,401,750,483,565,752,382,418,477,181,43,0,0,0,0,0,0,0,0,0,0,0,0,0,0,0,0,0,0,0,0,0,0,0,0,0,0,0,0,0,0,0,0,0,0,0,0,0,0,0,0,0,0,0,0,0,0,0,0,0,0,0,0,0,0,0,0,0,0,0,0,0,0],"split_type":[0,0,0,0,0,0,0,0,0,0,0,0,0,0,0,0,0,0,0,0,0,0,0,0,0,0,0,0,0,0,0,0,0,0,0,0,0,0,0,0,0,0,0,0,0,0,0,0,0,0,0,0,0,0,0,0,0,0,0,0,0,0,0,0,0,0,0,0,0,0,0,0,0,0,0,0,0,0,0,0,0,0,0,0,0,0,0,0,0,0,0,0,0,0,0,0,0,0,0,0,0,0,0,0,0,0,0,0,0,0,0,0,0,0,0,0,0,0,0,0,0,0,0,0,0],"sum_hessian":[3.4072688E3,1.4941722E3,1.9130966E3,2.534581E2,1.2407142E3,1.3803253E3,5.327713E2,7.835636E1,1.7510173E2,1.0172865E3,2.234277E2,1.01564136E3,3.646839E2,2.5211148E2,2.8065982E2,4.1889393E1,3.646697E1,1.0885581E1,1.6421616E2,1.0179466E2,9.154918E2,8.784273E1,1.3558498E2,4.2535522E1,9.7310583E2,1.7949185E2,1.8519205E2,1.10244774E2,1.418667E2,2.4969283E2,3.0967007E1,3.2406963E1,9.4824295E0,2.3163237E1,1.3303734E1,1.9963284E0,8.889253E0,1.5978328E2,4.4328756E0,5.10464E1,5.074826E1,9.0184357E2,1.3648275E1,7.431271E1,1.3530011E1,3.0214272E1,1.0537071E2,1.9075556E1,2.3459967E1,9.3208374E2,4.1022125E1,8.018685E1,9.930501E1,2.8253004E1,1.5693906E2,5.9510365E1,5.0734413E1,1.16579865E2,2.5286839E1,2.9912455E1,2.1978036E2,1.9943567E1,1.1023439E1,3.0746786E1,1.6601782E0,4.6686854E0,4.8137436E0,4.310287E0,1.885295E1,6.043427E0,7.260307E0,7.8818593E0,1.0073929E0,1.568688E2,2.9144754E0,1.4188718E0,3.0140038E0,2.7093748E1,2.3952652E1,6.4639864E0,4.4284275E1,3.6422245E1,8.654213E2,3.4427564E0,1.0205519E1,1.1831528E1,6.2481186E1,1.0740882E0,1.2455923E1,1.9656137E1,1.0558135E1,5.312097E0,1.0005862E2,1.4740905E0,1.7601465E1,1.7956911E1,5.503055E0,2.4627523E1,9.074562E2,2.3705473E1,1.7316652E1,4.861919E0,7.532493E1,6.2559273E1,3.674574E1,1.6852024E1,1.140098E1,1.8197739E1,1.3874132E2,5.597587E1,3.534496E0,1.6354984E1,3.4379425E1,1.2847202E1,1.03732666E2,6.7726474E0,1.851419E1,1.4668606E1,1.5243848E1,2.10126E2,9.65436E0,1.5849933E1,4.0936346E0,1.9714432E0,9.051996E0],"tree_param":{"num_deleted":"0","num_feature":"768","num_nodes":"125","size_leaf_vector":"1"}},{"base_weights":[-2.2561043E-3,3.4238875E-1,-6.592886E-1,-4.544011E-1,5.5588526E-1,7.98874E-3,-8.8431627E-1,1.16524585E-1,-8.1387746E-1,7.694117E-1,1.014659E-2,-6.851706E-1,4.6100703E-1,-1.004544E0,-4.2979282E-1,-4.0711758E-1,6.789684E-1,-9.2243814E-1,1.0494768E-1,9.521792E-1,2.8152528E-1,6.6861075E-1,-5.630609E-1,-9.793972E-1,-1.9286769E-2,7.797457E-1,-4.5037937E-1,-2.6591262E-1,-1.0656811E0,-7.199255E-1,5.4799175E-1,-6.866273E-1,7.0847213E-1,8.214095E-1,-1.0474898E0,2.0851426E-1,-9.974056E-1,-7.980828E-1,1.0037018E0,3.32267E-1,1.0343143E0,6.9018376E-1,-3.3345726E-1,-3.2752523E-1,8.489995E-1,-7.772818E-1,4.7334197E-1,3.6134195E-1,-1.0915989E0,-1.038332E0,6.828321E-1,9.37612E-1,-6.175387E-1,-1.0486342E0,2.6618138E-1,-9.0600926E-1,2.8609553E-1,-1.0737382E0,2.3606227E-1,-8.886417E-1,2.1404487E-1,9.984815E-1,-7.912873E-1,-2.5205955E-1,2.3669991E-1,3.255856E-1,-1.0061512E-1,2.7959546E-1,-2.8589568E-1,-3.7097338E-1,-1.1604073E-2,3.735969E-1,-1.3569231E-1,-3.123877E-1,-2.0050706E-2,-3.2318348E-1,1.3670684E-1,5.274653E-1,-1.7334765E-1,-1.613176E-1,1.9635434E-1,-6.281111E-2,3.1593812E-1,2.727655E-1,-1.0391996E-1,2.4909725E-2,-3.2276896E-1,-2.9601973E-1,2.1777318E-1,1.1281008E-2,2.9349306E-1,-1.06656015E-1,-3.388003E-1,-1.3632518E-1,3.6065528E-1,-1.8175593E-1,3.6630237E-1,-1.1285385E-2,-3.504272E-1,-3.3391312E-1,-5.4476585E-2,-2.3533449E-1,2.9195118E-1,-2.6257968E-1,3.0854E-1,-2.8908816E-1,2.484493E-1,-3.661483E-1,1.7139179E-1,2.4096005E-1,-2.3165914E-1,-3.1552553E-1,1.4407392E-1,-1.6647483E-1,3.0077326E-1,-3.242475E-1,1.6673064E-1,-2.8229097E-1,3.9854196E-1,-2.314531E-1,2.4937017E-1,3.638447E-1,-2.5420278E-1,5.9691094E-2,-3.248798E-1],"categories":[],"categories_nodes":[],"categories_segments":[],"categories_sizes":[],"default_left":[0,0,0,0,0,0,0,0,0,0,0,0,0,0,0,0,0,0,0,0,0,0,0,0,0,0,0,0,0,0,0,0,0,0,0,0,0,0,0,0,0,0,0,0,0,0,0,0,0,0,0,0,0,0,0,0,0,0,0,0,0,0,0,0,0,0,0,0,0,0,0,0,0,0,0,0,0,0,0,0,0,0,0,0,0,0,0,0,0,0,0,0,0,0,0,0,0,0,0,0,0,0,0,0,0,0,0,0,0,0,0,0,0,0,0,0,0,0,0,0,0,0,0,0,0],"id":6,"left_children":[1,3,5,7,9,11,13,15,17,19,21,23,25,27,29,31,33,35,37,39,41,43,45,47,49,51,53,55,57,59,61,63,65,67,69,71,73,75,77,79,81,83,85,87,89,91,93,95,97,99,101,103,105,107,109,111,113,115,-1,117,119,121,123,-1,-1,-1,-1,-1,-1,-1,-1,-1,-1,-1,-1,-1,-1,-1,-1,-1,-1,-1,-1,-1,-1,-1,-1,-1,-1,-1,-1,-1,-1,-1,-1,-1,-1,-1,-1,-1,-1,-1,-1,-1,-1,-1,-1,-1,-1,-1,-1,-1,-1,-1,-1,-1,-1,-1,-1,-1,-1,-1,-1,-1,-1],"loss_changes":[6.4862946E2,3.1987152E2,1.4799411E2,8.169586E1,1.7272131E2,7.867347E1,3.984381E1,4.5777863E1,2.4445908E1,9.473395E1,1.5809608E2,1.9382992E1,4.436283E1,2.600299E1,4.4626892E1,2.5628933E1,1.9270397E1,1.872612E1,2.24641E1,3.9098267E1,7.3556015E1,3.5305367E1,5.008705E1,1.0723427E1,2.31523E1,2.5420189E1,1.7379734E1,1.6452814E1,8.86438E0,1.9205418E1,2.2658604E1,1.5389406E1,6.9118376E0,1.456691E1,1.1243982E0,1.0432827E1,8.302887E0,5.3464966E0,1.7507738E1,2.6172787E1,1.621344E1,4.0187347E1,3.6315186E1,2.197211E1,1.7309036E1,2.7210281E1,2.6904594E1,5.7731204E0,5.0841904E0,6.423292E-1,8.93213E0,1.763137E1,6.8195057E0,6.806137E0,1.1186324E1,4.841177E0,1.5842592E1,6.783081E0,0E0,1.3130676E1,1.2362413E1,1.19330635E1,3.0114317E0,0E0,0E0,0E0,0E0,0E0,0E0,0E0,0E0,0E0,0E0,0E0,0E0,0E0,0E0,0E0,0E0,0E0,0E0,0E0,0E0,0E0,0E0,0E0,0E0,0E0,0E0,0E0,0E0,0E0,0E0,0E0,0E0,0E0,0E0,0E0,0E0,0E0,0E0,0E0,0E0,0E0,0E0,0E0,0E0,0E0,0E0,0E0,0E0,0E0,0E0,0E0,0E0,0E0,0E0,0E0,0E0,0E0,0E0,0E0,0E0,0E0,0E0],"parents":[2147483647,0,0,1,1,2,2,3,3,4,4,5,5,6,6,7,7,8,8,9,9,10,10,11,11,12,12,13,13,14,14,15,15,16,16,17,17,18,18,19,19,20,20,21,21,22,22,23,23,24,24,25,25,26,26,27,27,28,28,29,29,30,30,31,31,32,32,33,33,34,34,35,35,36,36,37,37,38,38,39,39,40,40,41,41,42,42,43,43,44,44,45,45,46,46,47,47,48,48,49,49,50,50,51,51,52,52,53,53,54,54,55,55,56,56,57,57,59,59,60,60,61,61,62,62],"right_children":[2,4,6,8,10,12,14,16,18,20,22,24,26,28,30,32,34,36,38,40,42,44,46,48,50,52,54,56,58,60,62,64,66,68,70,72,74,76,78,80,82,84,86,88,90,92,94,96,98,100,102,104,106,108,110,112,114,116,-1,118,120,122,124,-1,-1,-1,-1,-1,-1,-1,-1,-1,-1,-1,-1,-1,-1,-1,-1,-1,-1,-1,-1,-1,-1,-1,-1,-1,-1,-1,-1,-1,-1,-1,-1,-1,-1,-1,-1,-1,-1,-1,-1,-1,-1,-1,-1,-1,-1,-1,-1,-1,-1,-1,-1,-1,-1,-1,-1,-1,-1,-1,-1,-1,-1],"split_conditions":[8.846635E-3,-2.87232E-2,-2.5349738E-2,-9.558051E-3,9.0719917E-4,8.704732E-3,5.0751334E-3,-3.8748032E-3,4.6863392E-2,2.5252962E-2,-4.474149E-2,2.5770076E-2,1.8199874E-2,1.9918378E-34,5.1618002E-2,6.7042194E-2,4.5664575E-2,-4.8301112E-2,1.1417451E-2,-1.1129938E-2,1.0528154E-2,-4.83124E-3,5.2017163E-2,-6.1340865E-2,-1.8246524E-3,2.4766268E-2,-1.2362375E-3,-4.524785E-3,6.7319915E-2,3.5243984E-2,6.463537E-3,4.026268E-2,-4.593266E-2,5.1299233E-2,-4.9508424E-3,6.6812866E-4,9.627577E-2,5.379584E-2,-8.044896E-3,-1.5881276E-2,-7.393228E-2,2.3623856E-2,2.5380066E-2,1.0919823E-2,-3.8313217E-2,-1.2364106E-2,-1.1467146E-2,1.3390702E-2,-4.1410156E-2,4.452994E-2,-1.6273354E-3,-5.1526707E-2,1.807831E-2,5.2178875E-2,-5.738655E-3,4.610507E-2,3.1427532E-2,8.12467E-2,2.3606227E-1,8.615255E-2,-7.1594394E-3,2.1718461E-2,-1.0676059E-2,-2.5205955E-1,2.3669991E-1,3.255856E-1,-1.0061512E-1,2.7959546E-1,-2.8589568E-1,-3.7097338E-1,-1.1604073E-2,3.735969E-1,-1.3569231E-1,-3.123877E-1,-2.0050706E-2,-3.2318348E-1,1.3670684E-1,5.274653E-1,-1.7334765E-1,-1.613176E-1,1.9635434E-1,-6.281111E-2,3.1593812E-1,2.727655E-1,-1.0391996E-1,2.4909725E-2,-3.2276896E-1,-2.9601973E-1,2.1777318E-1,1.1281008E-2,2.9349306E-1,-1.06656015E-1,-3.388003E-1,-1.3632518E-1,3.6065528E-1,-1.8175593E-1,3.6630237E-1,-1.1285385E-2,-3.504272E-1,-3.3391312E-1,-5.4476585E-2,-2.3533449E-1,2.9195118E-1,-2.6257968E-1,3.0854E-1,-2.8908816E-1,2.484493E-1,-3.661483E-1,1.7139179E-1,2.4096005E-1,-2.3165914E-1,-3.1552553E-1,1.4407392E-1,-1.6647483E-1,3.0077326E-1,-3.242475E-1,1.6673064E-1,-2.8229097E-1,3.9854196E-1,-2.314531E-1,2.4937017E-1,3.638447E-1,-2.5420278E-1,5.9691094E-2,-3.248798E-1],"split_indices":[482,750,108,706,497,683,746,317,551,709,116,745,41,756,219,73,275,188,729,437,596,752,752,55,205,171,230,656,643,364,204,643,714,209,284,193,442,120,268,587,489,55,630,643,489,53,540,713,41,713,486,205,746,535,53,516,244,540,0,477,533,590,689,0,0,0,0,0,0,0,0,0,0,0,0,0,0,0,0,0,0,0,0,0,0,0,0,0,0,0,0,0,0,0,0,0,0,0,0,0,0,0,0,0,0,0,0,0,0,0,0,0,0,0,0,0,0,0,0,0,0,0,0,0,0],"split_type":[0,0,0,0,0,0,0,0,0,0,0,0,0,0,0,0,0,0,0,0,0,0,0,0,0,0,0,0,0,0,0,0,0,0,0,0,0,0,0,0,0,0,0,0,0,0,0,0,0,0,0,0,0,0,0,0,0,0,0,0,0,0,0,0,0,0,0,0,0,0,0,0,0,0,0,0,0,0,0,0,0,0,0,0,0,0,0,0,0,0,0,0,0,0,0,0,0,0,0,0,0,0,0,0,0,0,0,0,0,0,0,0,0,0,0,0,0,0,0,0,0,0,0,0,0],"sum_hessian":[2.862432E3,1.8778755E3,9.8455634E2,3.965994E2,1.4812761E3,2.4853548E2,7.360209E2,1.5349391E2,2.4310547E2,1.0644055E3,4.1687054E2,9.802928E1,1.505062E2,5.811013E2,1.5491953E2,7.963184E1,7.3862076E1,2.1741376E2,2.5691717E1,7.7364E2,2.907655E2,1.9392986E2,2.2294067E2,6.766159E1,3.0367687E1,1.1161543E2,3.8890762E1,4.483029E1,5.3627106E2,1.1967325E2,3.5246273E1,6.3984993E1,1.5646852E1,6.871683E1,5.1452465E0,1.34050455E1,2.0400871E2,1.2871243E1,1.2820475E1,9.110124E1,6.825388E2,1.7461249E2,1.16153015E2,2.9608927E1,1.6432092E2,1.8496007E2,3.7980606E1,5.053618E0,6.2607975E1,1.2192628E1,1.817506E1,1.0058072E2,1.1034717E1,2.0942497E1,1.7948263E1,2.0461863E1,2.436843E1,5.343674E2,1.9036795E0,1.01403786E2,1.8269459E1,2.6565104E1,8.6811695E0,5.834368E1,5.6413145E0,1.1467575E1,4.179277E0,6.51327E1,3.584127E0,4.1429296E0,1.0023168E0,4.8737617E0,8.531284E0,1.9470712E2,9.301584E0,1.064217E1,2.229073E0,8.603969E0,4.2165065E0,2.444279E1,6.6658455E1,1.0019783E1,6.72519E2,1.442539E2,3.035859E1,7.4979546E1,4.117347E1,1.8251211E1,1.1357716E1,2.2765179E1,1.4155576E2,8.506334E1,9.989673E1,1.687569E1,2.1104914E1,2.5170147E0,2.536603E0,4.337219E0,5.8270756E1,1.09395E1,1.2531284E0,2.7211864E0,1.5453874E1,4.3881235E0,9.61926E1,9.172383E0,1.862333E0,1.915673E1,1.7857658E0,1.1979372E1,5.9688916E0,1.8733624E1,1.7282383E0,1.1313759E1,1.305467E1,5.323887E2,1.9786534E0,9.962797E1,1.7758212E0,6.9389663E0,1.1330492E1,2.4108593E1,2.4565108E0,2.047345E0,6.633825E0],"tree_param":{"num_deleted":"0","num_feature":"768","num_nodes":"125","size_leaf_vector":"1"}},{"base_weights":[-3.3945316E-3,-5.0352496E-1,3.7801912E-1,-8.085895E-1,-1.3382044E-2,6.602571E-1,-1.6408552E-1,-8.785353E-1,4.2717168E-1,-5.680996E-1,4.873926E-1,-5.014087E-1,7.747641E-1,6.214086E-1,-4.0547767E-1,3.4537622E-1,-9.400941E-1,-8.921163E-1,8.595352E-1,-8.339404E-1,7.4917294E-2,7.4864525E-1,-4.3227154E-1,7.95743E-1,-7.738118E-1,-2.8730947E-1,8.420688E-1,4.645279E-2,1.0086949E0,-6.7780465E-1,2.9251513E-1,9.812788E-1,-2.9261836E-1,1.5209201E-1,-9.7630376E-1,-3.887688E-1,3.389433E-1,1.1001546E0,-6.485567E-1,-9.958415E-1,-9.154457E-2,6.8843263E-1,-7.966218E-1,8.8728315E-1,-4.5588782E-1,6.0428107E-1,-7.819224E-1,-2.3187703E-1,1.0390164E0,-3.654801E-1,-1.2359245E0,4.5325443E-1,-7.466273E-1,9.3868876E-1,3.214822E-1,7.444687E-1,-5.171995E-1,1.1072466E0,1.5874667E-1,-8.952777E-1,-2.0341913E-1,7.8451806E-1,-4.3907306E-1,-1.4877923E-1,3.5019714E-1,2.0325032E-1,-2.7574262E-1,8.5450575E-2,-2.9938433E-1,-4.2618748E-2,1.9479175E-1,-8.458287E-2,3.5321364E-1,-2.7584535E-1,2.846086E-2,-3.1222868E-1,1.6221423E-1,-1.3064264E-1,3.6741263E-1,3.391022E-1,-1.6641091E-1,-3.4357148E-1,4.061588E-2,-2.774344E-1,2.83683E-1,2.3407097E-1,-2.7474207E-1,2.653923E-1,-2.0921092E-1,2.7231354E-1,-2.6831385E-1,-6.571345E-2,3.5486045E-1,-1.8679923E-1,2.628789E-1,8.227209E-2,-3.9689586E-1,-7.51377E-2,2.96731E-1,1.7137419E-1,-2.815201E-1,2.9286042E-1,-8.190939E-3,1.7725521E-1,-2.4763802E-1,-2.4500738E-1,2.8382382E-1,-3.255608E-1,6.4486384E-2,-1.12181954E-1,3.447473E-1,2.2325538E-1,-1.559797E-1,8.74024E-3,-2.8945902E-1,4.116881E-2,-3.3843458E-1,-7.923516E-2,3.026068E-1,1.7622942E-1,-3.0636564E-1],"categories":[],"categories_nodes":[],"categories_segments":[],"categories_sizes":[],"default_left":[0,0,0,0,0,0,0,0,0,0,0,0,0,0,0,0,0,0,0,0,0,0,0,0,0,0,0,0,0,0,0,0,0,0,0,0,0,0,0,0,0,0,0,0,0,0,0,0,0,0,0,0,0,0,0,0,0,0,0,0,0,0,0,0,0,0,0,0,0,0,0,0,0,0,0,0,0,0,0,0,0,0,0,0,0,0,0,0,0,0,0,0,0,0,0,0,0,0,0,0,0,0,0,0,0,0,0,0,0,0,0,0,0,0,0,0,0,0,0,0,0],"id":7,"left_children":[1,3,5,7,9,11,13,15,17,19,21,23,25,27,29,31,33,35,37,39,41,43,45,47,49,51,53,55,57,59,61,63,-1,65,67,-1,69,71,73,75,77,79,81,83,85,87,89,-1,91,93,95,97,99,101,103,105,107,109,111,113,115,117,119,-1,-1,-1,-1,-1,-1,-1,-1,-1,-1,-1,-1,-1,-1,-1,-1,-1,-1,-1,-1,-1,-1,-1,-1,-1,-1,-1,-1,-1,-1,-1,-1,-1,-1,-1,-1,-1,-1,-1,-1,-1,-1,-1,-1,-1,-1,-1,-1,-1,-1,-1,-1,-1,-1,-1,-1,-1,-1],"loss_changes":[4.59361E2,1.5577936E2,2.0914098E2,5.5882904E1,1.1159213E2,1.1992499E2,8.909682E1,4.614087E1,2.077338E1,3.2640545E1,5.105256E1,2.93216E1,5.874344E1,2.456746E1,6.8441734E1,2.6029617E1,2.3056702E1,4.9865246E0,1.0484264E1,1.6125397E1,3.0846113E1,2.7924095E1,1.763134E1,6.37179E0,1.2312973E1,1.7182129E1,3.8422607E1,1.8301804E1,5.352768E0,2.6492546E1,3.6864395E1,6.2538548E0,0E0,1.157165E1,1.5591797E1,0E0,5.478785E-1,2.8499336E0,9.601767E-1,8.201019E0,1.1966957E1,1.9189745E1,7.911524E0,1.6529984E1,1.0760305E1,5.1806974E0,7.6214237E0,0E0,2.6226025E0,1.246822E1,4.4798775E0,7.6302137E0,8.355627E0,2.3538818E1,3.8192528E1,7.305071E0,1.0956127E1,4.090866E0,3.5754917E0,1.14133E1,2.616335E1,1.4611118E1,2.5362246E1,0E0,0E0,0E0,0E0,0E0,0E0,0E0,0E0,0E0,0E0,0E0,0E0,0E0,0E0,0E0,0E0,0E0,0E0,0E0,0E0,0E0,0E0,0E0,0E0,0E0,0E0,0E0,0E0,0E0,0E0,0E0,0E0,0E0,0E0,0E0,0E0,0E0,0E0,0E0,0E0,0E0,0E0,0E0,0E0,0E0,0E0,0E0,0E0,0E0,0E0,0E0,0E0,0E0,0E0,0E0,0E0,0E0,0E0],"parents":[2147483647,0,0,1,1,2,2,3,3,4,4,5,5,6,6,7,7,8,8,9,9,10,10,11,11,12,12,13,13,14,14,15,15,16,16,17,17,18,18,19,19,20,20,21,21,22,22,23,23,24,24,25,25,26,26,27,27,28,28,29,29,30,30,31,31,33,33,34,34,36,36,37,37,38,38,39,39,40,40,41,41,42,42,43,43,44,44,45,45,46,46,48,48,49,49,50,50,51,51,52,52,53,53,54,54,55,55,56,56,57,57,58,58,59,59,60,60,61,61,62,62],"right_children":[2,4,6,8,10,12,14,16,18,20,22,24,26,28,30,32,34,36,38,40,42,44,46,48,50,52,54,56,58,60,62,64,-1,66,68,-1,70,72,74,76,78,80,82,84,86,88,90,-1,92,94,96,98,100,102,104,106,108,110,112,114,116,118,120,-1,-1,-1,-1,-1,-1,-1,-1,-1,-1,-1,-1,-1,-1,-1,-1,-1,-1,-1,-1,-1,-1,-1,-1,-1,-1,-1,-1,-1,-1,-1,-1,-1,-1,-1,-1,-1,-1,-1,-1,-1,-1,-1,-1,-1,-1,-1,-1,-1,-1,-1,-1,-1,-1,-1,-1,-1,-1],"split_conditions":[-1.0364448E-2,1.9921647E-2,4.15191E-3,8.652809E-2,1.1382779E-2,-3.154725E-2,-5.6361202E-2,-7.525258E-2,-1.2281857E-2,1.2600025E-2,2.5170161E-3,-4.6651684E-2,-4.252126E-2,-1.0764547E-2,5.450484E-2,-1.20497716E-4,-5.9884265E-2,9.772638E-3,2.494626E-3,3.5318334E-2,-1.3575872E-3,2.1153683E-2,-2.2111882E-2,3.4951488E-3,-2.0633614E-2,-6.5363405E-5,7.202234E-3,2.4069634E-34,2.4168544E-2,2.0345785E-2,1.0434629E-2,-1.3900184E-2,-2.9261836E-1,1.5153995E-2,-6.2852815E-2,-3.887688E-1,3.7396666E-2,-1.4761881E-3,-2.9602614E-3,9.5170155E-2,3.179902E-2,-3.4480146E-3,1.7667722E-2,-3.679527E-2,-5.3845596E-2,2.641676E-2,-3.728192E-2,-2.3187703E-1,-1.2955399E-2,3.685713E-2,-6.877841E-2,8.620186E-3,-4.2625193E-2,5.2784573E-2,1.4564898E-2,-2.1647425E-2,4.3557137E-3,-4.255065E-2,1.6244031E-2,1.580861E-6,3.3537164E-2,-2.0195208E-2,-3.323004E-2,-1.4877923E-1,3.5019714E-1,2.0325032E-1,-2.7574262E-1,8.5450575E-2,-2.9938433E-1,-4.2618748E-2,1.9479175E-1,-8.458287E-2,3.5321364E-1,-2.7584535E-1,2.846086E-2,-3.1222868E-1,1.6221423E-1,-1.3064264E-1,3.6741263E-1,3.391022E-1,-1.6641091E-1,-3.4357148E-1,4.061588E-2,-2.774344E-1,2.83683E-1,2.3407097E-1,-2.7474207E-1,2.653923E-1,-2.0921092E-1,2.7231354E-1,-2.6831385E-1,-6.571345E-2,3.5486045E-1,-1.8679923E-1,2.628789E-1,8.227209E-2,-3.9689586E-1,-7.51377E-2,2.96731E-1,1.7137419E-1,-2.815201E-1,2.9286042E-1,-8.190939E-3,1.7725521E-1,-2.4763802E-1,-2.4500738E-1,2.8382382E-1,-3.255608E-1,6.4486384E-2,-1.12181954E-1,3.447473E-1,2.2325538E-1,-1.559797E-1,8.74024E-3,-2.8945902E-1,4.116881E-2,-3.3843458E-1,-7.923516E-2,3.026068E-1,1.7622942E-1,-3.0636564E-1],"split_indices":[458,752,689,203,185,472,116,41,695,69,108,11,750,489,219,482,706,565,133,437,27,354,482,236,261,257,497,756,764,733,55,569,0,328,482,0,526,174,556,466,431,263,321,242,116,279,191,0,127,551,754,280,517,41,702,500,681,364,630,34,384,139,558,0,0,0,0,0,0,0,0,0,0,0,0,0,0,0,0,0,0,0,0,0,0,0,0,0,0,0,0,0,0,0,0,0,0,0,0,0,0,0,0,0,0,0,0,0,0,0,0,0,0,0,0,0,0,0,0,0,0],"split_type":[0,0,0,0,0,0,0,0,0,0,0,0,0,0,0,0,0,0,0,0,0,0,0,0,0,0,0,0,0,0,0,0,0,0,0,0,0,0,0,0,0,0,0,0,0,0,0,0,0,0,0,0,0,0,0,0,0,0,0,0,0,0,0,0,0,0,0,0,0,0,0,0,0,0,0,0,0,0,0,0,0,0,0,0,0,0,0,0,0,0,0,0,0,0,0,0,0,0,0,0,0,0,0,0,0,0,0,0,0,0,0,0,0,0,0,0,0,0,0,0,0],"sum_hessian":[2.4061028E3,1.040899E3,1.3652039E3,6.4117957E2,3.9971945E2,8.9764276E2,4.6756107E2,6.0710565E2,3.4073906E1,1.8958173E2,2.1013773E2,8.023954E1,8.174032E2,1.0954043E2,3.5802063E2,2.885241E1,5.782533E2,8.14806E0,2.5925848E1,1.3391902E2,5.56627E1,1.6379405E2,4.6343674E1,1.3592494E1,6.664705E1,4.8517883E1,7.688853E2,4.4538948E1,6.500148E1,2.5756046E2,1.00460175E2,1.9649122E1,9.203289E0,1.8453144E1,5.598001E2,6.0959578E0,2.0521019E0,2.2591778E1,3.33407E0,1.0966251E2,2.4256512E1,3.2790264E1,2.2872438E1,1.4712395E2,1.6670109E1,1.1505869E1,3.4837803E1,1.5326346E0,1.2059859E1,3.633321E1,3.0313839E1,1.8577824E1,2.994006E1,6.478436E2,1.2104173E2,1.975453E1,2.4784416E1,5.7976383E1,7.025096E0,1.759927E2,8.156776E1,6.0022133E1,4.0438046E1,2.0115583E0,1.7637564E1,1.2627349E1,5.8257957E0,9.240147E0,5.5056E2,1.0174726E0,1.0346293E0,1.0552233E0,2.1536554E1,2.2699935E0,1.0640764E0,1.0686114E2,2.80138E0,1.976196E1,4.4945526E0,2.425785E1,8.532413E0,1.6479511E1,6.3929267E0,4.1247053E0,1.4299924E2,4.3316E0,1.2338508E1,9.730423E0,1.7754456E0,1.7327098E0,3.3105095E1,1.1838396E0,1.08760195E1,3.0512217E1,5.820992E0,1.5351561E0,2.8778683E1,8.261219E0,1.0316606E1,3.5519686E0,2.6388092E1,6.2361597E2,2.4227604E1,9.841341E1,2.2628325E1,1.9104261E0,1.7844105E1,1.3685238E1,1.1099177E1,1.37734E0,5.659904E1,3.7198136E0,3.3052826E0,1.2361218E1,1.6363148E2,6.0230907E1,2.1336847E1,1.0539929E1,4.9482204E1,1.4630621E1,2.5807423E1],"tree_param":{"num_deleted":"0","num_feature":"768","num_nodes":"121","size_leaf_vector":"1"}},{"base_weights":[-3.7612822E-3,2.5754482E-1,-6.4240843E-1,7.107798E-1,-6.425982E-2,-7.793915E-1,1.7554343E-1,8.344088E-1,-9.337483E-2,5.172851E-1,-3.88113E-1,-8.924091E-1,-2.1454905E-1,-6.3222885E-1,5.765647E-1,9.1368806E-1,-3.7082057E-2,7.0606136E-1,-5.6960887E-1,-3.05316E-1,7.375862E-1,-1.301377E-1,-8.5606825E-1,-9.182178E-1,2.6681834E-1,3.2120484E-1,-8.0725974E-1,5.3747743E-1,-9.4195235E-1,8.527738E-1,-2.701012E-1,9.715862E-1,-3.421169E-2,-6.197669E-1,5.776553E-1,1.0074067E0,-4.2861748E-1,5.5378044E-1,-8.587449E-1,-7.636249E-1,2.7148575E-1,9.608524E-1,1.9201875E-1,2.4335809E-1,-6.432245E-1,-9.3788505E-1,2.9402757E-1,-1.0028652E0,-4.6321633E-1,6.9739044E-1,-5.216209E-1,-1.0191395E0,1.2954186E-1,1.0427208E0,-1.3623333E-1,-1.0308901E0,1.4764315E-1,-2.4466524E-1,9.773096E-1,8.5619736E-1,-7.8586704E-1,2.973841E-1,-1.0792777E-1,1.5572721E-1,-2.8495646E-1,-1.61577E-2,-4.2085874E-1,2.2854228E-1,-4.2946863E-1,-8.2430884E-2,3.3478624E-1,6.900358E-2,-3.7120557E-1,2.8878653E-1,-1.6912216E-1,1.1501338E-1,-3.0064487E-1,5.300214E-2,-3.1021473E-1,2.679041E-1,-1.8190713E-1,3.0201232E-1,-2.0117179E-1,1.8428808E-1,-2.1846052E-1,3.1494567E-1,4.72044E-3,1.9148856E-1,-2.2044247E-1,-3.0984902E-1,-2.0612938E-2,3.2030895E-1,-1.6745208E-1,-3.0459285E-1,1.4038838E-1,5.3154957E-2,-2.2659229E-1,3.3146465E-1,-7.280415E-2,-2.6359406E-1,2.3541205E-1,-3.5497475E-1,8.138493E-2,-2.4420992E-1,2.0776902E-1,3.5942048E-1,7.220623E-2,-1.1275999E-2,-3.2538205E-1,-4.1043714E-2,3.352498E-1,-5.511769E-2,3.7006342E-1,5.0735686E-2,-3.140385E-1],"categories":[],"categories_nodes":[],"categories_segments":[],"categories_sizes":[],"default_left":[0,0,0,0,0,0,0,0,0,0,0,0,0,0,0,0,0,0,0,0,0,0,0,0,0,0,0,0,0,0,0,0,0,0,0,0,0,0,0,0,0,0,0,0,0,0,0,0,0,0,0,0,0,0,0,0,0,0,0,0,0,0,0,0,0,0,0,0,0,0,0,0,0,0,0,0,0,0,0,0,0,0,0,0,0,0,0,0,0,0,0,0,0,0,0,0,0,0,0,0,0,0,0,0,0,0,0,0,0,0,0,0,0,0,0],"id":8,"left_children":[1,3,5,7,9,11,13,15,17,19,21,23,25,27,29,31,33,35,37,39,41,43,45,47,-1,49,51,53,55,57,59,61,63,65,67,69,71,73,75,77,79,81,83,85,87,89,91,93,95,97,99,101,103,105,-1,107,-1,-1,109,111,113,-1,-1,-1,-1,-1,-1,-1,-1,-1,-1,-1,-1,-1,-1,-1,-1,-1,-1,-1,-1,-1,-1,-1,-1,-1,-1,-1,-1,-1,-1,-1,-1,-1,-1,-1,-1,-1,-1,-1,-1,-1,-1,-1,-1,-1,-1,-1,-1,-1,-1,-1,-1,-1,-1],"loss_changes":[3.402027E2,2.1104788E2,6.645767E1,5.9803436E1,1.5970523E2,3.218582E1,2.8133501E1,3.6017E1,3.1221973E1,5.5200806E1,6.562765E1,2.0236877E1,2.7529617E1,1.0982224E1,1.3749119E1,2.6234772E1,1.625773E1,1.0917909E1,1.7133293E1,1.7334612E1,2.8997314E1,6.765335E1,1.8468506E1,1.5587219E1,0E0,1.4891932E1,8.281279E0,3.825366E0,3.4696903E0,9.903158E0,9.3744135E0,1.2154694E1,1.4905748E1,1.0237013E1,9.274101E0,3.7206974E0,4.086169E0,5.616662E0,7.719202E0,9.429642E0,1.6595379E1,1.3374207E1,2.7967474E1,3.7534462E1,1.7915977E1,1.4844223E1,9.563978E0,6.891144E0,1.2709818E1,1.2568178E1,7.551333E0,7.435669E0,5.058317E0,3.0165434E-1,0E0,1.1433716E0,0E0,0E0,6.5939636E0,2.260708E0,2.867147E0,0E0,0E0,0E0,0E0,0E0,0E0,0E0,0E0,0E0,0E0,0E0,0E0,0E0,0E0,0E0,0E0,0E0,0E0,0E0,0E0,0E0,0E0,0E0,0E0,0E0,0E0,0E0,0E0,0E0,0E0,0E0,0E0,0E0,0E0,0E0,0E0,0E0,0E0,0E0,0E0,0E0,0E0,0E0,0E0,0E0,0E0,0E0,0E0,0E0,0E0,0E0,0E0,0E0,0E0],"parents":[2147483647,0,0,1,1,2,2,3,3,4,4,5,5,6,6,7,7,8,8,9,9,10,10,11,11,12,12,13,13,14,14,15,15,16,16,17,17,18,18,19,19,20,20,21,21,22,22,23,23,25,25,26,26,27,27,28,28,29,29,30,30,31,31,32,32,33,33,34,34,35,35,36,36,37,37,38,38,39,39,40,40,41,41,42,42,43,43,44,44,45,45,46,46,47,47,48,48,49,49,50,50,51,51,52,52,53,53,55,55,58,58,59,59,60,60],"right_children":[2,4,6,8,10,12,14,16,18,20,22,24,26,28,30,32,34,36,38,40,42,44,46,48,-1,50,52,54,56,58,60,62,64,66,68,70,72,74,76,78,80,82,84,86,88,90,92,94,96,98,100,102,104,106,-1,108,-1,-1,110,112,114,-1,-1,-1,-1,-1,-1,-1,-1,-1,-1,-1,-1,-1,-1,-1,-1,-1,-1,-1,-1,-1,-1,-1,-1,-1,-1,-1,-1,-1,-1,-1,-1,-1,-1,-1,-1,-1,-1,-1,-1,-1,-1,-1,-1,-1,-1,-1,-1,-1,-1,-1,-1,-1,-1],"split_conditions":[2.2368418E-2,-2.2389863E-2,4.8299134E-2,1.2680754E-2,-5.7181497E-3,1.0553291E-2,-1.4016435E-3,3.3872582E-2,-3.8617432E-2,-8.888175E-3,1.0898947E-2,8.662433E-2,-7.7650277E-3,-2.3130655E-2,3.0761397E-2,2.012059E-2,1.244583E-2,1.2231555E-2,2.1208843E-34,9.15768E-3,2.6963857E-34,5.684344E-3,3.3893287E-2,2.9894544E-2,2.6681834E-1,2.2580959E-2,1.808425E-2,-9.341495E-3,7.176087E-2,-2.4835985E-2,-2.7868697E-2,4.7902048E-2,7.963003E-3,3.7590045E-2,3.201672E-2,-5.2295383E-2,3.4752565E-34,3.5225503E-2,-6.2824324E-2,-1.9192362E-2,9.021496E-3,5.0338697E-2,-1.1280644E-2,-3.6306247E-2,-1.1354668E-1,1.2711604E-2,-3.6765784E-2,7.141769E-2,-3.8803462E-2,1.7238036E-2,3.455051E-2,5.0810084E-2,-1.4299969E-2,1.8544938E-2,-1.3623333E-1,-5.3547148E-2,1.4764315E-1,-2.4466524E-1,-2.0877857E-2,-6.348934E-3,-2.5115943E-2,2.973841E-1,-1.0792777E-1,1.5572721E-1,-2.8495646E-1,-1.61577E-2,-4.2085874E-1,2.2854228E-1,-4.2946863E-1,-8.2430884E-2,3.3478624E-1,6.900358E-2,-3.7120557E-1,2.8878653E-1,-1.6912216E-1,1.1501338E-1,-3.0064487E-1,5.300214E-2,-3.1021473E-1,2.679041E-1,-1.8190713E-1,3.0201232E-1,-2.0117179E-1,1.8428808E-1,-2.1846052E-1,3.1494567E-1,4.72044E-3,1.9148856E-1,-2.2044247E-1,-3.0984902E-1,-2.0612938E-2,3.2030895E-1,-1.6745208E-1,-3.0459285E-1,1.4038838E-1,5.3154957E-2,-2.2659229E-1,3.3146465E-1,-7.280415E-2,-2.6359406E-1,2.3541205E-1,-3.5497475E-1,8.138493E-2,-2.4420992E-1,2.0776902E-1,3.5942048E-1,7.220623E-2,-1.1275999E-2,-3.2538205E-1,-4.1043714E-2,3.352498E-1,-5.511769E-2,3.7006342E-1,5.0735686E-2,-3.140385E-1],"split_indices":[257,41,752,362,303,458,569,146,116,745,55,174,597,482,609,191,347,504,756,242,756,374,458,679,0,384,639,309,503,185,55,689,303,403,708,8,756,434,434,149,331,331,53,538,181,732,266,577,362,609,551,460,519,730,0,108,0,0,757,139,104,0,0,0,0,0,0,0,0,0,0,0,0,0,0,0,0,0,0,0,0,0,0,0,0,0,0,0,0,0,0,0,0,0,0,0,0,0,0,0,0,0,0,0,0,0,0,0,0,0,0,0,0,0,0],"split_type":[0,0,0,0,0,0,0,0,0,0,0,0,0,0,0,0,0,0,0,0,0,0,0,0,0,0,0,0,0,0,0,0,0,0,0,0,0,0,0,0,0,0,0,0,0,0,0,0,0,0,0,0,0,0,0,0,0,0,0,0,0,0,0,0,0,0,0,0,0,0,0,0,0,0,0,0,0,0,0,0,0,0,0,0,0,0,0,0,0,0,0,0,0,0,0,0,0,0,0,0,0,0,0,0,0,0,0,0,0,0,0,0,0,0,0],"sum_hessian":[2.036586E3,1.4456763E3,5.9090985E2,5.997582E2,8.45918E2,5.0618567E2,8.472421E1,5.198066E2,7.9951614E1,3.02364E2,5.43554E2,4.2130762E2,8.4878044E1,2.791627E1,5.6807945E1,4.7641852E2,4.338806E1,2.9667427E1,5.0284187E1,6.3789402E1,2.3857462E2,3.512141E2,1.923399E2,4.1577005E2,5.53758E0,4.4821636E1,4.0056408E1,5.6904154E0,2.2225853E1,4.282867E1,1.3979275E1,4.489702E2,2.7448296E1,2.2270535E1,2.1117525E1,2.3530436E1,6.1369915E0,1.0105536E1,4.0178654E1,3.536532E1,2.8424088E1,1.6875336E2,6.9821266E1,2.0356033E2,1.4765376E2,1.7973802E2,1.260189E1,3.4953857E2,6.6231476E1,3.1109035E1,1.3712603E1,3.259613E1,7.4602776E0,3.735502E0,1.9549135E0,2.1192713E1,1.0331417E0,2.589542E0,4.023913E1,4.183515E0,9.79576E0,4.4267728E2,6.292943E0,1.7379402E1,1.0068892E1,1.3548454E1,8.72208E0,1.9913246E1,1.2042795E0,1.7170509E0,2.1813385E1,3.7767856E0,2.360206E0,7.500217E0,2.6053193E0,3.9853659E0,3.6193287E1,7.9765434E0,2.7388773E1,1.663145E1,1.1792636E1,1.6451227E2,4.241095E0,4.808723E1,2.173403E1,4.401275E1,1.5954759E2,9.450103E0,1.3820366E2,1.6186797E2,1.7870052E1,6.472749E0,6.12914E0,3.4691315E2,2.6254325E0,2.0869421E1,4.5362053E1,2.1579618E1,9.529417E0,1.1026419E1,2.686184E0,2.8992111E1,3.6040204E0,2.6213293E0,4.8389482E0,2.7157035E0,1.0197984E0,1.1744812E0,2.001823E1,4.500072E0,3.5739056E1,1.2504743E0,2.9330409E0,2.1776175E0,7.6181426E0],"tree_param":{"num_deleted":"0","num_feature":"768","num_nodes":"115","size_leaf_vector":"1"}},{"base_weights":[-3.4061815E-3,-5.702819E-1,2.5130743E-1,-9.82644E-2,-8.0782825E-1,5.8751696E-1,-8.730469E-2,4.7202504E-1,-4.7037694E-1,-9.213124E-1,-2.680841E-1,-4.3063653E-1,6.8302304E-1,-4.5336622E-1,4.1938516E-1,-4.9605697E-1,8.3803153E-1,-7.5606E-1,1.702054E-1,-3.237953E-1,-9.7957754E-1,-7.377266E-1,3.3534172E-1,-8.2352895E-1,5.824325E-1,8.220153E-1,1.7984638E-1,3.193547E-2,-6.7459714E-1,7.920016E-1,2.2707812E-2,-9.910545E-1,1.7658801E-1,1.0071641E0,-9.532285E-2,-8.931005E-1,4.66207E-1,8.3865577E-1,-4.7751567E-1,-7.9323536E-1,3.5089588E-1,1.9540536E-1,-1.0023642E0,3.3057573E-1,-9.042576E-1,8.2881546E-1,-4.3735757E-1,-9.483963E-1,3.6252236E-1,8.5473496E-1,-6.1148757E-1,-2.5760508E-1,8.756238E-1,5.909554E-1,-4.951878E-1,4.149146E-1,-5.742371E-1,-8.3972096E-1,-1.5079696E-1,-3.545639E-1,9.522242E-1,-4.5301223E-1,5.741994E-1,-3.187327E-1,-3.472873E-2,-2.0133731E-1,2.4140593E-1,3.2743415E-1,-9.52998E-2,2.9321104E-1,-2.5545266E-1,1.779625E-1,-2.942652E-1,2.9405558E-1,-3.3232987E-1,-1.8892387E-1,3.155092E-1,2.0220195E-1,-2.54932E-1,-2.8115287E-1,1.898754E-1,2.4899496E-1,-2.461348E-1,2.520494E-1,-2.207077E-1,-3.0447575E-1,1.1784681E-1,-2.3371004E-1,2.6332343E-1,1.24039374E-1,-3.0575275E-1,-1.3564841E-1,3.082795E-1,2.0099898E-1,-2.5591066E-1,1.7427677E-1,-3.072142E-1,3.226983E-1,-1.8761083E-1,-5.9821118E-2,2.9444218E-1,9.67399E-3,-2.6995167E-1,-3.1628925E-1,1.7824975E-1,2.7362224E-1,-6.6283114E-2,-2.7686825E-1,2.2327699E-1,-2.836834E-1,1.8966897E-1,-1.609258E-1,1.9211471E-1,6.560497E-2,-2.599514E-1,1.7371202E-1,-2.6793146E-1,-2.0991115E-1,1.1139503E-1,2.6604807E-1,-2.3389009E-1,3.088622E-1,-5.0050106E-2,-2.0893556E-1,1.6282475E-1,2.4251811E-1,-1.6162995E-1],"categories":[],"categories_nodes":[],"categories_segments":[],"categories_sizes":[],"default_left":[0,0,0,0,0,0,0,0,0,0,0,0,0,0,0,0,0,0,0,0,0,0,0,0,0,0,0,0,0,0,0,0,0,0,0,0,0,0,0,0,0,0,0,0,0,0,0,0,0,0,0,0,0,0,0,0,0,0,0,0,0,0,0,0,0,0,0,0,0,0,0,0,0,0,0,0,0,0,0,0,0,0,0,0,0,0,0,0,0,0,0,0,0,0,0,0,0,0,0,0,0,0,0,0,0,0,0,0,0,0,0,0,0,0,0,0,0,0,0,0,0,0,0,0,0,0,0],"id":9,"left_children":[1,3,5,7,9,11,13,15,17,19,21,23,25,27,29,31,33,35,37,39,41,43,45,47,49,51,53,55,57,59,61,63,65,67,69,71,73,75,77,79,81,83,85,87,89,91,93,95,97,99,101,103,105,107,109,111,113,115,117,119,121,123,125,-1,-1,-1,-1,-1,-1,-1,-1,-1,-1,-1,-1,-1,-1,-1,-1,-1,-1,-1,-1,-1,-1,-1,-1,-1,-1,-1,-1,-1,-1,-1,-1,-1,-1,-1,-1,-1,-1,-1,-1,-1,-1,-1,-1,-1,-1,-1,-1,-1,-1,-1,-1,-1,-1,-1,-1,-1,-1,-1,-1,-1,-1,-1,-1],"loss_changes":[2.5289236E2,6.080391E1,1.3762794E2,3.9039703E1,2.186943E1,5.9271088E1,1.12024956E2,2.6184256E1,2.0477505E1,1.005513E1,1.8423876E1,2.1426579E1,3.8659393E1,3.7656013E1,3.7439186E1,7.0274324E0,8.485565E0,1.3327698E1,1.5602499E1,9.135448E0,7.450714E0,6.7711105E0,1.1328316E1,6.0211563E0,5.4942636E0,2.537326E1,3.3977142E1,2.5940723E1,2.0702179E1,2.4337288E1,3.2733162E1,6.2727165E-1,5.6373835E0,5.380249E0,8.18664E0,9.669888E0,7.9041333E0,6.1812124E0,8.489828E0,4.0413275E0,7.5089097E0,4.215182E0,5.057678E0,4.107189E0,5.2280025E0,5.021537E0,6.0320244E0,4.6395416E0,3.7548263E0,1.9150438E0,6.64394E-1,1.5099117E1,1.6756256E1,1.8299791E1,2.4204594E1,1.5021088E1,1.0220733E1,1.4368225E1,1.7151262E1,9.528104E0,1.0112694E1,1.6622116E1,1.5491575E1,0E0,0E0,0E0,0E0,0E0,0E0,0E0,0E0,0E0,0E0,0E0,0E0,0E0,0E0,0E0,0E0,0E0,0E0,0E0,0E0,0E0,0E0,0E0,0E0,0E0,0E0,0E0,0E0,0E0,0E0,0E0,0E0,0E0,0E0,0E0,0E0,0E0,0E0,0E0,0E0,0E0,0E0,0E0,0E0,0E0,0E0,0E0,0E0,0E0,0E0,0E0,0E0,0E0,0E0,0E0,0E0,0E0,0E0,0E0,0E0,0E0,0E0,0E0,0E0],"parents":[2147483647,0,0,1,1,2,2,3,3,4,4,5,5,6,6,7,7,8,8,9,9,10,10,11,11,12,12,13,13,14,14,15,15,16,16,17,17,18,18,19,19,20,20,21,21,22,22,23,23,24,24,25,25,26,26,27,27,28,28,29,29,30,30,31,31,32,32,33,33,34,34,35,35,36,36,37,37,38,38,39,39,40,40,41,41,42,42,43,43,44,44,45,45,46,46,47,47,48,48,49,49,50,50,51,51,52,52,53,53,54,54,55,55,56,56,57,57,58,58,59,59,60,60,61,61,62,62],"right_children":[2,4,6,8,10,12,14,16,18,20,22,24,26,28,30,32,34,36,38,40,42,44,46,48,50,52,54,56,58,60,62,64,66,68,70,72,74,76,78,80,82,84,86,88,90,92,94,96,98,100,102,104,106,108,110,112,114,116,118,120,122,124,126,-1,-1,-1,-1,-1,-1,-1,-1,-1,-1,-1,-1,-1,-1,-1,-1,-1,-1,-1,-1,-1,-1,-1,-1,-1,-1,-1,-1,-1,-1,-1,-1,-1,-1,-1,-1,-1,-1,-1,-1,-1,-1,-1,-1,-1,-1,-1,-1,-1,-1,-1,-1,-1,-1,-1,-1,-1,-1,-1,-1,-1,-1,-1,-1],"split_conditions":[-7.958061E-3,-3.414815E-2,-5.75236E-3,-1.855287E-2,2.9981209E-2,-3.1582166E-2,1.3424964E-2,-1.1794705E-2,1.1276173E-2,-3.4233533E-2,7.298831E-3,1.9214211E-2,1.238233E-2,2.244359E-34,-8.160997E-3,-1.37561355E-2,1.1817799E-2,3.514544E-2,-1.2133833E-2,1.9823758E-2,-4.6217885E-2,-1.956676E-2,3.9314753E-3,3.674355E-2,2.3567032E-2,-4.50218E-2,2.5744134E-34,1.2652466E-2,2.4559446E-2,1.0545048E-2,-7.942452E-3,4.624625E-2,-9.454535E-3,3.999556E-2,-3.35606E-2,-6.537871E-2,2.75463E-2,-2.4041096E-2,-1.783997E-2,3.734949E-2,1.7097961E-2,-1.9502038E-2,1.1380617E-1,-1.5795516E-2,-5.241109E-2,-2.2035236E-2,-2.5252579E-2,2.098654E-7,-3.03406E-3,8.6058443E-4,1.1477076E-2,5.5028807E-2,3.0317467E-2,-2.5017302E-2,2.8883409E-2,6.3389027E-3,-3.3200348E-3,-8.598265E-2,1.497502E-2,-4.5264374E-2,4.9467858E-2,1.8350018E-2,-1.084982E-2,-3.187327E-1,-3.472873E-2,-2.0133731E-1,2.4140593E-1,3.2743415E-1,-9.52998E-2,2.9321104E-1,-2.5545266E-1,1.779625E-1,-2.942652E-1,2.9405558E-1,-3.3232987E-1,-1.8892387E-1,3.155092E-1,2.0220195E-1,-2.54932E-1,-2.8115287E-1,1.898754E-1,2.4899496E-1,-2.461348E-1,2.520494E-1,-2.207077E-1,-3.0447575E-1,1.1784681E-1,-2.3371004E-1,2.6332343E-1,1.24039374E-1,-3.0575275E-1,-1.3564841E-1,3.082795E-1,2.0099898E-1,-2.5591066E-1,1.7427677E-1,-3.072142E-1,3.226983E-1,-1.8761083E-1,-5.9821118E-2,2.9444218E-1,9.67399E-3,-2.6995167E-1,-3.1628925E-1,1.7824975E-1,2.7362224E-1,-6.6283114E-2,-2.7686825E-1,2.2327699E-1,-2.836834E-1,1.8966897E-1,-1.609258E-1,1.9211471E-1,6.560497E-2,-2.599514E-1,1.7371202E-1,-2.6793146E-1,-2.0991115E-1,1.1139503E-1,2.6604807E-1,-2.3389009E-1,3.088622E-1,-5.0050106E-2,-2.0893556E-1,1.6282475E-1,2.4251811E-1,-1.6162995E-1],"split_indices":[327,116,41,191,431,752,725,657,437,706,242,593,352,756,598,750,482,643,331,216,204,596,374,461,160,562,756,90,185,627,489,437,500,209,376,658,421,37,210,448,482,289,203,227,11,720,384,688,753,526,319,442,292,747,212,568,303,714,752,439,83,766,256,0,0,0,0,0,0,0,0,0,0,0,0,0,0,0,0,0,0,0,0,0,0,0,0,0,0,0,0,0,0,0,0,0,0,0,0,0,0,0,0,0,0,0,0,0,0,0,0,0,0,0,0,0,0,0,0,0,0,0,0,0,0,0,0],"split_type":[0,0,0,0,0,0,0,0,0,0,0,0,0,0,0,0,0,0,0,0,0,0,0,0,0,0,0,0,0,0,0,0,0,0,0,0,0,0,0,0,0,0,0,0,0,0,0,0,0,0,0,0,0,0,0,0,0,0,0,0,0,0,0,0,0,0,0,0,0,0,0,0,0,0,0,0,0,0,0,0,0,0,0,0,0,0,0,0,0,0,0,0,0,0,0,0,0,0,0,0,0,0,0,0,0,0,0,0,0,0,0,0,0,0,0,0,0,0,0,0,0,0,0,0,0,0,0],"sum_hessian":[1.7494493E3,5.419897E2,1.2074596E3,1.8191945E2,3.6007022E2,6.055104E2,6.019492E2,7.172586E1,1.1019359E2,2.9693176E2,6.313847E1,5.162689E1,5.538835E2,3.4953238E2,2.5241682E2,1.9580473E1,5.214539E1,7.60825E1,3.4111088E1,2.6964472E1,2.699673E2,3.537993E1,2.775854E1,3.7334698E1,1.4292192E1,4.3350342E2,1.203801E2,1.0971421E2,2.3981818E2,1.2964189E2,1.2277492E2,1.1007049E1,8.573424E0,4.4078815E1,8.066574E0,6.865429E1,7.428206E0,1.6641855E1,1.7469233E1,1.5797268E1,1.1167205E1,4.9917984E0,2.649755E2,4.638528E0,3.0741402E1,1.6895706E1,1.0862834E1,3.3959785E1,3.37491E0,1.1869223E1,2.4229705E0,2.0327297E1,4.1317612E2,7.489322E1,4.5486877E1,6.742849E1,4.228572E1,1.8187912E2,5.7939053E1,1.57464075E1,1.1389549E2,6.601153E1,5.676339E1,9.979331E0,1.0277171E0,3.6196566E0,4.953768E0,4.1607964E1,2.4708526E0,3.2143443E0,4.85223E0,3.5076E0,6.514669E1,5.8840375E0,1.5441682E0,1.860723E0,1.4781133E1,4.069686E0,1.3399546E1,1.466046E1,1.1368077E0,8.132422E0,3.0347826E0,3.0071163E0,1.984682E0,2.6288242E2,2.0930693E0,1.3919752E0,3.2465527E0,2.25751E0,2.848389E1,2.0984483E0,1.4797258E1,2.7977884E0,8.065045E0,1.2858912E0,3.2673897E1,1.9084179E0,1.4664922E0,1.212342E0,1.065688E1,1.0243388E0,1.3986316E0,1.0380379E1,9.9469185E0,4.0004666E2,1.3129449E1,6.4251137E0,6.846811E1,3.2617046E1,1.2869832E1,1.2654638E1,5.4773853E1,1.1456383E1,3.082934E1,6.2383575E0,1.7564076E2,2.8078999E1,2.9860056E1,3.7394006E0,1.2007007E1,1.0660975E2,7.285745E0,5.3285175E1,1.2726355E1,4.712156E1,9.64183E0],"tree_param":{"num_deleted":"0","num_feature":"768","num_nodes":"127","size_leaf_vector":"1"}},{"base_weights":[-4.53893E-3,3.6816934E-1,-3.3561334E-1,5.9364355E-1,-1.4515245E-1,-6.3614374E-1,1.1649193E-1,4.8476666E-2,7.634085E-1,3.1609538E-1,-5.2806884E-1,-7.427883E-1,5.6366675E-2,-4.8156923E-1,3.872694E-1,4.1323784E-1,-5.768007E-1,9.105625E-1,3.4129313E-1,5.7574975E-1,-4.1660196E-1,5.820334E-1,-6.4640325E-1,-8.830027E-1,-3.2656446E-1,6.683224E-1,-3.7513638E-1,1.651451E-1,-7.618754E-1,5.351525E-1,-8.1922305E-1,-3.5241836E-1,7.316795E-1,3.9938062E-1,-8.7793785E-1,9.638128E-1,-3.6661753E-1,-4.2948437E-1,7.076684E-1,7.445326E-1,-5.13458E-1,-7.944522E-1,2.9528368E-1,1.0623082E0,-2.68025E-1,-7.962091E-1,3.3392376E-1,-9.4420105E-1,-1.592171E-1,-6.5854335E-1,3.3046812E-1,3.0661525E-2,1.1822975E0,-6.7669773E-1,7.84935E-1,-7.7581453E-1,4.8458338E-1,-9.838098E-1,-2.876168E-1,-3.6616195E-2,7.759796E-1,-1.0716312E0,8.298959E-2,1.4478846E-1,-2.6521197E-1,-2.3496284E-1,2.4579076E-1,-1.7614521E-1,2.5120634E-1,-3.3865362E-1,6.705538E-2,2.9729864E-1,-1.849226E-2,2.4348168E-1,-2.6035947E-1,-2.3229934E-1,1.5982243E-1,-1.4261538E-1,2.5393894E-1,-2.2483692E-1,2.5210595E-1,1.7017157E-1,-2.3911871E-1,-2.872652E-1,1.0941215E-1,-1.7456073E-1,2.6125035E-1,7.6339856E-2,3.4109983E-1,4.683695E-2,-2.7234042E-1,2.3592377E-1,-1.370971E-1,1.0563094E-1,-2.9107404E-1,-2.3406796E-1,2.0315753E-1,1.5413997E-1,-2.3664804E-1,2.4272792E-1,-1.2269576E-1,-1.8388405E-1,2.4012563E-1,3.9233345E-1,-6.858806E-2,2.936465E-1,-2.406872E-1,4.3006712E-1,-1.4408797E-1,9.98866E-2,-3.0588052E-1,2.0589438E-1,-2.7839407E-1,-3.1035855E-1,9.103896E-2,1.0013283E-1,-2.8971633E-1,1.3988979E-1,-1.6603476E-1,2.6193336E-1,-1.8947189E-1,2.5152475E-2,-3.7377954E-1,1.8031369E-1,-1.7266099E-1],"categories":[],"categories_nodes":[],"categories_segments":[],"categories_sizes":[],"default_left":[0,0,0,0,0,0,0,0,0,0,0,0,0,0,0,0,0,0,0,0,0,0,0,0,0,0,0,0,0,0,0,0,0,0,0,0,0,0,0,0,0,0,0,0,0,0,0,0,0,0,0,0,0,0,0,0,0,0,0,0,0,0,0,0,0,0,0,0,0,0,0,0,0,0,0,0,0,0,0,0,0,0,0,0,0,0,0,0,0,0,0,0,0,0,0,0,0,0,0,0,0,0,0,0,0,0,0,0,0,0,0,0,0,0,0,0,0,0,0,0,0,0,0,0,0],"id":10,"left_children":[1,3,5,7,9,11,13,15,17,19,21,23,25,27,29,31,33,35,37,39,41,43,45,47,49,51,53,55,57,59,61,63,65,67,69,71,73,75,77,79,81,83,85,87,-1,89,91,93,95,97,99,101,103,105,107,109,111,113,115,117,119,121,123,-1,-1,-1,-1,-1,-1,-1,-1,-1,-1,-1,-1,-1,-1,-1,-1,-1,-1,-1,-1,-1,-1,-1,-1,-1,-1,-1,-1,-1,-1,-1,-1,-1,-1,-1,-1,-1,-1,-1,-1,-1,-1,-1,-1,-1,-1,-1,-1,-1,-1,-1,-1,-1,-1,-1,-1,-1,-1,-1,-1,-1,-1],"loss_changes":[1.8531744E2,8.185708E1,1.081369E2,4.5412445E1,3.8391113E1,3.5336517E1,5.1752594E1,2.7077871E1,2.2945526E1,1.9035446E1,1.5959354E1,2.388472E1,1.7336657E1,1.819635E1,3.964441E1,1.852072E1,1.3218473E1,1.9193558E1,2.8086084E1,1.3869617E1,7.344024E0,9.419504E0,1.607856E1,1.3547424E1,2.332971E1,8.85109E0,1.4030399E1,9.682956E0,7.055416E0,2.706554E1,5.6427937E0,1.0493696E1,7.706972E0,5.247606E0,9.5840645E0,7.4815216E0,7.680392E0,1.1136724E1,1.1414001E1,9.781631E0,3.6503742E0,3.664733E0,5.501366E0,2.8236675E-1,0E0,1.0099026E1,5.7194185E0,9.9618225E0,1.36757555E1,1.1207888E1,1.3154591E1,6.9949603E0,2.9525223E0,7.264838E0,7.601983E0,2.5646152E0,7.3994217E0,3.387844E0,1.0283E1,1.5631826E1,1.9446465E1,3.9569874E0,2.4814045E0,0E0,0E0,0E0,0E0,0E0,0E0,0E0,0E0,0E0,0E0,0E0,0E0,0E0,0E0,0E0,0E0,0E0,0E0,0E0,0E0,0E0,0E0,0E0,0E0,0E0,0E0,0E0,0E0,0E0,0E0,0E0,0E0,0E0,0E0,0E0,0E0,0E0,0E0,0E0,0E0,0E0,0E0,0E0,0E0,0E0,0E0,0E0,0E0,0E0,0E0,0E0,0E0,0E0,0E0,0E0,0E0,0E0,0E0,0E0,0E0,0E0,0E0],"parents":[2147483647,0,0,1,1,2,2,3,3,4,4,5,5,6,6,7,7,8,8,9,9,10,10,11,11,12,12,13,13,14,14,15,15,16,16,17,17,18,18,19,19,20,20,21,21,22,22,23,23,24,24,25,25,26,26,27,27,28,28,29,29,30,30,31,31,32,32,33,33,34,34,35,35,36,36,37,37,38,38,39,39,40,40,41,41,42,42,43,43,45,45,46,46,47,47,48,48,49,49,50,50,51,51,52,52,53,53,54,54,55,55,56,56,57,57,58,58,59,59,60,60,61,61,62,62],"right_children":[2,4,6,8,10,12,14,16,18,20,22,24,26,28,30,32,34,36,38,40,42,44,46,48,50,52,54,56,58,60,62,64,66,68,70,72,74,76,78,80,82,84,86,88,-1,90,92,94,96,98,100,102,104,106,108,110,112,114,116,118,120,122,124,-1,-1,-1,-1,-1,-1,-1,-1,-1,-1,-1,-1,-1,-1,-1,-1,-1,-1,-1,-1,-1,-1,-1,-1,-1,-1,-1,-1,-1,-1,-1,-1,-1,-1,-1,-1,-1,-1,-1,-1,-1,-1,-1,-1,-1,-1,-1,-1,-1,-1,-1,-1,-1,-1,-1,-1,-1,-1,-1,-1,-1,-1],"split_conditions":[-8.785716E-3,1.2206166E-2,8.423166E-3,-8.739487E-3,-1.9723102E-2,3.0503565E-2,-5.994404E-3,-8.417463E-3,1.5071158E-2,2.1643842E-2,-6.7813344E-2,2.6311047E-2,-5.772136E-3,-4.998764E-2,3.6460277E-2,5.7393936E-3,2.1318403E-34,3.5272643E-34,-3.0293792E-2,2.153658E-2,1.42591745E-2,-1.9524992E-3,4.6927936E-2,4.927301E-2,2.2090303E-2,1.5474684E-2,-2.0973952E-3,-1.3785512E-2,2.1300038E-2,-1.1013962E-2,1.4961753E-2,-1.5343708E-2,-2.4265163E-2,5.410979E-4,3.292954E-2,6.246172E-2,-1.1671262E-2,3.9054163E-2,6.3793357E-3,-2.8314054E-2,-3.2457184E-2,3.2639336E-2,1.5339719E-2,-1.570731E-2,-2.68025E-1,-4.1373927E-2,-1.7046358E-2,-7.245692E-2,3.425594E-2,-4.908707E-2,-1.6961012E-2,2.570375E-2,3.447191E-2,-4.7473643E-2,-1.9484805E-2,7.240146E-3,2.0690544E-2,6.910262E-2,1.8351976E-2,-1.3717837E-2,2.674467E-2,-5.5550627E-2,8.53185E-3,1.4478846E-1,-2.6521197E-1,-2.3496284E-1,2.4579076E-1,-1.7614521E-1,2.5120634E-1,-3.3865362E-1,6.705538E-2,2.9729864E-1,-1.849226E-2,2.4348168E-1,-2.6035947E-1,-2.3229934E-1,1.5982243E-1,-1.4261538E-1,2.5393894E-1,-2.2483692E-1,2.5210595E-1,1.7017157E-1,-2.3911871E-1,-2.872652E-1,1.0941215E-1,-1.7456073E-1,2.6125035E-1,7.6339856E-2,3.4109983E-1,4.683695E-2,-2.7234042E-1,2.3592377E-1,-1.370971E-1,1.0563094E-1,-2.9107404E-1,-2.3406796E-1,2.0315753E-1,1.5413997E-1,-2.3664804E-1,2.4272792E-1,-1.2269576E-1,-1.8388405E-1,2.4012563E-1,3.9233345E-1,-6.858806E-2,2.936465E-1,-2.406872E-1,4.3006712E-1,-1.4408797E-1,9.98866E-2,-3.0588052E-1,2.0589438E-1,-2.7839407E-1,-3.1035855E-1,9.103896E-2,1.0013283E-1,-2.8971633E-1,1.3988979E-1,-1.6603476E-1,2.6193336E-1,-1.8947189E-1,2.5152475E-2,-3.7377954E-1,1.8031369E-1,-1.7266099E-1],"split_indices":[706,422,725,437,708,327,431,708,384,400,714,431,468,116,55,217,756,756,707,685,17,171,401,551,511,431,732,500,23,645,677,603,747,121,679,150,112,657,460,602,57,333,511,56,0,491,76,497,611,538,184,502,497,263,180,711,506,73,350,594,126,579,612,0,0,0,0,0,0,0,0,0,0,0,0,0,0,0,0,0,0,0,0,0,0,0,0,0,0,0,0,0,0,0,0,0,0,0,0,0,0,0,0,0,0,0,0,0,0,0,0,0,0,0,0,0,0,0,0,0,0,0,0,0,0],"split_type":[0,0,0,0,0,0,0,0,0,0,0,0,0,0,0,0,0,0,0,0,0,0,0,0,0,0,0,0,0,0,0,0,0,0,0,0,0,0,0,0,0,0,0,0,0,0,0,0,0,0,0,0,0,0,0,0,0,0,0,0,0,0,0,0,0,0,0,0,0,0,0,0,0,0,0,0,0,0,0,0,0,0,0,0,0,0,0,0,0,0,0,0,0,0,0,0,0,0,0,0,0,0,0,0,0,0,0,0,0,0,0,0,0,0,0,0,0,0,0,0,0,0,0,0,0],"sum_hessian":[1.4998315E3,7.055001E2,7.943315E2,4.9007883E2,2.1542131E2,4.7690723E2,3.1742422E2,1.1667748E2,3.7340134E2,9.779515E1,1.1762616E2,4.1320264E2,6.370459E1,9.8684074E1,2.1874016E2,7.390402E1,4.277346E1,2.7602045E2,9.738088E1,7.236466E1,2.5430489E1,1.0953376E1,1.0667278E2,3.082427E2,1.0495995E2,2.6116898E1,3.7587692E1,2.9963648E1,6.872043E1,1.9535179E2,2.3388363E1,2.1677141E1,5.222688E1,1.0007242E1,3.276622E1,2.652083E2,1.081214E1,3.131931E1,6.606158E1,6.2929585E1,9.435079E0,1.6537066E1,8.893423E0,8.474761E0,2.478615E0,9.269559E1,1.3977196E1,2.839309E2,2.4311787E1,6.972679E1,3.5233162E1,1.2128896E1,1.3988003E1,3.0163378E1,7.4243145E0,7.23197E0,2.2731678E1,4.608162E1,2.263881E1,5.8147263E1,1.3720453E2,1.8128775E1,5.2595897E0,8.4680605E0,1.3209081E1,2.4216304E0,4.9805252E1,2.9720726E0,7.035169E0,2.6666765E1,6.0994534E0,2.5839246E2,6.81584E0,3.0421484E0,7.769992E0,2.3200045E1,8.119264E0,6.6818633E0,5.9379715E1,3.3817315E0,5.954785E1,1.7534218E0,7.681657E0,1.4649717E1,1.8873488E0,3.5191612E0,5.374262E0,1.0902104E0,7.3845506E0,9.680737E0,8.301485E1,8.894352E0,5.0828443E0,5.3458843E0,2.7858502E2,1.3991025E1,1.0320762E1,6.6793714E0,6.3047417E1,2.1331673E1,1.3901488E1,6.716674E0,5.412222E0,1.2912716E1,1.075287E0,1.6478912E0,2.8515488E1,4.8201904E0,2.604124E0,1.237577E0,5.994393E0,2.0340887E1,2.3907897E0,4.4523724E1,1.5578965E0,1.2078366E1,1.0560444E1,2.9519983E1,2.8627281E1,1.2870277E2,8.501755E0,2.444262E0,1.5684512E1,2.9926155E0,2.2669742E0],"tree_param":{"num_deleted":"0","num_feature":"768","num_nodes":"125","size_leaf_vector":"1"}},{"base_weights":[-4.9716537E-3,-3.8515922E-1,2.514162E-1,-7.610006E-1,-1.15343995E-1,5.177632E-1,-7.4107006E-2,-2.8695643E-1,-9.027468E-1,2.2536847E-1,-5.712823E-1,1.0200222E-2,6.94406E-1,-3.1758973E-1,5.314364E-1,-5.282469E-1,7.0432377E-1,4.4555476E-1,-9.255842E-1,4.1635436E-1,-6.2922627E-1,-7.995303E-1,8.771948E-2,3.928729E-1,-6.0279965E-1,-7.267211E-1,7.455206E-1,2.533742E-1,-5.198275E-1,7.34202E-1,-2.1040413E-1,6.4276886E-1,-7.038552E-1,1.077627E0,-4.4219056E-1,-1.9700925E-1,3.7882128E-1,-9.4897485E-1,4.24918E-1,6.326989E-1,-2.0880485E-1,-8.229652E-1,7.181024E-1,-9.007942E-1,1.7719431E-1,8.4628516E-1,-4.9046743E-1,-8.2801455E-1,6.072356E-1,5.408962E-2,-1.0584865E0,-1.0761474E0,4.062241E-1,-2.7893913E-1,8.0871E-1,5.536878E-1,-4.9255094E-1,-6.8498534E-1,1.6928668E-1,8.412269E-1,-7.12003E-1,-8.34826E-1,4.5237333E-1,2.593093E-1,-6.357755E-2,2.1924481E-1,-2.39933E-1,2.9805182E-2,3.612726E-1,6.7302673E-3,-1.9650683E-1,-2.9073757E-1,1.2999809E-1,2.5273955E-1,-7.02379E-2,-4.0285118E-2,2.4294768E-1,-2.1899207E-1,1.10775076E-1,6.7588255E-2,-2.8384626E-1,3.3343513E-2,2.581446E-1,2.118906E-2,-2.9073796E-1,2.052897E-1,-2.3204799E-1,3.1502953E-1,-8.6667664E-2,-2.739782E-1,1.4619854E-1,-3.124981E-1,4.5984607E-2,-1.9858484E-1,2.307731E-1,2.674839E-1,-1.6101788E-1,9.065054E-2,-3.4075454E-1,-3.5955244E-1,-2.1899818E-2,2.542389E-1,-9.855548E-2,1.21227905E-1,-3.0864048E-1,-7.507551E-2,2.5775927E-1,2.791905E-1,-6.919766E-2,2.391886E-2,-3.3855948E-1,-2.3559874E-1,8.104834E-2,-1.4593554E-1,1.8860504E-1,2.906203E-1,-1.0708662E-2,5.3004168E-2,-2.83926E-1,-3.330101E-1,2.4960935E-2,-1.4474285E-1,2.2515185E-1],"categories":[],"categories_nodes":[],"categories_segments":[],"categories_sizes":[],"default_left":[0,0,0,0,0,0,0,0,0,0,0,0,0,0,0,0,0,0,0,0,0,0,0,0,0,0,0,0,0,0,0,0,0,0,0,0,0,0,0,0,0,0,0,0,0,0,0,0,0,0,0,0,0,0,0,0,0,0,0,0,0,0,0,0,0,0,0,0,0,0,0,0,0,0,0,0,0,0,0,0,0,0,0,0,0,0,0,0,0,0,0,0,0,0,0,0,0,0,0,0,0,0,0,0,0,0,0,0,0,0,0,0,0,0,0,0,0,0,0,0,0,0,0],"id":11,"left_children":[1,3,5,7,9,11,13,15,17,19,21,23,25,27,29,31,33,35,37,39,41,43,45,47,49,51,53,55,57,59,61,63,65,67,69,-1,-1,71,73,75,77,79,81,83,85,87,89,91,93,95,97,99,101,103,105,107,109,111,113,115,117,119,121,-1,-1,-1,-1,-1,-1,-1,-1,-1,-1,-1,-1,-1,-1,-1,-1,-1,-1,-1,-1,-1,-1,-1,-1,-1,-1,-1,-1,-1,-1,-1,-1,-1,-1,-1,-1,-1,-1,-1,-1,-1,-1,-1,-1,-1,-1,-1,-1,-1,-1,-1,-1,-1,-1,-1,-1,-1,-1,-1,-1],"loss_changes":[1.2598851E2,5.2702003E1,6.696823E1,1.4346466E1,4.738529E1,3.8069656E1,5.1516033E1,1.269017E1,5.5504303E0,2.8795313E1,1.9682255E1,2.6194885E1,2.3425903E1,2.8885296E1,1.5233717E1,9.087185E0,4.974908E0,3.9406652E0,5.5967865E0,1.953898E1,9.0302925E0,9.747917E0,1.5521688E1,1.849132E1,1.2906118E1,4.967616E0,1.9943176E1,1.5013511E1,2.1081238E1,1.2819084E1,9.604937E0,1.3192563E0,5.6750755E0,8.9848614E-1,3.4009635E-1,0E0,0E0,4.930008E0,1.1575747E0,1.4624279E1,1.16096945E1,3.9234753E0,3.0176282E-1,5.9098816E0,5.32242E0,3.8350782E0,8.787018E0,2.4005876E0,1.2649923E1,9.648767E0,3.0160751E0,1.0197315E0,1.3883132E0,9.859991E0,1.5567322E1,1.4224711E1,7.157192E0,1.4472984E1,1.1275698E1,8.305462E0,1.4133451E0,3.0816107E0,3.557337E0,0E0,0E0,0E0,0E0,0E0,0E0,0E0,0E0,0E0,0E0,0E0,0E0,0E0,0E0,0E0,0E0,0E0,0E0,0E0,0E0,0E0,0E0,0E0,0E0,0E0,0E0,0E0,0E0,0E0,0E0,0E0,0E0,0E0,0E0,0E0,0E0,0E0,0E0,0E0,0E0,0E0,0E0,0E0,0E0,0E0,0E0,0E0,0E0,0E0,0E0,0E0,0E0,0E0,0E0,0E0,0E0,0E0,0E0,0E0,0E0],"parents":[2147483647,0,0,1,1,2,2,3,3,4,4,5,5,6,6,7,7,8,8,9,9,10,10,11,11,12,12,13,13,14,14,15,15,16,16,17,17,18,18,19,19,20,20,21,21,22,22,23,23,24,24,25,25,26,26,27,27,28,28,29,29,30,30,31,31,32,32,33,33,34,34,37,37,38,38,39,39,40,40,41,41,42,42,43,43,44,44,45,45,46,46,47,47,48,48,49,49,50,50,51,51,52,52,53,53,54,54,55,55,56,56,57,57,58,58,59,59,60,60,61,61,62,62],"right_children":[2,4,6,8,10,12,14,16,18,20,22,24,26,28,30,32,34,36,38,40,42,44,46,48,50,52,54,56,58,60,62,64,66,68,70,-1,-1,72,74,76,78,80,82,84,86,88,90,92,94,96,98,100,102,104,106,108,110,112,114,116,118,120,122,-1,-1,-1,-1,-1,-1,-1,-1,-1,-1,-1,-1,-1,-1,-1,-1,-1,-1,-1,-1,-1,-1,-1,-1,-1,-1,-1,-1,-1,-1,-1,-1,-1,-1,-1,-1,-1,-1,-1,-1,-1,-1,-1,-1,-1,-1,-1,-1,-1,-1,-1,-1,-1,-1,-1,-1,-1,-1,-1,-1],"split_conditions":[-1.4948965E-2,-1.6320148E-3,-5.6107296E-3,-7.98145E-3,1.812524E-2,-1.3321176E-2,1.1435422E-2,4.8508655E-2,2.098654E-7,2.1760574E-2,4.2381167E-2,7.187714E-3,-2.379884E-2,-3.0584946E-2,8.072943E-3,-4.555731E-2,-1.7205065E-2,2.9219886E-2,7.810709E-2,5.0903596E-3,3.8809914E-2,4.54493E-2,-2.0740679E-2,-1.228086E-2,-1.0802689E-2,2.062613E-2,-1.7852303E-2,1.7971128E-2,5.156066E-2,2.5295893E-2,5.918892E-3,-3.101115E-2,-5.38296E-2,2.557447E-3,4.505741E-3,-1.9700925E-1,3.7882128E-1,7.622975E-2,-2.4069997E-2,2.909042E-2,9.084434E-3,-4.2441808E-2,2.9222809E-2,-5.3205345E-2,1.21214315E-2,2.7379077E-2,6.635922E-2,3.4395322E-2,-3.7306786E-2,-1.5707966E-2,-6.52559E-2,2.4785327E-2,2.5434671E-2,-1.5027857E-2,-2.622946E-2,1.5071158E-2,1.3685945E-2,2.1127878E-2,-1.9967016E-2,2.2150375E-2,-3.1429394E-3,2.0071108E-2,4.316992E-3,2.593093E-1,-6.357755E-2,2.1924481E-1,-2.39933E-1,2.9805182E-2,3.612726E-1,6.7302673E-3,-1.9650683E-1,-2.9073757E-1,1.2999809E-1,2.5273955E-1,-7.02379E-2,-4.0285118E-2,2.4294768E-1,-2.1899207E-1,1.10775076E-1,6.7588255E-2,-2.8384626E-1,3.3343513E-2,2.581446E-1,2.118906E-2,-2.9073796E-1,2.052897E-1,-2.3204799E-1,3.1502953E-1,-8.6667664E-2,-2.739782E-1,1.4619854E-1,-3.124981E-1,4.5984607E-2,-1.9858484E-1,2.307731E-1,2.674839E-1,-1.6101788E-1,9.065054E-2,-3.4075454E-1,-3.5955244E-1,-2.1899818E-2,2.542389E-1,-9.855548E-2,1.21227905E-1,-3.0864048E-1,-7.507551E-2,2.5775927E-1,2.791905E-1,-6.919766E-2,2.391886E-2,-3.3855948E-1,-2.3559874E-1,8.104834E-2,-1.4593554E-1,1.8860504E-1,2.906203E-1,-1.0708662E-2,5.3004168E-2,-2.83926E-1,-3.330101E-1,2.4960935E-2,-1.4474285E-1,2.2515185E-1],"split_indices":[750,752,603,257,609,645,287,449,688,482,351,574,672,55,669,663,263,693,483,658,458,447,55,418,498,270,269,764,627,171,231,181,653,479,123,0,0,540,285,442,437,304,29,180,171,286,442,661,424,422,180,525,619,381,657,384,113,700,648,103,480,321,675,0,0,0,0,0,0,0,0,0,0,0,0,0,0,0,0,0,0,0,0,0,0,0,0,0,0,0,0,0,0,0,0,0,0,0,0,0,0,0,0,0,0,0,0,0,0,0,0,0,0,0,0,0,0,0,0,0,0,0,0],"split_type":[0,0,0,0,0,0,0,0,0,0,0,0,0,0,0,0,0,0,0,0,0,0,0,0,0,0,0,0,0,0,0,0,0,0,0,0,0,0,0,0,0,0,0,0,0,0,0,0,0,0,0,0,0,0,0,0,0,0,0,0,0,0,0,0,0,0,0,0,0,0,0,0,0,0,0,0,0,0,0,0,0,0,0,0,0,0,0,0,0,0,0,0,0,0,0,0,0,0,0,0,0,0,0,0,0,0,0,0,0,0,0,0,0,0,0,0,0,0,0,0,0,0,0],"sum_hessian":[1.2905216E3,5.1956964E2,7.709519E2,2.1636366E2,3.03206E2,4.236917E2,3.472602E2,5.0500042E1,1.6586363E2,1.7381996E2,1.2938603E2,1.0965841E2,3.140333E2,2.480125E2,9.924772E1,4.098972E1,9.510323E0,2.4542968E0,1.6340933E2,1.4248912E2,3.133084E1,9.594266E1,3.3443375E1,6.773383E1,4.192458E1,1.0443995E1,3.035893E2,6.480373E1,1.8320876E2,7.795166E1,2.1296059E1,4.9984064E0,3.5991314E1,7.219688E0,2.2906349E0,1.1285062E0,1.3257908E0,1.6091953E2,2.4898038E0,1.0584724E2,3.664188E1,2.773227E1,3.5985708E0,8.700045E1,8.942207E0,1.4264736E1,1.9178638E1,9.688873E0,5.804496E1,1.7532352E1,2.4392225E1,8.02044E0,2.4235554E0,1.743933E1,2.8614996E2,4.6386127E1,1.8417599E1,1.4779353E2,3.541523E1,7.296992E1,4.9817376E0,1.0831655E1,1.0464403E1,3.960308E0,1.0380985E0,1.8407525E0,3.415056E1,1.0318542E0,6.187834E0,1.0006818E0,1.289953E0,1.5890205E2,2.0174673E0,1.353782E0,1.1360217E0,1.9903646E1,8.594359E1,1.9130869E1,1.7511011E1,2.829149E0,2.490312E1,1.022087E0,2.5764837E0,5.71541E0,8.128504E1,6.014323E0,2.9278839E0,1.2156982E1,2.1077545E0,1.3435296E1,5.743342E0,7.9060674E0,1.7828057E0,6.221251E0,5.182371E1,7.0414615E0,1.0490891E1,1.1559135E0,2.3236313E1,6.974916E0,1.0455244E0,1.4183629E0,1.0051924E0,9.367659E0,8.071671E0,1.28417425E1,2.7330823E2,3.1203573E1,1.5182555E1,1.0154666E1,8.262934E0,1.3390393E2,1.3889606E1,1.4565577E1,2.0849653E1,6.3615345E1,9.354576E0,1.0912118E0,3.8905258E0,8.172535E0,2.6591198E0,2.380763E0,8.08364E0],"tree_param":{"num_deleted":"0","num_feature":"768","num_nodes":"123","size_leaf_vector":"1"}},{"base_weights":[-6.0326676E-3,4.3228242E-1,-2.0600742E-1,5.89569E-1,-3.4050927E-1,-4.8446026E-1,2.1079986E-1,6.879163E-1,-4.3086305E-1,1.706533E-2,-9.311881E-1,-8.548261E-1,-1.2812613E-1,4.840477E-1,-4.1854787E-1,7.537358E-1,-3.5976493E-1,-1.1792822E0,4.6944614E-3,-7.8625834E-1,4.0423137E-1,6.1483145E-2,-1.0439806E0,2.3157041E-1,-9.258242E-1,-5.416826E-1,3.3318728E-1,7.6987326E-1,2.0873684E-2,-6.311344E-1,2.8945667E-1,-1.6690148E-1,8.1929564E-1,5.0248086E-1,-8.873826E-1,-1.3716348E0,-1.2630134E-2,-4.351685E-1,7.303408E-1,-9.604263E-1,1.713898E-1,-3.8822603E-1,7.8416663E-1,-6.982819E-3,-1.113122E0,-9.3495506E-1,6.942112E-1,-9.863823E-1,-1.3449359E-1,2.0158118E-1,-7.1713644E-1,-2.9398346E-1,6.385616E-1,8.548417E-1,-4.5446217E-1,5.4429656E-1,-4.5566285E-1,4.627077E-1,-7.7029973E-1,-4.153835E-1,8.4301174E-1,1.8305081E-1,-1.8687674E-1,2.673206E-1,5.09981E-2,2.2626287E-1,-1.08363E-1,-3.2273373E-1,1.0260979E-1,-7.593116E-2,-4.4848418E-1,-2.4235867E-1,1.7203532E-1,2.8243694E-1,-7.486577E-2,-3.205123E-1,2.6279224E-2,1.2633014E-1,-2.8117996E-1,2.9789194E-1,-4.9996506E-2,-3.4380126E-1,-7.7964865E-2,-3.5302794E-1,-1.0050084E-2,-1.8960954E-1,2.6909298E-1,-3.026455E-1,1.3379346E-1,2.5182682E-1,-2.1482497E-1,-1.65835E-1,2.1652032E-1,-2.4860422E-1,1.0604324E-1,-1.9925946E-1,1.7106034E-1,2.5499934E-1,-8.4186524E-2,-1.2572536E-1,2.7610153E-1,1.7511754E-1,-2.578012E-1,2.554327E-1,-7.602993E-2,-2.1515119E-1,2.3901017E-1,2.6589212E-1,-1.993013E-1,-5.179401E-3,-2.8495607E-1,1.1817948E-1,-2.826414E-1,3.8287473E-1,1.4648927E-2],"categories":[],"categories_nodes":[],"categories_segments":[],"categories_sizes":[],"default_left":[0,0,0,0,0,0,0,0,0,0,0,0,0,0,0,0,0,0,0,0,0,0,0,0,0,0,0,0,0,0,0,0,0,0,0,0,0,0,0,0,0,0,0,0,0,0,0,0,0,0,0,0,0,0,0,0,0,0,0,0,0,0,0,0,0,0,0,0,0,0,0,0,0,0,0,0,0,0,0,0,0,0,0,0,0,0,0,0,0,0,0,0,0,0,0,0,0,0,0,0,0,0,0,0,0,0,0,0,0,0,0,0,0,0,0],"id":12,"left_children":[1,3,5,7,9,11,13,15,17,19,21,23,25,27,29,31,33,35,37,39,41,-1,43,45,47,49,51,53,55,57,59,61,63,65,67,69,-1,71,73,75,-1,77,79,-1,81,83,85,87,89,91,93,95,97,99,101,103,105,107,109,111,113,-1,-1,-1,-1,-1,-1,-1,-1,-1,-1,-1,-1,-1,-1,-1,-1,-1,-1,-1,-1,-1,-1,-1,-1,-1,-1,-1,-1,-1,-1,-1,-1,-1,-1,-1,-1,-1,-1,-1,-1,-1,-1,-1,-1,-1,-1,-1,-1,-1,-1,-1,-1,-1,-1],"loss_changes":[9.900891E1,4.321669E1,9.0125786E1,2.9842842E1,1.2790316E1,6.1299072E1,5.374459E1,1.8815224E1,8.6425705E0,1.2340835E1,3.138897E0,1.7799408E1,4.5647488E1,2.8785522E1,1.4450136E1,1.5427887E1,7.9854527E0,2.0752068E0,5.9816103E0,3.6014853E0,8.357008E0,0E0,1.4510117E0,8.628394E0,1.0132126E1,1.658215E1,2.1882519E1,1.4381203E1,2.1212467E1,1.15019E1,9.158393E0,6.64254E0,1.0878067E1,1.7790757E0,2.8330536E0,7.6762486E-1,0E0,4.851742E0,1.6975517E0,1.430378E0,0E0,4.54325E0,3.820404E0,0E0,2.514763E-1,9.6866035E-1,3.5681581E0,6.8391266E0,9.881709E0,1.0150768E1,1.2497051E1,1.2465324E1,1.5105686E1,1.0909294E1,4.44514E0,1.0141492E1,1.5158171E1,4.832318E0,8.816711E0,4.890293E0,4.401924E0,0E0,0E0,0E0,0E0,0E0,0E0,0E0,0E0,0E0,0E0,0E0,0E0,0E0,0E0,0E0,0E0,0E0,0E0,0E0,0E0,0E0,0E0,0E0,0E0,0E0,0E0,0E0,0E0,0E0,0E0,0E0,0E0,0E0,0E0,0E0,0E0,0E0,0E0,0E0,0E0,0E0,0E0,0E0,0E0,0E0,0E0,0E0,0E0,0E0,0E0,0E0,0E0,0E0,0E0],"parents":[2147483647,0,0,1,1,2,2,3,3,4,4,5,5,6,6,7,7,8,8,9,9,10,10,11,11,12,12,13,13,14,14,15,15,16,16,17,17,18,18,19,19,20,20,22,22,23,23,24,24,25,25,26,26,27,27,28,28,29,29,30,30,31,31,32,32,33,33,34,34,35,35,37,37,38,38,39,39,41,41,42,42,44,44,45,45,46,46,47,47,48,48,49,49,50,50,51,51,52,52,53,53,54,54,55,55,56,56,57,57,58,58,59,59,60,60],"right_children":[2,4,6,8,10,12,14,16,18,20,22,24,26,28,30,32,34,36,38,40,42,-1,44,46,48,50,52,54,56,58,60,62,64,66,68,70,-1,72,74,76,-1,78,80,-1,82,84,86,88,90,92,94,96,98,100,102,104,106,108,110,112,114,-1,-1,-1,-1,-1,-1,-1,-1,-1,-1,-1,-1,-1,-1,-1,-1,-1,-1,-1,-1,-1,-1,-1,-1,-1,-1,-1,-1,-1,-1,-1,-1,-1,-1,-1,-1,-1,-1,-1,-1,-1,-1,-1,-1,-1,-1,-1,-1,-1,-1,-1,-1,-1,-1],"split_conditions":[2.2008625E-34,2.775562E-2,4.4603415E-2,4.3022417E-2,1.31278E-2,3.0349224E-4,2.1359978E-2,2.9258698E-2,-3.1224081E-2,-3.808565E-3,-5.0444227E-2,-4.9015485E-2,8.276146E-3,-3.8264636E-2,1.3109582E-2,-5.101356E-2,-1.3276667E-2,1.7885463E-2,1.7950349E-2,4.073531E-2,-9.6516893E-4,6.1483145E-2,-4.8296414E-2,-2.3098527E-2,6.1414186E-2,-2.5594896E-2,-7.667774E-3,2.0329943E-2,-8.584981E-3,-2.3317998E-2,9.619256E-3,-2.6155064E-2,1.4447324E-2,-3.4880084E-3,1.0815863E-2,-1.0758675E-2,-1.2630134E-2,9.470357E-3,1.3463303E-2,5.129136E-2,1.713898E-1,-4.745833E-3,3.2692604E-2,-6.982819E-3,3.9608248E-2,2.350424E-2,-3.0934695E-2,7.627926E-2,-4.1384E-2,-1.4761881E-3,4.2052694E-2,7.196712E-2,-7.36682E-3,1.9913668E-2,