{"learner":{"attributes":{"scikit_learn":"{\"_estimator_type\": \"classifier\"}"},"feature_names":[],"feature_types":[],"gradient_booster":{"model":{"gbtree_model_param":{"num_parallel_tree":"1","num_trees":"100"},"iteration_indptr":[0,1,2,3,4,5,6,7,8,9,10,11,12,13,14,15,16,17,18,19,20,21,22,23,24,25,26,27,28,29,30,31,32,33,34,35,36,37,38,39,40,41,42,43,44,45,46,47,48,49,50,51,52,53,54,55,56,57,58,59,60,61,62,63,64,65,66,67,68,69,70,71,72,73,74,75,76,77,78,79,80,81,82,83,84,85,86,87,88,89,90,91,92,93,94,95,96,97,98,99,100],"tree_info":[0,0,0,0,0,0,0,0,0,0,0,0,0,0,0,0,0,0,0,0,0,0,0,0,0,0,0,0,0,0,0,0,0,0,0,0,0,0,0,0,0,0,0,0,0,0,0,0,0,0,0,0,0,0,0,0,0,0,0,0,0,0,0,0,0,0,0,0,0,0,0,0,0,0,0,0,0,0,0,0,0,0,0,0,0,0,0,0,0,0,0,0,0,0,0,0,0,0,0,0],"trees":[{"base_weights":[-0E0,-1.2362232E0,9.174439E-1,-1.12490304E-1,-1.6146153E0,1.2460189E0,-2.5838593E-1,-1.0221794E0,4.9902788E-1,-1.7190268E0,-2.3496762E-1,-4.302654E-1,1.3959134E0,6.15442E-1,-9.584454E-1,-1.4495159E0,-3.797468E-2,-5.0317895E-1,1.0527904E0,-1.3967305E0,-1.9329976E0,3.988604E-1,-1.3942559E0,-1.0518519E0,5.381295E-1,1.0084986E-1,1.522514E0,-3.6836627E-1,1.162413E0,-1.4859191E0,-2.1776505E-1,-7.4006116E-1,-1.650935E0,-9.9224806E-1,6.137566E-1,-9.786096E-1,4.9859944E-1,-6.6019416E-1,1.2479016E0,-3.1509846E-1,-1.6024272E0,-1.9582494E0,-1.5789474E0,9.4017094E-1,-6.722689E-1,-1.7803922E0,-6.060606E-1,-3.7037036E-1,-1.4969325E0,-1.3513514E0,8.9115644E-1,-6.897404E-1,7.6666665E-1,1.6022216E0,1.7582418E-2,-1.280654E0,1.9397993E-1,1.3660477E0,-2.5454545E-1,-1.6393832E0,-5.092251E-1,-6.258373E-1,9.859155E-1,-3.876106E-1,1.4285715E-1,-3.357401E-1,-5.449412E-1,2.1176472E-2,-4.4406784E-1,-8.7804876E-2,3.853211E-1,-4.085603E-1,-4.033614E-2,-1.1470589E-1,3.066667E-1,-3.92126E-1,1.0843374E-1,4.6219242E-1,1.0933334E-1,-3.8422713E-1,5.890183E-2,-5.391329E-1,-3.1483257E-1,-3.12E-1,-5.889198E-1,-5.3377485E-1,-2.657143E-1,-5.6250002E-2,4.046512E-1,-3.818182E-1,1.22727275E-1,5.454546E-2,-5.516129E-1,1.0000001E-1,-3.9473686E-1,-2.5925928E-1,3.2142857E-1,-2.828194E-1,-5.3286713E-1,-5.3406596E-1,1.5E-1,-2.5384617E-1,3.7622955E-1,4.477612E-2,-4.510949E-1,3.2471484E-1,-2.0228572E-1,5.1411504E-1,2.889412E-1,2.3636365E-1,-3.620397E-1,-1.9245283E-1,-5.2075475E-1,-3.22449E-1,1.8065935E-1,4.805921E-1,1.1351352E-1,-2.3855422E-1,3.9310345E-1,-2.6962027E-1,-5.414847E-1,-3.0149254E-1,2.5945947E-1,2.6386235E-2,-3.9923957E-1,3.742947E-1,-3.6E-1],"categories":[],"categories_nodes":[],"categories_segments":[],"categories_sizes":[],"default_left":[0,0,0,0,0,0,0,0,0,0,0,0,0,0,0,0,0,0,0,0,0,0,0,0,0,0,0,0,0,0,0,0,0,0,0,0,0,0,0,0,0,0,0,0,0,0,0,0,0,0,0,0,0,0,0,0,0,0,0,0,0,0,0,0,0,0,0,0,0,0,0,0,0,0,0,0,0,0,0,0,0,0,0,0,0,0,0,0,0,0,0,0,0,0,0,0,0,0,0,0,0,0,0,0,0,0,0,0,0,0,0,0,0,0,0,0,0,0,0,0,0,0,0,0,0,0,0],"id":0,"left_children":[1,3,5,7,9,11,13,15,17,19,21,23,25,27,29,31,33,35,37,39,41,43,45,47,49,51,53,55,57,59,61,63,65,67,69,71,73,75,77,79,81,83,85,87,89,91,93,95,97,99,101,103,105,107,109,111,113,115,117,119,121,123,125,-1,-1,-1,-1,-1,-1,-1,-1,-1,-1,-1,-1,-1,-1,-1,-1,-1,-1,-1,-1,-1,-1,-1,-1,-1,-1,-1,-1,-1,-1,-1,-1,-1,-1,-1,-1,-1,-1,-1,-1,-1,-1,-1,-1,-1,-1,-1,-1,-1,-1,-1,-1,-1,-1,-1,-1,-1,-1,-1,-1,-1,-1,-1,-1],"loss_changes":[1.3612252E4,2.1738198E3,2.6619722E3,7.175697E2,5.5055664E2,1.3536045E3,9.215517E2,2.180191E2,4.2870032E2,2.4249414E2,1.9913295E2,2.6707547E2,8.102803E2,3.610995E2,3.2639044E2,5.043573E1,9.887391E1,1.3158295E2,1.6701593E2,3.159287E2,1.5989746E1,1.0238933E2,2.8062561E1,8.134042E1,1.17102066E2,2.3279764E2,5.400967E2,1.2350183E2,1.2470935E2,7.234766E1,1.7204187E2,5.5497265E1,2.2682129E1,3.355681E1,5.7822563E1,6.0316925E1,4.156069E1,3.4508335E1,1.1497833E2,1.1310176E2,1.2673682E2,6.7509766E0,1.8870667E1,5.4171318E1,3.91547E1,7.629303E0,2.2440193E1,7.782188E1,2.3555237E1,2.2923225E1,9.375094E1,1.383339E2,1.0991348E2,3.0305273E2,2.1551436E2,2.5579773E1,7.808091E1,8.724121E1,4.7573875E1,5.006482E1,4.7020813E1,1.3157681E2,5.2273453E1,0E0,0E0,0E0,0E0,0E0,0E0,0E0,0E0,0E0,0E0,0E0,0E0,0E0,0E0,0E0,0E0,0E0,0E0,0E0,0E0,0E0,0E0,0E0,0E0,0E0,0E0,0E0,0E0,0E0,0E0,0E0,0E0,0E0,0E0,0E0,0E0,0E0,0E0,0E0,0E0,0E0,0E0,0E0,0E0,0E0,0E0,0E0,0E0,0E0,0E0,0E0,0E0,0E0,0E0,0E0,0E0,0E0,0E0,0E0,0E0,0E0,0E0,0E0,0E0],"parents":[2147483647,0,0,1,1,2,2,3,3,4,4,5,5,6,6,7,7,8,8,9,9,10,10,11,11,12,12,13,13,14,14,15,15,16,16,17,17,18,18,19,19,20,20,21,21,22,22,23,23,24,24,25,25,26,26,27,27,28,28,29,29,30,30,31,31,32,32,33,33,34,34,35,35,36,36,37,37,38,38,39,39,40,40,41,41,42,42,43,43,44,44,45,45,46,46,47,47,48,48,49,49,50,50,51,51,52,52,53,53,54,54,55,55,56,56,57,57,58,58,59,59,60,60,61,61,62,62],"right_children":[2,4,6,8,10,12,14,16,18,20,22,24,26,28,30,32,34,36,38,40,42,44,46,48,50,52,54,56,58,60,62,64,66,68,70,72,74,76,78,80,82,84,86,88,90,92,94,96,98,100,102,104,106,108,110,112,114,116,118,120,122,124,126,-1,-1,-1,-1,-1,-1,-1,-1,-1,-1,-1,-1,-1,-1,-1,-1,-1,-1,-1,-1,-1,-1,-1,-1,-1,-1,-1,-1,-1,-1,-1,-1,-1,-1,-1,-1,-1,-1,-1,-1,-1,-1,-1,-1,-1,-1,-1,-1,-1,-1,-1,-1,-1,-1,-1,-1,-1,-1,-1,-1,-1,-1,-1,-1],"split_conditions":[-1.121379E-2,-2.0344658E-2,-2.835696E-3,-1.6767133E-2,7.425612E-2,2.1394346E-2,1.5806297E-2,6.336235E-2,3.6370717E-2,1.7005662E-34,1.8373145E-34,3.282494E-2,-3.751404E-2,3.8103305E-2,3.553173E-3,-5.1404834E-2,-2.5573635E-2,1.6993938E-2,-8.005813E-3,-2.3592107E-2,2.4633162E-2,-4.980895E-3,3.245487E-2,-1.98642E-2,1.0613686E-2,4.6871122E-2,1.966121E-34,1.784415E-2,-6.9935527E-3,6.814823E-2,6.702222E-2,3.3519562E-2,4.2640087E-3,-2.270552E-3,-6.155759E-3,4.1347932E-2,2.8364187E-2,4.2650048E-2,-3.4410235E-2,-1.367251E-2,4.7136124E-2,-6.2616915E-2,5.590964E-2,-3.1012706E-3,3.9812043E-2,-6.059158E-2,-6.447569E-3,5.0219487E-2,-2.5898205E-2,6.795076E-2,-1.9661937E-2,1.5356667E-34,1.0883868E-2,2.2239216E-2,-1.8833814E-2,1.5908517E-34,2.337674E-2,8.364651E-3,2.6448937E-2,-9.3575777E-4,3.0430727E-2,1.6046266E-34,3.0726405E-2,-3.876106E-1,1.4285715E-1,-3.357401E-1,-5.449412E-1,2.1176472E-2,-4.4406784E-1,-8.7804876E-2,3.853211E-1,-4.085603E-1,-4.033614E-2,-1.1470589E-1,3.066667E-1,-3.92126E-1,1.0843374E-1,4.6219242E-1,1.0933334E-1,-3.8422713E-1,5.890183E-2,-5.391329E-1,-3.1483257E-1,-3.12E-1,-5.889198E-1,-5.3377485E-1,-2.657143E-1,-5.6250002E-2,4.046512E-1,-3.818182E-1,1.22727275E-1,5.454546E-2,-5.516129E-1,1.0000001E-1,-3.9473686E-1,-2.5925928E-1,3.2142857E-1,-2.828194E-1,-5.3286713E-1,-5.3406596E-1,1.5E-1,-2.5384617E-1,3.7622955E-1,4.477612E-2,-4.510949E-1,3.2471484E-1,-2.0228572E-1,5.1411504E-1,2.889412E-1,2.3636365E-1,-3.620397E-1,-1.9245283E-1,-5.2075475E-1,-3.22449E-1,1.8065935E-1,4.805921E-1,1.1351352E-1,-2.3855422E-1,3.9310345E-1,-2.6962027E-1,-5.414847E-1,-3.0149254E-1,2.5945947E-1,2.6386235E-2,-3.9923957E-1,3.742947E-1,-3.6E-1],"split_indices":[508,37,37,369,690,461,709,690,690,756,756,146,369,690,505,279,508,369,319,596,505,419,46,419,461,690,756,111,279,690,690,446,759,753,662,319,146,401,279,505,219,620,690,505,333,205,65,9,113,424,369,756,182,139,620,756,461,596,83,115,249,756,359,0,0,0,0,0,0,0,0,0,0,0,0,0,0,0,0,0,0,0,0,0,0,0,0,0,0,0,0,0,0,0,0,0,0,0,0,0,0,0,0,0,0,0,0,0,0,0,0,0,0,0,0,0,0,0,0,0,0,0,0,0,0,0,0],"split_type":[0,0,0,0,0,0,0,0,0,0,0,0,0,0,0,0,0,0,0,0,0,0,0,0,0,0,0,0,0,0,0,0,0,0,0,0,0,0,0,0,0,0,0,0,0,0,0,0,0,0,0,0,0,0,0,0,0,0,0,0,0,0,0,0,0,0,0,0,0,0,0,0,0,0,0,0,0,0,0,0,0,0,0,0,0,0,0,0,0,0,0,0,0,0,0,0,0,0,0,0,0,0,0,0,0,0,0,0,0,0,0,0,0,0,0,0,0,0,0,0,0,0,0,0,0,0,0],"sum_hessian":[1.2E4,5.11175E3,6.88825E3,1.288E3,3.82375E3,5.38375E3,1.5045E3,5.175E2,7.705E2,3.5545E3,2.6925E2,4.4175E2,4.942E3,6.6925E2,8.3525E2,3.605E2,1.57E2,2.7425E2,4.9625E2,1.42125E3,2.13325E3,1.745E2,9.475E1,2.69E2,1.7275E2,4.4025E2,4.50175E3,2.3925E2,4.3E2,4.8725E2,3.48E2,8.075E1,2.7975E2,6.35E1,9.35E1,1.86E2,8.825E1,5.05E1,4.4575E2,2.275E2,1.19375E3,1.987E3,1.4625E2,1.16E2,5.85E1,6.275E1,3.2E1,1.07E2,1.62E2,2.675E1,1.46E2,2.0125E2,2.39E2,4.27525E3,2.265E2,9.075E1,1.485E2,3.76E2,5.4E1,4.205E2,6.675E1,2.6025E2,8.775E1,5.55E1,2.525E1,6.825E1,2.115E2,2.025E1,4.325E1,4E1,5.35E1,1.275E2,5.85E1,3.3E1,5.525E1,3.075E1,1.975E1,3.3425E2,1.115E2,7.825E1,1.4925E2,8.8125E2,3.125E2,1.15E1,1.9755E3,1.1225E2,3.4E1,3.1E1,8.5E1,3.75E1,2.1E1,1.75E0,6.1E1,1.4E1,1.8E1,8E1,2.7E1,5.575E1,1.0625E2,2.175E1,5E0,2.5E1,1.21E2,9.95E1,1.0175E2,1.9625E2,4.275E1,3.63875E3,6.365E2,1.3925E2,8.725E1,3.875E1,5.2E1,3.575E1,1.1275E2,3.03E2,7.3E1,4.05E1,1.35E1,7.8E1,3.425E2,4.925E1,1.75E1,1.2975E2,1.305E2,7.875E1,9E0],"tree_param":{"num_deleted":"0","num_feature":"768","num_nodes":"127","size_leaf_vector":"1"}},{"base_weights":[-1.5948263E-3,-8.707511E-1,7.456201E-1,-1.602448E-1,-1.2758869E0,-1.0854258E-1,1.0403986E0,3.473964E-1,-8.2125646E-1,-1.3592894E0,-2.6024923E-1,5.87479E-1,-7.88822E-1,2.975573E-1,1.2210358E0,7.777096E-1,-4.5219147E-1,-1.1309613E0,-1.0432539E-1,-1.4469897E0,-8.719928E-1,5.5460644E-1,-9.7885317E-1,1.0843099E0,-3.0514836E-1,-5.2271564E-2,-1.1817715E0,-8.505374E-1,7.302639E-1,1.2692066E0,-8.782554E-1,9.701162E-1,-7.2651947E-1,-1.0027919E0,1.6566724E-1,-1.3976072E0,-6.407576E-1,-8.6766016E-1,4.9031597E-1,-6.088393E-1,-1.4831339E0,-1.4977603E-1,-1.2033712E0,1.1626898E0,-3.2101393E-1,1.1070865E-1,-1.291969E0,-2.9547033E-1,1.2487022E0,-1.184791E0,1.8723005E-1,-8.9726627E-1,4.4278556E-1,-6.927802E-1,-1.4789851E0,-3.2709926E-2,-1.4611703E0,1.1249642E0,-1.7136505E-1,-7.279343E-1,1.303649E0,3.9532033E-1,-1.5181884E0,3.3924663E-1,-1.5729856E-1,-3.4960385E-2,-3.840941E-1,2.3897341E-1,-3.405017E-1,-2.4914433E-1,2.0022358E-1,-9.002893E-2,-4.3327057E-1,-3.1258708E-1,1.2607007E-1,-3.2815894E-1,1.7080879E-1,2.3275042E-1,-3.3826518E-1,1.277518E-1,-3.3584931E-1,-4.5025176E-1,-2.340828E-1,-3.607306E-1,1.17004864E-1,-1.1984603E-1,-3.9632186E-1,3.846544E-1,-2.8357625E-1,3.279822E-1,-2.750506E-1,3.1458902E-1,-2.4600802E-1,-1.7305955E-2,-4.2149186E-1,3.0146742E-1,-3.1895638E-1,-1.293299E-1,3.962709E-1,-4.0131E-1,1.4508519E-1,-2.0700087E-1,2.3857366E-1,-3.9331487E-1,4.201261E-2,2.2666073E-1,-3.4561837E-1,-3.9407697E-1,-2.4092522E-2,-5.041986E-1,-3.3398142E-1,-3.159113E-1,2.693849E-1,-5.096374E-1,-2.0086737E-1,3.745561E-1,-5.8584057E-2,1.4416768E-1,-2.4550821E-1,-4.502146E-1,8.779478E-2,4.1655517E-1,2.2203976E-1,3.0429852E-1,-4.423488E-1,2.9671675E-1,-4.8109984E-1],"categories":[],"categories_nodes":[],"categories_segments":[],"categories_sizes":[],"default_left":[0,0,0,0,0,0,0,0,0,0,0,0,0,0,0,0,0,0,0,0,0,0,0,0,0,0,0,0,0,0,0,0,0,0,0,0,0,0,0,0,0,0,0,0,0,0,0,0,0,0,0,0,0,0,0,0,0,0,0,0,0,0,0,0,0,0,0,0,0,0,0,0,0,0,0,0,0,0,0,0,0,0,0,0,0,0,0,0,0,0,0,0,0,0,0,0,0,0,0,0,0,0,0,0,0,0,0,0,0,0,0,0,0,0,0,0,0,0,0,0,0,0,0,0,0,0,0],"id":1,"left_children":[1,3,5,7,9,11,13,15,17,19,21,23,25,27,29,31,33,35,37,39,41,43,45,47,49,51,53,55,57,59,61,63,65,67,69,71,73,75,77,79,81,83,85,87,89,91,93,95,97,99,101,103,105,107,109,111,113,115,117,119,121,123,125,-1,-1,-1,-1,-1,-1,-1,-1,-1,-1,-1,-1,-1,-1,-1,-1,-1,-1,-1,-1,-1,-1,-1,-1,-1,-1,-1,-1,-1,-1,-1,-1,-1,-1,-1,-1,-1,-1,-1,-1,-1,-1,-1,-1,-1,-1,-1,-1,-1,-1,-1,-1,-1,-1,-1,-1,-1,-1,-1,-1,-1,-1,-1,-1],"loss_changes":[7.382954E3,1.5125195E3,1.5392603E3,6.410419E2,2.831338E2,7.4348663E2,6.0945215E2,3.7221558E2,1.8411993E2,1.3089893E2,1.4998105E2,3.4457443E2,2.2975113E2,4.4289655E2,3.707578E2,2.041701E2,1.2902045E2,7.483148E1,1.14545685E2,7.844629E1,1.1330664E2,6.439084E1,4.6531845E1,1.1352942E2,1.2077393E2,1.1639166E2,7.422119E1,1.2187987E2,2.3048465E2,2.4677344E2,6.7907646E1,1.5038599E2,2.6975117E1,4.8585983E1,9.019106E1,1.8725891E1,8.8107155E1,3.6526535E1,6.645184E1,5.858679E1,3.0067871E1,8.586387E1,3.0214417E1,1.913897E1,4.318584E1,2.816093E1,1.4661819E1,5.4897457E1,5.4657715E1,2.6164307E1,9.618906E1,4.429396E1,8.841646E1,7.502983E1,2.1814636E1,1.01023544E2,2.5151917E1,7.36853E1,8.3865555E1,4.8729633E1,1.670044E2,3.4381042E1,1.3410461E1,0E0,0E0,0E0,0E0,0E0,0E0,0E0,0E0,0E0,0E0,0E0,0E0,0E0,0E0,0E0,0E0,0E0,0E0,0E0,0E0,0E0,0E0,0E0,0E0,0E0,0E0,0E0,0E0,0E0,0E0,0E0,0E0,0E0,0E0,0E0,0E0,0E0,0E0,0E0,0E0,0E0,0E0,0E0,0E0,0E0,0E0,0E0,0E0,0E0,0E0,0E0,0E0,0E0,0E0,0E0,0E0,0E0,0E0,0E0,0E0,0E0,0E0,0E0,0E0],"parents":[2147483647,0,0,1,1,2,2,3,3,4,4,5,5,6,6,7,7,8,8,9,9,10,10,11,11,12,12,13,13,14,14,15,15,16,16,17,17,18,18,19,19,20,20,21,21,22,22,23,23,24,24,25,25,26,26,27,27,28,28,29,29,30,30,31,31,32,32,33,33,34,34,35,35,36,36,37,37,38,38,39,39,40,40,41,41,42,42,43,43,44,44,45,45,46,46,47,47,48,48,49,49,50,50,51,51,52,52,53,53,54,54,55,55,56,56,57,57,58,58,59,59,60,60,61,61,62,62],"right_children":[2,4,6,8,10,12,14,16,18,20,22,24,26,28,30,32,34,36,38,40,42,44,46,48,50,52,54,56,58,60,62,64,66,68,70,72,74,76,78,80,82,84,86,88,90,92,94,96,98,100,102,104,106,108,110,112,114,116,118,120,122,124,126,-1,-1,-1,-1,-1,-1,-1,-1,-1,-1,-1,-1,-1,-1,-1,-1,-1,-1,-1,-1,-1,-1,-1,-1,-1,-1,-1,-1,-1,-1,-1,-1,-1,-1,-1,-1,-1,-1,-1,-1,-1,-1,-1,-1,-1,-1,-1,-1,-1,-1,-1,-1,-1,-1,-1,-1,-1,-1,-1,-1,-1,-1,-1,-1],"split_conditions":[-8.494596E-3,-1.3196284E-2,3.3905677E-2,-1.1797898E-6,7.220051E-2,-3.973675E-2,1.1536061E-2,2.4227116E-2,-1.6673165E-3,1.4295617E-2,1.7104844E-34,2.3574838E-2,1.2851139E-3,1.7091848E-2,2.1492833E-34,-1.9808345E-2,5.7510305E-2,4.9122248E-2,1.6319307E-2,-1.6615285E-2,1.508143E-34,9.65354E-3,-2.5666457E-2,-9.098777E-3,3.1739976E-2,2.3035256E-2,1.424718E-34,-2.2753678E-2,-3.1175943E-2,3.0984424E-4,-1.7998597E-2,1.878589E-34,-2.304809E-2,-6.2616915E-2,-2.6706453E-2,-3.4801956E-2,2.224187E-2,6.661073E-2,1.7365509E-34,-1.9400263E-2,4.0163074E-2,2.2327034E-2,-4.962472E-2,4.6190117E-2,-3.6712084E-2,-1.3241673E-2,-3.8315263E-2,-2.6891349E-2,1.8080292E-2,2.1710994E-2,-5.156988E-3,1.245022E-2,1.8313699E-34,4.1722473E-2,2.9144788E-2,3.0425373E-2,4.760979E-2,1.8313699E-34,-2.9582739E-2,4.2150705E-3,-2.0694723E-2,-3.3032894E-3,-8.737867E-2,3.3924663E-1,-1.5729856E-1,-3.4960385E-2,-3.840941E-1,2.3897341E-1,-3.405017E-1,-2.4914433E-1,2.0022358E-1,-9.002893E-2,-4.3327057E-1,-3.1258708E-1,1.2607007E-1,-3.2815894E-1,1.7080879E-1,2.3275042E-1,-3.3826518E-1,1.277518E-1,-3.3584931E-1,-4.5025176E-1,-2.340828E-1,-3.607306E-1,1.17004864E-1,-1.1984603E-1,-3.9632186E-1,3.846544E-1,-2.8357625E-1,3.279822E-1,-2.750506E-1,3.1458902E-1,-2.4600802E-1,-1.7305955E-2,-4.2149186E-1,3.0146742E-1,-3.1895638E-1,-1.293299E-1,3.962709E-1,-4.0131E-1,1.4508519E-1,-2.0700087E-1,2.3857366E-1,-3.9331487E-1,4.201261E-2,2.2666073E-1,-3.4561837E-1,-3.9407697E-1,-2.4092522E-2,-5.041986E-1,-3.3398142E-1,-3.159113E-1,2.693849E-1,-5.096374E-1,-2.0086737E-1,3.745561E-1,-5.8584057E-2,1.4416768E-1,-2.4550821E-1,-4.502146E-1,8.779478E-2,4.1655517E-1,2.2203976E-1,3.0429852E-1,-4.423488E-1,2.9671675E-1,-4.8109984E-1],"split_indices":[508,37,690,596,690,279,146,115,369,505,756,709,709,319,756,279,690,690,319,115,756,640,220,319,219,146,756,419,279,568,71,756,620,620,508,709,163,690,756,620,178,461,279,130,419,48,224,698,461,369,350,149,756,219,146,9,9,756,419,149,279,220,162,0,0,0,0,0,0,0,0,0,0,0,0,0,0,0,0,0,0,0,0,0,0,0,0,0,0,0,0,0,0,0,0,0,0,0,0,0,0,0,0,0,0,0,0,0,0,0,0,0,0,0,0,0,0,0,0,0,0,0,0,0,0,0,0],"split_type":[0,0,0,0,0,0,0,0,0,0,0,0,0,0,0,0,0,0,0,0,0,0,0,0,0,0,0,0,0,0,0,0,0,0,0,0,0,0,0,0,0,0,0,0,0,0,0,0,0,0,0,0,0,0,0,0,0,0,0,0,0,0,0,0,0,0,0,0,0,0,0,0,0,0,0,0,0,0,0,0,0,0,0,0,0,0,0,0,0,0,0,0,0,0,0,0,0,0,0,0,0,0,0,0,0,0,0,0,0,0,0,0,0,0,0,0,0,0,0,0,0,0,0,0,0,0,0],"sum_hessian":[1.1366072E4,5.254223E3,6.111849E3,1.9085326E3,3.3456907E3,1.5682509E3,4.543598E3,1.0797697E3,8.287629E2,3.0914844E3,2.5420622E2,7.75224E2,7.9302686E2,8.8926965E2,3.6543284E3,7.020017E2,3.77768E2,5.783471E2,2.5041582E2,2.6182927E3,4.7319174E2,1.19232086E2,1.3497414E2,4.978879E2,2.773361E2,2.7628577E2,5.167411E2,2.4315201E2,6.461176E2,3.572743E3,8.158554E1,6.227061E2,7.929554E1,1.9942702E2,1.7834099E2,3.733905E2,2.0495657E2,1.0945302E2,1.409628E2,1.0898044E2,2.5093123E3,1.4928564E2,3.239061E2,7.017235E1,4.9059742E1,3.0274206E1,1.04699936E2,5.292017E1,4.4496774E2,9.9023186E1,1.7831291E2,1.0176848E2,1.745173E2,1.9660576E2,3.201353E2,1.0439208E2,1.3875992E2,4.4921844E2,1.9689917E2,6.0228867E1,3.512514E3,2.7412415E1,5.417313E1,5.6246454E2,6.0241608E1,3.8309452E1,4.0986088E1,1.33065E1,1.8612051E2,5.9518875E1,1.1882211E2,1.5520125E1,3.578704E2,1.4873312E2,5.6223457E1,9.4773445E1,1.467957E1,1.2025996E2,2.0702843E1,3.60676E1,7.291284E1,2.4465474E3,6.2764828E1,5.018714E1,9.90985E1,4.1929333E1,2.8197675E2,6.6778656E1,3.393692E0,1.4294443E1,3.4765297E1,1.5015801E1,1.5258404E1,8.908408E0,9.579153E1,1.9530476E1,3.3389694E1,1.8132448E1,4.268353E2,9.089126E1,8.131928E0,7.2940674E1,1.0537224E2,7.256024E1,2.9208239E1,1.463452E2,2.8172098E1,9.706979E1,9.953597E1,2.0402681E2,1.1610849E2,4.973436E1,5.465772E1,1.0584276E2,3.2917168E1,4.108254E2,3.8393055E1,9.8204185E1,9.8694984E1,3.4007843E1,2.6221022E1,3.0514822E3,4.610318E2,2.0938267E1,6.474148E0,1.4374909E0,5.2735638E1],"tree_param":{"num_deleted":"0","num_feature":"768","num_nodes":"127","size_leaf_vector":"1"}},{"base_weights":[-3.660268E-3,-9.403127E-1,4.5798585E-1,-2.1121654E-1,-1.1162912E0,7.675637E-1,-2.7919573E-1,-7.428779E-1,2.692671E-1,-1.1629378E0,3.4310263E-2,-3.460981E-1,8.9429426E-1,1.4362411E-1,-1.0845767E0,-2.252067E-1,-1.2068467E0,6.4040047E-1,-6.629154E-1,-1.2585224E0,-7.3306334E-1,-5.5578417E-1,7.637238E-1,1.9618988E-1,-1.0085496E0,1.0137244E0,-1.0228046E-1,-7.0416176E-1,5.2674526E-1,-1.2615465E0,-3.955101E-1,-7.57726E-1,6.3832724E-1,2.37222E-1,-1.276923E0,8.0979645E-1,-1.3028691E0,-1.0547495E0,1.4084409E-1,-1.2972934E0,-4.3792096E-1,-2.031444E-1,-1.0106183E0,3.6400536E-1,-1.0318087E0,1.0932641E0,-4.4402742E-1,7.28552E-1,-6.161635E-1,-3.9920217E-1,-1.3786291E0,-2.693867E-2,1.0934837E0,6.088433E-1,-9.6469873E-1,-1.0425801E0,5.267232E-2,8.6956865E-1,-9.321457E-2,-2.3929888E-1,-1.3257941E0,-1.2839252E0,1.0767173E-1,1.5479402E-1,-3.033793E-1,3.1623572E-1,-1.02195375E-1,3.2427335E-1,-2.478752E-1,-5.4063167E-2,-4.033061E-1,-3.0598027E-1,2.846258E-1,-4.5288387E-1,2.5373104E-1,-4.1254583E-1,6.82276E-2,-1.4468226E-1,3.2557812E-1,-2.6335555E-1,-3.9592743E-1,1.9829355E-1,-2.3912467E-1,1.9591562E-1,-1.6312146E-1,2.8027472E-1,-3.1625193E-1,-1.5087609E-1,3.9552256E-1,4.464492E-2,-3.7480903E-1,3.753702E-1,-2.2182956E-1,-3.2408392E-1,3.1666464E-1,2.735742E-1,-3.059534E-1,4.426256E-2,-3.3025414E-1,-3.4347883E-1,4.071442E-2,-2.2327264E-1,-4.5959908E-1,1.3021742E-1,-2.742695E-1,2.098694E-1,3.6246085E-1,2.9037085E-1,-2.4837841E-1,2.1431385E-2,-3.6083668E-1,-1.3361047E-1,-3.7653142E-1,-3.065561E-1,1.6382869E-1,-3.7178144E-2,3.0827183E-1,-3.0645737E-1,8.066422E-2,-2.2881515E-1,2.9340976E-1,-4.2771587E-1,-2.4245857E-1,-4.191679E-1,3.170553E-1,-1.6594648E-1,2.8517988E-1],"categories":[],"categories_nodes":[],"categories_segments":[],"categories_sizes":[],"default_left":[0,0,0,0,0,0,0,0,0,0,0,0,0,0,0,0,0,0,0,0,0,0,0,0,0,0,0,0,0,0,0,0,0,0,0,0,0,0,0,0,0,0,0,0,0,0,0,0,0,0,0,0,0,0,0,0,0,0,0,0,0,0,0,0,0,0,0,0,0,0,0,0,0,0,0,0,0,0,0,0,0,0,0,0,0,0,0,0,0,0,0,0,0,0,0,0,0,0,0,0,0,0,0,0,0,0,0,0,0,0,0,0,0,0,0,0,0,0,0,0,0,0,0,0,0,0,0],"id":2,"left_children":[1,3,5,7,9,11,13,15,17,19,21,23,25,27,29,31,33,35,37,39,41,43,45,47,49,51,53,55,57,59,61,63,65,67,69,71,73,75,77,79,81,83,85,87,89,91,93,95,97,99,101,103,105,107,109,111,113,115,117,119,121,123,125,-1,-1,-1,-1,-1,-1,-1,-1,-1,-1,-1,-1,-1,-1,-1,-1,-1,-1,-1,-1,-1,-1,-1,-1,-1,-1,-1,-1,-1,-1,-1,-1,-1,-1,-1,-1,-1,-1,-1,-1,-1,-1,-1,-1,-1,-1,-1,-1,-1,-1,-1,-1,-1,-1,-1,-1,-1,-1,-1,-1,-1,-1,-1,-1],"loss_changes":[4.4498623E3,4.356897E2,1.573408E3,1.6927023E2,1.4692432E2,6.8551953E2,6.946582E2,7.5254776E1,1.2095383E2,1.07147705E2,4.6737167E1,1.7865182E2,5.189463E2,4.3503925E2,8.513287E1,6.939425E1,1.7060654E1,8.324803E1,3.1547573E1,6.7845215E1,7.051648E1,2.6671614E1,1.980447E1,1.1893959E2,4.9910583E1,3.231438E2,2.8724744E2,1.06849E2,1.961009E2,3.6348328E1,6.493681E1,3.0603218E1,2.3847721E1,8.526301E0,1.1448944E1,5.9518127E1,1.0340439E1,2.789547E1,2.0270826E1,1.8183838E1,3.9411503E1,4.8917675E1,2.7693756E1,1.8221483E1,1.0418053E1,1.2049229E1,1.1746534E1,5.414044E1,4.051365E1,3.44444E1,1.2365082E1,1.1414814E2,1.625503E2,1.3327692E2,5.2292374E1,3.6016388E1,6.937029E1,9.3368256E1,1.1096679E2,2.2557968E1,2.6003479E1,1.5397682E1,5.2586945E1,0E0,0E0,0E0,0E0,0E0,0E0,0E0,0E0,0E0,0E0,0E0,0E0,0E0,0E0,0E0,0E0,0E0,0E0,0E0,0E0,0E0,0E0,0E0,0E0,0E0,0E0,0E0,0E0,0E0,0E0,0E0,0E0,0E0,0E0,0E0,0E0,0E0,0E0,0E0,0E0,0E0,0E0,0E0,0E0,0E0,0E0,0E0,0E0,0E0,0E0,0E0,0E0,0E0,0E0,0E0,0E0,0E0,0E0,0E0,0E0,0E0,0E0,0E0,0E0],"parents":[2147483647,0,0,1,1,2,2,3,3,4,4,5,5,6,6,7,7,8,8,9,9,10,10,11,11,12,12,13,13,14,14,15,15,16,16,17,17,18,18,19,19,20,20,21,21,22,22,23,23,24,24,25,25,26,26,27,27,28,28,29,29,30,30,31,31,32,32,33,33,34,34,35,35,36,36,37,37,38,38,39,39,40,40,41,41,42,42,43,43,44,44,45,45,46,46,47,47,48,48,49,49,50,50,51,51,52,52,53,53,54,54,55,55,56,56,57,57,58,58,59,59,60,60,61,61,62,62],"right_children":[2,4,6,8,10,12,14,16,18,20,22,24,26,28,30,32,34,36,38,40,42,44,46,48,50,52,54,56,58,60,62,64,66,68,70,72,74,76,78,80,82,84,86,88,90,92,94,96,98,100,102,104,106,108,110,112,114,116,118,120,122,124,126,-1,-1,-1,-1,-1,-1,-1,-1,-1,-1,-1,-1,-1,-1,-1,-1,-1,-1,-1,-1,-1,-1,-1,-1,-1,-1,-1,-1,-1,-1,-1,-1,-1,-1,-1,-1,-1,-1,-1,-1,-1,-1,-1,-1,-1,-1,-1,-1,-1,-1,-1,-1,-1,-1,-1,-1,-1,-1,-1,-1,-1,-1,-1,-1],"split_conditions":[-1.7607676E-2,-2.4483357E-2,-9.227647E-3,2.2258818E-2,8.211926E-2,2.3043444E-2,1.6796324E-34,-4.0396836E-2,1.0191293E-2,-7.868608E-3,-2.5573635E-2,9.980557E-3,1.8942092E-34,2.3724737E-2,6.1257742E-2,5.4959565E-2,-7.860066E-2,2.0406166E-34,2.5427968E-3,3.340008E-2,-3.2689363E-2,2.2156192E-2,4.637563E-2,-4.0877353E-2,-1.7507527E-2,-3.46338E-3,-6.0568375E-33,6.995333E-3,1.9180026E-2,-2.6005741E-2,-9.977079E-3,-9.7611975E-3,-1.4428772E-2,-3.1164093E-2,-2.3321643E-2,-2.157855E-2,3.9471034E-2,3.0370096E-2,6.1669327E-2,-1.406236E-2,-1.5262628E-2,-5.5045053E-2,-3.8303338E-2,3.9021116E-2,-1.1353599E-2,2.1883253E-2,3.0472878E-2,1.7211587E-34,1.2600643E-34,6.423529E-3,-1.0363752E-2,1.8818913E-2,-1.9379815E-2,2.8279342E-7,-4.8631546E-3,-4.4557422E-2,-1.090828E-2,-1.6320484E-4,-4.5015775E-3,5.6013618E-2,1.5336455E-2,6.2401876E-2,-1.2233587E-2,1.5479402E-1,-3.033793E-1,3.1623572E-1,-1.02195375E-1,3.2427335E-1,-2.478752E-1,-5.4063167E-2,-4.033061E-1,-3.0598027E-1,2.846258E-1,-4.5288387E-1,2.5373104E-1,-4.1254583E-1,6.82276E-2,-1.4468226E-1,3.2557812E-1,-2.6335555E-1,-3.9592743E-1,1.9829355E-1,-2.3912467E-1,1.9591562E-1,-1.6312146E-1,2.8027472E-1,-3.1625193E-1,-1.5087609E-1,3.9552256E-1,4.464492E-2,-3.7480903E-1,3.753702E-1,-2.2182956E-1,-3.2408392E-1,3.1666464E-1,2.735742E-1,-3.059534E-1,4.426256E-2,-3.3025414E-1,-3.4347883E-1,4.071442E-2,-2.2327264E-1,-4.5959908E-1,1.3021742E-1,-2.742695E-1,2.098694E-1,3.6246085E-1,2.9037085E-1,-2.4837841E-1,2.1431385E-2,-3.6083668E-1,-1.3361047E-1,-3.7653142E-1,-3.065561E-1,1.6382869E-1,-3.7178144E-2,3.0827183E-1,-3.0645737E-1,8.066422E-2,-2.2881515E-1,2.9340976E-1,-4.2771587E-1,-2.4245857E-1,-4.191679E-1,3.170553E-1,-1.6594648E-1,2.8517988E-1],"split_indices":[508,37,620,146,690,461,756,279,220,35,508,563,756,461,690,690,641,756,129,505,114,115,578,42,359,146,555,369,115,528,505,587,538,620,50,319,695,173,9,709,589,279,115,9,330,113,361,756,756,173,139,563,369,688,709,114,319,119,609,445,163,55,212,0,0,0,0,0,0,0,0,0,0,0,0,0,0,0,0,0,0,0,0,0,0,0,0,0,0,0,0,0,0,0,0,0,0,0,0,0,0,0,0,0,0,0,0,0,0,0,0,0,0,0,0,0,0,0,0,0,0,0,0,0,0,0,0],"split_type":[0,0,0,0,0,0,0,0,0,0,0,0,0,0,0,0,0,0,0,0,0,0,0,0,0,0,0,0,0,0,0,0,0,0,0,0,0,0,0,0,0,0,0,0,0,0,0,0,0,0,0,0,0,0,0,0,0,0,0,0,0,0,0,0,0,0,0,0,0,0,0,0,0,0,0,0,0,0,0,0,0,0,0,0,0,0,0,0,0,0,0,0,0,0,0,0,0,0,0,0,0,0,0,0,0,0,0,0,0,0,0,0,0,0,0,0,0,0,0,0,0,0,0,0,0,0,0],"sum_hessian":[1.0289036E4,3.3965671E3,6.892469E3,6.608406E2,2.7357266E3,4.8540005E3,2.0384686E3,3.134538E2,3.4738678E2,2.6291284E3,1.06598145E2,4.957549E2,4.3582456E3,1.3372452E3,7.012234E2,1.4885493E2,1.6459885E2,2.4868849E2,9.869829E1,2.149295E3,4.7983365E2,5.9058193E1,4.7539948E1,2.7298834E2,2.2276657E2,3.8918289E3,4.664165E2,4.1595822E2,9.2128705E2,5.572713E2,1.4395212E2,9.215057E1,5.670437E1,7.507417E0,1.5709143E2,2.2928487E2,1.9403618E1,6.6141785E1,3.2556503E1,2.0517734E3,9.752146E1,1.6552971E2,3.1430396E2,2.0221298E1,3.8836895E1,3.7423557E1,1.0116393E1,1.6497678E2,1.0801158E2,8.495849E1,1.3780809E2,2.7709396E2,3.6147349E3,2.5579214E2,2.1062437E2,2.8717178E2,1.2878642E2,5.9298016E2,3.283069E2,3.323245E1,5.240388E2,5.1490017E1,9.24621E1,1.5126103E1,7.702447E1,3.9746487E1,1.6957882E1,4.1771464E0,3.3302708E0,9.311924E0,1.4777951E2,1.5736156E1,2.135487E2,1.797177E1,1.4318485E0,5.2860046E1,1.3281738E1,1.990963E1,1.2646872E1,1.06340546E2,1.9454329E3,2.3815271E1,7.370619E1,4.6846912E1,1.1868279E2,6.436639E0,3.078673E2,1.0844145E1,9.377153E0,6.0921245E0,3.274477E1,3.4745895E1,2.6776614E0,7.299087E0,2.8173058E0,1.4975023E2,1.5226538E1,4.220526E1,6.580632E1,3.501029E1,4.99482E1,2.796927E1,1.0983881E2,1.8268831E2,9.4405655E1,8.16875E2,2.7978599E3,2.0491E2,5.0882145E1,3.94861E1,1.7113828E2,7.6183945E1,2.1098784E2,4.019122E1,8.859521E1,8.1395905E1,5.1158423E2,9.161381E1,2.3669307E2,2.3501091E1,9.731357E0,4.377703E2,8.626854E1,4.949728E1,1.9927384E0,5.202222E1,4.0439877E1],"tree_param":{"num_deleted":"0","num_feature":"768","num_nodes":"127","size_leaf_vector":"1"}},{"base_weights":[-5.694902E-3,-4.9730855E-1,6.148717E-1,-9.8062044E-1,-7.046432E-2,-1.5266593E-1,8.064196E-1,-1.1726608E0,-4.2619833E-1,-7.758711E-1,2.5826535E-1,1.815675E-1,-8.982341E-1,9.2438006E-1,-3.1302977E-2,-1.2042733E0,-1.4332132E-1,1.6257176E-1,-8.9340454E-1,-9.876831E-1,1.848373E-1,5.4600996E-1,-6.021019E-1,6.280069E-1,-3.0266222E-1,-1.1353306E0,-3.5490653E-1,1.0119127E0,5.6066923E-2,-7.099599E-1,4.8376405E-1,-7.458929E-1,-1.2430774E0,3.9351535E-1,-1.023184E0,5.513898E-1,-6.742318E-1,-1.0922211E0,-1.00903094E-1,-1.1418818E0,-3.6481893E-1,-7.0774305E-1,6.714895E-1,7.621705E-1,-3.823061E-1,-9.9636775E-1,1.9027238E-1,7.6348734E-1,-5.8668065E-1,1.941713E-1,-9.6220106E-1,-1.248966E0,6.7557395E-2,4.1526297E-1,-9.658855E-1,1.0696545E0,4.138322E-3,4.973244E-1,-6.1609364E-1,-1.3882518E0,-1.8159436E-1,-4.3464375E-1,8.2804626E-1,6.464943E-2,-3.1719902E-1,2.038928E-1,-3.7443572E-1,2.1271297E-1,-4.8553684E-1,2.4071108E-1,-3.718517E-1,-1.895065E-1,2.3649462E-1,-3.309856E-1,2.8670039E-2,2.3971254E-1,-3.394093E-1,1.5911025E-1,-2.2111303E-1,-3.6750373E-1,-9.060348E-2,-2.1155386E-1,1.5961027E-1,-2.9606223E-1,1.5783522E-1,2.6769984E-1,-2.6220158E-1,-1.2826078E-1,2.653883E-1,-2.5368252E-1,9.723836E-2,6.793906E-2,-3.2328734E-1,2.66386E-1,-1.02797054E-1,-9.8722346E-2,2.7489707E-1,1.4718987E-1,-3.4178025E-1,2.7278683E-1,-1.1535645E-1,-3.6336756E-1,4.084677E-2,-4.3148047E-1,-2.4261096E-1,2.4348189E-1,-3.3210695E-1,2.5017267E-1,-2.658338E-1,1.7801294E-1,-3.6287978E-1,3.382215E-1,1.6474475E-1,-2.3518366E-1,1.7950223E-1,-8.5999705E-2,2.282816E-1,-3.068028E-1,4.3488212E-2,-2.4322411E-2,-4.700041E-1,2.3802489E-1,-1.8307829E-1,-4.3884107E-1,4.9541775E-2,3.3850843E-1,2.9343003E-2],"categories":[],"categories_nodes":[],"categories_segments":[],"categories_sizes":[],"default_left":[0,0,0,0,0,0,0,0,0,0,0,0,0,0,0,0,0,0,0,0,0,0,0,0,0,0,0,0,0,0,0,0,0,0,0,0,0,0,0,0,0,0,0,0,0,0,0,0,0,0,0,0,0,0,0,0,0,0,0,0,0,0,0,0,0,0,0,0,0,0,0,0,0,0,0,0,0,0,0,0,0,0,0,0,0,0,0,0,0,0,0,0,0,0,0,0,0,0,0,0,0,0,0,0,0,0,0,0,0,0,0,0,0,0,0,0,0,0,0,0,0,0,0,0,0,0,0],"id":3,"left_children":[1,3,5,7,9,11,13,15,17,19,21,23,25,27,29,31,33,35,37,39,41,43,45,47,49,51,53,55,57,59,61,63,65,67,69,71,73,75,77,79,81,83,85,87,89,91,93,95,97,99,101,103,105,107,109,111,113,115,117,119,121,123,125,-1,-1,-1,-1,-1,-1,-1,-1,-1,-1,-1,-1,-1,-1,-1,-1,-1,-1,-1,-1,-1,-1,-1,-1,-1,-1,-1,-1,-1,-1,-1,-1,-1,-1,-1,-1,-1,-1,-1,-1,-1,-1,-1,-1,-1,-1,-1,-1,-1,-1,-1,-1,-1,-1,-1,-1,-1,-1,-1,-1,-1,-1,-1,-1],"loss_changes":[2.7996077E3,1.0562483E3,5.9648694E2,2.5516455E2,6.309539E2,2.0225182E2,3.2082886E2,5.7843506E1,1.7050967E2,1.7618152E2,4.5985428E2,1.2141917E2,3.1955551E1,2.1623267E2,1.4074805E2,2.983789E1,2.6031681E1,8.9802734E1,5.4322845E1,6.7661804E1,6.870898E1,2.7951636E2,1.4567006E2,4.8517883E1,8.8555725E1,2.39263E1,3.699507E1,1.5042065E2,7.791268E1,6.200553E1,7.275238E1,4.1395782E1,1.6291992E1,2.299907E1,9.223839E0,5.325515E1,2.9054295E1,2.1342224E1,2.8657251E1,3.926581E1,4.375964E1,1.9776123E1,3.5652267E1,1.6486212E2,8.650966E1,3.115738E1,5.8144783E1,4.425566E1,1.8344341E1,6.434666E1,3.1902588E1,1.2123215E1,1.4885001E1,1.986266E1,1.7311436E1,7.2875E1,6.653922E1,3.2978195E1,3.237352E1,1.7579391E1,4.177847E1,3.914199E1,3.6484444E1,0E0,0E0,0E0,0E0,0E0,0E0,0E0,0E0,0E0,0E0,0E0,0E0,0E0,0E0,0E0,0E0,0E0,0E0,0E0,0E0,0E0,0E0,0E0,0E0,0E0,0E0,0E0,0E0,0E0,0E0,0E0,0E0,0E0,0E0,0E0,0E0,0E0,0E0,0E0,0E0,0E0,0E0,0E0,0E0,0E0,0E0,0E0,0E0,0E0,0E0,0E0,0E0,0E0,0E0,0E0,0E0,0E0,0E0,0E0,0E0,0E0,0E0,0E0,0E0],"parents":[2147483647,0,0,1,1,2,2,3,3,4,4,5,5,6,6,7,7,8,8,9,9,10,10,11,11,12,12,13,13,14,14,15,15,16,16,17,17,18,18,19,19,20,20,21,21,22,22,23,23,24,24,25,25,26,26,27,27,28,28,29,29,30,30,31,31,32,32,33,33,34,34,35,35,36,36,37,37,38,38,39,39,40,40,41,41,42,42,43,43,44,44,45,45,46,46,47,47,48,48,49,49,50,50,51,51,52,52,53,53,54,54,55,55,56,56,57,57,58,58,59,59,60,60,61,61,62,62],"right_children":[2,4,6,8,10,12,14,16,18,20,22,24,26,28,30,32,34,36,38,40,42,44,46,48,50,52,54,56,58,60,62,64,66,68,70,72,74,76,78,80,82,84,86,88,90,92,94,96,98,100,102,104,106,108,110,112,114,116,118,120,122,124,126,-1,-1,-1,-1,-1,-1,-1,-1,-1,-1,-1,-1,-1,-1,-1,-1,-1,-1,-1,-1,-1,-1,-1,-1,-1,-1,-1,-1,-1,-1,-1,-1,-1,-1,-1,-1,-1,-1,-1,-1,-1,-1,-1,-1,-1,-1,-1,-1,-1,-1,-1,-1,-1,-1,-1,-1,-1,-1,-1,-1,-1,-1,-1,-1],"split_conditions":[-1.3970785E-3,-3.1103345E-3,3.0844167E-2,8.672023E-3,9.197402E-3,-2.191673E-2,6.5905857E-3,8.68115E-2,-3.6343618E-3,1.78763E-2,1.7510484E-34,-2.4875181E-3,1.8914912E-2,-4.2773583E-3,2.4024123E-2,-4.374483E-2,-4.3566944E-3,-1.0161179E-3,2.458535E-2,3.711197E-2,1.8923411E-2,2.3814436E-2,5.7510305E-2,1.1499625E-2,-3.2898854E-2,4.964271E-2,1.4044928E-34,2.9665604E-2,-5.1824685E-2,2.0001639E-2,-1.9316895E-2,1.4164924E-34,-5.1803045E-2,2.529524E-2,2.0004716E-2,-2.330424E-2,3.4100566E-2,-6.8903916E-2,-3.1175943E-2,9.575758E-2,5.590964E-2,6.661073E-2,3.1676408E-2,1.2234138E-2,2.86492E-2,-8.7840244E-2,-6.043923E-2,2.5600404E-4,-1.0270409E-2,2.1051617E-2,7.383219E-2,3.1861182E-2,1.200092E-2,-4.5277398E-33,-1.664854E-2,2.0384122E-2,6.7372816E-3,-3.3866107E-2,6.926172E-3,-1.8596143E-2,-4.8880205E-2,2.3112522E-2,-3.4410235E-2,6.464943E-2,-3.1719902E-1,2.038928E-1,-3.7443572E-1,2.1271297E-1,-4.8553684E-1,2.4071108E-1,-3.718517E-1,-1.895065E-1,2.3649462E-1,-3.309856E-1,2.8670039E-2,2.3971254E-1,-3.394093E-1,1.5911025E-1,-2.2111303E-1,-3.6750373E-1,-9.060348E-2,-2.1155386E-1,1.5961027E-1,-2.9606223E-1,1.5783522E-1,2.6769984E-1,-2.6220158E-1,-1.2826078E-1,2.653883E-1,-2.5368252E-1,9.723836E-2,6.793906E-2,-3.2328734E-1,2.66386E-1,-1.02797054E-1,-9.8722346E-2,2.7489707E-1,1.4718987E-1,-3.4178025E-1,2.7278683E-1,-1.1535645E-1,-3.6336756E-1,4.084677E-2,-4.3148047E-1,-2.4261096E-1,2.4348189E-1,-3.3210695E-1,2.5017267E-1,-2.658338E-1,1.7801294E-1,-3.6287978E-1,3.382215E-1,1.6474475E-1,-2.3518366E-1,1.7950223E-1,-8.5999705E-2,2.282816E-1,-3.068028E-1,4.3488212E-2,-2.4322411E-2,-4.700041E-1,2.3802489E-1,-1.8307829E-1,-4.3884107E-1,4.9541775E-2,3.3850843E-1,2.9343003E-2],"split_indices":[508,163,219,505,319,576,419,690,589,369,756,596,439,195,146,596,114,596,427,146,146,596,690,353,279,146,756,359,42,319,541,756,115,365,84,27,146,279,279,516,690,690,324,219,146,42,42,383,525,709,690,9,468,555,709,48,609,212,163,563,279,319,279,0,0,0,0,0,0,0,0,0,0,0,0,0,0,0,0,0,0,0,0,0,0,0,0,0,0,0,0,0,0,0,0,0,0,0,0,0,0,0,0,0,0,0,0,0,0,0,0,0,0,0,0,0,0,0,0,0,0,0,0,0,0,0,0],"split_type":[0,0,0,0,0,0,0,0,0,0,0,0,0,0,0,0,0,0,0,0,0,0,0,0,0,0,0,0,0,0,0,0,0,0,0,0,0,0,0,0,0,0,0,0,0,0,0,0,0,0,0,0,0,0,0,0,0,0,0,0,0,0,0,0,0,0,0,0,0,0,0,0,0,0,0,0,0,0,0,0,0,0,0,0,0,0,0,0,0,0,0,0,0,0,0,0,0,0,0,0,0,0,0,0,0,0,0,0,0,0,0,0,0,0,0,0,0,0,0,0,0,0,0,0,0,0,0],"sum_hessian":[9.174663E3,5.119325E3,4.0553376E3,2.4002483E3,2.7190771E3,8.0997003E2,3.2453674E3,1.7819147E3,6.183336E2,8.639036E2,1.8551735E3,5.597805E2,2.5018954E2,2.8446995E3,4.0066806E2,1.7286552E3,5.325945E1,2.7386407E2,3.4446957E2,7.0781915E2,1.5608443E2,1.390496E3,4.6467752E2,2.9110086E2,2.6867963E2,1.7342224E2,7.67673E1,2.5840427E3,2.6065668E2,1.7271666E2,2.279514E2,1.3649556E2,1.5921597E3,3.3420887E1,1.9838564E1,1.872159E2,8.664817E1,2.7508115E2,6.9388435E1,5.666932E2,1.41126E2,5.491296E1,1.0117147E2,1.1280142E3,2.624817E2,3.1011472E2,1.5456282E2,2.62225E2,2.8875866E1,1.536443E2,1.1503533E2,1.5841833E2,1.5003901E1,3.4101276E1,4.2666027E1,2.4439521E3,1.4009074E2,1.5751314E2,1.0314353E2,7.491575E1,9.780091E1,6.2081154E1,1.6587024E2,3.347327E1,1.0302229E2,3.813999E0,1.5883456E3,2.9449976E1,3.9709103E0,1.8147342E0,1.8023829E1,3.0958702E1,1.5625719E2,5.5359756E1,3.1288416E1,5.1842E0,2.6989694E2,3.4910976E1,3.4477455E1,5.152363E2,5.1456867E1,1.0245681E2,3.8669193E1,4.494534E1,9.96762E0,8.88919E1,1.22795725E1,1.0503904E2,1.02297516E3,1.584005E2,1.040812E2,1.9211649E1,2.9090305E2,6.664663E1,8.79162E1,3.203894E1,2.3018605E2,9.827826E0,1.904804E1,6.846615E1,8.517815E1,9.3690636E1,2.1344692E1,1.09198715E2,4.9219624E1,9.374537E0,5.6293626E0,2.6072948E1,8.028327E0,5.57336E0,3.7092667E1,2.1988245E3,2.4512769E2,6.0083443E1,8.000729E1,3.961386E1,1.1789927E2,6.70039E1,3.6139633E1,9.172429E0,6.574332E1,2.96074E1,6.819351E1,2.234243E1,3.9738724E1,1.1714734E2,4.8722904E1],"tree_param":{"num_deleted":"0","num_feature":"768","num_nodes":"127","size_leaf_vector":"1"}},{"base_weights":[-6.996955E-3,-8.1281775E-1,2.6470256E-1,-4.8739263E-1,-1.06726E0,5.5801606E-1,-2.858472E-1,-8.395671E-1,5.1038314E-2,-1.1177511E0,-6.4520246E-1,7.5525886E-1,-2.7144447E-2,-6.1643106E-1,3.5696894E-1,-1.1302195E0,-5.058001E-1,5.5369806E-1,-5.689383E-1,-1.1316159E0,-4.2587547E-3,-8.902884E-2,-1.0592505E0,8.9381826E-1,8.9698814E-2,-4.9292168E-1,4.5654166E-1,-9.187958E-1,-2.775247E-2,-1.7999984E-1,7.325562E-1,-1.167903E0,-2.5837132E-1,-9.4980806E-1,-1.1327163E-1,7.7498394E-1,-6.930912E-1,-1.0125031E0,2.9161327E-2,-1.1507964E0,-7.5435233E-1,-6.5170735E-1,1.2509364E0,3.89732E-1,-9.7668236E-1,2.5640148E-1,-1.1073078E0,9.844333E-1,2.8365922E-1,-5.6326884E-1,5.2358437E-1,-8.8538504E-1,1.8967971E-2,7.0702785E-1,-3.2058415E-1,-3.6786327E-1,-1.0882492E0,-8.765825E-1,2.727299E-1,2.8314355E-1,-7.8947425E-1,8.04844E-1,-8.8221824E-1,-2.1278916E-1,-3.613631E-1,-3.3106458E-1,2.037758E-1,-3.246026E-1,-8.421197E-2,1.3069157E-1,-2.0602398E-1,3.1973588E-1,-1.8573495E-2,-3.1907535E-1,1.0647888E-1,-3.3662733E-1,1.4618011E-1,1.6260792E-1,-2.2024363E-1,2.1222816E-1,-3.4612378E-1,-2.7280915E-1,2.389417E-1,1.3749404E-1,-3.3036515E-1,-1.2870046E-1,6.007093E-1,-2.9113504E-1,1.9813141E-1,2.3567434E-1,-3.4552303E-1,-3.5130864E-1,3.2387182E-2,1.6181767E-2,3.1116143E-1,-5.8098834E-2,2.1613148E-1,-2.8434947E-1,4.9955636E-2,2.0588258E-1,-2.47403E-1,-3.316529E-1,-6.4576834E-2,8.9083135E-2,-2.911594E-1,2.7510357E-1,-1.886523E-3,-2.3625293E-1,4.3647766E-2,5.5620145E-2,-2.7183267E-1,-3.574409E-1,-1.6724357E-1,-3.1932414E-1,1.7391111E-1,-1.942824E-1,1.7334096E-1,1.4839035E-1,-2.3480779E-1,2.3324791E-2,-3.3553073E-1,3.566566E-2,2.8085446E-1,-3.6584464E-1,2.1166213E-1],"categories":[],"categories_nodes":[],"categories_segments":[],"categories_sizes":[],"default_left":[0,0,0,0,0,0,0,0,0,0,0,0,0,0,0,0,0,0,0,0,0,0,0,0,0,0,0,0,0,0,0,0,0,0,0,0,0,0,0,0,0,0,0,0,0,0,0,0,0,0,0,0,0,0,0,0,0,0,0,0,0,0,0,0,0,0,0,0,0,0,0,0,0,0,0,0,0,0,0,0,0,0,0,0,0,0,0,0,0,0,0,0,0,0,0,0,0,0,0,0,0,0,0,0,0,0,0,0,0,0,0,0,0,0,0,0,0,0,0,0,0,0,0,0,0],"id":4,"left_children":[1,3,5,7,9,11,13,15,17,19,21,23,25,27,29,31,33,35,37,39,41,43,45,47,49,51,53,55,57,59,61,63,65,67,69,71,73,75,77,79,81,83,85,87,89,-1,91,93,95,97,99,101,103,105,107,109,111,113,115,117,119,121,123,-1,-1,-1,-1,-1,-1,-1,-1,-1,-1,-1,-1,-1,-1,-1,-1,-1,-1,-1,-1,-1,-1,-1,-1,-1,-1,-1,-1,-1,-1,-1,-1,-1,-1,-1,-1,-1,-1,-1,-1,-1,-1,-1,-1,-1,-1,-1,-1,-1,-1,-1,-1,-1,-1,-1,-1,-1,-1,-1,-1,-1,-1],"loss_changes":[1.7848734E3,1.6968896E2,9.846763E2,1.714294E2,2.384497E1,4.5914673E2,4.5068228E2,5.2443054E1,1.1198972E2,1.5869507E1,2.8815117E1,2.742848E2,2.2636952E2,2.4920923E2,1.4545071E2,9.268646E0,4.454203E1,5.5276394E1,4.2727173E1,6.480835E0,1.1907919E1,2.361237E1,7.5570908E0,1.3586365E2,1.4585034E2,1.028452E2,9.618374E1,8.595953E1,1.2169331E2,8.416149E1,5.0224304E1,3.8329468E0,1.1331372E1,1.0317566E1,4.3459892E1,4.1188667E1,1.2194491E1,1.5739555E1,2.7607454E1,6.102661E0,1.3234213E1,5.325835E0,7.154792E0,1.3980125E1,6.901804E0,0E0,5.589485E0,1.0520044E2,6.681397E1,5.7854195E1,6.8384445E1,4.2502075E1,6.1654682E1,5.5890793E1,2.6413692E1,6.541585E1,3.806659E1,3.473597E1,9.9331505E1,3.864035E1,3.6792015E1,3.6513885E1,1.0848741E1,0E0,0E0,0E0,0E0,0E0,0E0,0E0,0E0,0E0,0E0,0E0,0E0,0E0,0E0,0E0,0E0,0E0,0E0,0E0,0E0,0E0,0E0,0E0,0E0,0E0,0E0,0E0,0E0,0E0,0E0,0E0,0E0,0E0,0E0,0E0,0E0,0E0,0E0,0E0,0E0,0E0,0E0,0E0,0E0,0E0,0E0,0E0,0E0,0E0,0E0,0E0,0E0,0E0,0E0,0E0,0E0,0E0,0E0,0E0,0E0,0E0,0E0],"parents":[2147483647,0,0,1,1,2,2,3,3,4,4,5,5,6,6,7,7,8,8,9,9,10,10,11,11,12,12,13,13,14,14,15,15,16,16,17,17,18,18,19,19,20,20,21,21,22,22,23,23,24,24,25,25,26,26,27,27,28,28,29,29,30,30,31,31,32,32,33,33,34,34,35,35,36,36,37,37,38,38,39,39,40,40,41,41,42,42,43,43,44,44,46,46,47,47,48,48,49,49,50,50,51,51,52,52,53,53,54,54,55,55,56,56,57,57,58,58,59,59,60,60,61,61,62,62],"right_children":[2,4,6,8,10,12,14,16,18,20,22,24,26,28,30,32,34,36,38,40,42,44,46,48,50,52,54,56,58,60,62,64,66,68,70,72,74,76,78,80,82,84,86,88,90,-1,92,94,96,98,100,102,104,106,108,110,112,114,116,118,120,122,124,-1,-1,-1,-1,-1,-1,-1,-1,-1,-1,-1,-1,-1,-1,-1,-1,-1,-1,-1,-1,-1,-1,-1,-1,-1,-1,-1,-1,-1,-1,-1,-1,-1,-1,-1,-1,-1,-1,-1,-1,-1,-1,-1,-1,-1,-1,-1,-1,-1,-1,-1,-1,-1,-1,-1,-1,-1,-1,-1,-1,-1,-1],"split_conditions":[-2.2441162E-2,1.6175257E-34,-2.6281113E-2,4.1225433E-2,6.9674484E-2,-2.9304555E-2,6.0959745E-2,2.8638422E-2,1.4696593E-2,4.8808053E-2,2.7049016E-2,2.4254218E-2,5.1055472E-2,3.216583E-4,2.2788024E-2,3.0562378E-2,-9.441366E-3,1.48696685E-2,2.4247756E-3,2.9605813E-2,1.7391255E-2,-2.4727145E-2,-7.5834915E-2,2.9821727E-2,-1.3418049E-2,2.9704738E-2,1.5692571E-2,-4.7712382E-2,1.5341065E-2,5.9476304E-3,2.0942568E-34,-5.2278906E-2,4.7665685E-3,4.802698E-2,-1.2498104E-2,4.152002E-3,4.0827457E-2,5.439449E-2,-2.0011088E-2,-6.098508E-2,6.864012E-2,-3.783905E-2,1.5832806E-2,-2.3980804E-4,-6.0312066E-2,2.5640148E-1,5.3435046E-2,6.159446E-3,2.6238294E-2,6.027197E-2,2.6440537E-2,4.299363E-2,1.8507105E-34,7.1447846E-3,-2.77019E-3,1.5652236E-34,4.1859962E-2,5.478619E-2,-4.388584E-3,3.3419043E-2,-3.379564E-2,2.5549749E-2,2.120663E-3,-2.1278916E-1,-3.613631E-1,-3.3106458E-1,2.037758E-1,-3.246026E-1,-8.421197E-2,1.3069157E-1,-2.0602398E-1,3.1973588E-1,-1.8573495E-2,-3.1907535E-1,1.0647888E-1,-3.3662733E-1,1.4618011E-1,1.6260792E-1,-2.2024363E-1,2.1222816E-1,-3.4612378E-1,-2.7280915E-1,2.389417E-1,1.3749404E-1,-3.3036515E-1,-1.2870046E-1,6.007093E-1,-2.9113504E-1,1.9813141E-1,2.3567434E-1,-3.4552303E-1,-3.5130864E-1,3.2387182E-2,1.6181767E-2,3.1116143E-1,-5.8098834E-2,2.1613148E-1,-2.8434947E-1,4.9955636E-2,2.0588258E-1,-2.47403E-1,-3.316529E-1,-6.4576834E-2,8.9083135E-2,-2.911594E-1,2.7510357E-1,-1.886523E-3,-2.3625293E-1,4.3647766E-2,5.5620145E-2,-2.7183267E-1,-3.574409E-1,-1.6724357E-1,-3.1932414E-1,1.7391111E-1,-1.942824E-1,1.7334096E-1,1.4839035E-1,-2.3480779E-1,2.3324791E-2,-3.3553073E-1,3.566566E-2,2.8085446E-1,-3.6584464E-1,2.1166213E-1],"split_indices":[508,756,114,690,690,279,690,219,640,505,759,759,690,369,146,148,369,419,662,163,43,279,765,387,369,146,729,512,9,753,756,53,325,701,620,512,146,101,114,679,297,340,284,522,603,0,101,690,446,690,596,609,756,589,294,756,701,300,319,365,419,461,369,0,0,0,0,0,0,0,0,0,0,0,0,0,0,0,0,0,0,0,0,0,0,0,0,0,0,0,0,0,0,0,0,0,0,0,0,0,0,0,0,0,0,0,0,0,0,0,0,0,0,0,0,0,0,0,0,0,0,0,0,0,0],"split_type":[0,0,0,0,0,0,0,0,0,0,0,0,0,0,0,0,0,0,0,0,0,0,0,0,0,0,0,0,0,0,0,0,0,0,0,0,0,0,0,0,0,0,0,0,0,0,0,0,0,0,0,0,0,0,0,0,0,0,0,0,0,0,0,0,0,0,0,0,0,0,0,0,0,0,0,0,0,0,0,0,0,0,0,0,0,0,0,0,0,0,0,0,0,0,0,0,0,0,0,0,0,0,0,0,0,0,0,0,0,0,0,0,0,0,0,0,0,0,0,0,0,0,0,0,0],"sum_hessian":[8.1503154E3,2.0546206E3,6.0956943E3,9.028343E2,1.1517865E3,3.9769187E3,2.118776E3,5.4548596E2,3.573483E2,1.0272476E3,1.2453891E2,2.9741257E3,1.0027929E3,1.3992291E3,7.1954663E2,2.9029974E2,2.5518622E2,1.9740485E2,1.5994344E2,1.01459796E3,1.2649595E1,5.366626E1,7.087265E1,2.4613643E3,5.127615E2,5.1084412E2,4.919488E2,9.240472E2,4.7518198E2,2.9636334E2,4.231833E2,2.7794666E2,1.2353111E1,1.19075E2,1.3611122E2,1.6797101E2,2.9433846E1,9.1437996E1,6.850545E1,9.63559E2,5.1038914E1,8.662262E0,3.9873335E0,3.522721E1,1.843905E1,1.3248538E0,6.954779E1,2.1425586E3,3.1880573E2,2.0458183E2,3.0817966E2,2.8873938E2,2.2210472E2,3.721017E2,1.1984708E2,2.181056E2,7.059416E2,1.2373286E2,3.5144913E2,1.6870148E2,1.27661865E2,4.055307E2,1.7652601E1,2.2070055E1,2.5587659E2,6.40377E0,5.9493413E0,9.891446E1,2.0160538E1,6.966789E1,6.644333E1,1.2445292E2,4.3518085E1,2.1735222E1,7.698622E0,8.544628E1,5.9917164E0,4.1148026E1,2.7357424E1,1.1484607E0,9.624106E2,4.677698E1,4.2619314E0,2.491114E0,6.1711483E0,1.3649204E0,2.6224132E0,5.4181967E0,2.9809013E1,1.3510586E0,1.7087992E1,6.611741E1,3.4303885E0,1.1509872E2,2.0274598E3,1.5259886E2,1.6620685E2,1.337849E2,7.079694E1,2.7543472E2,3.274495E1,2.1685645E2,7.188293E1,1.739403E2,4.8164413E1,2.8725488E2,8.484683E1,5.9524506E1,6.032257E1,1.078756E2,1.1023E2,5.899648E2,1.1597681E2,1.0983542E2,1.3897442E1,8.721579E1,2.6423334E2,1.4121625E2,2.7485233E1,3.5318157E1,9.234371E1,6.547398E1,3.400567E2,1.4751177E1,2.9014246E0],"tree_param":{"num_deleted":"0","num_feature":"768","num_nodes":"125","size_leaf_vector":"1"}},{"base_weights":[-7.889111E-3,3.7360045E-1,-4.6291253E-1,5.673374E-1,-3.2069677E-1,-8.263206E-1,1.546587E-2,-8.6570434E-2,7.330922E-1,-5.704338E-1,3.9875743E-1,-9.138076E-1,1.569073E-1,3.3499178E-1,-6.0242903E-1,3.144573E-1,-6.583406E-1,8.4560955E-1,3.2769114E-2,-7.5885284E-1,1.6972883E-1,-5.213255E-1,7.2762775E-1,-4.025361E-2,-9.7386336E-1,5.787691E-1,-4.879651E-1,-2.0317346E-1,6.6788477E-1,-8.6063915E-1,1.15060434E-1,8.954843E-1,-1.5704182E-1,1.2998457E-1,-9.297529E-1,-3.7182647E-1,8.9191896E-1,4.0509328E-1,-7.147127E-1,-2.2475067E-1,-9.9059117E-1,6.263372E-1,-4.1357353E-1,2.2845285E-1,-1.1732858E0,-4.0839726E-1,8.966348E-1,-9.319357E-1,4.362888E-1,-1.0576982E0,-4.738096E-1,8.2937753E-1,-5.5192083E-1,-9.282257E-1,2.1410762E-1,1.4510018E-1,-9.742504E-1,7.6388896E-1,-3.7110525E-1,-5.292166E-1,-1.122124E0,-5.1018226E-1,6.3161236E-1,-1.3026197E-1,3.0528018E-1,-2.0773886E-1,1.1017237E-1,2.1288498E-1,-1.9508098E-1,-2.461602E-2,-3.2705122E-1,-2.6882896E-1,1.16930105E-1,2.966896E-1,1.313297E-1,-2.6582718E-1,1.8069825E-1,-3.018756E-1,9.198018E-3,-2.2417691E-1,1.0595292E-1,-3.303401E-1,-6.1288904E-2,2.556953E-1,-2.3178123E-1,2.5142193E-1,-2.0006934E-1,2.4026376E-1,-1.5682946E-1,1.9992423E-1,-4.0759733E-1,3.2326527E-2,-4.0664938E-1,3.064833E-1,4.567629E-2,-3.2818526E-1,1.5779407E-1,2.4404608E-1,-1.1778835E-1,-3.3144212E-1,-1.8689783E-1,-2.1486062E-1,1.8636686E-1,2.7981943E-1,-3.5722193E-1,-3.7602007E-1,1.9086318E-1,6.405871E-2,-3.5314724E-1,-2.3120438E-1,2.2903694E-1,-1.9340648E-1,1.382966E-1,-3.4657526E-1,-7.440721E-2,2.576748E-1,-2.76553E-2,-2.7294025E-1,1.8395415E-1,-2.4247606E-1,7.966842E-2,-2.0076643E-1,-3.7294182E-1,4.9538348E-2,-3.2083815E-1,2.4888693E-1,-1.8710946E-1],"categories":[],"categories_nodes":[],"categories_segments":[],"categories_sizes":[],"default_left":[0,0,0,0,0,0,0,0,0,0,0,0,0,0,0,0,0,0,0,0,0,0,0,0,0,0,0,0,0,0,0,0,0,0,0,0,0,0,0,0,0,0,0,0,0,0,0,0,0,0,0,0,0,0,0,0,0,0,0,0,0,0,0,0,0,0,0,0,0,0,0,0,0,0,0,0,0,0,0,0,0,0,0,0,0,0,0,0,0,0,0,0,0,0,0,0,0,0,0,0,0,0,0,0,0,0,0,0,0,0,0,0,0,0,0,0,0,0,0,0,0,0,0,0,0,0,0],"id":5,"left_children":[1,3,5,7,9,11,13,15,17,19,21,23,25,27,29,31,33,35,37,39,41,43,45,47,49,51,53,55,57,59,61,63,65,67,69,71,73,75,77,79,81,83,85,87,89,91,93,95,97,99,101,103,105,107,109,111,113,115,117,119,121,123,125,-1,-1,-1,-1,-1,-1,-1,-1,-1,-1,-1,-1,-1,-1,-1,-1,-1,-1,-1,-1,-1,-1,-1,-1,-1,-1,-1,-1,-1,-1,-1,-1,-1,-1,-1,-1,-1,-1,-1,-1,-1,-1,-1,-1,-1,-1,-1,-1,-1,-1,-1,-1,-1,-1,-1,-1,-1,-1,-1,-1,-1,-1,-1,-1],"loss_changes":[1.2597949E3,5.311932E2,5.7539795E2,3.3463953E2,1.5508656E2,1.6193787E2,2.8249734E2,1.435449E2,1.9402979E2,8.941312E1,6.775842E1,9.0581665E1,4.232455E1,1.6909402E2,9.045601E1,1.00982376E2,5.5328125E1,1.199541E2,9.545333E1,6.2961517E1,3.507586E1,2.92148E1,3.194172E1,4.8065384E1,6.7253296E1,2.706003E1,1.9257082E1,9.7138306E1,5.8427277E1,3.0497833E1,4.2293377E1,2.7241425E1,5.753422E1,3.074515E1,2.6028564E1,3.1675613E1,8.9667725E1,5.8823265E1,2.4815266E1,4.729999E1,3.0694214E1,2.3964567E1,1.8949314E1,1.262225E1,1.1762966E1,1.0893484E1,1.31918335E1,9.877781E0,2.3386478E1,2.764038E1,6.2519535E1,1.7239037E1,1.5493898E1,1.1075119E1,1.3883845E1,6.258922E1,1.4502724E1,4.3514587E1,2.7058178E1,3.572428E1,1.0110611E1,2.2590244E1,1.8316904E1,0E0,0E0,0E0,0E0,0E0,0E0,0E0,0E0,0E0,0E0,0E0,0E0,0E0,0E0,0E0,0E0,0E0,0E0,0E0,0E0,0E0,0E0,0E0,0E0,0E0,0E0,0E0,0E0,0E0,0E0,0E0,0E0,0E0,0E0,0E0,0E0,0E0,0E0,0E0,0E0,0E0,0E0,0E0,0E0,0E0,0E0,0E0,0E0,0E0,0E0,0E0,0E0,0E0,0E0,0E0,0E0,0E0,0E0,0E0,0E0,0E0,0E0,0E0,0E0],"parents":[2147483647,0,0,1,1,2,2,3,3,4,4,5,5,6,6,7,7,8,8,9,9,10,10,11,11,12,12,13,13,14,14,15,15,16,16,17,17,18,18,19,19,20,20,21,21,22,22,23,23,24,24,25,25,26,26,27,27,28,28,29,29,30,30,31,31,32,32,33,33,34,34,35,35,36,36,37,37,38,38,39,39,40,40,41,41,42,42,43,43,44,44,45,45,46,46,47,47,48,48,49,49,50,50,51,51,52,52,53,53,54,54,55,55,56,56,57,57,58,58,59,59,60,60,61,61,62,62],"right_children":[2,4,6,8,10,12,14,16,18,20,22,24,26,28,30,32,34,36,38,40,42,44,46,48,50,52,54,56,58,60,62,64,66,68,70,72,74,76,78,80,82,84,86,88,90,92,94,96,98,100,102,104,106,108,110,112,114,116,118,120,122,124,126,-1,-1,-1,-1,-1,-1,-1,-1,-1,-1,-1,-1,-1,-1,-1,-1,-1,-1,-1,-1,-1,-1,-1,-1,-1,-1,-1,-1,-1,-1,-1,-1,-1,-1,-1,-1,-1,-1,-1,-1,-1,-1,-1,-1,-1,-1,-1,-1,-1,-1,-1,-1,-1,-1,-1,-1,-1,-1,-1,-1,-1,-1,-1,-1],"split_conditions":[2.6580807E-2,-1.9446943E-2,7.478438E-3,2.4470404E-2,6.849862E-2,8.155046E-2,1.9869905E-2,1.4733117E-34,3.236509E-2,5.112304E-2,1.9852923E-2,-4.945123E-2,-8.0025485E-3,4.3074764E-2,6.6254355E-2,-3.9311606E-2,-2.5730886E-2,2.6016647E-3,1.4848543E-2,1.3459254E-34,-8.667843E-3,6.9744852E-3,-1.189493E-2,-1.2875312E-2,2.9733451E-2,-2.0094967E-2,-2.5300519E-3,-1.0833552E-2,3.8441047E-2,-1.5526397E-2,4.4974674E-2,1.030577E-2,1.5017607E-2,-2.8986773E-2,-7.082362E-2,5.264406E-2,2.6295297E-2,-1.9485865E-2,2.4731508E-2,5.871037E-2,1.6886506E-2,1.975248E-34,-6.974112E-2,-3.4587202E-3,-4.132779E-2,3.230009E-3,-2.8910408E-2,2.4184553E-2,-2.5284994E-2,4.15983E-2,3.8907014E-2,2.0265931E-2,4.6172142E-2,-5.453683E-2,-1.5827402E-2,6.066573E-3,3.657703E-2,4.6366215E-2,3.3048287E-2,3.0267522E-2,-4.41659E-2,1.0914834E-2,-2.1850705E-2,-1.3026197E-1,3.0528018E-1,-2.0773886E-1,1.1017237E-1,2.1288498E-1,-1.9508098E-1,-2.461602E-2,-3.2705122E-1,-2.6882896E-1,1.16930105E-1,2.966896E-1,1.313297E-1,-2.6582718E-1,1.8069825E-1,-3.018756E-1,9.198018E-3,-2.2417691E-1,1.0595292E-1,-3.303401E-1,-6.1288904E-2,2.556953E-1,-2.3178123E-1,2.5142193E-1,-2.0006934E-1,2.4026376E-1,-1.5682946E-1,1.9992423E-1,-4.0759733E-1,3.2326527E-2,-4.0664938E-1,3.064833E-1,4.567629E-2,-3.2818526E-1,1.5779407E-1,2.4404608E-1,-1.1778835E-1,-3.3144212E-1,-1.8689783E-1,-2.1486062E-1,1.8636686E-1,2.7981943E-1,-3.5722193E-1,-3.7602007E-1,1.9086318E-1,6.405871E-2,-3.5314724E-1,-2.3120438E-1,2.2903694E-1,-1.9340648E-1,1.382966E-1,-3.4657526E-1,-7.440721E-2,2.576748E-1,-2.76553E-2,-2.7294025E-1,1.8395415E-1,-2.4247606E-1,7.966842E-2,-2.0076643E-1,-3.7294182E-1,4.9538348E-2,-3.2083815E-1,2.4888693E-1,-1.8710946E-1],"split_indices":[709,279,163,690,690,690,759,756,759,609,540,589,596,690,690,411,589,568,589,756,113,330,300,27,427,279,369,512,596,419,219,424,568,512,411,516,589,300,609,73,508,756,419,512,720,48,42,716,279,446,146,220,445,279,573,319,101,589,401,475,512,365,279,0,0,0,0,0,0,0,0,0,0,0,0,0,0,0,0,0,0,0,0,0,0,0,0,0,0,0,0,0,0,0,0,0,0,0,0,0,0,0,0,0,0,0,0,0,0,0,0,0,0,0,0,0,0,0,0,0,0,0,0,0,0,0,0],"split_type":[0,0,0,0,0,0,0,0,0,0,0,0,0,0,0,0,0,0,0,0,0,0,0,0,0,0,0,0,0,0,0,0,0,0,0,0,0,0,0,0,0,0,0,0,0,0,0,0,0,0,0,0,0,0,0,0,0,0,0,0,0,0,0,0,0,0,0,0,0,0,0,0,0,0,0,0,0,0,0,0,0,0,0,0,0,0,0,0,0,0,0,0,0,0,0,0,0,0,0,0,0,0,0,0,0,0,0,0,0,0,0,0,0,0,0,0,0,0,0,0,0,0,0,0,0,0,0],"sum_hessian":[7.255444E3,3.946715E3,3.308729E3,3.0858274E3,8.608875E2,1.8799026E3,1.4288264E3,6.2412244E2,2.461705E3,6.392114E2,2.2167604E2,1.7263627E3,1.5353995E2,9.421035E2,4.867229E2,3.6709772E2,2.5702472E2,2.1207651E3,3.4094E2,5.0948856E2,1.2972287E2,5.8216923E1,1.6345912E2,1.11158295E2,1.6152043E3,9.288141E1,6.065853E1,3.6019333E2,5.819102E2,3.5776935E2,1.2895355E2,1.6404558E2,2.0305215E2,6.596077E1,1.9106393E2,7.745696E1,2.0433081E3,2.2788664E2,1.13053345E2,1.5476399E2,3.5472458E2,7.272223E1,5.700065E1,2.7379307E1,3.0837618E1,2.0985195E1,1.4247392E2,3.838277E1,7.277552E1,1.3823379E3,2.3286649E2,7.624811E1,1.6633303E1,3.7082474E1,2.3576056E1,2.4868236E2,1.1151096E2,5.3293134E2,4.8978863E1,1.5911751E2,1.9865182E2,5.8344624E1,7.0608925E1,1.3583444E1,1.5046214E2,1.0030028E2,1.0275187E2,3.789789E1,2.8062883E1,3.0643797E1,1.6042015E2,4.577174E1,3.1685219E1,1.682585E3,3.6072314E2,2.9735046E1,1.981516E2,8.101556E1,3.2037792E1,8.112533E1,7.3638664E1,3.1065088E2,4.4073708E1,6.294503E1,9.777198E0,9.206091E0,4.7794556E1,1.55012665E1,1.187804E1,2.5852828E0,2.8252335E1,1.4156429E1,6.828767E0,1.21673386E2,2.0800533E1,3.476865E1,3.6141207E0,5.0028633E1,2.274689E1,1.2457909E3,1.3654697E2,1.9094545E2,4.192104E1,7.304903E1,3.1990778E0,1.0423988E1,6.2093143E0,6.6631894E0,3.0419287E1,8.297916E0,1.5278139E1,7.0750404E1,1.7793196E2,8.879057E1,2.2720392E1,4.7968167E2,5.3249657E1,3.1703398E1,1.7275465E1,1.1775736E2,4.1360146E1,4.326436E1,1.5538748E2,2.674983E1,3.1594793E1,6.1281578E1,9.327349E0],"tree_param":{"num_deleted":"0","num_feature":"768","num_nodes":"127","size_leaf_vector":"1"}},{"base_weights":[-7.5548645E-3,-5.2229226E-1,2.6829043E-1,-1.2590931E-1,-8.019265E-1,4.9114212E-1,-3.2069102E-1,2.2636196E-1,-5.825534E-1,-9.720034E-1,-2.9994017E-1,6.6987157E-1,-6.0575236E-2,-5.9464467E-1,3.6059716E-1,4.2481524E-1,-5.8136714E-1,-8.752928E-1,-1.2541364E-1,-1.0410552E0,-5.057001E-1,2.2833398E-1,-7.1001965E-1,-5.013839E-2,7.962591E-1,1.94491E-1,-7.7584094E-1,-7.110095E-1,4.745691E-1,-2.8258994E-1,6.4039993E-1,-2.9822806E-1,6.1769384E-1,-5.2493215E-2,-9.799862E-1,-9.9401224E-1,-1.4403404E-1,3.0201358E-1,-7.510991E-1,-1.0641669E0,-3.1491876E-1,1.7230353E-1,-8.5234773E-1,-1.7006099E-1,9.0007216E-1,-9.4179994E-1,-1.3869408E-1,-7.2268164E-1,3.8444236E-1,4.805585E-1,9.5636815E-1,5.593351E-1,-1.5903145E-1,-9.42824E-1,-8.577669E-2,-8.979351E-1,-1.6032065E-1,6.373664E-1,-8.1528157E-1,2.990605E-1,-8.049429E-1,7.988663E-1,-1.9411747E-1,-2.6478755E-1,7.0393585E-2,-3.0588356E-1,2.106469E-1,2.285705E-1,-1.8840416E-1,-3.776814E-1,-4.7954895E-2,-3.2375443E-1,-3.4755815E-2,8.9393616E-2,-3.6155558E-1,-1.810961E-1,1.7174594E-1,-3.4688193E-1,-1.7999252E-2,-1.8636173E-2,-3.2296243E-1,8.3465785E-2,-3.2459956E-1,2.310863E-1,-1.8556625E-1,1.2529623E-2,-3.0098906E-1,5.742381E-2,-2.3807116E-1,-1.1835695E-1,3.3957714E-1,-2.3424005E-2,-3.18327E-1,-2.2747454E-1,1.4079203E-1,2.3337714E-2,-3.0328882E-1,-2.7723974E-1,1.6179669E-1,-3.7843354E-2,2.011837E-1,2.988301E-1,1.3884839E-2,2.3467706E-1,-2.2799239E-2,-2.4651918E-1,3.8514595E-2,-3.2407755E-1,-6.921815E-2,9.978051E-2,-2.9039484E-1,-1.9515854E-1,-3.4957808E-1,-1.5552545E-1,1.4650485E-1,-1.0419085E-1,2.5208786E-1,1.555827E-1,-4.0233964E-1,1.6991228E-1,-2.2065118E-1,1.0021375E-1,-3.236131E-1,2.7630553E-1,-3.1905625E-2,1.0876944E-1,-2.7024722E-1],"categories":[],"categories_nodes":[],"categories_segments":[],"categories_sizes":[],"default_left":[0,0,0,0,0,0,0,0,0,0,0,0,0,0,0,0,0,0,0,0,0,0,0,0,0,0,0,0,0,0,0,0,0,0,0,0,0,0,0,0,0,0,0,0,0,0,0,0,0,0,0,0,0,0,0,0,0,0,0,0,0,0,0,0,0,0,0,0,0,0,0,0,0,0,0,0,0,0,0,0,0,0,0,0,0,0,0,0,0,0,0,0,0,0,0,0,0,0,0,0,0,0,0,0,0,0,0,0,0,0,0,0,0,0,0,0,0,0,0,0,0,0,0,0,0,0,0],"id":6,"left_children":[1,3,5,7,9,11,13,15,17,19,21,23,25,27,29,31,33,35,37,39,41,43,45,47,49,51,53,55,57,59,61,63,65,67,69,71,73,75,77,79,81,83,85,87,89,91,93,95,97,99,101,103,105,107,109,111,113,115,117,119,121,123,125,-1,-1,-1,-1,-1,-1,-1,-1,-1,-1,-1,-1,-1,-1,-1,-1,-1,-1,-1,-1,-1,-1,-1,-1,-1,-1,-1,-1,-1,-1,-1,-1,-1,-1,-1,-1,-1,-1,-1,-1,-1,-1,-1,-1,-1,-1,-1,-1,-1,-1,-1,-1,-1,-1,-1,-1,-1,-1,-1,-1,-1,-1,-1,-1],"loss_changes":[9.198895E2,2.504563E2,5.538163E2,1.5073706E2,1.1285333E2,3.018468E2,2.1644077E2,8.508196E1,5.4489532E1,3.1332214E1,7.31296E1,2.1041895E2,1.3694737E2,1.031871E2,6.008648E1,5.951481E1,2.2043648E1,2.1435059E1,4.3134647E1,1.41119995E1,3.0598087E1,3.974841E1,2.501207E1,1.0145017E2,9.894983E1,7.1481636E1,2.2653893E1,7.663797E1,1.7682625E1,3.1110575E1,3.0870964E1,2.8316078E1,4.7204956E1,2.20857E1,1.34581375E1,1.5855759E1,1.7191189E1,2.387055E1,1.8245216E1,1.0273254E1,1.3029179E1,2.159916E1,1.1635399E1,2.1273539E1,1.7027218E1,1.3816177E1,2.1438992E1,3.1513916E1,4.3248272E1,7.6624664E1,4.7102295E1,3.867006E1,5.3798203E1,1.5288025E1,1.4916456E1,3.605844E1,4.444443E1,1.4905525E1,7.428319E0,1.3912981E1,1.7136532E1,2.170388E1,1.5225606E1,0E0,0E0,0E0,0E0,0E0,0E0,0E0,0E0,0E0,0E0,0E0,0E0,0E0,0E0,0E0,0E0,0E0,0E0,0E0,0E0,0E0,0E0,0E0,0E0,0E0,0E0,0E0,0E0,0E0,0E0,0E0,0E0,0E0,0E0,0E0,0E0,0E0,0E0,0E0,0E0,0E0,0E0,0E0,0E0,0E0,0E0,0E0,0E0,0E0,0E0,0E0,0E0,0E0,0E0,0E0,0E0,0E0,0E0,0E0,0E0,0E0,0E0,0E0,0E0],"parents":[2147483647,0,0,1,1,2,2,3,3,4,4,5,5,6,6,7,7,8,8,9,9,10,10,11,11,12,12,13,13,14,14,15,15,16,16,17,17,18,18,19,19,20,20,21,21,22,22,23,23,24,24,25,25,26,26,27,27,28,28,29,29,30,30,31,31,32,32,33,33,34,34,35,35,36,36,37,37,38,38,39,39,40,40,41,41,42,42,43,43,44,44,45,45,46,46,47,47,48,48,49,49,50,50,51,51,52,52,53,53,54,54,55,55,56,56,57,57,58,58,59,59,60,60,61,61,62,62],"right_children":[2,4,6,8,10,12,14,16,18,20,22,24,26,28,30,32,34,36,38,40,42,44,46,48,50,52,54,56,58,60,62,64,66,68,70,72,74,76,78,80,82,84,86,88,90,92,94,96,98,100,102,104,106,108,110,112,114,116,118,120,122,124,126,-1,-1,-1,-1,-1,-1,-1,-1,-1,-1,-1,-1,-1,-1,-1,-1,-1,-1,-1,-1,-1,-1,-1,-1,-1,-1,-1,-1,-1,-1,-1,-1,-1,-1,-1,-1,-1,-1,-1,-1,-1,-1,-1,-1,-1,-1,-1,-1,-1,-1,-1,-1,-1,-1,-1,-1,-1,-1,-1,-1,-1,-1,-1,-1],"split_conditions":[3.5390448E-2,-1.4455048E-2,3.286341E-2,1.1519414E-2,4.3868523E-2,-1.4373094E-2,8.361262E-3,2.8868033E-2,6.361756E-2,3.79743E-2,-1.7326724E-2,-3.2309573E-2,2.8273985E-2,8.68115E-2,6.077805E-3,9.263196E-3,-6.9259265E-3,3.8100576E-3,1.6457425E-2,8.6204395E-2,-3.867925E-2,4.0232275E-2,2.5141958E-2,2.2385485E-2,-1.0700448E-2,1.5433614E-34,8.3218224E-2,3.2236338E-2,2.0237643E-2,-2.3664912E-2,-1.2953852E-3,2.1753076E-2,-3.6953124E-3,-4.480907E-2,5.380669E-2,9.750064E-2,-8.0120474E-2,-1.2545804E-2,-1.4002364E-3,-9.452181E-2,-3.7951745E-2,-4.3542343E-3,-2.634852E-2,-2.149869E-2,1.1419087E-2,-5.7443485E-2,8.022435E-3,-2.8033357E-2,-4.030089E-2,1.268185E-2,1.3172812E-2,-6.743441E-3,2.8076176E-2,3.414745E-2,1.8137943E-34,-1.921882E-2,1.6302867E-2,-2.2736588E-2,-4.1442425E-3,-4.1395966E-3,-5.281195E-2,3.96192E-2,1.4964495E-34,-2.6478755E-1,7.0393585E-2,-3.0588356E-1,2.106469E-1,2.285705E-1,-1.8840416E-1,-3.776814E-1,-4.7954895E-2,-3.2375443E-1,-3.4755815E-2,8.9393616E-2,-3.6155558E-1,-1.810961E-1,1.7174594E-1,-3.4688193E-1,-1.7999252E-2,-1.8636173E-2,-3.2296243E-1,8.3465785E-2,-3.2459956E-1,2.310863E-1,-1.8556625E-1,1.2529623E-2,-3.0098906E-1,5.742381E-2,-2.3807116E-1,-1.1835695E-1,3.3957714E-1,-2.3424005E-2,-3.18327E-1,-2.2747454E-1,1.4079203E-1,2.3337714E-2,-3.0328882E-1,-2.7723974E-1,1.6179669E-1,-3.7843354E-2,2.011837E-1,2.988301E-1,1.3884839E-2,2.3467706E-1,-2.2799239E-2,-2.4651918E-1,3.8514595E-2,-3.2407755E-1,-6.921815E-2,9.978051E-2,-2.9039484E-1,-1.9515854E-1,-3.4957808E-1,-1.5552545E-1,1.4650485E-1,-1.0419085E-1,2.5208786E-1,1.555827E-1,-4.0233964E-1,1.6991228E-1,-2.2065118E-1,1.0021375E-1,-3.236131E-1,2.7630553E-1,-3.1905625E-2,1.0876944E-1,-2.7024722E-1],"split_indices":[219,37,115,759,46,195,508,139,203,300,113,350,589,690,609,383,220,448,139,690,576,609,639,319,439,756,516,609,26,589,113,146,690,279,333,516,181,609,367,42,42,113,545,576,540,182,728,419,531,319,386,538,690,609,756,641,142,394,3,182,279,501,756,0,0,0,0,0,0,0,0,0,0,0,0,0,0,0,0,0,0,0,0,0,0,0,0,0,0,0,0,0,0,0,0,0,0,0,0,0,0,0,0,0,0,0,0,0,0,0,0,0,0,0,0,0,0,0,0,0,0,0,0,0,0,0,0],"split_type":[0,0,0,0,0,0,0,0,0,0,0,0,0,0,0,0,0,0,0,0,0,0,0,0,0,0,0,0,0,0,0,0,0,0,0,0,0,0,0,0,0,0,0,0,0,0,0,0,0,0,0,0,0,0,0,0,0,0,0,0,0,0,0,0,0,0,0,0,0,0,0,0,0,0,0,0,0,0,0,0,0,0,0,0,0,0,0,0,0,0,0,0,0,0,0,0,0,0,0,0,0,0,0,0,0,0,0,0,0,0,0,0,0,0,0,0,0,0,0,0,0,0,0,0,0,0,0],"sum_hessian":[6.476661E3,2.2594854E3,4.217176E3,9.352351E2,1.3242502E3,3.0596633E3,1.1575125E3,5.2823804E2,4.069971E2,9.8842706E2,3.3582318E2,2.3108477E3,7.4881573E2,8.256403E2,3.318721E2,4.2443216E2,1.03805885E2,2.475551E2,1.59442E2,8.59863E2,1.2856406E2,1.4695518E2,1.8886798E2,3.4515536E2,1.9656921E3,5.52515E2,1.9630069E2,7.4490564E2,8.073465E1,1.0060344E2,2.3126866E2,8.926366E1,3.351685E2,4.51002E1,5.870569E1,2.1266907E2,3.4886032E1,9.503657E1,6.440543E1,8.3288806E2,2.6974922E1,4.3664387E1,8.4899666E1,9.2714714E1,5.424048E1,1.3389845E2,5.496954E1,1.3522404E2,2.0993134E2,6.627982E2,1.3028939E3,2.7161713E2,2.808979E2,1.5775948E2,3.854122E1,5.556615E2,1.8924411E2,7.213594E1,8.598712E0,4.7802204E1,5.280123E1,1.9439732E2,3.6871338E1,4.2260555E1,4.70031E1,1.5898774E1,3.192697E2,1.854049E1,2.655971E1,4.3406776E1,1.5298912E1,1.9365804E2,1.9011028E1,2.5135334E1,9.750699E0,2.1571949E1,7.346462E1,4.0177425E1,2.4228008E1,1.0233549E1,8.2265454E2,1.5571606E1,1.14033165E1,2.487892E1,1.8785465E1,1.2367412E1,7.253226E1,5.9128525E1,3.358619E1,8.132003E0,4.6108475E1,1.6449598E1,1.17448845E2,2.7103691E1,2.7865847E1,3.5998016E1,9.922603E1,2.169175E1,1.8823958E2,1.581803E2,5.0461792E2,1.2483016E3,5.459228E1,2.0089648E2,7.072063E1,8.441054E1,1.9648737E2,1.3180426E2,2.595521E1,2.6565676E1,1.1975546E1,2.9036508E2,2.6529645E2,1.22061195E2,6.7182915E1,1.2204418E1,5.9931522E1,2.4352198E0,6.1634917E0,3.8346638E1,9.455568E0,1.018929E1,4.2611942E1,1.7126852E2,2.3128796E1,2.0897255E1,1.5974082E1],"tree_param":{"num_deleted":"0","num_feature":"768","num_nodes":"127","size_leaf_vector":"1"}},{"base_weights":[-7.6961904E-3,3.0257258E-1,-3.780001E-1,4.609418E-1,-4.1146678E-1,9.867319E-2,-6.613908E-1,6.3120484E-1,-6.21881E-2,3.138673E-1,-6.300042E-1,3.7601876E-1,-5.1445746E-1,-3.4955302E-1,-9.247987E-1,6.823364E-1,-5.956293E-1,1.7746513E-1,-7.585772E-1,7.019028E-1,-4.630481E-1,-2.1056831E-1,-9.800528E-1,5.16097E-1,-7.285086E-1,-1.0346556E0,-1.7695366E-1,-6.367566E-1,1.1568863E-1,-1.042862E0,-6.2395155E-1,8.394203E-1,3.6077014E-1,1.6630846E-1,-9.173946E-1,4.4864476E-1,-3.6948195E-1,-2.4891308E-1,-1.0468534E0,8.9573514E-1,-9.405263E-2,-1.2208116E0,-1.0086219E-1,2.094092E-1,-6.7671394E-1,-1.0447866E0,4.8966885E-1,-4.2466843E-1,6.462446E-1,-2.4623618E-1,-1.1717517E0,-3.8662902E-1,-1.1940566E0,1.783756E-1,-7.4710166E-1,-9.487043E-1,-3.176349E-1,-3.7422657E-1,4.4960314E-1,-1.0672791E0,-2.9340294E-1,-9.302621E-1,-1.8594609E-1,2.6788023E-1,2.7545607E-2,-1.7295283E-1,1.5040857E-1,2.5613585E-1,-1.6494392E-1,-4.3349117E-2,-3.4919277E-1,-1.616496E-2,2.1561186E-1,4.1595936E-2,-3.426932E-1,-2.7068895E-1,1.0189303E-1,-3.342332E-1,2.0019643E-1,3.1667376E-1,-4.3734694E-3,1.4034916E-1,-2.537905E-1,1.0177066E-1,-4.1168603E-1,-3.1457573E-1,1.0071352E-1,1.8559241E-1,-2.20863E-1,3.221784E-3,-3.1392518E-1,-1.7757535E-1,-3.5892022E-1,3.1995764E-1,-2.0876102E-1,1.7487505E-1,-2.325499E-1,2.2834685E-1,-6.878068E-2,-3.0164433E-1,7.11846E-2,-3.7281933E-1,2.2633578E-1,-2.609781E-1,9.570208E-2,4.946587E-2,-3.6435482E-1,-1.4023417E-1,2.170697E-1,-3.178959E-1,2.563987E-2,-1.8670648E-1,-3.5667458E-1,-2.0892096E-1,4.2265937E-2,6.1458502E-2,-2.2686286E-1,-7.468219E-2,1.9749321E-1,-2.4863807E-2,-3.2524472E-1,-2.1454662E-1,3.350549E-1,-2.9999974E-1,-1.0288285E-2,1.1247746E-1,-2.1035829E-1],"categories":[],"categories_nodes":[],"categories_segments":[],"categories_sizes":[],"default_left":[0,0,0,0,0,0,0,0,0,0,0,0,0,0,0,0,0,0,0,0,0,0,0,0,0,0,0,0,0,0,0,0,0,0,0,0,0,0,0,0,0,0,0,0,0,0,0,0,0,0,0,0,0,0,0,0,0,0,0,0,0,0,0,0,0,0,0,0,0,0,0,0,0,0,0,0,0,0,0,0,0,0,0,0,0,0,0,0,0,0,0,0,0,0,0,0,0,0,0,0,0,0,0,0,0,0,0,0,0,0,0,0,0,0,0,0,0,0,0,0,0,0,0,0,0,0,0],"id":7,"left_children":[1,3,5,7,9,11,13,15,17,19,21,23,25,27,29,31,33,35,37,39,41,43,45,47,49,51,53,55,57,59,61,63,65,67,69,71,73,75,77,79,81,83,85,87,89,91,93,95,97,99,101,103,105,107,109,111,113,115,117,119,121,123,125,-1,-1,-1,-1,-1,-1,-1,-1,-1,-1,-1,-1,-1,-1,-1,-1,-1,-1,-1,-1,-1,-1,-1,-1,-1,-1,-1,-1,-1,-1,-1,-1,-1,-1,-1,-1,-1,-1,-1,-1,-1,-1,-1,-1,-1,-1,-1,-1,-1,-1,-1,-1,-1,-1,-1,-1,-1,-1,-1,-1,-1,-1,-1,-1],"loss_changes":[6.701848E2,3.590924E2,3.592903E2,2.31456E2,9.1608376E1,1.6894624E2,1.366773E2,1.2337378E2,1.0675997E2,4.0778564E1,6.490813E1,1.0618469E2,5.4156464E1,1.0233745E2,3.144226E1,9.477759E1,1.9511887E1,7.078513E1,2.3800156E1,1.3952351E1,1.2309285E1,3.9887665E1,2.348494E1,7.465428E1,1.6253208E1,1.2097458E1,3.840705E1,4.682202E1,4.809532E1,1.1533997E1,3.432618E1,5.047937E1,8.1921486E1,1.2428837E1,1.0441952E1,4.3298546E1,6.234929E1,2.3562502E1,1.2766846E1,1.0547295E1,8.215178E0,3.9060535E0,1.3484379E1,4.2080357E1,2.4526642E1,1.519371E1,8.174364E0,2.6737724E1,5.3904175E1,1.4308399E1,6.4142265E0,8.967585E0,2.8999786E0,4.1601906E1,1.9015808E1,1.7985779E1,4.0997543E1,2.6542683E1,2.5630466E1,1.0315857E1,1.3768289E1,9.404709E0,3.1205017E1,0E0,0E0,0E0,0E0,0E0,0E0,0E0,0E0,0E0,0E0,0E0,0E0,0E0,0E0,0E0,0E0,0E0,0E0,0E0,0E0,0E0,0E0,0E0,0E0,0E0,0E0,0E0,0E0,0E0,0E0,0E0,0E0,0E0,0E0,0E0,0E0,0E0,0E0,0E0,0E0,0E0,0E0,0E0,0E0,0E0,0E0,0E0,0E0,0E0,0E0,0E0,0E0,0E0,0E0,0E0,0E0,0E0,0E0,0E0,0E0,0E0,0E0,0E0,0E0],"parents":[2147483647,0,0,1,1,2,2,3,3,4,4,5,5,6,6,7,7,8,8,9,9,10,10,11,11,12,12,13,13,14,14,15,15,16,16,17,17,18,18,19,19,20,20,21,21,22,22,23,23,24,24,25,25,26,26,27,27,28,28,29,29,30,30,31,31,32,32,33,33,34,34,35,35,36,36,37,37,38,38,39,39,40,40,41,41,42,42,43,43,44,44,45,45,46,46,47,47,48,48,49,49,50,50,51,51,52,52,53,53,54,54,55,55,56,56,57,57,58,58,59,59,60,60,61,61,62,62],"right_children":[2,4,6,8,10,12,14,16,18,20,22,24,26,28,30,32,34,36,38,40,42,44,46,48,50,52,54,56,58,60,62,64,66,68,70,72,74,76,78,80,82,84,86,88,90,92,94,96,98,100,102,104,106,108,110,112,114,116,118,120,122,124,126,-1,-1,-1,-1,-1,-1,-1,-1,-1,-1,-1,-1,-1,-1,-1,-1,-1,-1,-1,-1,-1,-1,-1,-1,-1,-1,-1,-1,-1,-1,-1,-1,-1,-1,-1,-1,-1,-1,-1,-1,-1,-1,-1,-1,-1,-1,-1,-1,-1,-1,-1,-1,-1,-1,-1,-1,-1,-1,-1,-1,-1,-1,-1,-1],"split_conditions":[-1.592987E-2,2.9570244E-3,1.4044928E-34,1.4516873E-2,-3.960924E-2,1.4696593E-2,-7.883494E-3,2.107037E-34,2.5937794E-2,-2.7742522E-2,1.2604145E-2,2.1258064E-2,9.497051E-3,9.8422505E-3,6.988522E-3,-1.7673071E-2,-2.4403694E-4,1.6046266E-34,-1.46984365E-2,2.1681052E-2,6.247569E-3,1.4123918E-34,4.0039282E-2,-1.9358231E-3,1.5125314E-2,1.3941799E-2,3.3710918E-3,-2.0725524E-2,4.7191914E-2,2.7144149E-2,3.0030051E-2,6.856301E-3,-4.136565E-3,-6.5083295E-33,-5.424359E-2,2.8844114E-2,-5.5116017E-33,3.391621E-3,1.0730193E-1,3.9852615E-2,7.831198E-3,-3.955295E-2,-1.9923614E-2,-4.7532212E-33,-5.624855E-33,-1.3552567E-2,1.20124025E-2,-5.302905E-33,1.469425E-2,-1.3214405E-2,4.3096047E-2,2.5712047E-2,-6.1281298E-33,3.721424E-3,2.6440017E-2,-2.4218062E-2,3.874274E-2,7.3129525E-3,1.5715637E-3,-9.3339294E-2,6.709473E-2,6.709473E-2,-5.5640387E-33,2.6788023E-1,2.7545607E-2,-1.7295283E-1,1.5040857E-1,2.5613585E-1,-1.6494392E-1,-4.3349117E-2,-3.4919277E-1,-1.616496E-2,2.1561186E-1,4.1595936E-2,-3.426932E-1,-2.7068895E-1,1.0189303E-1,-3.342332E-1,2.0019643E-1,3.1667376E-1,-4.3734694E-3,1.4034916E-1,-2.537905E-1,1.0177066E-1,-4.1168603E-1,-3.1457573E-1,1.0071352E-1,1.8559241E-1,-2.20863E-1,3.221784E-3,-3.1392518E-1,-1.7757535E-1,-3.5892022E-1,3.1995764E-1,-2.0876102E-1,1.7487505E-1,-2.325499E-1,2.2834685E-1,-6.878068E-2,-3.0164433E-1,7.11846E-2,-3.7281933E-1,2.2633578E-1,-2.609781E-1,9.570208E-2,4.946587E-2,-3.6435482E-1,-1.4023417E-1,2.170697E-1,-3.178959E-1,2.563987E-2,-1.8670648E-1,-3.5667458E-1,-2.0892096E-1,4.2265937E-2,6.1458502E-2,-2.2686286E-1,-7.468219E-2,1.9749321E-1,-2.4863807E-2,-3.2524472E-1,-2.1454662E-1,3.350549E-1,-2.9999974E-1,-1.0288285E-2,1.1247746E-1,-2.1035829E-1],"split_indices":[620,36,756,729,596,640,220,756,759,279,759,419,728,427,27,419,528,756,596,365,311,756,369,701,596,354,220,212,690,369,417,114,383,555,288,461,555,662,516,368,336,535,169,555,555,48,640,555,113,544,358,515,555,662,300,172,232,224,146,411,9,9,555,0,0,0,0,0,0,0,0,0,0,0,0,0,0,0,0,0,0,0,0,0,0,0,0,0,0,0,0,0,0,0,0,0,0,0,0,0,0,0,0,0,0,0,0,0,0,0,0,0,0,0,0,0,0,0,0,0,0,0,0,0,0,0,0],"split_type":[0,0,0,0,0,0,0,0,0,0,0,0,0,0,0,0,0,0,0,0,0,0,0,0,0,0,0,0,0,0,0,0,0,0,0,0,0,0,0,0,0,0,0,0,0,0,0,0,0,0,0,0,0,0,0,0,0,0,0,0,0,0,0,0,0,0,0,0,0,0,0,0,0,0,0,0,0,0,0,0,0,0,0,0,0,0,0,0,0,0,0,0,0,0,0,0,0,0,0,0,0,0,0,0,0,0,0,0,0,0,0,0,0,0,0,0,0,0,0,0,0,0,0,0,0,0,0],"sum_hessian":[5.8310884E3,3.1728315E3,2.6582566E3,2.5971543E3,5.7567725E2,9.9137695E2,1.6668796E3,1.9592657E3,6.378887E2,1.331873E2,4.4248993E2,6.8287134E2,3.085056E2,7.6433826E2,9.025414E2,1.8813014E3,7.7964386E1,4.7512555E2,1.6276309E2,8.888811E1,4.42992E1,2.0202304E2,2.4046689E2,6.0648816E2,7.638321E1,1.2058346E2,1.8792215E2,4.7236725E2,2.91971E2,6.46403E2,2.5613837E2,1.262812E3,6.184894E2,2.3292072E1,5.467231E1,3.1775864E2,1.5736691E2,5.9475517E1,1.03287575E2,7.138014E1,1.7507967E1,1.355947E1,3.0739727E1,1.0656407E2,9.545896E1,2.3059929E2,9.867602E0,7.3431206E1,5.3305695E2,3.7326023E1,3.9057186E1,2.4481653E1,9.61018E1,1.16194336E2,7.172782E1,2.3787091E2,2.3449635E2,1.1829271E2,1.736783E2,6.255973E2,2.080575E1,1.5006764E2,1.0607072E2,1.1782759E3,8.453614E1,8.0268005E1,5.382214E2,1.1785623E1,1.1506451E1,1.3607194E1,4.1065117E1,1.113535E2,2.0640515E2,9.543739E1,6.1929516E1,2.7932882E1,3.1542633E1,9.9724846E1,3.562734E0,6.0582706E1,1.0797436E1,1.0236422E1,7.271545E0,1.0903524E0,1.2469117E1,9.252456E0,2.1487272E1,7.461779E1,3.1946285E1,3.372297E1,6.1735996E1,5.906805E1,1.7153123E2,6.7053275E0,3.1622746E0,1.8780193E1,5.4651016E1,4.713258E2,6.1731113E1,1.41023245E1,2.32237E1,3.8011326E1,1.0458623E0,1.4391752E1,1.00899E1,1.3206812E0,9.478112E1,5.3253613E1,6.2940723E1,5.195197E1,1.977585E1,1.0237527E2,1.3549565E2,1.2813214E2,1.0636421E2,4.7200375E1,7.109233E1,3.9909267E1,1.3376903E2,1.0639973E1,6.149573E2,1.6395403E1,4.410347E0,1.39123E2,1.0944649E1,5.0917286E1,5.5153427E1],"tree_param":{"num_deleted":"0","num_feature":"768","num_nodes":"127","size_leaf_vector":"1"}},{"base_weights":[-8.773396E-3,-4.8224393E-1,2.0547502E-1,-8.197102E-1,-3.2226637E-2,-1.5439895E-1,4.8892722E-1,-4.5587122E-1,-1.0061779E0,-5.36189E-1,2.9669607E-1,-7.1604943E-1,8.712045E-2,6.396902E-1,-9.415014E-2,-4.3282624E-2,-9.1336703E-1,-1.0193155E0,8.7166274E-1,-2.5611486E-2,-8.18613E-1,5.802852E-1,-2.7793738E-1,-3.0955875E-1,-9.700237E-1,-2.3307246E-1,4.7527602E-1,2.9537377E-1,8.384463E-1,1.9915906E-1,-6.686609E-1,3.0207568E-1,-6.310462E-1,-1.0374776E0,5.2709216E-1,-8.321199E-1,-1.1459564E0,-1.9421977E-1,4.498949E-1,4.6410304E-1,-7.5438684E-1,-9.6820784E-1,-1.0983022E-1,7.016985E-1,-4.764084E-1,-8.202711E-1,2.280752E-1,-4.2704113E-2,-1.0756407E0,-3.8929164E-1,-1.0673602E0,3.6669093E-1,-4.9325526E-1,-3.325346E-1,6.234428E-1,5.1260877E-1,-2.6047504E-1,-9.9335864E-2,8.90225E-1,5.4196376E-1,-2.164169E-1,-1.0612167E0,-2.958022E-1,-1.3203348E-1,1.7002986E-1,1.8764459E-1,-2.4510172E-1,-3.3565092E-1,-6.771456E-2,-3.103312E-1,2.9693878E-1,-2.893453E-1,-6.936866E-2,-3.1849134E-1,-4.0228793E-1,2.33879E-1,-9.07358E-2,-2.7512422E-1,2.0352653E-1,-6.418437E-2,-3.2533762E-1,1.322258E-1,-2.698605E-1,2.4082749E-1,-5.0024547E-2,-2.7438307E-1,1.7796473E-1,-7.591327E-3,-3.2406515E-1,-2.4908E-1,1.5144923E-1,7.6846465E-2,-2.1064465E-1,7.9812184E-2,-3.5512465E-1,-2.0312779E-1,2.7114192E-1,-3.734797E-1,-2.3962454E-1,-1.0296663E-1,1.8128863E-1,-3.5254396E-2,-2.4990548E-1,-2.0148931E-1,1.0292231E-1,-3.0690176E-2,2.2823729E-1,1.8209454E-1,-1.643602E-1,7.5808E-2,-1.8222721E-1,1.9188206E-1,-1.7450662E-1,2.8404483E-1,1.0291564E-1,-3.8643637E-1,1.8744996E-1,3.7361093E-2,-2.5843912E-1,-3.4211242E-1,3.8107604E-2,8.884138E-2,-2.1998422E-1],"categories":[],"categories_nodes":[],"categories_segments":[],"categories_sizes":[],"default_left":[0,0,0,0,0,0,0,0,0,0,0,0,0,0,0,0,0,0,0,0,0,0,0,0,0,0,0,0,0,0,0,0,0,0,0,0,0,0,0,0,0,0,0,0,0,0,0,0,0,0,0,0,0,0,0,0,0,0,0,0,0,0,0,0,0,0,0,0,0,0,0,0,0,0,0,0,0,0,0,0,0,0,0,0,0,0,0,0,0,0,0,0,0,0,0,0,0,0,0,0,0,0,0,0,0,0,0,0,0,0,0,0,0,0,0,0,0,0,0,0,0,0,0],"id":8,"left_children":[1,3,5,7,9,11,13,15,17,19,21,23,25,27,29,31,33,35,37,39,41,43,45,47,49,51,53,55,57,59,61,63,65,67,69,71,73,-1,-1,75,77,79,81,83,85,87,89,91,93,95,97,99,101,103,105,107,109,111,113,115,117,119,121,-1,-1,-1,-1,-1,-1,-1,-1,-1,-1,-1,-1,-1,-1,-1,-1,-1,-1,-1,-1,-1,-1,-1,-1,-1,-1,-1,-1,-1,-1,-1,-1,-1,-1,-1,-1,-1,-1,-1,-1,-1,-1,-1,-1,-1,-1,-1,-1,-1,-1,-1,-1,-1,-1,-1,-1,-1,-1,-1,-1],"loss_changes":[5.348205E2,2.494114E2,3.7034088E2,6.3218628E1,1.1700817E2,2.1711052E2,1.7857516E2,6.033645E1,1.6177002E1,4.017299E1,6.977293E1,4.9384186E1,1.3928539E2,1.1018335E2,7.058253E1,3.45433E1,2.7653946E1,1.364679E1,5.5923147E0,3.6147762E1,1.8919197E1,3.70709E1,3.910901E1,3.808726E1,1.6300964E1,9.604022E1,6.0832054E1,7.163178E1,4.9740173E1,3.965634E1,2.040181E1,2.1323616E1,1.5222246E1,8.989349E0,1.0193403E1,1.9833954E1,4.5729675E0,0E0,0E0,1.4894066E1,1.0108147E1,1.27482605E1,1.4483578E1,2.2710197E1,1.4653278E1,1.4164322E1,2.2139025E1,2.7649714E1,7.298691E0,1.6996403E1,1.1059021E1,3.1654564E1,5.4651695E1,1.8364859E1,4.2776077E1,4.2973953E1,2.9895138E1,1.976336E1,2.9684631E1,2.3913372E1,2.7855963E1,6.593361E0,1.93734E1,0E0,0E0,0E0,0E0,0E0,0E0,0E0,0E0,0E0,0E0,0E0,0E0,0E0,0E0,0E0,0E0,0E0,0E0,0E0,0E0,0E0,0E0,0E0,0E0,0E0,0E0,0E0,0E0,0E0,0E0,0E0,0E0,0E0,0E0,0E0,0E0,0E0,0E0,0E0,0E0,0E0,0E0,0E0,0E0,0E0,0E0,0E0,0E0,0E0,0E0,0E0,0E0,0E0,0E0,0E0,0E0,0E0,0E0,0E0,0E0],"parents":[2147483647,0,0,1,1,2,2,3,3,4,4,5,5,6,6,7,7,8,8,9,9,10,10,11,11,12,12,13,13,14,14,15,15,16,16,17,17,18,18,19,19,20,20,21,21,22,22,23,23,24,24,25,25,26,26,27,27,28,28,29,29,30,30,31,31,32,32,33,33,34,34,35,35,36,36,39,39,40,40,41,41,42,42,43,43,44,44,45,45,46,46,47,47,48,48,49,49,50,50,51,51,52,52,53,53,54,54,55,55,56,56,57,57,58,58,59,59,60,60,61,61,62,62],"right_children":[2,4,6,8,10,12,14,16,18,20,22,24,26,28,30,32,34,36,38,40,42,44,46,48,50,52,54,56,58,60,62,64,66,68,70,72,74,-1,-1,76,78,80,82,84,86,88,90,92,94,96,98,100,102,104,106,108,110,112,114,116,118,120,122,-1,-1,-1,-1,-1,-1,-1,-1,-1,-1,-1,-1,-1,-1,-1,-1,-1,-1,-1,-1,-1,-1,-1,-1,-1,-1,-1,-1,-1,-1,-1,-1,-1,-1,-1,-1,-1,-1,-1,-1,-1,-1,-1,-1,-1,-1,-1,-1,-1,-1,-1,-1,-1,-1,-1,-1,-1,-1,-1,-1],"split_conditions":[-6.4150137E-3,5.7795024E-3,2.2005863E-2,-8.276982E-3,1.6215933E-2,1.184388E-2,5.5013862E-3,1.3780835E-3,7.314212E-2,1.4371796E-34,2.6925927E-2,-2.1396738E-2,1.9276133E-2,4.52527E-3,2.2240555E-2,-1.18464045E-2,4.2468373E-2,-1.8266547E-2,-5.538354E-3,-1.6690526E-2,7.006717E-2,1.993148E-34,3.2362897E-2,2.648782E-2,-1.2104509E-2,-5.0170466E-2,1.6128376E-2,-3.4149483E-2,9.071064E-4,-3.5272796E-2,-7.4088317E-3,-6.431024E-3,1.0377551E-34,2.0716744E-2,3.4290846E-2,6.029114E-3,-7.079775E-3,-1.9421977E-1,4.498949E-1,2.0460553E-2,4.3421116E-2,-5.6485936E-2,4.206876E-2,3.6752839E-3,2.7370911E-2,-3.8975116E-2,1.9500721E-2,1.4696593E-2,-6.971201E-2,6.3029915E-2,-9.661558E-3,-1.1378057E-2,-8.0025485E-3,4.349962E-2,-1.6020044E-3,2.1258064E-2,-1.8075261E-2,-8.753175E-2,2.3073412E-2,-2.7498461E-2,5.6523136E-3,2.905336E-2,-1.0852407E-2,-1.3203348E-1,1.7002986E-1,1.8764459E-1,-2.4510172E-1,-3.3565092E-1,-6.771456E-2,-3.103312E-1,2.9693878E-1,-2.893453E-1,-6.936866E-2,-3.1849134E-1,-4.0228793E-1,2.33879E-1,-9.07358E-2,-2.7512422E-1,2.0352653E-1,-6.418437E-2,-3.2533762E-1,1.322258E-1,-2.698605E-1,2.4082749E-1,-5.0024547E-2,-2.7438307E-1,1.7796473E-1,-7.591327E-3,-3.2406515E-1,-2.4908E-1,1.5144923E-1,7.6846465E-2,-2.1064465E-1,7.9812184E-2,-3.5512465E-1,-2.0312779E-1,2.7114192E-1,-3.734797E-1,-2.3962454E-1,-1.0296663E-1,1.8128863E-1,-3.5254396E-2,-2.4990548E-1,-2.0148931E-1,1.0292231E-1,-3.0690176E-2,2.2823729E-1,1.8209454E-1,-1.643602E-1,7.5808E-2,-1.8222721E-1,1.9188206E-1,-1.7450662E-1,2.8404483E-1,1.0291564E-1,-3.8643637E-1,1.8744996E-1,3.7361093E-2,-2.5843912E-1,-3.4211242E-1,3.8107604E-2,8.884138E-2,-2.1998422E-1],"split_indices":[163,505,146,589,111,319,113,48,427,756,440,419,671,609,759,113,281,113,149,113,690,756,146,563,330,279,9,279,690,411,505,609,756,369,516,369,508,0,0,139,350,512,115,182,55,279,121,640,512,9,19,427,596,728,119,419,48,239,641,660,291,506,596,0,0,0,0,0,0,0,0,0,0,0,0,0,0,0,0,0,0,0,0,0,0,0,0,0,0,0,0,0,0,0,0,0,0,0,0,0,0,0,0,0,0,0,0,0,0,0,0,0,0,0,0,0,0,0,0,0,0,0,0],"split_type":[0,0,0,0,0,0,0,0,0,0,0,0,0,0,0,0,0,0,0,0,0,0,0,0,0,0,0,0,0,0,0,0,0,0,0,0,0,0,0,0,0,0,0,0,0,0,0,0,0,0,0,0,0,0,0,0,0,0,0,0,0,0,0,0,0,0,0,0,0,0,0,0,0,0,0,0,0,0,0,0,0,0,0,0,0,0,0,0,0,0,0,0,0,0,0,0,0,0,0,0,0,0,0,0,0,0,0,0,0,0,0,0,0,0,0,0,0,0,0,0,0,0,0],"sum_hessian":[5.2702915E3,1.6414899E3,3.628802E3,9.375803E2,7.039095E2,1.5990659E3,2.029736E3,3.1886002E2,6.187203E2,2.7773883E2,4.2617065E2,4.8026065E2,1.1188053E3,1.612662E3,4.17074E2,1.6823415E2,1.5062589E2,6.148758E2,3.8445275E0,9.93039E1,1.7843494E2,2.853412E2,1.4082945E2,1.8553198E2,2.9472867E2,6.132936E2,5.055117E2,5.91119E2,1.0215429E3,2.765422E2,1.405318E2,1.0627506E2,6.1959076E1,1.3893495E2,1.169093E1,2.5117294E2,3.6370282E2,1.1154383E0,2.729089E0,5.96106E1,3.9693306E1,1.4703574E2,3.1399204E1,2.5623584E2,2.9105356E1,6.767536E1,7.315409E1,1.3838359E2,4.7148376E1,4.302588E1,2.517028E2,1.8543245E2,4.2786115E2,7.81563E1,4.2735538E2,4.2507172E2,1.6604732E2,5.3404083E1,9.6813885E2,1.513724E2,1.2516981E2,6.755834E1,7.297345E1,2.776363E1,7.851144E1,7.6828084E0,5.4276268E1,1.2593485E2,1.3000095E1,2.3898942E0,9.301036E0,2.0533632E2,4.5836617E1,2.584111E2,1.05291725E2,4.2217857E1,1.739274E1,3.596901E1,3.724299E0,2.001495E1,1.2702078E2,1.8760937E1,1.2638267E1,2.2959398E2,2.6641851E1,2.0749615E1,8.355742E0,1.694661E1,5.0728752E1,1.4749703E1,5.8404385E1,9.564778E1,4.2735817E1,3.4068372E0,4.3741543E1,3.5582718E1,7.4431596E0,1.4934204E2,1.0236076E2,4.6388557E1,1.3904388E2,2.0381262E2,2.2404852E2,5.2041786E1,2.6114523E1,6.804783E1,3.5930756E2,3.90728E2,3.4343727E1,6.708876E1,9.895856E1,2.0963278E1,3.2440807E1,8.7673285E2,9.140601E1,5.9274244E0,1.4544498E2,8.241464E1,4.2755165E1,6.3376625E1,4.1817217E0,3.1149288E1,4.182416E1],"tree_param":{"num_deleted":"0","num_feature":"768","num_nodes":"123","size_leaf_vector":"1"}},{"base_weights":[-8.72273E-3,-4.2975453E-1,1.9146885E-1,8.493791E-2,-6.170879E-1,3.9267352E-1,-2.4139212E-1,4.803339E-1,-3.775884E-1,-7.7209E-1,1.8231543E-2,-1.23371035E-1,5.373697E-1,-5.3077525E-1,1.3983805E-1,-8.151604E-1,5.6813425E-1,2.0850624E-1,-7.266244E-1,-4.2187405E-1,-9.544983E-1,-3.0201378E-1,5.2379525E-1,2.7683282E-1,-4.562977E-1,-7.728135E-2,6.411821E-1,-1.7215027E-1,-7.989212E-1,-4.086908E-1,4.071739E-1,6.4997363E-1,-1.2231191E0,6.9921315E-1,-2.720692E-1,-8.475871E-1,4.955301E-1,-1.23007424E-1,-1.0706117E0,-7.3663825E-1,-2.583949E-2,-1.0954912E0,-7.5771475E-1,2.7971092E-1,-5.8928657E-1,9.0758806E-1,-9.0689436E-2,5.652328E-1,-4.0249655E-1,-7.668051E-1,7.321088E-2,4.0693188E-1,-6.749924E-1,7.432318E-1,1.6775313E-1,8.899619E-2,-8.1407547E-1,-8.8729876E-1,7.451719E-2,4.2343548E-1,-6.9706315E-1,6.164575E-1,-1.8666928E-1,2.5106925E-1,2.0504251E-2,7.814602E-3,-4.1251755E-1,2.3442647E-1,-1.4246471E-1,5.9646737E-2,-3.3616945E-1,2.9517865E-1,-3.4083542E-1,2.3325166E-1,-1.6889168E-1,1.3738592E-1,-2.6015475E-1,-3.8765463E-1,-1.06458984E-1,-7.58975E-2,-2.7854106E-1,1.0934442E-1,-1.3840891E-1,-3.3948153E-1,-8.057032E-2,-2.709075E-1,-8.211614E-2,-2.0878857E-1,1.7246147E-1,-8.059771E-2,-3.382184E-1,-2.6679787E-1,2.9000756E-1,-1.8999146E-1,1.3780437E-1,-1.2068553E-1,2.1633568E-1,-2.6539582E-1,4.785272E-2,-2.50112E-1,2.3847759E-1,-1.4971882E-1,1.1660589E-1,2.1679993E-1,-6.5376535E-2,1.18617825E-1,-2.7300406E-1,2.5470576E-1,1.0871358E-1,1.5614244E-1,-7.441018E-2,1.258772E-1,-1.5107724E-1,4.718358E-2,-3.141713E-1,-3.0158845E-1,-1.125308E-1,1.6715433E-1,-2.1803857E-1,-3.706675E-1,1.9027562E-1,-3.7239248E-1,-7.360694E-2,-1.8952058E-1,2.11012E-1,9.7517096E-2,-1.990123E-1],"categories":[],"categories_nodes":[],"categories_segments":[],"categories_sizes":[],"default_left":[0,0,0,0,0,0,0,0,0,0,0,0,0,0,0,0,0,0,0,0,0,0,0,0,0,0,0,0,0,0,0,0,0,0,0,0,0,0,0,0,0,0,0,0,0,0,0,0,0,0,0,0,0,0,0,0,0,0,0,0,0,0,0,0,0,0,0,0,0,0,0,0,0,0,0,0,0,0,0,0,0,0,0,0,0,0,0,0,0,0,0,0,0,0,0,0,0,0,0,0,0,0,0,0,0,0,0,0,0,0,0,0,0,0,0,0,0,0,0,0,0,0,0,0,0,0,0],"id":9,"left_children":[1,3,5,7,9,11,13,15,17,19,21,23,25,27,29,31,33,35,37,39,41,43,45,47,49,51,53,55,57,59,61,63,65,67,69,71,73,75,77,79,81,83,85,87,89,91,93,95,97,99,101,103,105,107,109,111,113,115,117,119,121,123,125,-1,-1,-1,-1,-1,-1,-1,-1,-1,-1,-1,-1,-1,-1,-1,-1,-1,-1,-1,-1,-1,-1,-1,-1,-1,-1,-1,-1,-1,-1,-1,-1,-1,-1,-1,-1,-1,-1,-1,-1,-1,-1,-1,-1,-1,-1,-1,-1,-1,-1,-1,-1,-1,-1,-1,-1,-1,-1,-1,-1,-1,-1,-1,-1],"loss_changes":[4.036335E2,1.488465E2,2.8276767E2,7.565228E1,1.11441956E2,1.6554071E2,1.1376445E2,2.5819618E1,3.917354E1,5.77063E1,3.624629E1,6.489567E1,1.1049991E2,5.621895E1,6.549339E1,9.497804E0,2.3248138E1,2.2237461E1,2.4738564E1,3.9037743E1,1.5742493E1,2.3074955E1,2.0553823E1,4.35991E1,4.374818E1,7.2920166E1,7.142566E1,4.2316505E1,2.5929306E1,3.544312E1,3.740144E1,3.5856533E-1,2.2632751E0,1.7878914E1,1.1799555E1,9.440964E0,1.7517843E1,1.9683668E1,1.1620796E1,1.5957947E1,2.3930109E1,1.0021118E1,1.751596E1,1.3646684E1,1.5586435E1,6.544071E0,1.0522541E1,2.379094E1,1.8176575E1,1.8173706E1,1.8092955E1,2.763802E1,2.8714123E1,4.876703E1,3.883354E1,3.54798E1,1.6691227E1,1.8016342E1,1.2668816E1,1.4185289E1,2.6529865E1,2.4535942E1,1.9474226E1,0E0,0E0,0E0,0E0,0E0,0E0,0E0,0E0,0E0,0E0,0E0,0E0,0E0,0E0,0E0,0E0,0E0,0E0,0E0,0E0,0E0,0E0,0E0,0E0,0E0,0E0,0E0,0E0,0E0,0E0,0E0,0E0,0E0,0E0,0E0,0E0,0E0,0E0,0E0,0E0,0E0,0E0,0E0,0E0,0E0,0E0,0E0,0E0,0E0,0E0,0E0,0E0,0E0,0E0,0E0,0E0,0E0,0E0,0E0,0E0,0E0,0E0,0E0,0E0],"parents":[2147483647,0,0,1,1,2,2,3,3,4,4,5,5,6,6,7,7,8,8,9,9,10,10,11,11,12,12,13,13,14,14,15,15,16,16,17,17,18,18,19,19,20,20,21,21,22,22,23,23,24,24,25,25,26,26,27,27,28,28,29,29,30,30,31,31,32,32,33,33,34,34,35,35,36,36,37,37,38,38,39,39,40,40,41,41,42,42,43,43,44,44,45,45,46,46,47,47,48,48,49,49,50,50,51,51,52,52,53,53,54,54,55,55,56,56,57,57,58,58,59,59,60,60,61,61,62,62],"right_children":[2,4,6,8,10,12,14,16,18,20,22,24,26,28,30,32,34,36,38,40,42,44,46,48,50,52,54,56,58,60,62,64,66,68,70,72,74,76,78,80,82,84,86,88,90,92,94,96,98,100,102,104,106,108,110,112,114,116,118,120,122,124,126,-1,-1,-1,-1,-1,-1,-1,-1,-1,-1,-1,-1,-1,-1,-1,-1,-1,-1,-1,-1,-1,-1,-1,-1,-1,-1,-1,-1,-1,-1,-1,-1,-1,-1,-1,-1,-1,-1,-1,-1,-1,-1,-1,-1,-1,-1,-1,-1,-1,-1,-1,-1,-1,-1,-1,-1,-1,-1,-1,-1,-1,-1,-1,-1],"split_conditions":[-2.1609047E-2,-4.1256337E-3,8.940022E-3,-5.3866937E-33,7.220051E-2,2.6090335E-2,5.3347677E-2,1.4433566E-2,1.2541427E-34,-4.3875787E-2,9.255449E-3,-3.7652873E-2,-2.4374163E-2,-1.890328E-2,-2.7702546E-3,-5.258104E-2,2.0697132E-2,1.8080292E-2,-2.5512688E-2,1.2161105E-2,3.6629517E-2,-2.0068813E-2,-2.5526567E-3,-7.738454E-3,2.7159845E-2,7.777406E-4,-5.2886903E-3,1.6901957E-34,9.37011E-2,-5.220638E-3,1.6561589E-34,-2.1033272E-2,-3.2051135E-2,2.0020127E-34,-2.3437143E-4,-6.642737E-2,9.107051E-3,2.1900838E-2,6.178619E-2,-2.4170335E-3,-5.10718E-3,4.5454234E-2,3.4539994E-2,2.0385736E-3,-2.0383034E-2,-1.0535637E-2,-1.8893656E-3,-3.8829114E-2,1.100544E-2,1.0847929E-1,-3.4311607E-3,-1.2962851E-2,-3.8322605E-2,-3.5270493E-4,-5.628641E-2,1.7992292E-2,-9.515927E-3,1.9357303E-2,-7.671826E-3,-1.4451426E-2,9.469343E-3,-5.5442803E-2,8.032493E-3,2.5106925E-1,2.0504251E-2,7.814602E-3,-4.1251755E-1,2.3442647E-1,-1.4246471E-1,5.9646737E-2,-3.3616945E-1,2.9517865E-1,-3.4083542E-1,2.3325166E-1,-1.6889168E-1,1.3738592E-1,-2.6015475E-1,-3.8765463E-1,-1.06458984E-1,-7.58975E-2,-2.7854106E-1,1.0934442E-1,-1.3840891E-1,-3.3948153E-1,-8.057032E-2,-2.709075E-1,-8.211614E-2,-2.0878857E-1,1.7246147E-1,-8.059771E-2,-3.382184E-1,-2.6679787E-1,2.9000756E-1,-1.8999146E-1,1.3780437E-1,-1.2068553E-1,2.1633568E-1,-2.6539582E-1,4.785272E-2,-2.50112E-1,2.3847759E-1,-1.4971882E-1,1.1660589E-1,2.1679993E-1,-6.5376535E-2,1.18617825E-1,-2.7300406E-1,2.5470576E-1,1.0871358E-1,1.5614244E-1,-7.441018E-2,1.258772E-1,-1.5107724E-1,4.718358E-2,-3.141713E-1,-3.0158845E-1,-1.125308E-1,1.6715433E-1,-2.1803857E-1,-3.706675E-1,1.9027562E-1,-3.7239248E-1,-7.360694E-2,-1.8952058E-1,2.11012E-1,9.7517096E-2,-1.990123E-1],"split_indices":[369,759,640,555,690,219,219,219,756,411,394,360,394,215,662,360,291,461,512,475,540,220,48,538,300,291,172,756,516,330,756,699,545,756,654,411,419,224,436,365,65,409,101,119,114,526,505,389,148,516,394,753,48,113,42,324,385,16,113,696,311,350,365,0,0,0,0,0,0,0,0,0,0,0,0,0,0,0,0,0,0,0,0,0,0,0,0,0,0,0,0,0,0,0,0,0,0,0,0,0,0,0,0,0,0,0,0,0,0,0,0,0,0,0,0,0,0,0,0,0,0,0,0,0,0,0,0],"split_type":[0,0,0,0,0,0,0,0,0,0,0,0,0,0,0,0,0,0,0,0,0,0,0,0,0,0,0,0,0,0,0,0,0,0,0,0,0,0,0,0,0,0,0,0,0,0,0,0,0,0,0,0,0,0,0,0,0,0,0,0,0,0,0,0,0,0,0,0,0,0,0,0,0,0,0,0,0,0,0,0,0,0,0,0,0,0,0,0,0,0,0,0,0,0,0,0,0,0,0,0,0,0,0,0,0,0,0,0,0,0,0,0,0,0,0,0,0,0,0,0,0,0,0,0,0,0,0],"sum_hessian":[4.786822E3,1.5422019E3,3.2446199E3,4.116776E2,1.1305243E3,2.2150852E3,1.0295345E3,2.2192442E2,1.8975319E2,9.086267E2,2.2189755E2,4.8511578E2,1.7299695E3,5.850467E2,4.4448788E2,1.3560148E1,2.0836427E2,7.097536E1,1.18777824E2,3.1231274E2,5.96314E2,1.3609308E2,8.580447E1,2.203756E2,2.647402E2,2.5000409E2,1.4799655E3,2.5099796E2,3.3404877E2,1.4547289E2,2.99015E2,2.8241878E0,1.073596E1,1.8038974E2,2.7974535E1,1.4750058E1,5.6225296E1,4.3610035E1,7.516779E1,1.7353159E2,1.3878116E2,3.4474304E2,2.5157097E2,4.4998287E1,9.1094795E1,5.2522896E1,3.328157E1,1.5481778E2,6.555781E1,1.665979E2,9.8142296E1,1.3829155E2,1.1171254E2,1.2170542E3,2.6291116E2,1.790277E2,7.197025E1,3.033399E2,3.0708853E1,3.731847E1,1.0815442E2,2.2106772E2,7.794728E1,1.8051528E0,1.0190349E0,1.2540828E0,9.481877E0,1.688982E2,1.1491548E1,1.848278E1,9.491756E0,1.6794207E0,1.3070638E1,4.460768E1,1.1617615E1,2.4706696E1,1.8903337E1,5.6784092E1,1.8383701E1,4.994047E1,1.2359111E2,7.32747E1,6.5506454E1,3.2996423E2,1.4778809E1,1.9281586E2,5.8755104E1,1.0135806E1,3.486248E1,5.802206E1,3.3072735E1,1.2252461E0,5.129765E1,1.6677612E1,1.6603958E1,2.1263536E1,1.3355424E2,3.4976585E1,3.0581224E1,1.6020135E2,6.3965473E0,3.466959E1,6.3472702E1,9.176616E1,4.6525387E1,1.9989511E1,9.172303E1,9.515254E2,2.6552887E2,1.4210689E2,1.2080429E2,1.1510465E2,6.3923042E1,1.3994516E1,5.7975735E1,2.4576064E2,5.757928E1,1.9355122E1,1.1353732E1,3.6595216E0,3.3658947E1,4.8259842E1,5.9894577E1,1.3983476E1,2.0708424E2,3.774618E1,4.02011E1],"tree_param":{"num_deleted":"0","num_feature":"768","num_nodes":"127","size_leaf_vector":"1"}},{"base_weights":[-8.096604E-3,-4.2513967E-1,1.7599419E-1,2.4893764E-2,-6.478788E-1,3.8974363E-1,-2.1292211E-1,4.4642586E-1,-3.3488864E-1,-7.714555E-1,-3.449669E-2,-1.9634446E-2,5.8888215E-1,-8.3348525E-1,1.4578625E-2,-4.580514E-1,5.59517E-1,-5.6495416E-1,3.8511968E-1,-3.114503E-1,-8.8284945E-1,-9.034037E-1,2.4268158E-1,2.7760914E-1,-4.054742E-1,1.962014E-1,7.3511547E-1,-1.11406E0,-3.7390596E-1,-3.2987192E-1,3.880561E-1,2.3957266E-1,-1.0452508E0,-5.16666E-1,6.5786934E-1,-2.9042901E-2,-8.437596E-1,6.4000326E-1,-7.073476E-1,-6.575662E-1,2.831112E-1,-1.21247195E-1,-9.3832785E-1,-1.4714923E0,-4.457776E-1,6.481469E-1,-3.2517788E-1,4.671065E-1,-4.47908E-1,-6.6431886E-1,1.17353E-1,-1.3415483E-1,5.980627E-1,-3.3445922E-1,7.7465296E-1,-7.7276456E-1,-1.3915597E0,-2.4900638E-2,-9.5841926E-1,3.3000457E-1,-5.2792966E-1,6.366518E-1,1.9039E-2,2.0971178E-1,-2.8016812E-1,-3.7548855E-1,1.7245567E-1,-3.5507134E-1,4.0104374E-2,-1.1459316E-1,2.2263035E-1,-1.1032075E-1,1.7324106E-1,5.8959033E-2,-2.9261443E-1,-9.20247E-2,2.8470322E-1,-3.5362804E-1,5.302699E-2,-3.800256E-2,-2.7494153E-1,-1.3815132E-1,1.8366505E-1,-1.908224E-1,9.822803E-2,-1.4408888E-1,-3.018895E-1,-5.0472933E-1,9.549723E-3,1.297394E-1,-2.770215E-1,2.5471088E-1,-6.706887E-2,-1.7698252E-1,1.5091418E-1,-3.411865E-2,1.8930465E-1,-2.308247E-1,4.2523324E-2,-2.6166663E-1,-6.692589E-2,-1.7274503E-1,1.483751E-1,-2.4204294E-1,5.9644297E-2,-3.6554318E-2,2.2251315E-1,1.5627457E-1,-2.3959677E-1,2.7008754E-1,1.4258383E-1,-3.2683474E-1,-8.206208E-2,-4.240661E-1,7.8614324E-2,1.4826284E-1,-1.3830051E-1,6.027865E-2,-3.3323538E-1,1.7059511E-1,-2.1325679E-1,6.516976E-2,-2.0874585E-1,2.3568647E-1,2.208528E-2,7.5429015E-2,-2.29382E-1],"categories":[],"categories_nodes":[],"categories_segments":[],"categories_sizes":[],"default_left":[0,0,0,0,0,0,0,0,0,0,0,0,0,0,0,0,0,0,0,0,0,0,0,0,0,0,0,0,0,0,0,0,0,0,0,0,0,0,0,0,0,0,0,0,0,0,0,0,0,0,0,0,0,0,0,0,0,0,0,0,0,0,0,0,0,0,0,0,0,0,0,0,0,0,0,0,0,0,0,0,0,0,0,0,0,0,0,0,0,0,0,0,0,0,0,0,0,0,0,0,0,0,0,0,0,0,0,0,0,0,0,0,0,0,0,0,0,0,0,0,0,0,0,0,0,0,0],"id":10,"left_children":[1,3,5,7,9,11,13,15,17,19,21,23,25,27,29,31,33,35,37,39,41,43,45,47,49,51,53,55,57,59,61,63,65,67,69,71,73,75,77,79,81,83,85,87,89,91,93,95,97,99,101,103,105,107,109,111,113,115,117,119,121,123,125,-1,-1,-1,-1,-1,-1,-1,-1,-1,-1,-1,-1,-1,-1,-1,-1,-1,-1,-1,-1,-1,-1,-1,-1,-1,-1,-1,-1,-1,-1,-1,-1,-1,-1,-1,-1,-1,-1,-1,-1,-1,-1,-1,-1,-1,-1,-1,-1,-1,-1,-1,-1,-1,-1,-1,-1,-1,-1,-1,-1,-1,-1,-1,-1],"loss_changes":[3.365974E2,1.3460158E2,2.5293884E2,6.771042E1,6.8053314E1,1.6005936E2,1.5240671E2,2.1283028E1,4.012467E1,3.802829E1,3.6743816E1,7.390736E1,7.569922E1,3.692476E1,1.0186747E2,9.834406E0,1.9727268E1,2.7315487E1,1.6862755E1,3.0492447E1,2.5289734E1,8.934114E0,2.6865288E1,5.0258644E1,3.8024517E1,4.784063E1,4.094159E1,1.5906723E1,2.2677284E1,5.401438E1,3.4838436E1,6.856552E0,5.0292406E0,7.053517E0,1.5021851E1,1.3288186E1,1.6667397E1,1.4424225E1,5.05282E0,1.2719585E1,1.3714081E1,9.90313E0,1.6959076E1,5.134754E0,9.571259E0,1.2075678E1,1.1017769E1,2.7598827E1,1.449842E1,1.7023514E1,2.4786324E1,4.4565666E1,1.6894619E1,1.4310303E1,3.4478333E1,1.2770149E1,3.9217987E0,1.6234167E1,7.5675163E0,2.418013E1,3.9839455E1,1.8978088E1,2.822746E1,0E0,0E0,0E0,0E0,0E0,0E0,0E0,0E0,0E0,0E0,0E0,0E0,0E0,0E0,0E0,0E0,0E0,0E0,0E0,0E0,0E0,0E0,0E0,0E0,0E0,0E0,0E0,0E0,0E0,0E0,0E0,0E0,0E0,0E0,0E0,0E0,0E0,0E0,0E0,0E0,0E0,0E0,0E0,0E0,0E0,0E0,0E0,0E0,0E0,0E0,0E0,0E0,0E0,0E0,0E0,0E0,0E0,0E0,0E0,0E0,0E0,0E0,0E0,0E0],"parents":[2147483647,0,0,1,1,2,2,3,3,4,4,5,5,6,6,7,7,8,8,9,9,10,10,11,11,12,12,13,13,14,14,15,15,16,16,17,17,18,18,19,19,20,20,21,21,22,22,23,23,24,24,25,25,26,26,27,27,28,28,29,29,30,30,31,31,32,32,33,33,34,34,35,35,36,36,37,37,38,38,39,39,40,40,41,41,42,42,43,43,44,44,45,45,46,46,47,47,48,48,49,49,50,50,51,51,52,52,53,53,54,54,55,55,56,56,57,57,58,58,59,59,60,60,61,61,62,62],"right_children":[2,4,6,8,10,12,14,16,18,20,22,24,26,28,30,32,34,36,38,40,42,44,46,48,50,52,54,56,58,60,62,64,66,68,70,72,74,76,78,80,82,84,86,88,90,92,94,96,98,100,102,104,106,108,110,112,114,116,118,120,122,124,126,-1,-1,-1,-1,-1,-1,-1,-1,-1,-1,-1,-1,-1,-1,-1,-1,-1,-1,-1,-1,-1,-1,-1,-1,-1,-1,-1,-1,-1,-1,-1,-1,-1,-1,-1,-1,-1,-1,-1,-1,-1,-1,-1,-1,-1,-1,-1,-1,-1,-1,-1,-1,-1,-1,-1,-1,-1,-1,-1,-1,-1,-1,-1,-1],"split_conditions":[-1.1808973E-2,-2.1347972E-3,-1.5009614E-2,-1.0848975E-2,1.3904069E-2,-2.6304864E-3,4.0670615E-3,1.4105682E-3,3.629097E-2,-7.355022E-3,-1.3993572E-2,-3.5856307E-2,-1.0881969E-2,3.3505317E-2,5.6879595E-2,-2.1741463E-2,-5.2453235E-2,8.9637724E-5,1.3566843E-2,2.314676E-2,-2.6763367E-2,-2.6625067E-2,9.733728E-3,2.3814436E-2,1.2665836E-2,2.162189E-2,-7.992494E-3,9.826881E-3,-2.0711027E-2,-1.5348509E-2,1.531872E-34,-6.1571775E-3,7.5224765E-2,3.2962223E-3,-2.1431861E-2,2.1055924E-2,-4.0726405E-2,1.4398513E-2,4.839083E-2,-5.1521316E-2,9.771712E-3,3.908902E-2,-6.527052E-2,1.949306E-2,-3.732149E-3,-6.5755905E-3,1.0177626E-2,-2.686563E-2,3.797402E-2,1.17228E-2,2.4392702E-2,1.4069945E-2,-1.9427784E-2,-2.809021E-2,1.6264216E-34,4.175836E-2,7.074513E-2,9.217593E-3,-4.4955704E-2,2.9027334E-3,1.163842E-34,2.42605E-2,6.1469153E-3,2.0971178E-1,-2.8016812E-1,-3.7548855E-1,1.7245567E-1,-3.5507134E-1,4.0104374E-2,-1.1459316E-1,2.2263035E-1,-1.1032075E-1,1.7324106E-1,5.8959033E-2,-2.9261443E-1,-9.20247E-2,2.8470322E-1,-3.5362804E-1,5.302699E-2,-3.800256E-2,-2.7494153E-1,-1.3815132E-1,1.8366505E-1,-1.908224E-1,9.822803E-2,-1.4408888E-1,-3.018895E-1,-5.0472933E-1,9.549723E-3,1.297394E-1,-2.770215E-1,2.5471088E-1,-6.706887E-2,-1.7698252E-1,1.5091418E-1,-3.411865E-2,1.8930465E-1,-2.308247E-1,4.2523324E-2,-2.6166663E-1,-6.692589E-2,-1.7274503E-1,1.483751E-1,-2.4204294E-1,5.9644297E-2,-3.6554318E-2,2.2251315E-1,1.5627457E-1,-2.3959677E-1,2.7008754E-1,1.4258383E-1,-3.2683474E-1,-8.206208E-2,-4.240661E-1,7.8614324E-2,1.4826284E-1,-1.3830051E-1,6.027865E-2,-3.3323538E-1,1.7059511E-1,-2.1325679E-1,6.516976E-2,-2.0874585E-1,2.3568647E-1,2.208528E-2,7.5429015E-2,-2.29382E-1],"split_indices":[505,115,512,291,508,173,383,401,300,365,149,279,707,540,690,538,505,139,353,671,709,212,139,596,142,401,690,291,114,709,756,195,297,144,161,475,596,260,319,237,590,319,603,448,54,419,740,129,260,144,464,609,427,386,756,319,746,299,224,419,756,324,65,0,0,0,0,0,0,0,0,0,0,0,0,0,0,0,0,0,0,0,0,0,0,0,0,0,0,0,0,0,0,0,0,0,0,0,0,0,0,0,0,0,0,0,0,0,0,0,0,0,0,0,0,0,0,0,0,0,0,0,0,0,0,0,0],"split_type":[0,0,0,0,0,0,0,0,0,0,0,0,0,0,0,0,0,0,0,0,0,0,0,0,0,0,0,0,0,0,0,0,0,0,0,0,0,0,0,0,0,0,0,0,0,0,0,0,0,0,0,0,0,0,0,0,0,0,0,0,0,0,0,0,0,0,0,0,0,0,0,0,0,0,0,0,0,0,0,0,0,0,0,0,0,0,0,0,0,0,0,0,0,0,0,0,0,0,0,0,0,0,0,0,0,0,0,0,0,0,0,0,0,0,0,0,0,0,0,0,0,0,0,0,0,0,0],"sum_hessian":[4.3823003E3,1.3416315E3,3.040669E3,4.4447668E2,8.9715485E2,1.9622235E3,1.0784453E3,2.0456328E2,2.3991342E2,7.465012E2,1.506536E2,6.424374E2,1.3197861E3,2.8858807E2,7.898573E2,2.2395884E1,1.8216739E2,1.8198029E2,5.7933136E1,1.4627E2,6.0023126E2,3.5888847E1,1.1476475E2,3.630393E2,2.7939804E2,3.58757E2,9.610292E2,1.7830698E2,1.10281105E2,4.1095697E2,3.7890033E2,1.0506093E1,1.188979E1,1.4898039E1,1.6726935E2,6.26536E1,1.19326675E2,4.7309517E1,1.062362E1,9.238397E1,5.3886036E1,4.0970974E1,5.5926025E2,1.5023482E1,2.0865362E1,6.687383E1,4.789092E1,2.8813715E2,7.4902176E1,1.8669652E2,9.270154E1,1.972614E2,1.6149559E2,3.399271E1,9.270365E2,8.165932E1,9.664765E1,6.9704216E1,4.0576885E1,9.4717354E1,3.162396E2,2.259556E2,1.5294473E2,7.840478E0,2.6656158E0,1.0748079E1,1.1417102E0,6.950585E0,7.947454E0,1.2269292E1,1.5500006E2,4.0455738E1,2.219786E1,1.3346644E1,1.05980034E2,1.1643351E1,3.5666164E1,6.7116327E0,3.9119868E0,3.0772865E1,6.1611107E1,1.6409481E1,3.7476555E1,1.8884466E1,2.2086508E1,7.331047E1,4.859498E2,1.30703745E1,1.9531085E0,7.383476E0,1.3481887E1,5.4370037E1,1.2503796E1,3.650791E1,1.1383007E1,6.34828E1,2.2465434E2,4.827526E1,2.6626915E1,1.2623798E2,6.0458527E1,3.2484364E1,6.021718E1,6.484344E1,1.3241797E2,2.6889088E1,1.346065E2,1.1914919E1,2.207779E1,6.515794E2,2.754571E2,4.9240906E1,3.241841E1,9.552232E1,1.1253291E0,3.1762585E1,3.7941635E1,4.6762853E0,3.59006E1,7.74203E1,1.7297054E1,5.8095345E1,2.5814426E2,1.7836719E2,4.75884E1,1.1848656E2,3.4458176E1],"tree_param":{"num_deleted":"0","num_feature":"768","num_nodes":"127","size_leaf_vector":"1"}},{"base_weights":[-6.991718E-3,-2.791761E-1,2.4549265E-1,3.370813E-2,-5.3245527E-1,4.5854992E-1,-1.7377307E-1,4.363555E-1,-3.4493482E-1,-7.481981E-2,-7.183987E-1,5.2054334E-1,-6.333409E-1,3.6633477E-1,-4.1853127E-1,5.4578435E-1,-4.9605486E-1,-7.6984257E-1,7.877482E-3,2.0157938E-1,-5.524926E-1,-8.4217143E-1,-1.5390466E-1,6.496174E-1,5.2547675E-2,9.2849016E-2,-9.118486E-1,7.800842E-1,-6.135579E-5,-5.9380794E-1,1.3113151E-1,1.4286244E-1,7.637459E-1,-9.397859E-1,5.784295E-2,-1.13410436E-1,-9.656061E-1,-7.152825E-1,2.182329E-1,-3.1329802E-1,4.537823E-1,-9.616198E-1,-1.520424E-1,-5.17923E-1,-9.634596E-1,1.5989912E-1,-7.0638865E-1,7.417389E-1,1.2431747E-1,-5.38422E-1,3.6684117E-1,-8.3396024E-1,8.233106E-1,-9.880293E-1,3.4018397E-1,-7.4299705E-1,8.6059844E-1,-4.5809513E-1,4.6842253E-1,-6.603202E-1,5.912748E-1,6.859992E-1,-2.880296E-1,-1.0117098E-1,1.3400333E-1,-1.7598864E-1,2.4175337E-1,-8.228309E-2,-3.8152125E-1,-1.6544102E-1,2.0801647E-1,2.1933146E-1,-1.4933212E-1,-3.3639646E-1,-1.0211701E-1,-2.9136184E-1,7.795645E-2,1.5898478E-1,-8.536861E-2,-2.338545E-1,6.589271E-2,-1.3286683E-1,1.7668943E-1,-3.1542224E-1,8.4398136E-2,-1.8495369E-1,1.08219646E-1,-2.415665E-1,-2.5051042E-2,-3.1622857E-1,-1.9996975E-1,-1.848073E-1,1.442219E-1,-2.5955752E-1,8.1628956E-2,1.0891325E-1,2.5896144E-1,-1.4786129E-1,1.1092348E-1,-3.330268E-1,-4.9390838E-2,1.8366906E-1,-6.517719E-2,-3.1592122E-1,3.877043E-2,-1.5365708E-1,3.1633E-1,1.3367915E-1,-3.113885E-1,-1.3466035E-1,3.1604925E-1,-3.309091E-1,1.270198E-1,3.0018413E-1,4.394635E-2,-2.625025E-1,2.9581351E-2,2.39067E-1,-9.4450764E-2,-2.5684333E-1,-1.0407554E-1,3.227259E-1,-1.5490374E-1,2.3378235E-1,-2.28566E-1,2.9553642E-2,-2.8960922E-1],"categories":[],"categories_nodes":[],"categories_segments":[],"categories_sizes":[],"default_left":[0,0,0,0,0,0,0,0,0,0,0,0,0,0,0,0,0,0,0,0,0,0,0,0,0,0,0,0,0,0,0,0,0,0,0,0,0,0,0,0,0,0,0,0,0,0,0,0,0,0,0,0,0,0,0,0,0,0,0,0,0,0,0,0,0,0,0,0,0,0,0,0,0,0,0,0,0,0,0,0,0,0,0,0,0,0,0,0,0,0,0,0,0,0,0,0,0,0,0,0,0,0,0,0,0,0,0,0,0,0,0,0,0,0,0,0,0,0,0,0,0,0,0,0,0,0,0],"id":11,"left_children":[1,3,5,7,9,11,13,15,17,19,21,23,25,27,29,31,33,35,37,39,41,43,45,47,49,51,53,55,57,59,61,63,65,67,69,71,73,75,77,79,81,83,85,87,89,91,93,95,97,99,101,103,105,107,109,111,113,115,117,119,121,123,125,-1,-1,-1,-1,-1,-1,-1,-1,-1,-1,-1,-1,-1,-1,-1,-1,-1,-1,-1,-1,-1,-1,-1,-1,-1,-1,-1,-1,-1,-1,-1,-1,-1,-1,-1,-1,-1,-1,-1,-1,-1,-1,-1,-1,-1,-1,-1,-1,-1,-1,-1,-1,-1,-1,-1,-1,-1,-1,-1,-1,-1,-1,-1,-1],"loss_changes":[2.776501E2,1.5409216E2,1.8730597E2,1.3289868E2,9.138138E1,9.441943E1,9.360821E1,4.337143E1,6.7360275E1,4.124696E1,5.3246735E1,7.945291E1,1.5279772E1,3.3501488E1,4.699228E1,3.3133804E1,1.1088122E1,2.6083786E1,3.764767E1,2.5865742E1,1.8607903E1,2.4133514E1,2.4143385E1,4.9815063E1,5.3235615E1,1.5400614E1,5.5244713E0,1.3367027E1,2.5578636E1,2.9507217E1,2.7770945E1,1.9712505E1,1.4424347E1,5.1703434E0,8.479533E0,1.5930561E1,1.4890869E1,1.4170416E1,3.0194153E1,1.6500986E1,1.6427725E1,6.5938454E0,1.4282899E1,2.1483551E1,1.1532135E1,2.2505566E1,8.065857E0,4.0038605E1,2.3672783E1,2.1088133E1,2.6937176E1,2.2626734E0,4.4470816E0,4.151432E0,2.6476004E0,2.8807456E0,9.75618E0,1.4075456E1,1.5411855E1,2.1197708E1,1.1372637E1,7.5238094E0,1.79617E1,0E0,0E0,0E0,0E0,0E0,0E0,0E0,0E0,0E0,0E0,0E0,0E0,0E0,0E0,0E0,0E0,0E0,0E0,0E0,0E0,0E0,0E0,0E0,0E0,0E0,0E0,0E0,0E0,0E0,0E0,0E0,0E0,0E0,0E0,0E0,0E0,0E0,0E0,0E0,0E0,0E0,0E0,0E0,0E0,0E0,0E0,0E0,0E0,0E0,0E0,0E0,0E0,0E0,0E0,0E0,0E0,0E0,0E0,0E0,0E0,0E0,0E0,0E0,0E0],"parents":[2147483647,0,0,1,1,2,2,3,3,4,4,5,5,6,6,7,7,8,8,9,9,10,10,11,11,12,12,13,13,14,14,15,15,16,16,17,17,18,18,19,19,20,20,21,21,22,22,23,23,24,24,25,25,26,26,27,27,28,28,29,29,30,30,31,31,32,32,33,33,34,34,35,35,36,36,37,37,38,38,39,39,40,40,41,41,42,42,43,43,44,44,45,45,46,46,47,47,48,48,49,49,50,50,51,51,52,52,53,53,54,54,55,55,56,56,57,57,58,58,59,59,60,60,61,61,62,62],"right_children":[2,4,6,8,10,12,14,16,18,20,22,24,26,28,30,32,34,36,38,40,42,44,46,48,50,52,54,56,58,60,62,64,66,68,70,72,74,76,78,80,82,84,86,88,90,92,94,96,98,100,102,104,106,108,110,112,114,116,118,120,122,124,126,-1,-1,-1,-1,-1,-1,-1,-1,-1,-1,-1,-1,-1,-1,-1,-1,-1,-1,-1,-1,-1,-1,-1,-1,-1,-1,-1,-1,-1,-1,-1,-1,-1,-1,-1,-1,-1,-1,-1,-1,-1,-1,-1,-1,-1,-1,-1,-1,-1,-1,-1,-1,-1,-1,-1,-1,-1,-1,-1,-1,-1,-1,-1,-1],"split_conditions":[1.2063225E-2,-1.7763544E-2,-2.500602E-2,-6.7241355E-3,-2.0565877E-2,2.0942568E-34,-8.687857E-3,2.3271667E-3,1.1405148E-2,1.974745E-2,8.765556E-2,2.1162635E-2,-2.161338E-2,-2.9009184E-2,3.9215554E-2,2.370607E-3,-9.191754E-3,-1.8193496E-2,-4.979304E-3,1.3447086E-2,6.763302E-3,-2.8711595E-3,-1.1543305E-2,9.670091E-3,2.2782434E-2,4.034289E-2,3.534291E-2,1.7251536E-2,9.2447526E-4,5.665766E-2,-5.3046215E-3,-8.6499E-3,1.6513769E-2,-2.303394E-2,1.1826696E-2,-1.0285757E-3,4.0707074E-2,6.661073E-2,-5.931497E-2,2.4195373E-2,-8.048539E-4,1.0291179E-1,9.7153046E-5,1.569617E-2,1.3376227E-2,1.1959702E-2,-3.881476E-4,-9.8271845E-3,2.4573935E-2,-2.013735E-2,1.8634284E-2,1.7992057E-2,4.3642454E-2,-4.758939E-2,4.158644E-3,2.0506393E-2,1.2340784E-2,4.7643078E-3,-4.348568E-3,5.160226E-2,-7.879169E-3,4.9459387E-2,-1.0877055E-3,-1.0117098E-1,1.3400333E-1,-1.7598864E-1,2.4175337E-1,-8.228309E-2,-3.8152125E-1,-1.6544102E-1,2.0801647E-1,2.1933146E-1,-1.4933212E-1,-3.3639646E-1,-1.0211701E-1,-2.9136184E-1,7.795645E-2,1.5898478E-1,-8.536861E-2,-2.338545E-1,6.589271E-2,-1.3286683E-1,1.7668943E-1,-3.1542224E-1,8.4398136E-2,-1.8495369E-1,1.08219646E-1,-2.415665E-1,-2.5051042E-2,-3.1622857E-1,-1.9996975E-1,-1.848073E-1,1.442219E-1,-2.5955752E-1,8.1628956E-2,1.0891325E-1,2.5896144E-1,-1.4786129E-1,1.1092348E-1,-3.330268E-1,-4.9390838E-2,1.8366906E-1,-6.517719E-2,-3.1592122E-1,3.877043E-2,-1.5365708E-1,3.1633E-1,1.3367915E-1,-3.113885E-1,-1.3466035E-1,3.1604925E-1,-3.309091E-1,1.270198E-1,3.0018413E-1,4.394635E-2,-2.625025E-1,2.9581351E-2,2.39067E-1,-9.4450764E-2,-2.5684333E-1,-1.0407554E-1,3.227259E-1,-1.5490374E-1,2.3378235E-1,-2.28566E-1,2.9553642E-2,-2.8960922E-1],"split_indices":[609,753,279,291,589,756,709,195,300,271,516,139,71,419,300,148,505,602,319,590,173,299,641,113,540,461,163,424,508,671,729,439,461,591,255,139,701,690,239,300,728,516,394,662,149,446,19,149,9,19,714,716,690,31,362,300,113,17,487,445,512,596,381,0,0,0,0,0,0,0,0,0,0,0,0,0,0,0,0,0,0,0,0,0,0,0,0,0,0,0,0,0,0,0,0,0,0,0,0,0,0,0,0,0,0,0,0,0,0,0,0,0,0,0,0,0,0,0,0,0,0,0,0,0,0,0,0],"split_type":[0,0,0,0,0,0,0,0,0,0,0,0,0,0,0,0,0,0,0,0,0,0,0,0,0,0,0,0,0,0,0,0,0,0,0,0,0,0,0,0,0,0,0,0,0,0,0,0,0,0,0,0,0,0,0,0,0,0,0,0,0,0,0,0,0,0,0,0,0,0,0,0,0,0,0,0,0,0,0,0,0,0,0,0,0,0,0,0,0,0,0,0,0,0,0,0,0,0,0,0,0,0,0,0,0,0,0,0,0,0,0,0,0,0,0,0,0,0,0,0,0,0,0,0,0,0,0],"sum_hessian":[4.0381772E3,1.943226E3,2.0949512E3,8.697105E2,1.0735155E3,1.3890084E3,7.059429E2,4.2142084E2,4.4828964E2,3.1056625E2,7.629492E2,1.3148779E3,7.4130516E1,2.1999132E2,4.8595154E2,3.775283E2,4.3892536E1,2.0283015E2,2.4545949E2,1.9709676E2,1.1346949E2,6.2534265E2,1.3760655E2,1.0303245E3,2.845534E2,2.0734177E1,5.3396343E1,1.0278887E2,1.1720245E2,3.683967E2,1.1755482E2,1.331127E2,2.444156E2,2.3982958E1,1.9909578E1,4.6956264E1,1.5587389E2,5.477018E1,1.9068932E2,6.4722404E1,1.3237436E2,5.5433506E1,5.8035988E1,1.7167136E2,4.536713E2,8.821319E1,4.939337E1,8.762458E2,1.5407874E2,9.8545E1,1.860084E2,9.076381E0,1.1657796E1,5.0532516E1,2.8638237E0,4.7477612E0,9.804111E1,5.9273396E1,5.7929054E1,3.4923865E2,1.9158058E1,5.0314293E1,6.7240524E1,5.154677E1,8.156593E1,6.9983654E0,2.3741724E2,8.58922E0,1.5393738E1,1.0232099E1,9.677479E0,1.4404615E1,3.255165E1,1.24157845E2,3.1716043E1,4.3387276E1,1.1382905E1,1.176785E2,7.301081E1,3.427549E1,3.044691E1,1.7044064E1,1.1533029E2,5.1842613E1,3.590895E0,3.0346182E1,2.7689804E1,1.0281934E2,6.885201E1,3.4561246E2,1.0805884E2,2.5536198E1,6.2676987E1,4.2596043E1,6.797329E0,2.1376825E2,6.6247754E2,4.3550907E1,1.10527824E2,3.818108E1,6.0363914E1,1.3094724E2,5.5061165E1,7.3182855E0,1.7580954E0,1.5404544E0,1.0117341E1,1.4340794E0,4.909844E1,1.5357448E0,1.3280789E0,3.669437E0,1.0783242E0,8.163399E1,1.6407125E1,3.3564854E1,2.5708542E1,4.0801235E1,1.712782E1,2.1387218E2,1.3536647E2,1.3348248E1,5.8098116E0,4.7702972E1,2.6113203E0,4.3353867E1,2.3886658E1],"tree_param":{"num_deleted":"0","num_feature":"768","num_nodes":"127","size_leaf_vector":"1"}},{"base_weights":[-5.9097763E-3,2.1744278E-1,-2.856628E-1,-2.850587E-1,3.791327E-1,-6.605461E-1,-6.1811194E-2,-7.198378E-1,2.7874091E-3,-5.68235E-1,4.504977E-1,-9.394609E-1,-3.784195E-1,-3.8272747E-1,3.210613E-1,-8.6667496E-1,1.9872469E-1,-7.035914E-1,2.1804805E-1,-1.4680169E-2,-7.8145367E-1,-1.5718427E-1,5.5076677E-1,-1.0910414E0,-6.800319E-1,1.7098638E-1,-6.365766E-1,-7.1988165E-1,-8.124625E-2,-2.7332213E-2,5.819599E-1,-2.3088227E-1,-9.866112E-1,-7.436223E-1,4.8786446E-1,-1.4381908E-1,-9.9711895E-1,-2.0555294E-1,5.671208E-1,7.0391953E-1,-5.534229E-1,-8.425301E-1,5.3605384E-1,-9.5469844E-1,5.641436E-2,6.424599E-2,6.6116387E-1,-1.1261494E0,-1.8831971E-1,-7.9235244E-1,4.0295815E-1,-7.864095E-2,8.617309E-1,-8.2686466E-1,-1.9909978E-1,-9.434357E-1,-1.0592244E-1,4.696362E-1,-3.0580026E-1,-4.370139E-1,2.755011E-1,-3.7028068E-1,7.06491E-1,1.3217394E-1,-2.3671839E-1,-3.114327E-1,6.724371E-2,8.6474486E-2,-3.6511737E-1,2.4174072E-1,-7.606594E-2,2.0654255E-1,-1.8688415E-1,6.160553E-2,-3.369238E-1,9.865336E-2,-1.8359286E-1,2.0754117E-1,-1.8590441E-1,3.1317294E-1,-1.9452198E-1,-2.786376E-1,2.0653987E-1,5.0732993E-2,-2.7547026E-1,-1.0933333E-1,3.1968728E-1,-3.3602858E-1,1.8351471E-1,1.4391431E-1,-1.1465583E-1,-1.4441493E-1,1.3308531E-1,2.1407674E-1,-1.2566555E-2,-3.482083E-1,-1.2672964E-1,1.7531198E-1,-2.3883826E-1,5.5428047E-2,-2.6854205E-1,-2.9174674E-1,2.3928635E-1,1.1247588E-1,-1.8578713E-1,3.3946127E-1,-1.8940654E-1,-9.3495265E-2,-2.886309E-1,5.3424224E-2,-2.5020418E-1,-3.254002E-1,-1.3483964E-1,1.9735076E-1,-1.18394524E-1,1.9216697E-1,-1.2140155E-1,-2.4134459E-1,-2.836437E-2,4.5352474E-2,-2.0439835E-1,-2.5290594E-1,1.2400406E-1,-4.1960788E-1,-1.3626599E-2,