{"learner":{"attributes":{"scikit_learn":"{\"_estimator_type\": \"classifier\"}"},"feature_names":[],"feature_types":[],"gradient_booster":{"model":{"gbtree_model_param":{"num_parallel_tree":"1","num_trees":"100"},"iteration_indptr":[0,1,2,3,4,5,6,7,8,9,10,11,12,13,14,15,16,17,18,19,20,21,22,23,24,25,26,27,28,29,30,31,32,33,34,35,36,37,38,39,40,41,42,43,44,45,46,47,48,49,50,51,52,53,54,55,56,57,58,59,60,61,62,63,64,65,66,67,68,69,70,71,72,73,74,75,76,77,78,79,80,81,82,83,84,85,86,87,88,89,90,91,92,93,94,95,96,97,98,99,100],"tree_info":[0,0,0,0,0,0,0,0,0,0,0,0,0,0,0,0,0,0,0,0,0,0,0,0,0,0,0,0,0,0,0,0,0,0,0,0,0,0,0,0,0,0,0,0,0,0,0,0,0,0,0,0,0,0,0,0,0,0,0,0,0,0,0,0,0,0,0,0,0,0,0,0,0,0,0,0,0,0,0,0,0,0,0,0,0,0,0,0,0,0,0,0,0,0,0,0,0,0,0,0],"trees":[{"base_weights":[-0E0,-1.1500494E0,9.8246837E-1,6.1466414E-3,-1.5663794E0,-4.7521204E-1,1.21688E0,-9.4773793E-1,5.7878715E-1,-1.6896582E0,-3.3352634E-1,-1.0605886E0,4.836272E-1,1.4370273E0,-3.4635133E-1,-1.3867792E0,4.438808E-2,-5.470013E-1,1.0056497E0,-1.3516266E0,-1.9241464E0,3.8085938E-1,-1.3702128E0,-4.5442653E-1,-1.5367697E0,-5.849057E-1,1.0169811E0,5.8411616E-1,1.592154E0,-1.2825806E0,5.2536774E-1,-9.4802755E-1,-1.7410805E0,-1.125506E0,5.75897E-1,1.3151152E-1,-1.2162162E0,-5.905383E-1,1.180093E0,1.2338063E-3,-1.5263116E0,-1.7013446E0,-1.959619E0,9.6622616E-1,-7.768116E-1,-4.2236024E-1,-1.6446886E0,-1.4026284E0,9.0410955E-2,-1.752303E0,-1.0916667E0,-1.2273505E0,2.045929E-1,1.2100052E0,-8.097561E-1,-5.589094E-1,1.0554663E0,6.409214E-1,1.6707532E0,-9.421265E-2,-1.6543838E0,1.2952853E0,-6.515151E-1,-5.8187604E-2,-4.2962965E-1,-5.5E-1,-3.3435118E-1,1.11627914E-1,-4.2815536E-1,3.0354798E-1,-1.309091E-1,-3.1783783E-1,2.0347826E-1,-4.787402E-1,-1.5774648E-1,5.675676E-2,-3.906542E-1,3.907716E-1,-2.9403976E-1,1.2546375E-1,-3.3758545E-1,-5.43108E-1,-3.083004E-1,-3.8121548E-1,-5.538462E-1,-2.3076925E-1,-5.885473E-1,4.3277594E-1,1.40724955E-2,-4.02457E-1,1.04529625E-2,1.3972604E-1,-3.4E-1,-5.328E-1,-6.25E-2,-1.2857144E-1,-4.767475E-1,-2.0000002E-1,2.1498127E-1,-3.577465E-1,-5.449857E-1,-4.615385E-2,-4.1589043E-1,-1.030303E-1,-4.9872124E-1,-2.2758621E-1,2.7E-1,-3E-1,4.0475926E-1,-4.1317368E-1,4.571429E-1,-3.223287E-1,1.3266763E-1,4.160656E-1,4.0000003E-2,-7.2147995E-2,3.2163388E-1,5.1762015E-1,2.769799E-1,2.4028778E-1,-3.6727273E-1,-3.2910448E-1,-5.4423183E-1,4.4903228E-1,-3.283019E-1,-3.9384618E-1,9.0441175E-2],"categories":[],"categories_nodes":[],"categories_segments":[],"categories_sizes":[],"default_left":[0,0,0,0,0,0,0,0,0,0,0,0,0,0,0,0,0,0,0,0,0,0,0,0,0,0,0,0,0,0,0,0,0,0,0,0,0,0,0,0,0,0,0,0,0,0,0,0,0,0,0,0,0,0,0,0,0,0,0,0,0,0,0,0,0,0,0,0,0,0,0,0,0,0,0,0,0,0,0,0,0,0,0,0,0,0,0,0,0,0,0,0,0,0,0,0,0,0,0,0,0,0,0,0,0,0,0,0,0,0,0,0,0,0,0,0,0,0,0,0,0,0,0,0,0,0,0],"id":0,"left_children":[1,3,5,7,9,11,13,15,17,19,21,23,25,27,29,31,33,35,37,39,41,43,45,47,49,51,53,55,57,59,61,63,65,67,69,71,73,75,77,79,81,83,85,87,89,91,93,95,97,99,101,103,105,107,109,111,113,115,117,119,121,123,125,-1,-1,-1,-1,-1,-1,-1,-1,-1,-1,-1,-1,-1,-1,-1,-1,-1,-1,-1,-1,-1,-1,-1,-1,-1,-1,-1,-1,-1,-1,-1,-1,-1,-1,-1,-1,-1,-1,-1,-1,-1,-1,-1,-1,-1,-1,-1,-1,-1,-1,-1,-1,-1,-1,-1,-1,-1,-1,-1,-1,-1,-1,-1,-1],"loss_changes":[3.1639098E4,6.2099043E3,5.160634E3,1.8667535E3,1.4410469E3,1.1751359E3,4.4775996E3,5.5848047E2,1.0267795E3,6.8087695E2,6.400247E2,3.7446533E2,4.531004E2,1.5078926E3,1.311989E3,1.3650586E2,2.4579642E2,2.670401E2,4.3193774E2,8.354087E2,3.6884766E1,3.4771356E2,9.1012695E1,2.962769E2,6.7879395E1,1.3466156E2,1.8786005E2,9.4693097E2,7.202949E2,3.422693E2,7.5540106E2,1.4545767E2,2.6309326E1,5.6327515E1,1.2035783E2,1.9134645E2,7.673151E1,8.5282814E1,3.7076514E2,1.9083041E2,4.415752E2,4.171057E1,9.996094E0,1.490463E2,7.91123E1,5.1357555E1,5.1120483E1,3.7337708E1,1.7351581E2,1.5422241E1,6.61022E1,5.5669632E1,8.089437E1,1.4892792E2,6.99677E1,2.6549478E2,3.7999695E2,2.807411E2,3.624121E2,1.8887985E2,5.055652E1,2.4418494E2,2.083666E2,0E0,0E0,0E0,0E0,0E0,0E0,0E0,0E0,0E0,0E0,0E0,0E0,0E0,0E0,0E0,0E0,0E0,0E0,0E0,0E0,0E0,0E0,0E0,0E0,0E0,0E0,0E0,0E0,0E0,0E0,0E0,0E0,0E0,0E0,0E0,0E0,0E0,0E0,0E0,0E0,0E0,0E0,0E0,0E0,0E0,0E0,0E0,0E0,0E0,0E0,0E0,0E0,0E0,0E0,0E0,0E0,0E0,0E0,0E0,0E0,0E0,0E0,0E0,0E0],"parents":[2147483647,0,0,1,1,2,2,3,3,4,4,5,5,6,6,7,7,8,8,9,9,10,10,11,11,12,12,13,13,14,14,15,15,16,16,17,17,18,18,19,19,20,20,21,21,22,22,23,23,24,24,25,25,26,26,27,27,28,28,29,29,30,30,31,31,32,32,33,33,34,34,35,35,36,36,37,37,38,38,39,39,40,40,41,41,42,42,43,43,44,44,45,45,46,46,47,47,48,48,49,49,50,50,51,51,52,52,53,53,54,54,55,55,56,56,57,57,58,58,59,59,60,60,61,61,62,62],"right_children":[2,4,6,8,10,12,14,16,18,20,22,24,26,28,30,32,34,36,38,40,42,44,46,48,50,52,54,56,58,60,62,64,66,68,70,72,74,76,78,80,82,84,86,88,90,92,94,96,98,100,102,104,106,108,110,112,114,116,118,120,122,124,126,-1,-1,-1,-1,-1,-1,-1,-1,-1,-1,-1,-1,-1,-1,-1,-1,-1,-1,-1,-1,-1,-1,-1,-1,-1,-1,-1,-1,-1,-1,-1,-1,-1,-1,-1,-1,-1,-1,-1,-1,-1,-1,-1,-1,-1,-1,-1,-1,-1,-1,-1,-1,-1,-1,-1,-1,-1,-1,-1,-1,-1,-1,-1,-1],"split_conditions":[-8.573385E-3,-2.0260273E-2,2.3823418E-2,-1.7847484E-2,7.080231E-2,3.2793242E-2,1.8774461E-34,6.292648E-2,3.0530544E-2,1.7031813E-34,1.7942822E-34,-1.4866421E-2,2.4188913E-2,8.5885655E-3,4.8824508E-2,1.7712984E-2,-2.7390128E-2,-4.169388E-2,-7.2301854E-3,-3.358381E-2,-2.329219E-2,-6.3598948E-3,1.6888939E-2,1.7201986E-2,4.392047E-2,-1.7430825E-3,1.6736915E-34,2.415326E-2,-3.601581E-2,-2.1077506E-3,-6.054754E-33,-1.4659541E-3,4.3005176E-2,-2.499322E-2,-2.8420009E-2,7.0249597E-3,3.623392E-2,-7.1668536E-3,1.973205E-34,-2.1180192E-2,3.8429264E-2,1.909619E-2,-4.684641E-2,-1.4301495E-2,1.913237E-2,-2.883874E-2,9.75517E-2,-2.7677791E-2,3.6119346E-2,-3.938011E-2,-2.2486683E-2,-3.374962E-2,-3.1050406E-3,1.0587988E-2,4.169632E-2,6.261211E-2,-2.8157873E-2,3.8833927E-2,-3.1668334E-3,-5.7831608E-2,-6.423865E-2,2.3344117E-34,-1.9183839E-2,-5.8187604E-2,-4.2962965E-1,-5.5E-1,-3.3435118E-1,1.11627914E-1,-4.2815536E-1,3.0354798E-1,-1.309091E-1,-3.1783783E-1,2.0347826E-1,-4.787402E-1,-1.5774648E-1,5.675676E-2,-3.906542E-1,3.907716E-1,-2.9403976E-1,1.2546375E-1,-3.3758545E-1,-5.43108E-1,-3.083004E-1,-3.8121548E-1,-5.538462E-1,-2.3076925E-1,-5.885473E-1,4.3277594E-1,1.40724955E-2,-4.02457E-1,1.04529625E-2,1.3972604E-1,-3.4E-1,-5.328E-1,-6.25E-2,-1.2857144E-1,-4.767475E-1,-2.0000002E-1,2.1498127E-1,-3.577465E-1,-5.449857E-1,-4.615385E-2,-4.1589043E-1,-1.030303E-1,-4.9872124E-1,-2.2758621E-1,2.7E-1,-3E-1,4.0475926E-1,-4.1317368E-1,4.571429E-1,-3.223287E-1,1.3266763E-1,4.160656E-1,4.0000003E-2,-7.2147995E-2,3.2163388E-1,5.1762015E-1,2.769799E-1,2.4028778E-1,-3.6727273E-1,-3.2910448E-1,-5.4423183E-1,4.4903228E-1,-3.283019E-1,-3.9384618E-1,9.0441175E-2],"split_indices":[508,37,461,369,690,146,756,690,690,756,756,37,690,146,690,759,508,279,319,596,620,419,709,461,219,369,756,319,369,709,555,596,446,753,279,319,146,419,756,279,219,709,115,36,146,765,690,689,9,172,359,114,163,461,83,690,279,690,195,42,42,756,655,0,0,0,0,0,0,0,0,0,0,0,0,0,0,0,0,0,0,0,0,0,0,0,0,0,0,0,0,0,0,0,0,0,0,0,0,0,0,0,0,0,0,0,0,0,0,0,0,0,0,0,0,0,0,0,0,0,0,0,0,0,0,0,0],"split_type":[0,0,0,0,0,0,0,0,0,0,0,0,0,0,0,0,0,0,0,0,0,0,0,0,0,0,0,0,0,0,0,0,0,0,0,0,0,0,0,0,0,0,0,0,0,0,0,0,0,0,0,0,0,0,0,0,0,0,0,0,0,0,0,0,0,0,0,0,0,0,0,0,0,0,0,0,0,0,0,0,0,0,0,0,0,0,0,0,0,0,0,0,0,0,0,0,0,0,0,0,0,0,0,0,0,0,0,0,0,0,0,0,0,0,0,0,0,0,0,0,0,0,0,0,0,0,0],"sum_hessian":[2.8E4,1.289975E4,1.510025E4,3.4155E3,9.48425E3,2.09175E3,1.30085E4,1.281E3,2.1345E3,8.62175E3,8.625E2,1.29875E3,7.93E2,1.140275E4,1.60575E3,8.8775E2,3.9325E2,5.8675E2,1.54775E3,3.534E3,5.08775E3,5.11E2,3.515E2,5.7225E2,7.265E2,2.64E2,5.29E2,1.7555E3,9.64725E3,7.74E2,8.3175E2,3.9825E2,4.895E2,1.225E2,2.7075E2,2.9175E2,2.95E2,1.5225E2,1.3955E3,4.0425E2,3.12975E3,7.055E2,4.38225E3,3.395E2,1.715E2,7.95E1,2.72E2,2.0825E2,3.64E2,4.875E2,2.39E2,1.4525E2,1.1875E2,4.7875E2,5.025E1,5.125E2,1.243E3,7.37E2,8.91025E3,1.8475E2,5.8925E2,5.0275E2,3.29E2,1.5625E2,2.42E2,4.25E2,6.45E1,2.05E1,1.02E2,1.8925E2,8.15E1,9.15E1,2.0025E2,1.895E2,1.055E2,7.3E1,7.925E1,1.321E3,7.45E1,2.955E2,1.0875E2,1.99225E3,1.1375E3,1.8E2,5.255E2,8.75E0,4.3735E3,2.2325E2,1.1625E2,1.0075E2,7.075E1,3.55E1,4.4E1,2.49E2,2.3E1,3.4E1,1.7425E2,1.6475E2,1.9925E2,5.225E1,4.3525E2,5.75E1,1.815E2,4.85E1,9.675E1,4.975E1,6.9E1,2.8E1,4.5075E2,4.075E1,9.5E0,3.3825E2,1.7425E2,9.14E2,3.29E2,2.4225E2,4.9475E2,8.302E3,6.0825E2,1.0325E2,8.15E1,1.33E2,4.5625E2,4.64E2,3.875E1,1.94E2,1.35E2],"tree_param":{"num_deleted":"0","num_feature":"768","num_nodes":"127","size_leaf_vector":"1"}},{"base_weights":[-1.2787279E-3,-1.0762056E0,6.049011E-1,-1.8201181E-1,-1.2864152E0,9.038226E-1,-4.0246007E-1,-7.035133E-1,5.554064E-1,-1.4105948E0,-7.9734993E-1,1.1284332E0,1.6889405E-1,3.5752136E-1,-9.49499E-1,-1.1770641E0,-1.1489643E-1,9.0211654E-1,-2.7305126E-1,-7.6810235E-1,-1.4727877E0,-3.131261E-1,-1.3041899E0,1.2375813E0,8.611661E-3,-6.6687995E-1,6.172018E-1,-4.943993E-1,7.862379E-1,-1.284915E0,-1.8090518E-1,-6.7924905E-1,-1.4205884E0,-7.591171E-1,5.8853763E-1,-8.8287985E-1,1.0487313E0,-1.3202373E0,1.78959E-1,-2.4641503E-1,-1.3568032E0,-1.4844413E0,4.025085E-2,4.291854E-1,-8.97199E-1,-1.3651006E0,1.7426011E-1,1.3339541E0,5.678177E-1,4.4823083E-1,-8.540789E-1,-1.1592451E0,5.2165926E-2,-8.342654E-1,8.450735E-1,-1.1769925E0,2.4485137E-2,-5.7172436E-1,9.6576E-1,-1.4021477E0,-3.7691665E-1,-6.424205E-1,5.4921925E-1,-3.6209953E-1,-3.6469474E-3,-3.114337E-1,-4.668493E-1,1.8531653E-3,-3.6023164E-1,2.743205E-1,-1.4673813E-1,2.1115132E-1,-3.7132812E-1,3.715862E-1,6.6810367E-3,-4.430012E-1,3.3953112E-1,1.8161413E-1,-2.6621583E-1,-2.868746E-1,1.0070426E-1,-4.17202E-1,1.2828407E-1,-4.5406082E-1,-3.0617806E-1,2.6023704E-1,-2.8353208E-1,-1.8639663E-1,2.1281171E-1,-9.61801E-2,-3.8096902E-1,-4.3991274E-1,-2.9138073E-1,3.6034486E-1,-2.5686717E-1,4.1396055E-1,1.15529075E-1,-1.5482399E-1,2.607589E-1,2.300333E-1,-2.3506455E-1,5.281231E-2,-3.7042993E-1,-3.9400518E-1,-3.6135155E-3,2.0087977E-1,-2.7668747E-1,-2.7591488E-3,-4.1996336E-1,3.417393E-1,2.3134828E-3,-4.5662704E-1,-1.4081195E-1,2.0617656E-1,-2.1958159E-1,-2.9124656E-1,1.6369976E-1,3.2904243E-1,-1.4707732E-1,-4.694045E-1,-3.2344073E-1,8.687101E-2,-2.841853E-1,-7.183814E-3,-3.5607013E-1,-5.1660333E-2,2.77065E-1],"categories":[],"categories_nodes":[],"categories_segments":[],"categories_sizes":[],"default_left":[0,0,0,0,0,0,0,0,0,0,0,0,0,0,0,0,0,0,0,0,0,0,0,0,0,0,0,0,0,0,0,0,0,0,0,0,0,0,0,0,0,0,0,0,0,0,0,0,0,0,0,0,0,0,0,0,0,0,0,0,0,0,0,0,0,0,0,0,0,0,0,0,0,0,0,0,0,0,0,0,0,0,0,0,0,0,0,0,0,0,0,0,0,0,0,0,0,0,0,0,0,0,0,0,0,0,0,0,0,0,0,0,0,0,0,0,0,0,0,0,0,0,0,0,0,0,0],"id":1,"left_children":[1,3,5,7,9,11,13,15,17,19,21,23,25,27,29,31,33,35,37,39,41,43,45,47,49,51,53,55,57,59,61,63,65,67,69,71,73,75,77,79,81,83,85,87,89,91,93,95,97,99,101,103,105,107,109,111,113,115,117,119,121,123,125,-1,-1,-1,-1,-1,-1,-1,-1,-1,-1,-1,-1,-1,-1,-1,-1,-1,-1,-1,-1,-1,-1,-1,-1,-1,-1,-1,-1,-1,-1,-1,-1,-1,-1,-1,-1,-1,-1,-1,-1,-1,-1,-1,-1,-1,-1,-1,-1,-1,-1,-1,-1,-1,-1,-1,-1,-1,-1,-1,-1,-1,-1,-1,-1],"loss_changes":[1.7278045E4,1.797E3,5.1058877E3,7.007043E2,4.6901953E2,2.158207E3,1.6136449E3,2.9731726E2,2.1708618E2,2.4550977E2,3.848794E2,1.2240303E3,1.1476552E3,5.938534E2,5.815348E2,7.07135E1,2.1654953E2,1.4026636E2,1.0602398E2,1.676117E2,9.927051E1,3.4904486E2,6.92832E1,5.882412E2,3.3808112E2,3.7868896E2,6.6002716E2,1.9291103E2,2.6416052E2,1.6668896E2,2.3177187E2,6.903815E1,1.892517E1,8.428653E1,8.069822E1,2.3933231E1,9.59624E1,2.7563675E1,7.192241E1,1.2062007E2,1.6109192E1,7.380859E1,3.666665E1,1.0487E2,9.637784E1,2.7950928E1,3.4070324E1,3.4697363E2,3.759794E2,2.3230118E2,1.18225815E2,1.12217285E2,2.6272122E2,1.2645143E2,4.2435583E2,5.672281E1,1.5610202E2,5.7114574E1,1.8284216E2,7.156201E1,6.907849E1,1.4182736E2,7.2133804E1,0E0,0E0,0E0,0E0,0E0,0E0,0E0,0E0,0E0,0E0,0E0,0E0,0E0,0E0,0E0,0E0,0E0,0E0,0E0,0E0,0E0,0E0,0E0,0E0,0E0,0E0,0E0,0E0,0E0,0E0,0E0,0E0,0E0,0E0,0E0,0E0,0E0,0E0,0E0,0E0,0E0,0E0,0E0,0E0,0E0,0E0,0E0,0E0,0E0,0E0,0E0,0E0,0E0,0E0,0E0,0E0,0E0,0E0,0E0,0E0,0E0,0E0,0E0,0E0],"parents":[2147483647,0,0,1,1,2,2,3,3,4,4,5,5,6,6,7,7,8,8,9,9,10,10,11,11,12,12,13,13,14,14,15,15,16,16,17,17,18,18,19,19,20,20,21,21,22,22,23,23,24,24,25,25,26,26,27,27,28,28,29,29,30,30,31,31,32,32,33,33,34,34,35,35,36,36,37,37,38,38,39,39,40,40,41,41,42,42,43,43,44,44,45,45,46,46,47,47,48,48,49,49,50,50,51,51,52,52,53,53,54,54,55,55,56,56,57,57,58,58,59,59,60,60,61,61,62,62],"right_children":[2,4,6,8,10,12,14,16,18,20,22,24,26,28,30,32,34,36,38,40,42,44,46,48,50,52,54,56,58,60,62,64,66,68,70,72,74,76,78,80,82,84,86,88,90,92,94,96,98,100,102,104,106,108,110,112,114,116,118,120,122,124,126,-1,-1,-1,-1,-1,-1,-1,-1,-1,-1,-1,-1,-1,-1,-1,-1,-1,-1,-1,-1,-1,-1,-1,-1,-1,-1,-1,-1,-1,-1,-1,-1,-1,-1,-1,-1,-1,-1,-1,-1,-1,-1,-1,-1,-1,-1,-1,-1,-1,-1,-1,-1,-1,-1,-1,-1,-1,-1,-1,-1,-1,-1,-1,-1],"split_conditions":[-1.5758812E-2,-2.4457918E-2,-2.4974945E-3,-2.8797449E-3,9.739708E-3,-5.9373975E-3,1.5129824E-2,4.980966E-2,-3.5008755E-2,-6.13086E-3,1.7386651E-34,-2.2111663E-3,1.8874824E-2,3.4649935E-2,1.0632783E-2,-1.1683335E-2,1.1617872E-3,-1.9592497E-2,1.7859278E-2,1.6736915E-34,9.6448325E-2,-6.2146923E-3,8.4783174E-2,-2.1180192E-2,1.74407E-34,3.9817672E-2,-9.551599E-3,1.1858311E-2,-3.5207108E-2,2.0320578E-2,5.6495335E-2,4.2465433E-2,2.5258532E-3,2.1750198E-3,-2.6524672E-2,-4.6982568E-2,3.4422386E-2,9.089866E-2,1.0222383E-2,4.2208828E-2,8.2466274E-2,5.6069717E-3,-2.9456634E-2,-4.848194E-3,-3.591715E-2,5.81298E-2,2.7546352E-2,3.891418E-2,3.5710845E-2,-4.7954046E-33,3.9315847E-4,7.831385E-2,-3.300094E-2,-1.3706022E-2,-3.201338E-2,-2.284391E-3,-2.4889462E-2,1.5214225E-2,5.3624127E-2,3.1995622E-4,-3.730167E-2,1.5572283E-34,-2.984764E-2,-3.6209953E-1,-3.6469474E-3,-3.114337E-1,-4.668493E-1,1.8531653E-3,-3.6023164E-1,2.743205E-1,-1.4673813E-1,2.1115132E-1,-3.7132812E-1,3.715862E-1,6.6810367E-3,-4.430012E-1,3.3953112E-1,1.8161413E-1,-2.6621583E-1,-2.868746E-1,1.0070426E-1,-4.17202E-1,1.2828407E-1,-4.5406082E-1,-3.0617806E-1,2.6023704E-1,-2.8353208E-1,-1.8639663E-1,2.1281171E-1,-9.61801E-2,-3.8096902E-1,-4.3991274E-1,-2.9138073E-1,3.6034486E-1,-2.5686717E-1,4.1396055E-1,1.15529075E-1,-1.5482399E-1,2.607589E-1,2.300333E-1,-2.3506455E-1,5.281231E-2,-3.7042993E-1,-3.9400518E-1,-3.6135155E-3,2.0087977E-1,-2.7668747E-1,-2.7591488E-3,-4.1996336E-1,3.417393E-1,2.3134828E-3,-4.5662704E-1,-1.4081195E-1,2.0617656E-1,-2.1958159E-1,-2.9124656E-1,1.6369976E-1,3.2904243E-1,-1.4707732E-1,-4.694045E-1,-3.2344073E-1,8.687101E-2,-2.841853E-1,-7.183814E-3,-3.5607013E-1,-5.1660333E-2,2.77065E-1],"split_indices":[508,37,37,369,505,419,709,690,279,115,756,195,146,690,505,488,662,319,146,756,690,596,690,279,756,319,319,609,369,508,690,319,365,640,279,698,387,690,220,219,690,35,279,319,279,690,759,563,690,555,709,690,279,729,279,369,279,427,562,163,279,756,212,0,0,0,0,0,0,0,0,0,0,0,0,0,0,0,0,0,0,0,0,0,0,0,0,0,0,0,0,0,0,0,0,0,0,0,0,0,0,0,0,0,0,0,0,0,0,0,0,0,0,0,0,0,0,0,0,0,0,0,0,0,0,0,0],"split_type":[0,0,0,0,0,0,0,0,0,0,0,0,0,0,0,0,0,0,0,0,0,0,0,0,0,0,0,0,0,0,0,0,0,0,0,0,0,0,0,0,0,0,0,0,0,0,0,0,0,0,0,0,0,0,0,0,0,0,0,0,0,0,0,0,0,0,0,0,0,0,0,0,0,0,0,0,0,0,0,0,0,0,0,0,0,0,0,0,0,0,0,0,0,0,0,0,0,0,0,0,0,0,0,0,0,0,0,0,0,0,0,0,0,0,0,0,0,0,0,0,0,0,0,0,0,0,0],"sum_hessian":[2.6514379E4,9.560375E3,1.6954004E4,1.8200549E3,7.74032E3,1.3074435E4,3.879569E3,1.0661327E3,7.539222E2,6.171434E3,1.568886E3,1.0013538E4,3.0608967E3,1.6238958E3,2.2556733E3,5.902602E2,4.758725E2,5.3142957E2,2.2249258E2,5.4584576E2,5.6255884E3,8.0317145E2,7.6571454E2,9.124113E3,8.894248E2,1.0684718E3,1.9924249E3,5.435773E2,1.0803185E3,1.5698958E3,6.857775E2,1.9514069E2,3.9511954E2,2.483494E2,2.2752312E2,3.995586E1,4.9147372E2,6.650277E1,1.559898E2,2.9014627E2,2.5569951E2,5.5826094E3,4.2978756E1,3.5379306E2,4.4937842E2,7.3548975E2,3.0224802E1,7.975518E3,1.1485955E3,5.89501E2,2.9992383E2,6.3383936E2,4.346324E2,2.6999368E2,1.7224312E3,2.3420801E2,3.093693E2,1.2588671E2,9.544318E2,1.3898999E3,1.7999583E2,4.202534E2,2.6552414E2,1.0849721E2,8.6643486E1,1.0566966E2,2.8944986E2,9.123847E1,1.5711092E2,1.7481429E2,5.270882E1,7.1233063E0,3.2832554E1,4.1457343E2,7.6900314E1,6.2888382E1,3.614387E0,1.117388E2,4.4251015E1,1.3043962E2,1.5970665E2,2.5115302E2,4.5464964E0,5.2509805E3,3.3162918E2,2.342944E1,1.9549316E1,7.423723E1,2.7955582E2,1.7715814E2,2.7222025E2,5.828775E2,1.5261224E2,1.5055851E1,1.5168951E1,7.60697E3,3.6854807E2,2.4973166E2,8.988638E2,4.6867563E2,1.2082532E2,8.107549E1,2.1884834E2,5.586501E2,7.518926E1,2.6624667E2,1.683857E2,1.10224144E2,1.5976953E2,1.2745023E3,4.479289E2,1.5665718E2,7.755083E1,1.6494113E2,1.4442815E2,9.285347E1,3.303324E1,8.758482E2,7.8583565E1,9.230447E2,4.668552E2,8.323098E1,9.6764854E1,1.972459E2,2.230075E2,9.089287E1,1.7463126E2],"tree_param":{"num_deleted":"0","num_feature":"768","num_nodes":"127","size_leaf_vector":"1"}},{"base_weights":[-3.4140726E-3,-6.5390354E-1,6.40677E-1,-7.410177E-2,-1.0677918E0,8.60506E-1,-1.4190334E-1,-5.167931E-1,5.066779E-1,-1.1593645E0,-2.7609208E-1,-3.7627763E-1,9.5369333E-1,-7.588419E-1,3.9383522E-1,-9.256974E-1,6.178685E-2,-2.7082583E-2,9.265394E-1,-1.2462914E0,-7.2330266E-1,2.8763252E-1,-9.203968E-1,1.1269094E-1,-1.0352556E0,4.6196645E-1,1.1137244E0,-2.4335544E-1,-1.2704022E0,6.789838E-1,-6.9369525E-1,-5.9700996E-1,-1.289148E0,4.5120773E-1,-8.048626E-1,-7.4488044E-1,3.9189574E-1,1.0746708E0,3.310701E-2,-7.1643156E-1,-1.2871442E0,-1.414758E-1,-1.1468437E0,6.8359965E-1,-5.300828E-1,-3.524629E-1,-1.2850226E0,-4.206702E-1,7.4786127E-1,-3.4385112E-1,-1.4234927E0,7.293459E-1,-2.885783E-1,4.7013545E-1,1.187632E0,-9.992681E-1,2.25735E-1,-6.3338645E-2,-1.368689E0,9.549376E-1,1.7722948E-2,-1.4143834E0,-2.5842896E-1,-3.0052963E-1,3.393255E-2,-1.5673478E-1,-4.0281296E-1,2.4396063E-1,-7.141722E-2,-3.4723705E-1,-1.3324923E-2,5.7933897E-2,-3.0852515E-1,-1.2760489E-1,2.5459516E-1,3.5865533E-1,6.0386125E-2,1.8039821E-1,-2.9668897E-1,-2.9147387E-1,1.0297096E-1,-3.946418E-1,-2.7457333E-1,1.366465E-1,-2.2446062E-1,-3.9736485E-1,-2.4881275E-1,2.7017033E-1,-1.380723E-1,-3.295957E-1,-8.041748E-3,-2.5445384E-1,1.13627724E-1,4.4154793E-2,-3.9614308E-1,1.0150812E-1,-2.4206962E-1,-2.4127358E-1,2.8462717E-1,3.2748897E-2,-3.825702E-1,-4.3898165E-1,4.9943376E-2,2.7224287E-1,2.759842E-4,7.094364E-2,-2.9942822E-1,2.5152773E-1,-4.785588E-2,3.6642846E-1,4.96433E-2,-3.7241384E-2,-3.6047754E-1,-2.3238482E-1,1.8354756E-1,2.3018347E-1,-2.4989316E-1,-2.886113E-1,-4.4844955E-1,-1.8179083E-1,3.1649554E-1,-2.4481195E-1,1.280457E-1,-4.9754846E-1,-2.1818264E-1,-3.7031096E-1,5.3637017E-2],"categories":[],"categories_nodes":[],"categories_segments":[],"categories_sizes":[],"default_left":[0,0,0,0,0,0,0,0,0,0,0,0,0,0,0,0,0,0,0,0,0,0,0,0,0,0,0,0,0,0,0,0,0,0,0,0,0,0,0,0,0,0,0,0,0,0,0,0,0,0,0,0,0,0,0,0,0,0,0,0,0,0,0,0,0,0,0,0,0,0,0,0,0,0,0,0,0,0,0,0,0,0,0,0,0,0,0,0,0,0,0,0,0,0,0,0,0,0,0,0,0,0,0,0,0,0,0,0,0,0,0,0,0,0,0,0,0,0,0,0,0,0,0,0,0,0,0],"id":2,"left_children":[1,3,5,7,9,11,13,15,17,19,21,23,25,27,29,31,33,35,37,39,41,43,45,47,49,51,53,55,57,59,61,63,65,67,69,71,73,75,77,79,81,83,85,87,89,91,93,95,97,99,101,103,105,107,109,111,113,115,117,119,121,123,125,-1,-1,-1,-1,-1,-1,-1,-1,-1,-1,-1,-1,-1,-1,-1,-1,-1,-1,-1,-1,-1,-1,-1,-1,-1,-1,-1,-1,-1,-1,-1,-1,-1,-1,-1,-1,-1,-1,-1,-1,-1,-1,-1,-1,-1,-1,-1,-1,-1,-1,-1,-1,-1,-1,-1,-1,-1,-1,-1,-1,-1,-1,-1,-1],"loss_changes":[1.009107E4,2.8755337E3,2.0820938E3,1.2837915E3,5.065752E2,1.089294E3,8.7777655E2,6.7038965E2,4.8405585E2,2.3663867E2,2.640234E2,2.136609E2,6.9091016E2,3.2516833E2,4.4131946E2,1.975581E2,3.9664703E2,2.865696E2,1.599607E2,1.12151855E2,2.5710217E2,1.2601656E2,6.9771454E1,1.2950351E2,7.5311646E1,4.3350507E2,3.1472754E2,2.1865671E2,7.338037E1,2.0559729E2,9.242598E1,2.5121985E2,3.163916E1,2.0249765E2,9.7654526E1,9.3598404E1,2.2497127E2,1.0920642E2,1.0104652E2,1.0204147E2,4.987549E1,1.6004889E2,3.2978333E1,6.54123E1,3.6361065E1,4.888212E1,1.0661865E1,6.1227528E1,5.5148735E1,4.354087E1,1.1661377E1,2.0660388E2,2.1178366E2,1.5885004E2,2.0516699E2,4.164966E1,1.476011E2,3.1116734E1,2.7932983E1,1.24790405E2,1.1386003E2,1.7438736E1,7.943558E1,0E0,0E0,0E0,0E0,0E0,0E0,0E0,0E0,0E0,0E0,0E0,0E0,0E0,0E0,0E0,0E0,0E0,0E0,0E0,0E0,0E0,0E0,0E0,0E0,0E0,0E0,0E0,0E0,0E0,0E0,0E0,0E0,0E0,0E0,0E0,0E0,0E0,0E0,0E0,0E0,0E0,0E0,0E0,0E0,0E0,0E0,0E0,0E0,0E0,0E0,0E0,0E0,0E0,0E0,0E0,0E0,0E0,0E0,0E0,0E0,0E0,0E0,0E0,0E0],"parents":[2147483647,0,0,1,1,2,2,3,3,4,4,5,5,6,6,7,7,8,8,9,9,10,10,11,11,12,12,13,13,14,14,15,15,16,16,17,17,18,18,19,19,20,20,21,21,22,22,23,23,24,24,25,25,26,26,27,27,28,28,29,29,30,30,31,31,32,32,33,33,34,34,35,35,36,36,37,37,38,38,39,39,40,40,41,41,42,42,43,43,44,44,45,45,46,46,47,47,48,48,49,49,50,50,51,51,52,52,53,53,54,54,55,55,56,56,57,57,58,58,59,59,60,60,61,61,62,62],"right_children":[2,4,6,8,10,12,14,16,18,20,22,24,26,28,30,32,34,36,38,40,42,44,46,48,50,52,54,56,58,60,62,64,66,68,70,72,74,76,78,80,82,84,86,88,90,92,94,96,98,100,102,104,106,108,110,112,114,116,118,120,122,124,126,-1,-1,-1,-1,-1,-1,-1,-1,-1,-1,-1,-1,-1,-1,-1,-1,-1,-1,-1,-1,-1,-1,-1,-1,-1,-1,-1,-1,-1,-1,-1,-1,-1,-1,-1,-1,-1,-1,-1,-1,-1,-1,-1,-1,-1,-1,-1,-1,-1,-1,-1,-1,-1,-1,-1,-1,-1,-1,-1,-1,-1,-1,-1,-1],"split_conditions":[-5.5579743E-3,-1.1382929E-2,-5.215455E-3,-4.295537E-3,6.8417035E-2,2.1463191E-2,4.0488254E-2,5.3976998E-2,4.4045225E-2,9.770329E-3,1.7660694E-34,1.3294186E-2,-1.8839518E-2,1.4892659E-34,1.7386651E-34,1.6113362E-34,2.7546352E-2,3.939593E-2,3.629333E-2,-8.424078E-3,1.6597607E-34,-7.1668536E-3,-1.2959915E-2,3.3797853E-2,-1.39084915E-2,6.1021694E-3,2.220715E-2,9.665658E-3,-2.8780587E-2,9.493732E-3,-2.7587654E-2,4.2465433E-2,-4.769912E-2,3.1028789E-2,9.908174E-3,-1.6740352E-2,1.340719E-2,-2.2873968E-2,3.9077863E-2,3.6505263E-2,2.5592392E-2,-1.041097E-2,3.498071E-2,2.4156012E-2,3.135511E-2,2.0648489E-2,-2.7944827E-2,-3.9867572E-2,1.1516857E-2,1.3144598E-2,4.2282227E-2,1.7769141E-34,9.066132E-3,-3.0291004E-2,3.435987E-2,-1.8373843E-2,4.1026403E-3,-5.9071817E-3,-6.0653123E-3,-3.2751996E-2,-3.216628E-2,8.647893E-3,-9.2980815E-3,-3.0052963E-1,3.393255E-2,-1.5673478E-1,-4.0281296E-1,2.4396063E-1,-7.141722E-2,-3.4723705E-1,-1.3324923E-2,5.7933897E-2,-3.0852515E-1,-1.2760489E-1,2.5459516E-1,3.5865533E-1,6.0386125E-2,1.8039821E-1,-2.9668897E-1,-2.9147387E-1,1.0297096E-1,-3.946418E-1,-2.7457333E-1,1.366465E-1,-2.2446062E-1,-3.9736485E-1,-2.4881275E-1,2.7017033E-1,-1.380723E-1,-3.295957E-1,-8.041748E-3,-2.5445384E-1,1.13627724E-1,4.4154793E-2,-3.9614308E-1,1.0150812E-1,-2.4206962E-1,-2.4127358E-1,2.8462717E-1,3.2748897E-2,-3.825702E-1,-4.3898165E-1,4.9943376E-2,2.7224287E-1,2.759842E-4,7.094364E-2,-2.9942822E-1,2.5152773E-1,-4.785588E-2,3.6642846E-1,4.96433E-2,-3.7241384E-2,-3.6047754E-1,-2.3238482E-1,1.8354756E-1,2.3018347E-1,-2.4989316E-1,-2.886113E-1,-4.4844955E-1,-1.8179083E-1,3.1649554E-1,-2.4481195E-1,1.280457E-1,-4.9754846E-1,-2.1818264E-1,-3.7031096E-1,5.3637017E-2],"split_indices":[508,37,620,369,690,461,690,690,690,389,756,563,369,756,756,756,759,9,759,115,756,419,220,146,359,48,219,319,709,488,212,319,620,115,662,589,119,279,709,695,505,113,690,563,333,311,709,279,252,48,328,756,759,603,359,596,701,753,759,319,212,163,505,0,0,0,0,0,0,0,0,0,0,0,0,0,0,0,0,0,0,0,0,0,0,0,0,0,0,0,0,0,0,0,0,0,0,0,0,0,0,0,0,0,0,0,0,0,0,0,0,0,0,0,0,0,0,0,0,0,0,0,0,0,0,0,0],"split_type":[0,0,0,0,0,0,0,0,0,0,0,0,0,0,0,0,0,0,0,0,0,0,0,0,0,0,0,0,0,0,0,0,0,0,0,0,0,0,0,0,0,0,0,0,0,0,0,0,0,0,0,0,0,0,0,0,0,0,0,0,0,0,0,0,0,0,0,0,0,0,0,0,0,0,0,0,0,0,0,0,0,0,0,0,0,0,0,0,0,0,0,0,0,0,0,0,0,0,0,0,0,0,0,0,0,0,0,0,0,0,0,0,0,0,0,0,0,0,0,0,0,0,0,0,0,0,0],"sum_hessian":[2.4083168E4,1.1982062E4,1.2101106E4,4.9912173E3,6.990844E3,9.447248E3,2.653858E3,2.8323828E3,2.1588345E3,6.265657E3,7.251868E2,6.617292E2,8.785519E3,1.2332604E3,1.4205977E3,1.6591787E3,1.1732042E3,9.5090533E2,1.2079292E3,5.222681E3,1.0429761E3,3.8707504E2,3.3811182E2,3.803411E2,2.813881E2,2.1581292E3,6.6273896E3,6.15008E2,6.182524E2,1.1257925E3,2.9480515E2,8.726438E2,7.8653485E2,8.098052E2,3.6339908E2,3.5018576E2,6.0071954E2,1.0359633E3,1.7196584E2,3.7517764E2,4.8475034E3,4.3994653E2,6.0302954E2,2.6090128E2,1.2617375E2,1.3296884E2,2.0514299E2,2.0692287E2,1.7341824E2,1.0186471E2,1.7952338E2,1.5912715E3,5.668577E2,6.8342926E2,5.9439604E3,2.350722E2,3.7993576E2,4.6675293E1,5.715771E2,7.940004E2,3.317921E2,1.10159706E2,1.8464542E2,5.555685E2,3.170753E2,5.2061787E1,7.344731E2,5.308362E2,2.7896906E2,2.4792311E2,1.1547595E2,8.135774E1,2.68828E2,2.1539474E2,3.8532483E2,9.097197E2,1.2624356E2,1.1078598E2,6.1179855E1,3.0243915E2,7.273849E1,4.502037E3,3.4546667E2,2.2188295E2,2.180636E2,3.8458307E2,2.1844649E2,2.1948183E2,4.1419464E1,5.868841E1,6.7485344E1,7.915049E1,5.381835E1,4.879514E0,2.0026347E2,6.98247E1,1.3709816E2,1.952974E1,1.538885E2,6.9125595E1,3.2739113E1,1.7521925E2,4.304131E0,1.2784032E3,3.128682E2,3.261594E2,2.4069833E2,4.310015E2,2.524278E2,5.753532E3,1.9042816E2,4.4444717E1,1.9062749E2,1.05522644E2,2.7441312E2,2.2449833E1,2.4225462E1,1.3736746E2,4.342096E2,4.7521973E1,7.4647845E2,1.0888435E2,2.2290775E2,8.023913E1,2.992058E1,5.6563545E1,1.2808188E2],"tree_param":{"num_deleted":"0","num_feature":"768","num_nodes":"127","size_leaf_vector":"1"}},{"base_weights":[-4.88233E-3,-8.3062595E-1,3.5612786E-1,-1.0649211E0,-3.3593374E-1,-4.195547E-1,5.945093E-1,-3.477633E-1,-1.1383644E0,2.2968678E-1,-6.790798E-1,-7.44861E-1,2.5786942E-1,-6.1224684E-2,8.047119E-1,3.3599803E-1,-9.8687947E-1,-1.1620084E0,-1.5501067E-1,-3.5445458E-1,7.847663E-1,-9.78199E-1,-3.034898E-1,2.6291654E-2,-9.6689373E-1,5.5002433E-1,-6.682559E-1,-3.7122938E-1,6.1528486E-1,5.923011E-2,9.337666E-1,-9.113961E-1,6.622651E-1,2.632375E-1,-1.1117079E0,-1.2015775E0,-7.7273405E-1,4.141958E-1,-8.405812E-1,2.1732654E-1,-8.013904E-1,2.046521E-1,1.1343327E0,-1.0992137E0,-4.5485228E-1,2.611474E-1,-7.299787E-1,5.996363E-1,-5.8360624E-1,-1.123708E0,-2.8744236E-1,6.9134367E-1,-7.8331E-1,-1.084391E0,-7.612069E-2,3.047247E-1,-7.667628E-1,-6.5751404E-1,7.559085E-1,-8.009697E-1,5.501936E-1,1.0513822E0,3.6870784E-1,-3.597732E-1,6.831794E-2,2.8302267E-1,-9.501428E-2,5.457574E-1,-1.6531673E-1,2.1178916E-1,-3.4388414E-1,-3.6878896E-1,-2.831987E-1,-3.0115575E-1,-7.265665E-2,2.75823E-1,-1.6531847E-1,-3.3660182E-1,1.4128314E-1,-2.7549934E-1,1.6536188E-1,-3.2550636E-1,-4.620225E-2,2.0860593E-1,-1.08766474E-1,3.7361237E-1,-9.654659E-2,-3.6641708E-1,-2.3255481E-1,-2.7539024E-1,6.2720306E-2,-1.2793274E-1,2.7513918E-1,-2.9522395E-1,2.5220001E-2,-1.5651512E-1,2.6535538E-1,1.13977194E-1,-2.4789242E-1,-3.7238926E-1,-1.5150364E-1,-2.958076E-1,4.4830225E-2,2.4104501E-1,-1.8476866E-1,-3.799998E-1,1.3553108E-1,-3.9921656E-1,-1.1019094E-1,-2.9970556E-1,9.7854696E-2,2.5172278E-1,-6.539487E-2,-3.1123078E-1,-4.671174E-2,-4.2910737E-1,-2.535636E-2,-4.314457E-2,2.6426893E-1,-3.6778226E-1,-7.606532E-2,-2.0366554E-1,2.4002491E-1,3.232347E-1,-1.2794133E-1,-4.0669728E-2,2.4472094E-1],"categories":[],"categories_nodes":[],"categories_segments":[],"categories_sizes":[],"default_left":[0,0,0,0,0,0,0,0,0,0,0,0,0,0,0,0,0,0,0,0,0,0,0,0,0,0,0,0,0,0,0,0,0,0,0,0,0,0,0,0,0,0,0,0,0,0,0,0,0,0,0,0,0,0,0,0,0,0,0,0,0,0,0,0,0,0,0,0,0,0,0,0,0,0,0,0,0,0,0,0,0,0,0,0,0,0,0,0,0,0,0,0,0,0,0,0,0,0,0,0,0,0,0,0,0,0,0,0,0,0,0,0,0,0,0,0,0,0,0,0,0,0,0,0,0,0,0],"id":3,"left_children":[1,3,5,7,9,11,13,15,17,19,21,23,25,27,29,31,33,35,37,39,41,43,45,47,49,51,53,55,57,59,61,63,65,67,69,71,73,75,77,79,81,83,85,87,89,91,93,95,97,99,101,103,105,107,109,111,113,115,117,119,121,123,125,-1,-1,-1,-1,-1,-1,-1,-1,-1,-1,-1,-1,-1,-1,-1,-1,-1,-1,-1,-1,-1,-1,-1,-1,-1,-1,-1,-1,-1,-1,-1,-1,-1,-1,-1,-1,-1,-1,-1,-1,-1,-1,-1,-1,-1,-1,-1,-1,-1,-1,-1,-1,-1,-1,-1,-1,-1,-1,-1,-1,-1,-1,-1,-1],"loss_changes":[6.4129917E3,7.581377E2,2.7680664E3,2.334834E2,4.0866687E2,7.7574866E2,1.5783176E3,1.8122281E2,9.346045E1,2.5821152E2,1.469054E2,4.0716296E2,3.094925E2,5.8334375E2,8.34147E2,8.229705E1,3.371965E1,5.9649414E1,3.7700268E1,9.940066E1,8.2546555E1,4.56651E1,1.4042151E2,1.8657494E2,1.9639478E2,1.6429422E2,6.753932E1,5.1018085E2,1.5694946E2,5.412789E2,4.9083008E2,1.405711E1,4.4251205E1,2.6666805E1,1.3060181E1,2.4314941E1,4.459578E1,2.6336693E1,1.667662E1,6.539694E1,3.9888977E1,4.331156E1,4.1551178E1,2.2463196E1,4.2808376E1,1.1374646E2,6.875908E1,8.831007E1,6.0778008E1,1.08482056E2,1.06219185E2,1.1576181E2,5.0571033E1,2.7966568E1,4.2778107E1,1.970385E2,1.9889862E2,3.8627533E1,8.86965E1,1.0803665E2,2.5112723E2,2.3611426E2,2.8751483E2,0E0,0E0,0E0,0E0,0E0,0E0,0E0,0E0,0E0,0E0,0E0,0E0,0E0,0E0,0E0,0E0,0E0,0E0,0E0,0E0,0E0,0E0,0E0,0E0,0E0,0E0,0E0,0E0,0E0,0E0,0E0,0E0,0E0,0E0,0E0,0E0,0E0,0E0,0E0,0E0,0E0,0E0,0E0,0E0,0E0,0E0,0E0,0E0,0E0,0E0,0E0,0E0,0E0,0E0,0E0,0E0,0E0,0E0,0E0,0E0,0E0,0E0,0E0,0E0],"parents":[2147483647,0,0,1,1,2,2,3,3,4,4,5,5,6,6,7,7,8,8,9,9,10,10,11,11,12,12,13,13,14,14,15,15,16,16,17,17,18,18,19,19,20,20,21,21,22,22,23,23,24,24,25,25,26,26,27,27,28,28,29,29,30,30,31,31,32,32,33,33,34,34,35,35,36,36,37,37,38,38,39,39,40,40,41,41,42,42,43,43,44,44,45,45,46,46,47,47,48,48,49,49,50,50,51,51,52,52,53,53,54,54,55,55,56,56,57,57,58,58,59,59,60,60,61,61,62,62],"right_children":[2,4,6,8,10,12,14,16,18,20,22,24,26,28,30,32,34,36,38,40,42,44,46,48,50,52,54,56,58,60,62,64,66,68,70,72,74,76,78,80,82,84,86,88,90,92,94,96,98,100,102,104,106,108,110,112,114,116,118,120,122,124,126,-1,-1,-1,-1,-1,-1,-1,-1,-1,-1,-1,-1,-1,-1,-1,-1,-1,-1,-1,-1,-1,-1,-1,-1,-1,-1,-1,-1,-1,-1,-1,-1,-1,-1,-1,-1,-1,-1,-1,-1,-1,-1,-1,-1,-1,-1,-1,-1,-1,-1,-1,-1,-1,-1,-1,-1,-1,-1,-1,-1,-1,-1,-1,-1],"split_conditions":[-1.880606E-2,7.5502596E-3,2.9776955E-2,-4.3813955E-2,-9.212566E-3,5.9869535E-2,-2.379605E-2,1.7386651E-34,8.723179E-2,4.410395E-2,2.1522352E-2,1.8779349E-3,4.985716E-4,6.544586E-2,-1.5382702E-3,-2.0995863E-2,-8.6715706E-2,2.1746904E-2,-1.5722008E-2,1.5448852E-34,2.2685515E-2,3.7496235E-2,1.4215967E-34,-3.5681505E-2,2.4894414E-2,1.973205E-34,-1.1943054E-2,-3.1599896E-3,-2.6690433E-2,2.4683924E-2,-2.4889462E-2,7.3456444E-2,-2.7847294E-2,-9.297154E-3,-5.9985325E-2,8.0869496E-2,4.1383603E-3,8.9645805E-3,3.3299763E-2,1.8411633E-2,6.0570245E-3,6.0926448E-3,3.968045E-2,2.178265E-3,-2.9453356E-2,3.8126066E-2,8.497501E-3,8.619024E-3,-3.1232847E-2,1.3909315E-2,2.969463E-2,2.8403224E-2,4.445226E-2,-2.2665849E-2,2.7823433E-2,-3.5681505E-2,2.661768E-2,2.202643E-2,-4.3982573E-2,2.755039E-3,-2.7568284E-2,4.633135E-2,5.267471E-2,-3.597732E-1,6.831794E-2,2.8302267E-1,-9.501428E-2,5.457574E-1,-1.6531673E-1,2.1178916E-1,-3.4388414E-1,-3.6878896E-1,-2.831987E-1,-3.0115575E-1,-7.265665E-2,2.75823E-1,-1.6531847E-1,-3.3660182E-1,1.4128314E-1,-2.7549934E-1,1.6536188E-1,-3.2550636E-1,-4.620225E-2,2.0860593E-1,-1.08766474E-1,3.7361237E-1,-9.654659E-2,-3.6641708E-1,-2.3255481E-1,-2.7539024E-1,6.2720306E-2,-1.2793274E-1,2.7513918E-1,-2.9522395E-1,2.5220001E-2,-1.5651512E-1,2.6535538E-1,1.13977194E-1,-2.4789242E-1,-3.7238926E-1,-1.5150364E-1,-2.958076E-1,4.4830225E-2,2.4104501E-1,-1.8476866E-1,-3.799998E-1,1.3553108E-1,-3.9921656E-1,-1.1019094E-1,-2.9970556E-1,9.7854696E-2,2.5172278E-1,-6.539487E-2,-3.1123078E-1,-4.671174E-2,-4.2910737E-1,-2.535636E-2,-4.314457E-2,2.6426893E-1,-3.6778226E-1,-7.606532E-2,-2.0366554E-1,2.4002491E-1,3.232347E-1,-1.2794133E-1,-4.0669728E-2,2.4472094E-1],"split_indices":[508,163,219,596,596,690,369,756,690,9,319,709,359,690,319,505,42,505,114,756,446,146,756,279,163,756,389,759,394,146,279,9,432,220,765,516,389,365,146,461,716,589,563,350,508,333,716,383,596,389,9,557,46,293,461,279,609,540,462,144,350,359,690,0,0,0,0,0,0,0,0,0,0,0,0,0,0,0,0,0,0,0,0,0,0,0,0,0,0,0,0,0,0,0,0,0,0,0,0,0,0,0,0,0,0,0,0,0,0,0,0,0,0,0,0,0,0,0,0,0,0,0,0,0,0,0,0],"split_type":[0,0,0,0,0,0,0,0,0,0,0,0,0,0,0,0,0,0,0,0,0,0,0,0,0,0,0,0,0,0,0,0,0,0,0,0,0,0,0,0,0,0,0,0,0,0,0,0,0,0,0,0,0,0,0,0,0,0,0,0,0,0,0,0,0,0,0,0,0,0,0,0,0,0,0,0,0,0,0,0,0,0,0,0,0,0,0,0,0,0,0,0,0,0,0,0,0,0,0,0,0,0,0,0,0,0,0,0,0,0,0,0,0,0,0,0,0,0,0,0,0,0,0,0,0,0,0],"sum_hessian":[2.151076E4,6.543172E3,1.4967589E4,4.439427E3,2.103745E3,3.5183325E3,1.1449256E4,4.129359E2,4.0264907E3,7.944892E2,1.3092559E3,2.3768462E3,1.1414865E3,2.779432E3,8.669824E3,1.9972911E2,2.132068E2,3.931773E3,9.471789E1,3.872869E2,4.072023E2,7.279295E2,5.8132635E2,5.315557E2,1.8452904E3,8.6805615E2,2.734303E2,1.9063258E3,8.731062E2,1.2796155E3,7.390209E3,4.1038002E1,1.5869112E2,1.9255941E1,1.9395087E2,3.5670957E3,3.6467715E2,5.1967133E1,4.2750755E1,1.7013754E2,2.1714935E2,1.5370703E2,2.5349527E2,5.903265E2,1.3760301E2,2.5031586E2,3.3101053E2,2.7399704E2,2.5755865E2,1.4987355E3,3.46555E2,7.853037E2,8.27524E1,1.6009148E2,1.1333883E2,7.0379395E2,1.2025319E3,8.6501015E1,7.8660516E2,4.647362E2,8.1487933E2,6.116263E3,1.2739458E3,3.27177E1,8.3203E0,1.2331406E2,3.5377052E1,6.191374E0,1.3064568E1,3.2576458E0,1.9069322E2,3.2171235E3,3.4997232E2,2.533985E2,1.11278656E2,3.4143814E1,1.7823318E1,3.5316994E1,7.433761E0,3.8257633E1,1.318799E2,1.5052534E2,6.6624E1,8.22903E1,7.141674E1,2.3566866E2,1.7826614E1,4.2667758E2,1.6364891E2,8.083451E1,5.6768494E1,1.22384514E2,1.2793134E2,2.521073E2,7.890321E1,5.533916E1,2.1865788E2,5.1708736E1,2.0584993E2,1.2585322E3,2.4020328E2,1.3285597E2,2.1369904E2,7.236148E2,6.1688942E1,5.9457706E1,2.3294697E1,1.1852169E2,4.1569782E1,3.3956993E1,7.9381836E1,3.4772147E2,3.5607245E2,8.328957E2,3.6963617E2,3.619094E1,5.031007E1,9.59268E1,6.9067834E2,2.6093115E2,2.0380507E2,1.3739355E2,6.774858E2,6.010519E3,1.05743866E2,5.9897015E2,6.7497565E2],"tree_param":{"num_deleted":"0","num_feature":"768","num_nodes":"127","size_leaf_vector":"1"}},{"base_weights":[-5.7476377E-3,-4.2113775E-1,5.1342326E-1,-9.459069E-2,-9.7398114E-1,6.979606E-1,-1.467619E-1,3.3130056E-1,-6.031147E-1,-1.0652703E0,-7.807193E-2,7.7753377E-1,-4.6567482E-1,-6.9034624E-1,2.8342178E-1,5.7149005E-1,-4.5044696E-1,-9.3511677E-1,-1.360549E-1,-6.650375E-1,-1.1378052E0,1.974955E-1,-1.0313044E0,8.672319E-1,4.337474E-2,2.6871395E-1,-8.3849967E-1,-1.1195537E0,-1.8411782E-1,6.561313E-1,-2.5053453E-1,-7.2630934E-2,7.681302E-1,-1.3831766E-1,-1.03464E0,-1.0891712E0,-4.9958605E-1,-7.5814223E-1,2.833894E-1,-1.4981267E-1,-1.0234114E0,-1.1670094E0,-8.40524E-1,7.0517975E-1,-4.778744E-1,-1.1887491E0,1.3763955E-1,9.5585895E-1,3.2828566E-1,-6.9240785E-1,3.8553736E-1,6.016928E-1,-8.543584E-1,-1.2385356E0,-2.365421E-1,-1.3095838E0,-6.287129E-1,2.881319E-1,-9.0354276E-1,-5.305632E-1,7.936183E-1,-8.018835E-1,2.7217314E-1,1.3687778E-1,-1.4858444E-1,2.7500215E-1,1.1420906E-2,-1.9329311E-1,9.986009E-2,-3.2930183E-1,1.6206045E-1,-3.4104282E-1,-1.3149351E-1,-2.512608E-1,5.288448E-2,2.6702836E-2,-2.9903886E-1,-1.6146888E-1,1.989629E-1,1.4351144E-1,-2.1750584E-1,-3.2675344E-1,1.7799294E-1,-3.5467505E-1,-2.4377696E-1,-3.5571536E-1,-1.5179807E-1,-1.774963E-1,2.8555566E-1,8.676564E-3,-3.48941E-1,1.8280415E-1,-3.7235168E-1,2.744451E-1,-2.7300194E-1,9.233651E-2,3.0110493E-1,-6.2494203E-2,2.2925875E-1,-4.054042E-1,-6.453956E-2,-2.0751604E-1,1.775772E-1,2.7036342E-1,-7.073722E-2,9.6893735E-2,-3.6869657E-1,-4.395995E-1,-1.6696557E-1,-3.7587196E-1,4.563955E-2,-3.0608466E-1,-4.489837E-1,-1.4562052E-3,-3.3131087E-1,2.3330459E-1,-8.722968E-2,-4.241199E-1,-5.3560715E-2,-3.1896824E-1,7.152897E-2,2.9647055E-1,5.9420057E-2,-4.4800535E-2,-3.610221E-1,1.5758009E-1,-2.2746192E-1],"categories":[],"categories_nodes":[],"categories_segments":[],"categories_sizes":[],"default_left":[0,0,0,0,0,0,0,0,0,0,0,0,0,0,0,0,0,0,0,0,0,0,0,0,0,0,0,0,0,0,0,0,0,0,0,0,0,0,0,0,0,0,0,0,0,0,0,0,0,0,0,0,0,0,0,0,0,0,0,0,0,0,0,0,0,0,0,0,0,0,0,0,0,0,0,0,0,0,0,0,0,0,0,0,0,0,0,0,0,0,0,0,0,0,0,0,0,0,0,0,0,0,0,0,0,0,0,0,0,0,0,0,0,0,0,0,0,0,0,0,0,0,0,0,0,0,0],"id":4,"left_children":[1,3,5,7,9,11,13,15,17,19,21,23,25,27,29,31,33,35,37,39,41,43,45,47,49,51,53,55,57,59,61,63,65,67,69,71,73,75,77,79,81,83,85,87,89,91,93,95,97,99,101,103,105,107,109,111,113,115,117,119,121,123,125,-1,-1,-1,-1,-1,-1,-1,-1,-1,-1,-1,-1,-1,-1,-1,-1,-1,-1,-1,-1,-1,-1,-1,-1,-1,-1,-1,-1,-1,-1,-1,-1,-1,-1,-1,-1,-1,-1,-1,-1,-1,-1,-1,-1,-1,-1,-1,-1,-1,-1,-1,-1,-1,-1,-1,-1,-1,-1,-1,-1,-1,-1,-1,-1],"loss_changes":[4.1332734E3,1.9220167E3,1.0379333E3,1.4500812E3,3.2326123E2,6.168474E2,4.355675E2,6.8447034E2,4.7307288E2,1.0340112E2,9.6520836E1,4.103667E2,1.170756E2,1.7856827E2,2.0714197E2,3.5317505E2,1.5612666E2,1.19122925E2,3.3135986E2,1.0193097E2,2.5376709E1,9.815292E1,1.5326912E1,2.649536E2,1.7135716E2,5.4537132E1,6.793002E1,4.0690735E1,1.2893015E2,1.0039847E2,1.2363957E2,1.461868E2,2.3160156E2,1.3366127E2,3.0202576E1,4.0325806E1,1.0701417E2,1.03473206E2,2.371325E2,8.272243E1,3.5297882E1,1.395752E1,3.117276E1,5.278981E1,4.275675E1,7.610405E0,9.524973E0,1.474917E2,1.839672E2,6.766305E1,1.0368506E2,2.830996E1,1.5150507E1,2.5473389E1,4.536111E1,1.5783752E1,3.7426594E1,6.523668E1,5.5351707E1,2.6560026E1,6.3499847E1,5.4495193E1,5.792309E1,0E0,0E0,0E0,0E0,0E0,0E0,0E0,0E0,0E0,0E0,0E0,0E0,0E0,0E0,0E0,0E0,0E0,0E0,0E0,0E0,0E0,0E0,0E0,0E0,0E0,0E0,0E0,0E0,0E0,0E0,0E0,0E0,0E0,0E0,0E0,0E0,0E0,0E0,0E0,0E0,0E0,0E0,0E0,0E0,0E0,0E0,0E0,0E0,0E0,0E0,0E0,0E0,0E0,0E0,0E0,0E0,0E0,0E0,0E0,0E0,0E0,0E0,0E0,0E0],"parents":[2147483647,0,0,1,1,2,2,3,3,4,4,5,5,6,6,7,7,8,8,9,9,10,10,11,11,12,12,13,13,14,14,15,15,16,16,17,17,18,18,19,19,20,20,21,21,22,22,23,23,24,24,25,25,26,26,27,27,28,28,29,29,30,30,31,31,32,32,33,33,34,34,35,35,36,36,37,37,38,38,39,39,40,40,41,41,42,42,43,43,44,44,45,45,46,46,47,47,48,48,49,49,50,50,51,51,52,52,53,53,54,54,55,55,56,56,57,57,58,58,59,59,60,60,61,61,62,62],"right_children":[2,4,6,8,10,12,14,16,18,20,22,24,26,28,30,32,34,36,38,40,42,44,46,48,50,52,54,56,58,60,62,64,66,68,70,72,74,76,78,80,82,84,86,88,90,92,94,96,98,100,102,104,106,108,110,112,114,116,118,120,122,124,126,-1,-1,-1,-1,-1,-1,-1,-1,-1,-1,-1,-1,-1,-1,-1,-1,-1,-1,-1,-1,-1,-1,-1,-1,-1,-1,-1,-1,-1,-1,-1,-1,-1,-1,-1,-1,-1,-1,-1,-1,-1,-1,-1,-1,-1,-1,-1,-1,-1,-1,-1,-1,-1,-1,-1,-1,-1,-1,-1,-1,-1,-1,-1,-1],"split_conditions":[-1.2758024E-3,1.7491877E-34,1.5991855E-2,1.5000505E-3,7.592031E-2,6.512583E-3,2.0918727E-2,-1.2650109E-2,1.2282822E-2,-2.8608754E-2,2.1214236E-34,2.778459E-2,-6.667465E-2,3.1778138E-2,-8.489506E-3,9.568068E-3,1.8844036E-2,1.15617495E-2,1.458539E-2,-3.87127E-2,2.0969179E-2,-5.8625606E-33,7.133945E-2,4.6758037E-2,1.5569097E-2,1.3224402E-2,2.969463E-2,5.97769E-3,1.4377871E-34,2.0173926E-2,1.4889004E-2,-3.8096793E-2,3.0987978E-2,-5.9688357E-3,8.9308016E-2,2.3971392E-2,3.30733E-2,-3.364993E-2,8.842123E-3,-1.4633544E-4,6.5238886E-2,3.376463E-2,3.0242268E-2,-4.5838103E-2,-3.3442532E-3,-9.453163E-2,1.9274633E-2,1.1673879E-2,1.03494525E-2,-1.3885857E-2,-3.7570246E-3,2.6793491E-2,4.240683E-3,3.8287386E-2,-1.7246943E-2,1.8565297E-2,-4.01166E-3,-2.8451635E-2,4.7545105E-2,1.7407926E-2,1.5572283E-34,-3.6121614E-2,9.561609E-3,1.3687778E-1,-1.4858444E-1,2.7500215E-1,1.1420906E-2,-1.9329311E-1,9.986009E-2,-3.2930183E-1,1.6206045E-1,-3.4104282E-1,-1.3149351E-1,-2.512608E-1,5.288448E-2,2.6702836E-2,-2.9903886E-1,-1.6146888E-1,1.989629E-1,1.4351144E-1,-2.1750584E-1,-3.2675344E-1,1.7799294E-1,-3.5467505E-1,-2.4377696E-1,-3.5571536E-1,-1.5179807E-1,-1.774963E-1,2.8555566E-1,8.676564E-3,-3.48941E-1,1.8280415E-1,-3.7235168E-1,2.744451E-1,-2.7300194E-1,9.233651E-2,3.0110493E-1,-6.2494203E-2,2.2925875E-1,-4.054042E-1,-6.453956E-2,-2.0751604E-1,1.775772E-1,2.7036342E-1,-7.073722E-2,9.6893735E-2,-3.6869657E-1,-4.395995E-1,-1.6696557E-1,-3.7587196E-1,4.563955E-2,-3.0608466E-1,-4.489837E-1,-1.4562052E-3,-3.3131087E-1,2.3330459E-1,-8.722968E-2,-4.241199E-1,-5.3560715E-2,-3.1896824E-1,7.152897E-2,2.9647055E-1,5.9420057E-2,-4.4800535E-2,-3.610221E-1,1.5758009E-1,-2.2746192E-1],"split_indices":[508,756,596,596,690,195,146,114,163,620,756,139,42,319,753,146,139,505,146,279,163,555,75,709,319,589,9,369,756,461,609,411,365,350,690,369,146,419,319,589,146,427,9,462,596,42,528,690,163,350,146,709,330,609,163,440,214,737,690,585,756,582,419,0,0,0,0,0,0,0,0,0,0,0,0,0,0,0,0,0,0,0,0,0,0,0,0,0,0,0,0,0,0,0,0,0,0,0,0,0,0,0,0,0,0,0,0,0,0,0,0,0,0,0,0,0,0,0,0,0,0,0,0,0,0,0,0],"split_type":[0,0,0,0,0,0,0,0,0,0,0,0,0,0,0,0,0,0,0,0,0,0,0,0,0,0,0,0,0,0,0,0,0,0,0,0,0,0,0,0,0,0,0,0,0,0,0,0,0,0,0,0,0,0,0,0,0,0,0,0,0,0,0,0,0,0,0,0,0,0,0,0,0,0,0,0,0,0,0,0,0,0,0,0,0,0,0,0,0,0,0,0,0,0,0,0,0,0,0,0,0,0,0,0,0,0,0,0,0,0,0,0,0,0,0,0,0,0,0,0,0,0,0,0,0,0,0],"sum_hessian":[1.9163828E4,1.0646068E4,8.517761E3,6.6935635E3,3.9525046E3,6.656933E3,1.8608276E3,3.642936E3,3.0506277E3,3.5868333E3,3.6567136E2,6.231158E3,4.257749E2,8.2179486E2,1.0390328E3,2.7869297E3,8.560065E2,1.7825371E3,1.2680905E3,5.518736E2,3.0349597E3,2.842819E2,8.138948E1,5.552574E3,6.785839E2,1.4346245E2,2.8231247E2,4.440738E2,3.7772107E2,6.117755E2,4.272573E2,6.519643E2,2.1349653E3,5.587226E2,2.972839E2,1.3156644E3,4.6687274E2,5.1035858E2,7.577319E2,2.269752E2,3.2489838E2,2.7608184E3,2.7414117E2,1.6226274E2,1.22019135E2,7.171347E1,9.676015E0,4.7677656E3,7.84809E2,2.1507198E2,4.6351193E2,1.1101264E2,3.2449806E1,1.6896669E2,1.13345764E2,3.1893094E2,1.2514284E2,2.283956E2,1.4932547E2,6.3222538E1,5.48553E2,2.07672E2,2.195853E2,2.8955087E2,3.6241345E2,1.7737992E3,3.6116614E2,2.6923297E2,2.894896E2,2.8613443E2,1.1149482E1,1.2252391E3,9.042529E1,3.110841E2,1.5578864E2,1.1231174E2,3.9804684E2,2.3941577E2,5.183161E2,1.0857196E2,1.1840324E2,3.1251196E2,1.2386407E1,2.644752E3,1.160665E2,1.33668E2,1.4047316E2,2.5708195E1,1.3655455E2,7.0694046E1,5.1325085E1,1.730603E0,6.9982864E1,5.6278696E0,4.048146E0,3.2816788E2,4.4395977E3,3.5201065E2,4.3279837E2,8.957334E1,1.2549864E2,7.414618E1,3.8936575E2,8.1712715E1,2.9299929E1,7.866353E0,2.4583452E1,1.25937225E2,4.302947E1,3.0739597E1,8.260616E1,1.2776118E2,1.9116977E2,5.457452E1,7.056831E1,1.2356138E2,1.0483422E2,8.708997E1,6.2235493E1,3.712456E1,2.6097975E1,4.1294858E2,1.3560442E2,7.963029E1,1.280417E2,1.7667784E2,4.290745E1],"tree_param":{"num_deleted":"0","num_feature":"768","num_nodes":"127","size_leaf_vector":"1"}},{"base_weights":[-7.1775904E-3,4.2512986E-1,-4.0327203E-1,7.1626514E-1,-4.3940894E-2,-8.490223E-1,-7.603067E-3,8.938615E-2,8.693836E-1,4.1665944E-1,-4.9339327E-1,-1.040001E0,-4.3487486E-1,2.8708154E-1,-6.58427E-1,6.528903E-1,-3.10557E-1,9.8942643E-1,4.1574264E-1,7.2709787E-1,-9.0675406E-2,-8.9794725E-1,-3.200321E-2,-1.0710988E0,-5.910016E-2,-9.6746314E-1,-1.1415637E-1,-3.9305168E-1,5.6456864E-1,-9.051398E-1,1.26054315E-2,-8.2700855E-1,7.702021E-1,4.7241294E-1,-5.782358E-1,-6.636909E-1,1.0177176E0,-8.258974E-1,5.906518E-1,-6.654079E-1,7.9871774E-1,-6.396528E-1,4.1407168E-1,-1.1222417E0,-5.4405165E-1,-5.7034487E-1,5.14095E-1,-2.4951531E-1,-1.1032748E0,3.6336124E-1,-1.194566E0,-1.0407819E0,-5.3044498E-2,2.6070455E-1,-6.0623115E-1,-1.0955187E-1,-1.0386015E0,7.04923E-1,-2.6134166E-1,-5.7387716E-1,-1.117068E0,-4.915288E-1,4.3752462E-1,-6.3895197E-3,-4.5916122E-1,2.623193E-1,-1.6075645E-1,2.0793635E-1,-2.9349402E-1,-3.1524533E-1,-6.0579643E-2,1.55029E-1,-3.4693274E-1,-8.657449E-2,3.117699E-1,5.7577472E-2,-3.2442954E-1,-8.945024E-2,2.291939E-1,-3.8012615E-1,8.38746E-2,9.070081E-2,2.9292056E-1,-4.5992136E-2,-3.256811E-1,-1.7979875E-2,2.599419E-1,-3.547335E-1,-3.1582974E-2,-3.0272964E-1,-5.1539302E-2,-4.38603E-2,-3.1836665E-1,-2.1799412E-2,2.393975E-1,6.691441E-2,-2.8382447E-1,-3.4189057E-1,-1.9313991E-1,1.7891169E-1,-3.2675606E-1,1.6734794E-1,-4.0699854E-1,-3.3202112E-1,-1.10347815E-1,-3.062358E-1,1.8899779E-1,-2.345546E-1,1.4189993E-1,-2.7688417E-1,-3.4978405E-2,-1.7610183E-1,9.843983E-2,-1.5257496E-1,-3.5166782E-1,-1.0084137E-1,2.4025579E-1,6.1179224E-2,-2.62288E-1,-2.4495949E-1,4.0547032E-2,-3.5438788E-1,-1.979796E-1,1.7621236E-2,-2.9208174E-1,1.716388E-1,-2.584387E-1],"categories":[],"categories_nodes":[],"categories_segments":[],"categories_sizes":[],"default_left":[0,0,0,0,0,0,0,0,0,0,0,0,0,0,0,0,0,0,0,0,0,0,0,0,0,0,0,0,0,0,0,0,0,0,0,0,0,0,0,0,0,0,0,0,0,0,0,0,0,0,0,0,0,0,0,0,0,0,0,0,0,0,0,0,0,0,0,0,0,0,0,0,0,0,0,0,0,0,0,0,0,0,0,0,0,0,0,0,0,0,0,0,0,0,0,0,0,0,0,0,0,0,0,0,0,0,0,0,0,0,0,0,0,0,0,0,0,0,0,0,0,0,0,0,0,0,0],"id":5,"left_children":[1,3,5,7,9,11,13,15,17,19,21,23,25,27,29,31,33,35,37,39,41,43,45,47,49,51,53,55,57,59,61,63,65,67,69,71,73,75,77,79,81,83,85,87,89,91,93,95,97,99,101,103,105,107,109,111,113,115,117,119,121,123,125,-1,-1,-1,-1,-1,-1,-1,-1,-1,-1,-1,-1,-1,-1,-1,-1,-1,-1,-1,-1,-1,-1,-1,-1,-1,-1,-1,-1,-1,-1,-1,-1,-1,-1,-1,-1,-1,-1,-1,-1,-1,-1,-1,-1,-1,-1,-1,-1,-1,-1,-1,-1,-1,-1,-1,-1,-1,-1,-1,-1,-1,-1,-1,-1],"loss_changes":[2.9257253E3,1.1156954E3,1.5725887E3,4.8378662E2,6.480973E2,3.3117603E2,9.0631E2,2.2347293E2,2.2020557E2,2.4358563E2,2.9571964E2,8.744873E1,2.2621333E2,6.141154E2,2.4383856E2,7.208983E1,1.2185568E2,1.5046606E2,1.8496608E2,9.620831E1,1.6315399E2,6.639807E1,2.182152E2,7.323193E1,4.323029E1,3.3324097E1,1.529137E2,1.724938E2,2.680349E2,7.496124E1,8.524058E1,1.7375824E1,5.243416E1,4.8177322E1,7.674809E1,3.2295967E1,8.881372E1,2.759568E1,1.15022644E2,2.734674E1,8.021942E1,6.0990883E1,6.585673E1,3.145282E1,5.68546E1,7.766192E1,6.1443466E1,3.513227E1,4.3966064E1,2.2916964E1,7.695099E0,2.0048126E1,2.5767931E1,1.0455938E2,5.546843E1,1.3737596E2,1.9778503E1,1.9753827E2,9.610517E1,7.2752045E1,1.8470947E1,4.8338264E1,3.8244236E1,0E0,0E0,0E0,0E0,0E0,0E0,0E0,0E0,0E0,0E0,0E0,0E0,0E0,0E0,0E0,0E0,0E0,0E0,0E0,0E0,0E0,0E0,0E0,0E0,0E0,0E0,0E0,0E0,0E0,0E0,0E0,0E0,0E0,0E0,0E0,0E0,0E0,0E0,0E0,0E0,0E0,0E0,0E0,0E0,0E0,0E0,0E0,0E0,0E0,0E0,0E0,0E0,0E0,0E0,0E0,0E0,0E0,0E0,0E0,0E0,0E0,0E0,0E0,0E0],"parents":[2147483647,0,0,1,1,2,2,3,3,4,4,5,5,6,6,7,7,8,8,9,9,10,10,11,11,12,12,13,13,14,14,15,15,16,16,17,17,18,18,19,19,20,20,21,21,22,22,23,23,24,24,25,25,26,26,27,27,28,28,29,29,30,30,31,31,32,32,33,33,34,34,35,35,36,36,37,37,38,38,39,39,40,40,41,41,42,42,43,43,44,44,45,45,46,46,47,47,48,48,49,49,50,50,51,51,52,52,53,53,54,54,55,55,56,56,57,57,58,58,59,59,60,60,61,61,62,62],"right_children":[2,4,6,8,10,12,14,16,18,20,22,24,26,28,30,32,34,36,38,40,42,44,46,48,50,52,54,56,58,60,62,64,66,68,70,72,74,76,78,80,82,84,86,88,90,92,94,96,98,100,102,104,106,108,110,112,114,116,118,120,122,124,126,-1,-1,-1,-1,-1,-1,-1,-1,-1,-1,-1,-1,-1,-1,-1,-1,-1,-1,-1,-1,-1,-1,-1,-1,-1,-1,-1,-1,-1,-1,-1,-1,-1,-1,-1,-1,-1,-1,-1,-1,-1,-1,-1,-1,-1,-1,-1,-1,-1,-1,-1,-1,-1,-1,-1,-1,-1,-1,-1,-1,-1,-1,-1,-1],"split_conditions":[1.909619E-2,-3.12606E-2,1.1790562E-3,2.3771444E-2,-1.0072805E-2,1.305476E-2,2.2052463E-2,-1.3166962E-2,2.272738E-2,-1.2817369E-2,1.360265E-2,8.8581495E-2,-1.273125E-2,3.498071E-2,6.544586E-2,-3.5311487E-2,-2.2940727E-2,-2.7594517E-4,-1.4415519E-2,2.9241873E-3,-1.9334198E-3,1.6482411E-2,1.9491898E-2,-5.9985325E-2,3.1678732E-3,3.422704E-2,-2.9456906E-2,-1.2122663E-2,-2.3749242E-2,-2.027631E-2,4.504321E-2,1.935504E-2,2.0761048E-2,1.7602749E-34,4.95228E-3,1.02614835E-2,-6.198517E-2,-1.599713E-2,3.7030764E-3,-1.3370713E-2,1.93075E-2,5.5872505E-3,1.9962234E-2,6.1026447E-2,-5.815916E-3,1.2949262E-3,-4.0883566E-3,9.120564E-3,2.0491296E-2,2.1503123E-34,2.4277456E-3,9.075553E-3,1.8485852E-2,-2.7789252E-2,2.2786953E-2,3.9948523E-2,-4.9591597E-2,9.617341E-3,-1.6163137E-2,3.0061796E-2,1.8257098E-2,1.3093289E-2,2.1151315E-2,-6.3895197E-3,-4.5916122E-1,2.623193E-1,-1.6075645E-1,2.0793635E-1,-2.9349402E-1,-3.1524533E-1,-6.0579643E-2,1.55029E-1,-3.4693274E-1,-8.657449E-2,3.117699E-1,5.7577472E-2,-3.2442954E-1,-8.945024E-2,2.291939E-1,-3.8012615E-1,8.38746E-2,9.070081E-2,2.9292056E-1,-4.5992136E-2,-3.256811E-1,-1.7979875E-2,2.599419E-1,-3.547335E-1,-3.1582974E-2,-3.0272964E-1,-5.1539302E-2,-4.38603E-2,-3.1836665E-1,-2.1799412E-2,2.393975E-1,6.691441E-2,-2.8382447E-1,-3.4189057E-1,-1.9313991E-1,1.7891169E-1,-3.2675606E-1,1.6734794E-1,-4.0699854E-1,-3.3202112E-1,-1.10347815E-1,-3.062358E-1,1.8899779E-1,-2.345546E-1,1.4189993E-1,-2.7688417E-1,-3.4978405E-2,-1.7610183E-1,9.843983E-2,-1.5257496E-1,-3.5166782E-1,-1.0084137E-1,2.4025579E-1,6.1179224E-2,-2.62288E-1,-2.4495949E-1,4.0547032E-2,-3.5438788E-1,-1.979796E-1,1.7621236E-2,-2.9208174E-1,1.716388E-1,-2.584387E-1],"split_indices":[709,279,163,690,589,427,759,589,589,48,300,690,505,690,690,544,291,568,163,568,394,671,609,765,220,350,512,512,279,419,219,562,291,756,148,115,350,165,319,27,540,130,300,146,163,191,16,729,369,756,520,389,219,508,401,219,279,9,512,475,38,365,419,0,0,0,0,0,0,0,0,0,0,0,0,0,0,0,0,0,0,0,0,0,0,0,0,0,0,0,0,0,0,0,0,0,0,0,0,0,0,0,0,0,0,0,0,0,0,0,0,0,0,0,0,0,0,0,0,0,0,0,0,0,0,0,0],"split_type":[0,0,0,0,0,0,0,0,0,0,0,0,0,0,0,0,0,0,0,0,0,0,0,0,0,0,0,0,0,0,0,0,0,0,0,0,0,0,0,0,0,0,0,0,0,0,0,0,0,0,0,0,0,0,0,0,0,0,0,0,0,0,0,0,0,0,0,0,0,0,0,0,0,0,0,0,0,0,0,0,0,0,0,0,0,0,0,0,0,0,0,0,0,0,0,0,0,0,0,0,0,0,0,0,0,0,0,0,0,0,0,0,0,0,0,0,0,0,0,0,0,0,0,0,0,0,0],"sum_hessian":[1.7084064E4,8.1685884E3,8.915477E3,5.0399478E3,3.1286406E3,4.1918745E3,4.723602E3,9.896843E2,4.0502632E3,1.5451937E3,1.5834469E3,2.8678784E3,1.323996E3,3.251792E3,1.47181E3,4.1057202E2,5.791123E2,3.2018152E3,8.484482E2,9.583474E2,5.868463E2,8.4318396E2,7.40263E2,2.779662E3,8.821634E1,4.9687088E2,8.271251E2,9.421425E2,2.3096494E3,1.0758958E3,3.9591437E2,2.9711329E1,3.808607E2,1.4734834E2,4.3176398E2,5.3495384E1,3.1483198E3,1.0430304E2,7.4414514E2,4.6473442E1,9.1187396E2,2.8097864E2,3.0586768E2,5.147628E2,3.2842114E2,3.7275653E2,3.6750647E2,1.0508826E2,2.674574E3,6.4790405E1,2.3425928E1,4.5986072E2,3.7010162E1,4.6974512E2,3.5738004E2,6.554602E2,2.866823E2,1.9742877E3,3.3536185E2,4.2121198E2,6.546838E2,1.8100682E2,2.1490755E2,1.4330139E1,1.538119E1,3.5302716E2,2.7833538E1,1.2834468E2,1.9003666E1,1.9060265E2,2.4116133E2,1.5739797E1,3.775559E1,5.0813084E1,3.0975066E3,2.098125E1,8.3321785E1,1.2131671E2,6.228284E2,2.8186274E1,1.828717E1,2.4108255E2,6.7079144E2,1.3504494E2,1.459337E2,1.4979117E2,1.5607652E2,4.85839E2,2.8923819E1,1.4525148E2,1.8316965E2,2.0066727E2,1.7208928E2,1.2007617E2,2.4743028E2,6.3016495E1,4.207176E1,2.4770713E3,1.9750267E2,5.6341755E1,8.448652E0,1.7767216E0,2.1649206E1,4.1822653E2,4.1634193E1,1.5108972E1,2.1901192E1,7.901758E1,3.9072754E2,2.1647232E2,1.4090773E2,3.1332462E2,3.421356E2,5.8691208E1,2.279911E2,1.6636241E2,1.8079253E3,1.9102673E2,1.4433511E2,3.137015E2,1.0751047E2,5.7264636E2,8.203743E1,8.493547E1,9.607134E1,1.9523619E2,1.9671364E1],"tree_param":{"num_deleted":"0","num_feature":"768","num_nodes":"127","size_leaf_vector":"1"}},{"base_weights":[-6.9285664E-3,2.8586635E-1,-4.8696068E-1,4.7565714E-1,-3.5455632E-1,-6.435557E-1,2.510773E-1,6.6953135E-1,2.9013325E-2,-6.1588657E-1,2.7639076E-1,-2.4568434E-1,-9.2064947E-1,-3.26183E-1,6.134704E-1,-8.763121E-2,7.579875E-1,4.2578092E-1,-3.8285667E-1,1.6935067E-1,-8.010816E-1,-5.1010257E-1,4.894486E-1,-7.987276E-1,9.817846E-2,-1.0289004E0,-4.803242E-1,2.656646E-1,-6.9910735E-1,7.4611974E-1,-1.5356946E-1,2.111456E-1,-8.0351645E-1,2.0249254E-1,8.560683E-1,6.2696624E-1,-2.6663515E-1,-5.978826E-2,-8.302829E-1,6.4959705E-1,-5.451262E-1,-4.7741863E-1,-1.0639278E0,6.964036E-1,-7.9486126E-1,-2.1673791E-2,8.3661133E-1,-4.261298E-1,-1.0138429E0,3.5144037E-1,-6.3257194E-1,-1.0907658E0,-6.646036E-1,-8.4679097E-1,1.2147013E-1,5.740039E-1,-7.634702E-1,-2.544835E-1,-1.0438814E0,8.1176794E-1,-6.454667E-1,-1.710121E0,1.1813176E-1,-5.8911283E-2,2.2099449E-1,-2.756177E-1,1.8585435E-1,1.711621E-1,-1.5364864E-1,1.2363823E-1,2.7929455E-1,2.1129188E-1,-1.7828757E-1,7.603356E-2,-1.97895E-1,-1.306064E-1,1.2681307E-1,-1.0592775E-1,-3.4537113E-1,2.762581E-1,8.736344E-3,-1.0274656E-2,-3.142549E-1,3.3254843E-2,-2.5871417E-1,-3.420284E-1,-2.0069791E-1,-2.9324463E-1,2.66751E-1,3.006134E-2,-3.2589275E-1,-2.4663517E-1,9.01045E-2,2.722445E-1,-1.0137778E-1,-2.3748629E-1,6.2221508E-3,-1.0226479E-1,-3.2556096E-1,-2.963955E-1,1.554356E-1,-3.3325022E-1,-7.072437E-2,-2.7964786E-1,-3.551691E-1,-2.730847E-1,-2.7057048E-2,-3.2369158E-1,-1.1699637E-1,1.1755959E-1,-3.084584E-1,2.5510004E-1,-1.3650674E-1,-3.7848374E-1,3.0772602E-2,7.9151824E-2,-2.4616547E-1,-3.6775017E-1,-1.0713781E-1,-5.21553E-2,2.6923084E-1,-3.1589696E-1,9.500041E-2,1.3766024E-1,-5.742868E-1,-2.4839447E-1,1.6269417E-1],"categories":[],"categories_nodes":[],"categories_segments":[],"categories_sizes":[],"default_left":[0,0,0,0,0,0,0,0,0,0,0,0,0,0,0,0,0,0,0,0,0,0,0,0,0,0,0,0,0,0,0,0,0,0,0,0,0,0,0,0,0,0,0,0,0,0,0,0,0,0,0,0,0,0,0,0,0,0,0,0,0,0,0,0,0,0,0,0,0,0,0,0,0,0,0,0,0,0,0,0,0,0,0,0,0,0,0,0,0,0,0,0,0,0,0,0,0,0,0,0,0,0,0,0,0,0,0,0,0,0,0,0,0,0,0,0,0,0,0,0,0,0,0,0,0,0,0],"id":6,"left_children":[1,3,5,7,9,11,13,15,17,19,21,23,25,27,29,31,33,35,37,39,41,43,45,47,49,51,53,55,57,59,61,63,65,67,69,71,73,75,77,79,81,83,85,87,89,91,93,95,97,99,101,103,105,107,109,111,113,115,117,119,121,123,125,-1,-1,-1,-1,-1,-1,-1,-1,-1,-1,-1,-1,-1,-1,-1,-1,-1,-1,-1,-1,-1,-1,-1,-1,-1,-1,-1,-1,-1,-1,-1,-1,-1,-1,-1,-1,-1,-1,-1,-1,-1,-1,-1,-1,-1,-1,-1,-1,-1,-1,-1,-1,-1,-1,-1,-1,-1,-1,-1,-1,-1,-1,-1,-1],"loss_changes":[2.1544836E3,1.1574526E3,6.7135364E2,6.360165E2,3.5915863E2,5.2799854E2,2.1300517E2,3.4310547E2,3.6365042E2,2.2406366E2,1.07216705E2,3.7439597E2,1.3411035E2,8.692094E1,6.373535E1,1.1495761E2,2.4969702E2,1.5805336E2,1.5778441E2,1.0146846E2,1.0550757E2,4.746907E1,8.923489E1,6.0061493E1,2.2500638E2,5.0340332E1,1.2341087E2,4.886983E1,3.673192E1,4.9240143E1,3.9541878E1,8.140067E1,2.6511238E1,1.8166197E2,1.2924023E2,8.339661E1,5.2467587E1,1.152791E2,6.970203E1,2.971177E1,3.0506584E1,1.26978455E2,1.989917E1,9.454874E0,2.9051102E1,5.291929E1,2.5232513E1,4.5417385E1,2.2573578E1,2.0202448E2,5.913394E1,2.7483643E1,4.669742E1,3.6449463E1,6.645885E1,3.3943226E1,1.5494329E1,3.1532598E1,1.6508377E1,4.3191498E1,9.97123E0,7.028805E0,3.260782E1,0E0,0E0,0E0,0E0,0E0,0E0,0E0,0E0,0E0,0E0,0E0,0E0,0E0,0E0,0E0,0E0,0E0,0E0,0E0,0E0,0E0,0E0,0E0,0E0,0E0,0E0,0E0,0E0,0E0,0E0,0E0,0E0,0E0,0E0,0E0,0E0,0E0,0E0,0E0,0E0,0E0,0E0,0E0,0E0,0E0,0E0,0E0,0E0,0E0,0E0,0E0,0E0,0E0,0E0,0E0,0E0,0E0,0E0,0E0,0E0,0E0,0E0,0E0,0E0],"parents":[2147483647,0,0,1,1,2,2,3,3,4,4,5,5,6,6,7,7,8,8,9,9,10,10,11,11,12,12,13,13,14,14,15,15,16,16,17,17,18,18,19,19,20,20,21,21,22,22,23,23,24,24,25,25,26,26,27,27,28,28,29,29,30,30,31,31,32,32,33,33,34,34,35,35,36,36,37,37,38,38,39,39,40,40,41,41,42,42,43,43,44,44,45,45,46,46,47,47,48,48,49,49,50,50,51,51,52,52,53,53,54,54,55,55,56,56,57,57,58,58,59,59,60,60,61,61,62,62],"right_children":[2,4,6,8,10,12,14,16,18,20,22,24,26,28,30,32,34,36,38,40,42,44,46,48,50,52,54,56,58,60,62,64,66,68,70,72,74,76,78,80,82,84,86,88,90,92,94,96,98,100,102,104,106,108,110,112,114,116,118,120,122,124,126,-1,-1,-1,-1,-1,-1,-1,-1,-1,-1,-1,-1,-1,-1,-1,-1,-1,-1,-1,-1,-1,-1,-1,-1,-1,-1,-1,-1,-1,-1,-1,-1,-1,-1,-1,-1,-1,-1,-1,-1,-1,-1,-1,-1,-1,-1,-1,-1,-1,-1,-1,-1,-1,-1,-1,-1,-1,-1,-1,-1,-1,-1,-1,-1],"split_conditions":[-2.4277585E-2,2.5727034E-2,7.405391E-2,1.1401061E-2,6.3665904E-2,1.4655822E-34,1.808931E-2,1.5957233E-2,-4.0359303E-2,-3.1432435E-2,1.7049383E-2,2.2221854E-2,4.136446E-2,-2.702808E-2,2.4703812E-2,-2.0865824E-2,1.9307422E-2,-2.9835766E-2,1.5690223E-34,-2.2638268E-3,1.5817147E-34,-2.2661973E-2,-2.3924228E-2,-1.5306E-2,2.4156012E-2,4.4300195E-2,4.1399647E-2,-9.077601E-2,-1.95716E-2,2.0958989E-34,1.36575615E-2,2.1185793E-2,5.7697214E-2,1.5217205E-34,-1.2360853E-2,4.3126248E-2,-5.598172E-33,5.267471E-2,-5.632312E-33,2.9579878E-3,-3.7784588E-2,-1.6232103E-2,5.6378778E-2,-3.9558E-2,-3.2654725E-2,-6.9699525E-3,3.55058E-2,5.3226436E-4,-6.355891E-2,2.5945306E-3,2.744341E-2,-3.8883504E-2,6.349631E-2,-5.1915827E-3,2.7290884E-7,5.741364E-2,-3.5321112E-3,9.022976E-3,2.194991E-2,-3.0345673E-2,-5.874408E-3,-7.573053E-2,-1.0433467E-2,-5.8911283E-2,2.2099449E-1,-2.756177E-1,1.8585435E-1,1.711621E-1,-1.5364864E-1,1.2363823E-1,2.7929455E-1,2.1129188E-1,-1.7828757E-1,7.603356E-2,-1.97895E-1,-1.306064E-1,1.2681307E-1,-1.0592775E-1,-3.4537113E-1,2.762581E-1,8.736344E-3,-1.0274656E-2,-3.142549E-1,3.3254843E-2,-2.5871417E-1,-3.420284E-1,-2.0069791E-1,-2.9324463E-1,2.66751E-1,3.006134E-2,-3.2589275E-1,-2.4663517E-1,9.01045E-2,2.722445E-1,-1.0137778E-1,-2.3748629E-1,6.2221508E-3,-1.0226479E-1,-3.2556096E-1,-2.963955E-1,1.554356E-1,-3.3325022E-1,-7.072437E-2,-2.7964786E-1,-3.551691E-1,-2.730847E-1,-2.7057048E-2,-3.2369158E-1,-1.1699637E-1,1.1755959E-1,-3.084584E-1,2.5510004E-1,-1.3650674E-1,-3.7848374E-1,3.0772602E-2,7.9151824E-2,-2.4616547E-1,-3.6775017E-1,-1.0713781E-1,-5.21553E-2,2.6923084E-1,-3.1589696E-1,9.500041E-2,1.3766024E-1,-5.742868E-1,-2.4839447E-1,1.6269417E-1],"split_indices":[114,759,690,729,690,756,146,219,279,589,540,461,146,419,291,576,690,288,756,729,756,650,655,113,563,609,445,181,641,756,540,300,300,756,609,596,555,690,555,48,279,113,9,389,419,609,702,369,411,568,540,512,445,163,688,496,439,147,350,609,695,80,439,0,0,0,0,0,0,0,0,0,0,0,0,0,0,0,0,0,0,0,0,0,0,0,0,0,0,0,0,0,0,0,0,0,0,0,0,0,0,0,0,0,0,0,0,0,0,0,0,0,0,0,0,0,0,0,0,0,0,0,0,0,0,0,0],"split_type":[0,0,0,0,0,0,0,0,0,0,0,0,0,0,0,0,0,0,0,0,0,0,0,0,0,0,0,0,0,0,0,0,0,0,0,0,0,0,0,0,0,0,0,0,0,0,0,0,0,0,0,0,0,0,0,0,0,0,0,0,0,0,0,0,0,0,0,0,0,0,0,0,0,0,0,0,0,0,0,0,0,0,0,0,0,0,0,0,0,0,0,0,0,0,0,0,0,0,0,0,0,0,0,0,0,0,0,0,0,0,0,0,0,0,0,0,0,0,0,0,0,0,0,0,0,0,0],"sum_hessian":[1.5326853E4,9.52034E3,5.8065127E3,7.3441426E3,2.176197E3,4.7902563E3,1.01625635E3,5.120844E3,2.2232983E3,1.5388491E3,6.3734784E2,1.967321E3,2.8229355E3,3.9197485E2,6.2428156E2,5.356684E2,4.585176E3,1.1323934E3,1.0909048E3,2.936867E2,1.2451625E3,1.3555576E2,5.017921E2,7.537397E2,1.2135813E3,2.264811E3,5.581245E2,1.516257E2,2.4034914E2,5.322612E2,9.202028E1,3.7843323E2,1.5723517E2,6.8854803E2,3.8966277E3,8.775197E2,2.5487372E2,6.341467E2,4.5675806E2,1.756869E2,1.1799979E2,5.592862E2,6.858763E2,2.5608486E1,1.0994727E2,2.0334618E2,2.9844592E2,2.7697568E2,4.76764E2,9.0161914E2,3.1196216E2,1.9343263E3,3.3048474E2,3.466329E2,2.114916E2,1.1701044E2,3.461527E1,1.05733E2,1.3461613E2,5.0868085E2,2.3580399E1,1.2888592E1,7.913169E1,2.1349702E2,1.6493622E2,1.457866E2,1.1448557E1,4.5462E2,2.3392802E2,5.635435E2,3.3330842E3,8.2565576E2,5.1863953E1,1.09855705E2,1.4501802E2,3.56642E2,2.7750473E2,1.8451845E2,2.722396E2,1.21906845E2,5.3780064E1,5.903532E1,5.8964466E1,2.2150777E2,3.3777844E2,5.734034E2,1.12472855E2,2.2241626E0,2.3384325E1,2.7167946E1,8.277933E1,5.7892086E1,1.4545409E2,2.816772E2,1.6768745E1,1.5193663E2,1.2503905E2,4.626262E1,4.3050137E2,9.9235565E1,8.023836E2,1.406491E2,1.7131305E2,7.1968335E2,1.214643E3,2.3107039E2,9.941435E1,2.28918E2,1.17714905E2,1.7175488E2,3.9736706E1,9.23775E1,2.4632935E1,2.1685308E1,1.2929962E1,5.5472893E1,5.026011E1,1.05799995E2,2.8816143E1,4.0595596E1,4.6808524E2,1.6498035E1,7.0823636E0,1.0015106E0,1.1887081E1,2.4200949E1,5.4930744E1],"tree_param":{"num_deleted":"0","num_feature":"768","num_nodes":"127","size_leaf_vector":"1"}},{"base_weights":[-7.4375174E-3,3.1046522E-1,-3.7575886E-1,4.8606253E-1,-3.738531E-1,-3.6207046E-2,-7.627008E-1,6.478603E-1,3.6887839E-3,-6.80866E-1,1.4412445E-1,2.5175604E-1,-5.3966963E-1,-4.334925E-1,-9.7974455E-1,2.287679E-1,7.942694E-1,-5.0542927E-1,3.84452E-1,-1.028331E0,-2.6891136E-1,4.5434418E-1,-4.6386442E-1,-2.7694267E-1,5.1175445E-1,-2.893963E-1,-1.0190116E0,-1.3256359E-1,-8.5046947E-1,-1.1061349E0,-7.860564E-1,4.5036414E-1,-3.906977E-1,9.207668E-1,4.131637E-1,-8.4313244E-1,-1.00447625E-1,-3.0072927E-1,6.263112E-1,-1.1741381E0,-6.4085126E-1,1.1170484E-1,-7.198007E-1,7.460377E-1,-3.1424806E-1,2.631871E-1,-8.352609E-1,-6.8728083E-1,1.4362352E-1,6.1924064E-1,-5.9875846E-1,1.8285456E-1,-6.363313E-1,-1.2673101E0,-7.7808607E-1,-8.689758E-1,7.9123765E-2,-1.1290941E0,-5.5251884E-1,-1.1129868E0,-4.068773E-2,-4.4092742E-1,-9.990137E-1,-7.656218E-2,2.0348509E-1,-1.3837906E-2,-2.6003203E-1,1.2947746E-1,2.9461426E-1,1.6876481E-1,-1.1686025E-1,-5.5925246E-2,-3.0397844E-1,-1.4162499E-1,1.2378176E-1,3.3508744E-2,-2.0872779E-1,-1.06817864E-1,2.2464508E-1,-3.6089474E-1,8.6286284E-2,-3.2590453E-2,-3.0480123E-1,1.6224146E-1,-9.8075755E-2,-2.8910258E-1,-3.9089195E-2,-1.0727685E-1,2.586865E-1,8.353828E-2,-2.0627601E-1,-3.702172E-1,1.445542E-1,-3.562237E-1,-1.2771687E-1,-2.824416E-1,-9.130057E-3,-1.3646443E-1,1.3384849E-1,2.50406E-1,6.6005245E-2,1.2739558E-2,-3.0672693E-1,-1.665211E-1,1.3151424E-1,-2.5882742E-1,-2.8603531E-2,-9.859879E-3,-3.9069837E-1,-3.3243662E-1,-1.2338214E-1,-2.8355548E-1,2.01193E-1,-1.2895921E-1,1.21209E-1,-3.4806964E-1,-2.7617853E-2,-1.4072784E-2,-2.831141E-1,-3.3580685E-1,-1.5444254E-2,-2.56554E-1,2.5936374E-1,3.385902E-2,-2.5059977E-1,-1.6646871E-1,-3.2616627E-1],"categories":[],"categories_nodes":[],"categories_segments":[],"categories_sizes":[],"default_left":[0,0,0,0,0,0,0,0,0,0,0,0,0,0,0,0,0,0,0,0,0,0,0,0,0,0,0,0,0,0,0,0,0,0,0,0,0,0,0,0,0,0,0,0,0,0,0,0,0,0,0,0,0,0,0,0,0,0,0,0,0,0,0,0,0,0,0,0,0,0,0,0,0,0,0,0,0,0,0,0,0,0,0,0,0,0,0,0,0,0,0,0,0,0,0,0,0,0,0,0,0,0,0,0,0,0,0,0,0,0,0,0,0,0,0,0,0,0,0,0,0,0,0,0,0,0,0],"id":7,"left_children":[1,3,5,7,9,11,13,15,17,19,21,23,25,27,29,31,33,35,37,39,41,43,45,47,49,51,53,55,57,59,61,63,65,67,69,71,73,75,77,79,81,83,85,87,89,91,93,95,97,99,101,103,105,107,109,111,113,115,117,119,121,123,125,-1,-1,-1,-1,-1,-1,-1,-1,-1,-1,-1,-1,-1,-1,-1,-1,-1,-1,-1,-1,-1,-1,-1,-1,-1,-1,-1,-1,-1,-1,-1,-1,-1,-1,-1,-1,-1,-1,-1,-1,-1,-1,-1,-1,-1,-1,-1,-1,-1,-1,-1,-1,-1,-1,-1,-1,-1,-1,-1,-1,-1,-1,-1,-1],"loss_changes":[1.6172389E3,8.910034E2,8.406559E2,4.6047156E2,2.4092581E2,4.943697E2,2.1325623E2,2.7090503E2,2.8766132E2,1.3584949E2,1.06661125E2,2.983372E2,1.4854745E2,1.492124E2,4.323181E1,1.5738498E2,1.5744604E2,8.675206E1,1.4087723E2,2.8373352E1,7.4986404E1,8.413134E1,5.1842297E1,1.2362307E2,1.739913E2,1.3389365E2,2.4449371E1,1.0800347E2,4.0771973E1,7.8950195E0,5.2097076E1,1.358946E2,4.9545853E1,7.323389E1,9.8266464E1,3.8478928E1,5.5459515E1,3.6273113E1,7.5820145E1,1.6088745E1,2.8471817E1,4.488638E1,2.8617035E1,3.5149124E1,2.3128088E1,2.2005558E1,1.7778297E1,6.049031E1,6.435789E1,1.1392441E2,3.5052353E1,6.559389E1,5.7603897E1,8.939819E0,2.5982697E1,1.8782356E1,8.926125E1,8.183014E0,4.8004204E1,7.2493896E0,6.629048E0,6.0061832E1,1.6682953E1,0E0,0E0,0E0,0E0,0E0,0E0,0E0,0E0,0E0,0E0,0E0,0E0,0E0,0E0,0E0,0E0,0E0,0E0,0E0,0E0,0E0,0E0,0E0,0E0,0E0,0E0,0E0,0E0,0E0,0E0,0E0,0E0,0E0,0E0,0E0,0E0,0E0,0E0,0E0,0E0,0E0,0E0,0E0,0E0,0E0,0E0,0E0,0E0,0E0,0E0,0E0,0E0,0E0,0E0,0E0,0E0,0E0,0E0,0E0,0E0,0E0,0E0,0E0,0E0],"parents":[2147483647,0,0,1,1,2,2,3,3,4,4,5,5,6,6,7,7,8,8,9,9,10,10,11,11,12,12,13,13,14,14,15,15,16,16,17,17,18,18,19,19,20,20,21,21,22,22,23,23,24,24,25,25,26,26,27,27,28,28,29,29,30,30,31,31,32,32,33,33,34,34,35,35,36,36,37,37,38,38,39,39,40,40,41,41,42,42,43,43,44,44,45,45,46,46,47,47,48,48,49,49,50,50,51,51,52,52,53,53,54,54,55,55,56,56,57,57,58,58,59,59,60,60,61,61,62,62],"right_children":[2,4,6,8,10,12,14,16,18,20,22,24,26,28,30,32,34,36,38,40,42,44,46,48,50,52,54,56,58,60,62,64,66,68,70,72,74,76,78,80,82,84,86,88,90,92,94,96,98,100,102,104,106,108,110,112,114,116,118,120,122,124,126,-1,-1,-1,-1,-1,-1,-1,-1,-1,-1,-1,-1,-1,-1,-1,-1,-1,-1,-1,-1,-1,-1,-1,-1,-1,-1,-1,-1,-1,-1,-1,-1,-1,-1,-1,-1,-1,-1,-1,-1,-1,-1,-1,-1,-1,-1,-1,-1,-1,-1,-1,-1,-1,-1,-1,-1,-1,-1,-1,-1,-1,-1,-1,-1],"split_conditions":[-1.646947E-2,2.7240015E-4,1.5690223E-34,3.3668183E-2,4.423227E-3,1.1450423E-2,-1.0893726E-2,1.5262759E-2,1.3238598E-2,7.1792663E-3,8.420434E-3,9.921289E-3,1.9904396E-2,-8.232533E-3,-2.9205887E-3,2.0829983E-2,2.2483468E-2,2.4928303E-2,-2.8312195E-2,5.3679496E-3,-4.9286167E-4,-2.5980903E-2,-4.184153E-2,3.1120905E-3,2.3057109E-2,-5.242673E-33,2.6205119E-2,2.9020231E-2,3.3367623E-2,5.7269726E-2,-5.8340093E-33,1.9862503E-2,1.3093289E-2,-4.046569E-3,-1.252923E-2,-6.0580835E-2,8.673386E-3,-2.3182834E-2,-1.1903724E-2,9.548108E-2,-8.5983336E-2,1.4377871E-34,3.1131057E-2,3.8247379E-3,-9.088564E-2,2.481551E-3,3.6367748E-2,5.811005E-2,-6.8566483E-3,-2.5012985E-2,-5.2356236E-33,-8.583165E-3,1.032445E-2,-6.57633E-2,-1.4196846E-3,3.9332327E-2,1.6344758E-4,8.6266115E-2,-3.0254636E-2,4.6331834E-2,2.7915247E-2,2.6542276E-7,-2.5631413E-3,-7.656218E-2,2.0348509E-1,-1.3837906E-2,-2.6003203E-1,1.2947746E-1,2.9461426E-1,1.6876481E-1,-1.1686025E-1,-5.5925246E-2,-3.0397844E-1,-1.4162499E-1,1.2378176E-1,3.3508744E-2,-2.0872779E-1,-1.06817864E-1,2.2464508E-1,-3.6089474E-1,8.6286284E-2,-3.2590453E-2,-3.0480123E-1,1.6224146E-1,-9.8075755E-2,-2.8910258E-1,-3.9089195E-2,-1.0727685E-1,2.586865E-1,8.353828E-2,-2.0627601E-1,-3.702172E-1,1.445542E-1,-3.562237E-1,-1.2771687E-1,-2.824416E-1,-9.130057E-3,-1.3646443E-1,1.3384849E-1,2.50406E-1,6.6005245E-2,1.2739558E-2,-3.0672693E-1,-1.665211E-1,1.3151424E-1,-2.5882742E-1,-2.8603531E-2,-9.859879E-3,-3.9069837E-1,-3.3243662E-1,-1.2338214E-1,-2.8355548E-1,2.01193E-1,-1.2895921E-1,1.21209E-1,-3.4806964E-1,-2.7617853E-2,-1.4072784E-2,-2.831141E-1,-3.3580685E-1,-1.5444254E-2,-2.56554E-1,2.5936374E-1,3.385902E-2,-2.5059977E-1,-1.6646871E-1,-3.2616627E-1],"split_indices":[620,36,756,115,369,640,220,119,609,609,48,119,563,113,427,589,224,101,448,505,48,279,603,609,419,555,540,690,9,389,555,540,365,383,411,641,149,419,639,690,239,756,701,9,239,690,690,333,394,411,555,609,505,359,609,639,148,609,18,369,672,688,528,0,0,0,0,0,0,0,0,0,0,0,0,0,0,0,0,0,0,0,0,0,0,0,0,0,0,0,0,0,0,0,0,0,0,0,0,0,0,0,0,0,0,0,0,0,0,0,0,0,0,0,0,0,0,0,0,0,0,0,0,0,0,0,0],"split_type":[0,0,0,0,0,0,0,0,0,0,0,0,0,0,0,0,0,0,0,0,0,0,0,0,0,0,0,0,0,0,0,0,0,0,0,0,0,0,0,0,0,0,0,0,0,0,0,0,0,0,0,0,0,0,0,0,0,0,0,0,0,0,0,0,0,0,0,0,0,0,0,0,0,0,0,0,0,0,0,0,0,0,0,0,0,0,0,0,0,0,0,0,0,0,0,0,0,0,0,0,0,0,0,0,0,0,0,0,0,0,0,0,0,0,0,0,0,0,0,0,0,0,0,0,0,0,0],"sum_hessian":[1.3809891E4,7.4123535E3,6.3975376E3,5.8989595E3,1.5133939E3,3.4080112E3,2.9895266E3,4.4170503E3,1.4819093E3,9.500003E2,5.633937E2,2.168312E3,1.2396992E3,1.1890273E3,1.8004991E3,1.1442438E3,3.2728064E3,6.339406E2,8.479687E2,5.145253E2,4.3547495E2,3.7321664E2,1.9017705E2,7.147747E2,1.4535374E3,8.1551E2,4.2418918E2,6.913811E2,4.976463E2,1.0866804E3,7.138187E2,8.429686E2,3.0127512E2,2.4561423E3,8.16664E2,3.450941E2,2.8884653E2,2.2116634E2,6.268023E2,3.723728E2,1.4215254E2,2.3654706E2,1.9892787E2,2.7056287E2,1.02653755E2,6.4399315E1,1.2577774E2,3.6146564E2,3.5330908E2,1.3256687E3,1.2786863E2,3.4557852E2,4.6993146E2,2.0680013E2,2.1738907E2,1.5367514E2,5.3770593E2,2.5572179E2,2.4192451E2,1.0796923E3,6.988146E0,2.7355414E2,4.4026462E2,2.0578848E2,6.371802E2,1.7541278E2,1.2586234E2,2.7433084E2,2.1818115E3,6.8877844E2,1.2788555E2,7.1436745E1,2.7365732E2,1.6755568E2,1.2129085E2,1.08551765E2,1.1261458E2,6.928678E1,5.5751556E2,3.653407E2,7.032103E0,5.930631E1,8.284624E1,1.19453926E2,1.1709313E2,1.4026588E2,5.8661987E1,2.5585985E1,2.449769E2,3.9769768E1,6.2883987E1,7.61474E0,5.6784573E1,6.660575E1,5.9171986E1,2.602998E2,1.0116582E2,1.1845951E2,2.3484958E2,8.6030383E2,4.653649E2,5.123036E1,7.663827E1,8.858496E1,2.5699356E2,3.3085794E2,1.3907352E2,5.757989E0,2.0104214E2,1.1336711E2,1.0402195E2,1.4679507E2,6.8800664E0,2.0937799E2,3.2832794E2,2.48152E2,7.569797E0,1.0601834E2,1.3590617E2,1.0731981E3,6.4940424E0,3.7075431E0,3.280603E0,1.1408265E2,1.594715E2,7.41607E1,3.661039E2],"tree_param":{"num_deleted":"0","num_feature":"768","num_nodes":"127","size_leaf_vector":"1"}},{"base_weights":[-7.5503876E-3,-5.052634E-1,1.8829305E-1,4.220425E-2,-7.558209E-1,-1.664106E-1,4.6824992E-1,-4.9530587E-1,5.0509155E-1,-9.575127E-1,-4.1656637E-1,1.6585366E-1,-5.413391E-1,6.105342E-1,-1.5254632E-1,-9.009151E-1,-7.7052556E-2,7.773062E-1,2.4642294E-2,-7.1498585E-1,-1.0694909E0,1.1319566E-1,-6.432247E-1,-4.906005E-1,3.4194148E-1,-7.063045E-1,7.032145E-2,1.5303616E-1,7.453599E-1,3.0299073E-1,-5.3935796E-1,5.222613E-1,-9.6582955E-1,2.1017404E-1,-6.8723226E-1,-1.4841379E-1,8.699544E-1,-4.026094E-1,6.459255E-1,-2.6329832E-2,-8.5702586E-1,3.1098554E-2,-1.0831858E0,-6.816805E-1,4.010348E-1,-8.408163E-1,-3.2170035E-2,-9.076666E-1,-1.3330856E-1,-2.2886275E-1,5.180773E-1,-1.100881E0,-5.1178646E-1,-7.0726633E-1,3.6651E-1,5.027769E-1,-2.9020545E-1,7.858994E-1,-4.0897185E-1,-7.614711E-1,4.675851E-1,-9.9038236E-2,-8.981711E-1,4.1063893E-1,-9.207531E-2,-9.61092E-2,-3.2585934E-1,1.8914837E-1,-1.4332992E-1,-3.8671672E-1,-1.0130996E-1,8.9359686E-2,-3.608139E-1,2.7837706E-1,-1.4736564E-1,-5.0883763E-3,-3.6070952E-1,2.4232696E-1,-2.2073345E-1,1.7169017E-1,-1.7174822E-1,6.555249E-2,-2.8224337E-1,-2.723269E-1,2.5702277E-1,-2.248969E-1,-3.3653066E-1,-2.8079185E-1,2.9514752E-2,-3.139054E-2,2.2476177E-1,-1.6042961E-1,-3.4887922E-1,1.272727E-1,-1.9818133E-1,-9.393405E-2,-3.3049068E-1,-1.8387513E-1,8.7460905E-2,-2.4117464E-1,1.9466307E-2,2.0956138E-1,-9.852444E-3,-1.8247214E-1,-3.6946732E-1,-3.9799973E-2,-2.4077687E-1,-2.8644472E-1,-1.0700034E-2,-1.8674201E-1,1.7036371E-1,1.8699671E-1,-1.8615103E-1,6.494319E-3,-2.2360109E-1,6.3747615E-2,2.5656486E-1,-2.706526E-1,5.6741603E-2,6.326481E-2,-3.1390104E-1,2.0016089E-1,-2.3182146E-2,1.3217464E-1,-1.7301266E-1,-3.3466312E-1,-1.275879E-1],"categories":[],"categories_nodes":[],"categories_segments":[],"categories_sizes":[],"default_left":[0,0,0,0,0,0,0,0,0,0,0,0,0,0,0,0,0,0,0,0,0,0,0,0,0,0,0,0,0,0,0,0,0,0,0,0,0,0,0,0,0,0,0,0,0,0,0,0,0,0,0,0,0,0,0,0,0,0,0,0,0,0,0,0,0,0,0,0,0,0,0,0,0,0,0,0,0,0,0,0,0,0,0,0,0,0,0,0,0,0,0,0,0,0,0,0,0,0,0,0,0,0,0,0,0,0,0,0,0,0,0,0,0,0,0,0,0,0,0,0,0,0,0,0,0,0,0],"id":8,"left_children":[1,3,5,7,9,11,13,15,17,19,21,23,25,27,29,31,33,35,37,39,41,43,45,47,49,51,53,55,57,59,61,63,65,67,69,71,73,75,77,79,81,83,85,87,89,91,93,95,97,99,101,103,105,107,109,111,113,115,117,119,121,123,125,-1,-1,-1,-1,-1,-1,-1,-1,-1,-1,-1,-1,-1,-1,-1,-1,-1,-1,-1,-1,-1,-1,-1,-1,-1,-1,-1,-1,-1,-1,-1,-1,-1,-1,-1,-1,-1,-1,-1,-1,-1,-1,-1,-1,-1,-1,-1,-1,-1,-1,-1,-1,-1,-1,-1,-1,-1,-1,-1,-1,-1,-1,-1,-1],"loss_changes":[1.2239856E3,4.864176E2,8.949142E2,2.7747812E2,1.660498E2,4.9536792E2,4.4496973E2,8.747938E1,7.8343185E1,4.0645996E1,1.0919162E2,2.4390347E2,1.8855365E2,2.5263855E2,1.6578354E2,2.4699799E1,4.4864624E1,3.2929123E1,5.805594E1,4.7385757E1,1.572644E1,6.2770363E1,7.683563E1,6.63966E1,1.6733258E2,1.1237305E2,9.186234E1,1.449295E2,1.4841504E2,7.608928E1,8.027579E1,8.895014E0,1.9139465E1,5.0690018E1,1.6793556E1,1.7130629E1,2.7898315E1,3.9960045E1,2.0518314E1,2.7760128E1,3.640979E1,1.1450228E1,1.2392944E1,1.4570389E1,3.5495754E1,4.6797516E1,4.5194843E1,2.3387894E1,4.940542E1,6.6419304E1,1.2641318E2,3.047345E1,1.087583E2,1.8262447E1,5.784474E1,7.112483E1,5.857199E1,1.2134961E2,3.203791E1,1.636029E1,4.083663E1,5.941396E1,2.8322067E1,0E0,0E0,0E0,0E0,0E0,0E0,0E0,0E0,0E0,0E0,0E0,0E0,0E0,0E0,0E0,0E0,0E0,0E0,0E0,0E0,0E0,0E0,0E0,0E0,0E0,0E0,0E0,0E0,0E0,0E0,0E0,0E0,0E0,0E0,0E0,0E0,0E0,0E0,0E0,0E0,0E0,0E0,0E0,0E0,0E0,0E0,0E0,0E0,0E0,0E0,0E0,0E0,0E0,0E0,0E0,0E0,0E0,0E0,0E0,0E0,0E0,0E0,0E0,0E0],"parents":[2147483647,0,0,1,1,2,2,3,3,4,4,5,5,6,6,7,7,8,8,9,9,10,10,11,11,12,12,13,13,14,14,15,15,16,16,17,17,18,18,19,19,20,20,21,21,22,22,23,23,24,24,25,25,26,26,27,27,28,28,29,29,30,30,31,31,32,32,33,33,34,34,35,35,36,36,37,37,38,38,39,39,40,40,41,41,42,42,43,43,44,44,45,45,46,46,47,47,48,48,49,49,50,50,51,51,52,52,53,53,54,54,55,55,56,56,57,57,58,58,59,59,60,60,61,61,62,62],"right_children":[2,4,6,8,10,12,14,16,18,20,22,24,26,28,30,32,34,36,38,40,42,44,46,48,50,52,54,56,58,60,62,64,66,68,70,72,74,76,78,80,82,84,86,88,90,92,94,96,98,100,102,104,106,108,110,112,114,116,118,120,122,124,126,-1,-1,-1,-1,-1,-1,-1,-1,-1,-1,-1,-1,-1,-1,-1,-1,-1,-1,-1,-1,-1,-1,-1,-1,-1,-1,-1,-1,-1,-1,-1,-1,-1,-1,-1,-1,-1,-1,-1,-1,-1,-1,-1,-1,-1,-1,-1,-1,-1,-1,-1,-1,-1,-1,-1,-1,-1,-1,-1,-1,-1,-1,-1,-1],"split_conditions":[-8.546636E-3,-2.1112788E-2,2.2229275E-2,-6.843891E-3,5.3679496E-3,-1.8954251E-2,7.678529E-3,1.6090369E-2,-2.1764528E-2,-2.8605515E-2,1.384371E-34,-2.5173254E-2,8.887097E-2,-8.98275E-3,7.959207E-3,-6.2251247E-2,1.1998583E-2,-2.2415152E-2,3.8935218E-2,-4.986392E-2,-4.2746585E-2,2.1463191E-2,6.767649E-2,6.7463424E-4,-6.9699525E-3,-2.4079513E-2,6.1049233E-3,6.3244137E-3,2.0958989E-34,1.4720137E-2,-1.4659541E-3,-2.1421228E-2,-2.3880443E-2,1.6240253E-34,2.3420779E-2,2.4237E-2,1.0116741E-2,-5.5662137E-3,2.0516561E-2,-1.9420775E-2,-5.356099E-2,-2.5416329E-3,-1.2214728E-2,1.9352317E-2,2.6897574E-2,-2.4470244E-2,-1.3880648E-2,1.312076E-34,5.01801E-2,-5.2426765E-3,2.2199847E-2,1.1799633E-34,-1.4256291E-3,8.292275E-3,-3.7022233E-2,1.781647E-2,-1.2889147E-3,1.2701973E-2,5.139088E-2,-2.9284507E-2,-5.4618057E-2,-6.520349E-3,-1.4778766E-2,4.1063893E-1,-9.207531E-2,-9.61092E-2,-3.2585934E-1,1.8914837E-1,-1.4332992E-1,-3.8671672E-1,-1.0130996E-1,8.9359686E-2,-3.608139E-1,2.7837706E-1,-1.4736564E-1,-5.0883763E-3,-3.6070952E-1,2.4232696E-1,-2.2073345E-1,1.7169017E-1,-1.7174822E-1,6.555249E-2,-2.8224337E-1,-2.723269E-1,2.5702277E-1,-2.248969E-1,-3.3653066E-1,-2.8079185E-1,2.9514752E-2,-3.139054E-2,2.2476177E-1,-1.6042961E-1,-3.4887922E-1,1.272727E-1,-1.9818133E-1,-9.393405E-2,-3.3049068E-1,-1.8387513E-1,8.7460905E-2,-2.4117464E-1,1.9466307E-2,2.0956138E-1,-9.852444E-3,-1.8247214E-1,-3.6946732E-1,-3.9799973E-2,-2.4077687E-1,-2.8644472E-1,-1.0700034E-2,-1.8674201E-1,1.7036371E-1,1.8699671E-1,-1.8615103E-1,6.494319E-3,-2.2360109E-1,6.3747615E-2,2.5656486E-1,-2.706526E-1,5.6741603E-2,6.326481E-2,-3.1390104E-1,2.0016089E-1,-2.3182146E-2,1.3217464E-1,-1.7301266E-1,-3.3466312E-1,-1.275879E-1],"split_indices":[163,589,146,448,505,419,113,568,279,113,756,439,516,609,759,620,359,142,407,279,115,461,690,394,609,350,319,299,756,9,596,381,65,756,297,528,182,419,545,31,765,273,365,454,146,512,596,756,690,674,299,756,48,369,350,419,291,690,690,589,239,589,293,0,0,0,0,0,0,0,0,0,0,0,0,0,0,0,0,0,0,0,0,0,0,0,0,0,0,0,0,0,0,0,0,0,0,0,0,0,0,0,0,0,0,0,0,0,0,0,0,0,0,0,0,0,0,0,0,0,0,0,0,0,0,0,0],"split_type":[0,0,0,0,0,0,0,0,0,0,0,0,0,0,0,0,0,0,0,0,0,0,0,0,0,0,0,0,0,0,0,0,0,0,0,0,0,0,0,0,0,0,0,0,0,0,0,0,0,0,0,0,0,0,0,0,0,0,0,0,0,0,0,0,0,0,0,0,0,0,0,0,0,0,0,0,0,0,0,0,0,0,0,0,0,0,0,0,0,0,0,0,0,0,0,0,0,0,0,0,0,0,0,0,0,0,0,0,0,0,0,0,0,0,0,0,0,0,0,0,0,0,0,0,0,0,0],"sum_hessian":[1.2555093E4,3.5448062E3,9.010287E3,1.1132307E3,2.4315754E3,3.9747317E3,5.035555E3,5.1506323E2,5.981675E2,1.5238197E3,9.0775574E2,2.1075574E3,1.8671743E3,4.096637E3,9.389179E2,2.608982E2,2.5416504E2,3.8143488E2,2.1673259E2,4.836647E2,1.040155E3,2.7215536E2,6.356004E2,4.4538376E2,1.6621737E3,1.4704406E3,3.9673386E2,9.329693E2,3.1636677E3,4.3125632E2,5.0766162E2,1.1073736E1,2.4982446E2,1.7326193E2,8.09031E1,3.464709E1,3.4678778E2,1.2862805E2,8.8104546E1,8.29041E1,4.007606E2,1.2768148E1,1.0273868E3,7.198857E1,2.001668E2,4.8000818E2,1.5559221E2,2.0479112E2,2.4059265E2,3.9188638E2,1.2702872E3,4.8399844E2,9.864421E2,1.0905153E2,2.876823E2,5.2141296E2,4.1155637E2,3.0566396E3,1.0702827E2,5.7267914E1,3.739884E2,2.285146E2,2.79147E2,5.1574984E0,5.916238E0,3.9841106E1,2.0998337E2,1.0760222E2,6.565972E1,2.87366E1,5.21665E1,2.4846972E1,9.80012E0,3.3292752E2,1.3860281E1,8.747038E1,4.115767E1,7.923912E1,8.865427E0,3.952946E1,4.3374638E1,2.8847197E1,3.719134E2,5.9279337E0,6.8402143E0,1.08644485E2,9.187424E2,5.4139725E1,1.7848843E1,8.190731E1,1.1825948E2,2.4750557E2,2.3250261E2,9.0320305E1,6.5271904E1,5.101977E1,1.5377136E2,1.1280458E2,1.2778806E2,1.3191324E2,2.5997314E2,9.566547E2,3.1363257E2,1.0265439E2,3.8134406E2,4.288312E2,5.5761084E2,7.937315E1,2.9678381E1,4.831275E1,2.3936957E2,4.7128214E2,5.013083E1,2.4478421E2,1.6677214E2,3.3009213E2,2.7265474E3,5.837978E1,4.864849E1,1.3034831E1,4.4233086E1,2.735459E2,1.0044251E2,1.0733586E2,1.2117874E2,1.9030743E2,8.883957E1],"tree_param":{"num_deleted":"0","num_feature":"768","num_nodes":"127","size_leaf_vector":"1"}},{"base_weights":[-7.062313E-3,9.902314E-2,-7.9396856E-1,4.419451E-1,-1.8238015E-1,-3.8818893E-1,-9.7848696E-1,5.708566E-1,-2.0336992E-1,1.4421175E-1,-6.18449E-1,-7.728726E-1,1.07692696E-1,-1.0390799E0,-5.790764E-1,6.7942075E-2,7.132806E-1,-6.9802606E-1,1.8814932E-1,-6.3550234E-1,3.3512393E-1,-7.684399E-1,8.013639E-3,-8.560951E-1,2.606906E-1,-3.6566103E-1,5.551159E-1,-2.741552E-1,-1.0526878E0,-8.747203E-1,-1.5080088E-2,-3.518914E-1,4.272613E-1,1.9327956E-1,7.875198E-1,2.5058929E-2,-9.365327E-1,-5.5148646E-2,7.6887363E-1,-8.9531237E-1,-2.1481867E-1,5.4851586E-1,-2.4139726E-1,-1.0020162E0,-4.928777E-1,-3.8669008E-1,5.349078E-1,-9.9287844E-1,-3.3827323E-1,-6.6288775E-1,7.504406E-1,4.6617252E-1,-6.474605E-1,-4.5815003E-1,7.74186E-1,6.3308793E-1,-8.620376E-1,1.5868816E-1,-1.0595948E0,-9.569836E-1,2.3160735E-1,-8.218427E-1,4.3026605E-1,-2.0571315E-1,9.210681E-2,2.0953646E-1,-1.5509104E-2,-1.0661082E-1,1.6532005E-1,9.3574695E-2,2.5532687E-1,-2.4016427E-1,1.2875295E-1,-3.246114E-1,-1.0433637E-2,1.5936294E-1,-9.6598215E-2,-1.4991996E-1,2.5860733E-1,-1.2665866E-1,-3.14682E-1,-2.1309175E-1,6.315852E-2,1.03273356E-4,2.0678253E-1,-2.2878727E-1,4.801095E-2,-3.290103E-1,-1.6518417E-1,1.6874155E-2,-2.3939487E-1,1.8615108E-2,-2.390309E-1,-1.894104E-1,2.2524713E-1,-3.229491E-1,-1.0220245E-1,6.4521655E-2,-2.541963E-1,-3.5761282E-1,1.4639871E-1,-1.6477066E-1,3.1689098E-1,-1.3777877E-1,2.7649984E-1,-3.790414E-2,-2.8511953E-1,2.3324002E-1,-2.2205144E-1,-1.7882517E-1,2.7659333E-1,-2.2627105E-1,3.035952E-1,1.238678E-1,-3.1839216E-1,2.7830023E-1,-2.3412085E-1,-3.1924218E-1,1.4780603E-1,-8.6159386E-2,-3.222146E-1,2.864549E-1,-2.1883315E-1,-3.0299035E-1,1.9387256E-1,-2.3739968E-1,2.2692162E-1],"categories":[],"categories_nodes":[],"categories_segments":[],"categories_sizes":[],"default_left":[0,0,0,0,0,0,0,0,0,0,0,0,0,0,0,0,0,0,0,0,0,0,0,0,0,0,0,0,0,0,0,0,0,0,0,0,0,0,0,0,0,0,0,0,0,0,0,0,0,0,0,0,0,0,0,0,0,0,0,0,0,0,0,0,0,0,0,0,0,0,0,0,0,0,0,0,0,0,0,0,0,0,0,0,0,0,0,0,0,0,0,0,0,0,0,0,0,0,0,0,0,0,0,0,0,0,0,0,0,0,0,0,0,0,0,0,0,0,0,0,0,0,0,0,0,0,0],"id":9,"left_children":[1,3,5,7,9,11,13,15,17,19,21,23,25,27,29,31,33,35,37,39,41,43,45,47,49,51,53,55,57,59,61,63,65,67,69,71,73,75,77,79,81,83,85,87,89,91,93,95,97,99,101,103,105,107,109,111,113,115,117,119,121,123,125,-1,-1,-1,-1,-1,-1,-1,-1,-1,-1,-1,-1,-1,-1,-1,-1,-1,-1,-1,-1,-1,-1,-1,-1,-1,-1,-1,-1,-1,-1,-1,-1,-1,-1,-1,-1,-1,-1,-1,-1,-1,-1,-1,-1,-1,-1,-1,-1,-1,-1,-1,-1,-1,-1,-1,-1,-1,-1,-1,-1,-1,-1,-1,-1],"loss_changes":[9.562005E2,9.741116E2,1.015047E2,3.7860883E2,7.897645E2,8.153818E1,2.2020386E1,2.71599E2,1.4698907E2,4.7226715E2,2.231355E2,2.091748E1,3.989661E1,8.146362E0,2.0893871E1,1.2658165E2,1.13940186E2,5.783821E1,5.995801E1,6.801897E1,3.1361325E2,1.2282434E2,9.581099E1,1.5451492E1,8.953658E0,2.1791153E1,2.1830076E1,8.821415E0,6.8269043E0,7.7068634E0,1.6212484E1,8.534602E1,5.8752975E1,7.293461E1,7.791565E1,2.8410625E1,3.30419E1,4.7078217E1,1.5234688E1,2.7576508E1,5.0644E1,1.4352185E2,1.4429874E2,4.3675537E1,1.4763719E2,4.8520813E1,5.0158707E1,9.220795E0,1.3728567E1,4.850305E0,5.6230617E0,1.0446865E1,1.075602E1,6.7875137E0,1.6734474E1,4.2733536E0,2.9377885E0,4.6102996E0,6.10907E0,5.7092667E0,5.2127132E0,5.083522E0,1.2190966E1,0E0,0E0,0E0,0E0,0E0,0E0,0E0,0E0,0E0,0E0,0E0,0E0,0E0,0E0,0E0,0E0,0E0,0E0,0E0,0E0,0E0,0E0,0E0,0E0,0E0,0E0,0E0,0E0,0E0,0E0,0E0,0E0,0E0,0E0,0E0,0E0,0E0,0E0,0E0,0E0,0E0,0E0,0E0,0E0,0E0,0E0,0E0,0E0,0E0,0E0,0E0,0E0,0E0,0E0,0E0,0E0,0E0,0E0,0E0,0E0,0E0,0E0,0E0,0E0],"parents":[2147483647,0,0,1,1,2,2,3,3,4,4,5,5,6,6,7,7,8,8,9,9,10,10,11,11,12,12,13,13,14,14,15,15,16,16,17,17,18,18,19,19,20,20,21,21,22,22,23,23,24,24,25,25,26,26,27,27,28,28,29,29,30,30,31,31,32,32,33,33,34,34,35,35,36,36,37,37,38,38,39,39,40,40,41,41,42,42,43,43,44,44,45,45,46,46,47,47,48,48,49,49,50,50,51,51,52,52,53,53,54,54,55,55,56,56,57,57,58,58,59,59,60,60,61,61,62,62],"right_children":[2,4,6,8,10,12,14,16,18,20,22,24,26,28,30,32,34,36,38,40,42,44,46,48,50,52,54,56,58,60,62,64,66,68,70,72,74,76,78,80,82,84,86,88,90,92,94,96,98,100,102,104,106,108,110,112,114,116,118,120,122,124,126,-1,-1,-1,-1,-1,-1,-1,-1,-1,-1,-1,-1,-1,-1,-1,-1,-1,-1,-1,-1,-1,-1,-1,-1,-1,-1,-1,-1,-1,-1,-1,-1,-1,-1,-1,-1,-1,-1,-1,-1,-1,-1,-1,-1,-1,-1,-1,-1,-1,-1,-1,-1,-1,-1,-1,-1,-1,-1,-1,-1,-1,-1,-1,-1],"split_conditions":[1.973205E-34,-5.5383277E-33,-1.7536089E-2,3.936148E-2,1.3886804E-34,7.488668E-3,4.8770215E-2,-1.7156156E-2,1.51299415E-2,1.8110491E-2,4.4807855E-2,9.263125E-2,5.5856552E-2,-3.7185367E-2,1.6127465E-2,1.6991453E-2,-3.6565857E-3,-4.0371373E-2,3.7424576E-2,4.289397E-2,2.0569976E-2,-1.0831726E-3,2.0316832E-2,3.478569E-2,-1.5166249E-2,-7.914328E-3,-4.429537E-2,-1.1703185E-2,-9.1377564E-2,6.0767118E-2,-4.6279323E-3,-4.643038E-3,4.361591E-3,2.305418E-2,-3.5223816E-2,4.270366E-3,7.981646E-2,-3.64037E-2,-1.0247962E-2,-4.1162122E-2,1.4383357E-2,-1.754168E-2,-3.5320355E-3,4.6119653E-2,-3.0153729E-2,-5.1432025E-33,-3.1039419E-2,4.9909625E-2,-5.9125356E-33,2.4926055E-2,-1.4834342E-2,-1.7765901E-3,2.3331793E-2,-7.459767E-2,-2.971059E-2,-2.2648936E-2,-3.700999E-2,-3.761984E-2,7.434759E-2,-7.9303846E-2,-1.3997352E-2,3.1665698E-2,-1.9001406E-2,-2.0571315E-1,9.210681E-2,2.0953646E-1,-1.5509104E-2,-1.0661082E-1,1.6532005E-1,9.3574695E-2,2.5532687E-1,-2.4016427E-1,1.2875295E-1,-3.246114E-1,-1.0433637E-2,1.5936294E-1,-9.6598215E-2,-1.4991996E-1,2.5860733E-1,-1.2665866E-1,-3.14682E-1,-2.1309175E-1,6.315852E-2,1.03273356E-4,2.0678253E-1,-2.2878727E-1,4.801095E-2,-3.290103E-1,-1.6518417E-1,1.6874155E-2,-2.3939487E-1,1.8615108E-2,-2.390309E-1,-1.894104E-1,2.2524713E-1,-3.229491E-1,-1.0220245E-1,6.4521655E-2,-2.541963E-1,-3.5761282E-1,1.4639871E-1,-1.6477066E-1,3.1689098E-1,-1.3777877E-1,2.7649984E-1,-3.790414E-2,-2.8511953E-1,2.3324002E-1,-2.2205144E-1,-1.7882517E-1,2.7659333E-1,-2.2627105E-1,3.035952E-1,1.238678E-1,-3.1839216E-1,2.7830023E-1,-2.3412085E-1,-3.1924218E-1,1.4780603E-1,-8.6159386E-2,-3.222146E-1,2.864549E-1,-2.1883315E-1,-3.0299035E-1,1.9387256E-1,-2.3739968E-1,2.2692162E-1],"split_indices":[756,555,71,115,756,16,46,505,311,461,609,690,690,709,16,417,383,113,609,333,563,439,300,311,358,528,655,611,447,101,505,462,115,540,350,146,690,113,405,411,701,505,544,701,419,555,369,146,555,696,308,213,299,42,475,660,521,415,129,411,542,99,27,0,0,0,0,0,0,0,0,0,0,0,0,0,0,0,0,0,0,0,0,0,0,0,0,0,0,0,0,0,0,0,0,0,0,0,0,0,0,0,0,0,0,0,0,0,0,0,0,0,0,0,0,0,0,0,0,0,0,0,0,0,0,0,0],"split_type":[0,0,0,0,0,0,0,0,0,0,0,0,0,0,0,0,0,0,0,0,0,0,0,0,0,0,0,0,0,0,0,0,0,0,0,0,0,0,0,0,0,0,0,0,0,0,0,0,0,0,0,0,0,0,0,0,0,0,0,0,0,0,0,0,0,0,0,0,0,0,0,0,0,0,0,0,0,0,0,0,0,0,0,0,0,0,0,0,0,0,0,0,0,0,0,0,0,0,0,0,0,0,0,0,0,0,0,0,0,0,0,0,0,0,0,0,0,0,0,0,0,0,0,0,0,0,0],"sum_hessian":[1.1452399E4,1.009265E4,1.3597496E3,4.548822E3,5.543828E3,4.2600775E2,9.337419E2,3.7915232E3,7.572987E2,3.170194E3,2.3736343E3,2.3958748E2,1.8642027E2,8.0935626E2,1.2438566E2,8.371025E2,2.9544207E3,3.3423462E2,4.230641E2,6.230864E2,2.5471077E3,1.9149261E3,4.5870804E2,2.2189241E2,1.7695066E1,9.067398E1,9.5746284E1,1.4516329E1,7.948399E2,8.1246E1,4.3139652E1,3.8605325E2,4.5104922E2,3.6954974E2,2.584871E3,8.312324E1,2.5111139E2,2.9878946E2,1.2427461E2,3.844968E2,2.385896E2,1.859052E3,6.8805566E2,1.034993E3,8.799331E2,2.624038E2,1.9630423E2,1.7480106E2,4.7091347E1,6.0092344E0,1.1685833E1,2.2779057E1,6.789493E1,1.682664E1,7.891965E1,5.677576E0,8.838754E0,4.3816957E0,7.904582E2,7.574855E1,5.497456E0,1.5043087E1,2.8096563E1,2.5621097E2,1.2984229E2,2.876941E2,1.633551E2,1.4587083E2,2.236789E2,3.05458E2,2.279413E3,2.6993967E1,5.6129272E1,2.1605003E2,3.5061348E1,9.3138626E1,2.0565083E2,8.202403E0,1.1607221E2,9.516659E1,2.8933023E2,1.0989864E2,1.2869096E2,3.8003796E2,1.479014E3,2.989697E2,3.8908597E2,8.5435614E2,1.8063693E2,3.1457687E2,5.653562E2,1.2570091E2,1.367029E2,3.0364643E1,1.6593959E2,1.543601E2,2.0440958E1,2.284062E1,2.4250727E1,4.092031E0,1.9172034E0,2.0746226E0,9.61121E0,7.510847E0,1.5268209E1,2.5480492E1,4.2414436E1,2.8004215E0,1.4026217E1,7.387961E0,7.1531685E1,1.0054628E0,4.6721134E0,1.0498382E0,7.788915E0,2.415729E0,1.9659669E0,7.884637E2,1.9945085E0,1.1783387E1,6.396516E1,3.1405087E0,2.3569474E0,1.3610982E1,1.4321051E0,5.619945E0,2.247662E1],"tree_param":{"num_deleted":"0","num_feature":"768","num_nodes":"127","size_leaf_vector":"1"}},{"base_weights":[-6.5673837E-3,-3.9077353E-1,1.8857042E-1,-1.89114E-1,-8.493303E-1,3.6498457E-1,-2.7218947E-1,-4.178385E-1,3.532149E-1,-4.4107103E-1,-9.9367E-1,5.9549737E-1,2.312425E-2,-5.694398E-1,7.879292E-2,-8.299758E-1,-1.610277E-1,5.076667E-1,-4.059417E-1,-1.0376503E-1,-8.346808E-1,-1.0532833E0,-5.588175E-1,1.3226591E-1,7.2739416E-1,-4.7653127E-1,2.4756794E-1,-7.992799E-1,-2.1370299E-1,2.8825295E-1,-5.456562E-1,-1.029778E0,-3.3577347E-1,-6.8280524E-1,5.0985355E-2,6.261364E-1,-2.8452608E-1,-1.1244547E0,-1.4070505E-1,2.5585717E-1,-6.510517E-1,1.3231379E-1,-9.6022344E-1,-8.101892E-1,-1.1390154E0,-8.191838E-1,1.5715648E-1,3.8271865E-1,-4.103247E-1,-1.0350428E-1,7.924957E-1,5.0998412E-2,-7.40367E-1,5.876475E-1,-5.9130076E-2,-3.3725163E-1,-9.406779E-1,-7.655995E-1,4.58852E-2,5.4034466E-1,-2.4869019E-1,-8.5195965E-1,-1.3360278E-1,-1.5828925E-1,-3.5353303E-1,-1.9272648E-1,3.771308E-2,-2.4098016E-1,6.87258E-2,1.3685773E-1,-8.235031E-2,-3.3760447E-2,2.238904E-1,-2.835469E-1,3.8337518E-2,9.570087E-2,-3.7239116E-1,-4.4333407E-1,8.60053E-3,1.3321155E-1,-2.9969874E-1,-3.9758846E-2,-2.952777E-1,-3.920512E-1,1.5415666E-1,5.2690964E-2,-3.097405E-1,-1.3138217E-1,-3.047615E-1,-3.4793988E-1,1.1047359E-2,-3.0276468E-1,1.0004806E-1,-1.6725968E-1,1.8484873E-1,1.6976288E-1,-5.4174013E-2,1.2341005E-1,-1.9153784E-1,1.1232933E-1,-1.7141008E-1,-3.1402253E-2,2.5187078E-1,-1.19743496E-1,1.286596E-1,-3.155493E-1,-1.204683E-1,-9.984397E-2,1.9819175E-1,-1.6515273E-1,6.1402667E-2,-1.7772473E-1,1.5182951E-1,-1.7803259E-1,-3.2184798E-1,-2.784891E-1,-9.144184E-3,8.5185125E-2,-2.1803342E-1,1.2162813E-2,2.3917137E-1,1.572086E-1,-1.3816541E-1,-3.0266774E-1,-4.6828795E-2,1.0501786E-1,-1.8713607E-1],"categories":[],"categories_nodes":[],"categories_segments":[],"categories_sizes":[],"default_left":[0,0,0,0,0,0,0,0,0,0,0,0,0,0,0,0,0,0,0,0,0,0,0,0,0,0,0,0,0,0,0,0,0,0,0,0,0,0,0,0,0,0,0,0,0,0,0,0,0,0,0,0,0,0,0,0,0,0,0,0,0,0,0,0,0,0,0,0,0,0,0,0,0,0,0,0,0,0,0,0,0,0,0,0,0,0,0,0,0,0,0,0,0,0,0,0,0,0,0,0,0,0,0,0,0,0,0,0,0,0,0,0,0,0,0,0,0,0,0,0,0,0,0,0,0,0,0],"id":10,"left_children":[1,3,5,7,9,11,13,15,17,19,21,23,25,27,29,31,33,35,37,39,41,43,45,47,49,51,53,55,57,59,61,63,65,67,69,71,73,75,77,79,81,83,85,87,89,91,93,95,97,99,101,103,105,107,109,111,113,115,117,119,121,123,125,-1,-1,-1,-1,-1,-1,-1,-1,-1,-1,-1,-1,-1,-1,-1,-1,-1,-1,-1,-1,-1,-1,-1,-1,-1,-1,-1,-1,-1,-1,-1,-1,-1,-1,-1,-1,-1,-1,-1,-1,-1,-1,-1,-1,-1,-1,-1,-1,-1,-1,-1,-1,-1,-1,-1,-1,-1,-1,-1,-1,-1,-1,-1,-1],"loss_changes":[7.8583606E2,3.2630878E2,5.65119E2,3.0447467E2,6.3090332E1,3.9612994E2,2.0089299E2,1.8255594E2,8.5602776E1,3.7538498E1,2.003778E1,1.8334839E2,2.2727493E2,8.5064514E1,1.1573703E2,6.5061646E1,1.1781236E2,5.7016953E1,2.3412537E1,3.0427721E1,1.5986496E1,1.3637146E1,1.84083E1,9.074933E1,1.2648523E2,8.747052E1,1.4588812E2,4.103235E1,5.8851166E1,8.979006E1,2.794355E1,3.4555298E1,2.7277851E1,3.398242E1,1.0009556E2,4.6875427E1,2.1768919E1,5.9963455E0,2.0758905E1,2.2523226E1,1.045219E1,9.396948E0,9.679657E0,1.3766319E1,1.2604553E1,1.6123024E1,9.197099E0,4.7213425E1,3.981904E1,3.8377285E1,9.161145E1,3.5954086E1,4.377426E1,4.477719E1,9.554325E1,3.25511E1,2.157547E1,1.5685577E1,5.1738926E1,5.788086E1,3.4997303E1,1.3747131E1,2.2972214E1,0E0,0E0,0E0,0E0,0E0,0E0,0E0,0E0,0E0,0E0,0E0,0E0,0E0,0E0,0E0,0E0,0E0,0E0,0E0,0E0,0E0,0E0,0E0,0E0,0E0,0E0,0E0,0E0,0E0,0E0,0E0,0E0,0E0,0E0,0E0,0E0,0E0,0E0,0E0,0E0,0E0,0E0,0E0,0E0,0E0,0E0,0E0,0E0,0E0,0E0,0E0,0E0,0E0,0E0,0E0,0E0,0E0,0E0,0E0,0E0,0E0,0E0,0E0,0E0],"parents":[2147483647,0,0,1,1,2,2,3,3,4,4,5,5,6,6,7,7,8,8,9,9,10,10,11,11,12,12,13,13,14,14,15,15,16,16,17,17,18,18,19,19,20,20,21,21,22,22,23,23,24,24,25,25,26,26,27,27,28,28,29,29,30,30,31,31,32,32,33,33,34,34,35,35,36,36,37,37,38,38,39,39,40,40,41,41,42,42,43,43,44,44,45,45,46,46,47,47,48,48,49,49,50,50,51,51,52,52,53,53,54,54,55,55,56,56,57,57,58,58,59,59,60,60,61,61,62,62],"right_children":[2,4,6,8,10,12,14,16,18,20,22,24,26,28,30,32,34,36,38,40,42,44,46,48,50,52,54,56,58,60,62,64,66,68,70,72,74,76,78,80,82,84,86,88,90,92,94,96,98,100,102,104,106,108,110,112,114,116,118,120,122,124,126,-1,-1,-1,-1,-1,-1,-1,-1,-1,-1,-1,-1,-1,-1,-1,-1,-1,-1,-1,-1,-1,-1,-1,-1,-1,-1,-1,-1,-1,-1,-1,-1,-1,-1,-1,-1,-1,-1,-1,-1,-1,-1,-1,-1,-1,-1,-1,-1,-1,-1,-1,-1,-1,-1,-1,-1,-1,-1,-1,-1,-1,-1,-1,-1],"split_conditions":[-6.2384317E-3,2.3222878E-3,2.1760779E-2,4.1963574E-2,-1.4488896E-3,-1.8005116E-2,1.2956902E-2,8.355713E-3,-3.4618106E-2,1.0113909E-2,1.3073861E-2,-1.0667758E-2,1.2558134E-2,4.794269E-3,2.8984593E-2,3.9929446E-2,-2.5697961E-2,1.8799433E-2,1.0538633E-2,1.458036E-34,-6.1979394E-2,-9.675508E-3,6.3431434E-2,1.6869549E-2,-4.0896304E-2,-3.45709E-2,2.5619712E-4,-1.7190313E-2,-8.499121E-3,-1.3221681E-2,2.7454898E-2,-4.8172973E-2,6.4632006E-2,7.932863E-2,-3.9867572E-2,-1.7063173E-2,2.9446749E-2,-2.5256759E-2,-2.2253355E-2,3.844616E-2,-1.2762167E-2,2.4043161E-2,-7.271317E-2,1.8395813E-2,9.548108E-2,3.7564743E-2,1.2197311E-2,3.45427E-2,1.1136794E-34,1.2462306E-2,-3.4894757E-2,-1.4359722E-3,7.33106E-3,-1.6379613E-2,3.460169E-2,5.6712333E-2,-2.8271116E-2,5.2260544E-2,1.8733468E-2,3.6603857E-2,-6.618342E-2,1.1163432E-2,-6.0819727E-3,-1.5828925E-1,-3.5353303E-1,-1.9272648E-1,3.771308E-2,-2.4098016E-1,6.87258E-2,1.3685773E-1,-8.235031E-2,-3.3760447E-2,2.238904E-1,-2.835469E-1,3.8337518E-2,9.570087E-2,-3.7239116E-1,-4.4333407E-1,8.60053E-3,1.3321155E-1,-2.9969874E-1,-3.9758846E-2,-2.952777E-1,-3.920512E-1,1.5415666E-1,5.2690964E-2,-3.097405E-1,-1.3138217E-1,-3.047615E-1,-3.4793988E-1,1.1047359E-2,-3.0276468E-1,1.0004806E-1,-1.6725968E-1,1.8484873E-1,1.6976288E-1,-5.4174013E-2,1.2341005E-1,-1.9153784E-1,1.1232933E-1,-1.7141008E-1,-3.1402253E-2,2.5187078E-1,-1.19743496E-1,1.286596E-1,-3.155493E-1,-1.204683E-1,-9.984397E-2,1.9819175E-1,-1.6515273E-1,6.1402667E-2,-1.7772473E-1,1.5182951E-1,-1.7803259E-1,-3.2184798E-1,-2.784891E-1,-9.144184E-3,8.5185125E-2,-2.1803342E-1,1.2162813E-2,2.3917137E-1,1.572086E-1,-1.3816541E-1,-3.0266774E-1,-4.6828795E-2,1.0501786E-1,-1.8713607E-1],"split_indices":[149,220,589,146,759,512,475,383,42,480,369,173,383,505,759,540,129,641,568,756,114,347,219,596,350,419,299,291,427,419,446,512,219,690,279,27,461,387,319,139,596,219,411,115,690,300,119,528,756,306,508,394,662,146,445,9,113,417,698,121,279,358,214,0,0,0,0,0,0,0,0,0,0,0,0,0,0,0,0,0,0,0,0,0,0,0,0,0,0,0,0,0,0,0,0,0,0,0,0,0,0,0,0,0,0,0,0,0,0,0,0,0,0,0,0,0,0,0,0,0,0,0,0,0,0,0,0],"split_type":[0,0,0,0,0,0,0,0,0,0,0,0,0,0,0,0,0,0,0,0,0,0,0,0,0,0,0,0,0,0,0,0,0,0,0,0,0,0,0,0,0,0,0,0,0,0,0,0,0,0,0,0,0,0,0,0,0,0,0,0,0,0,0,0,0,0,0,0,0,0,0,0,0,0,0,0,0,0,0,0,0,0,0,0,0,0,0,0,0,0,0,0,0,0,0,0,0,0,0,0,0,0,0,0,0,0,0,0,0,0,0,0,0,0,0,0,0,0,0,0,0,0,0,0,0,0,0],"sum_hessian":[1.0479585E4,3.5294536E3,6.9501313E3,2.4523818E3,1.0770717E3,5.0260015E3,1.92413E3,1.7250712E3,7.273106E2,2.8239215E2,7.9467957E2,3.001428E3,2.0245732E3,1.0414735E3,8.8265643E2,6.614023E2,1.063669E3,6.04629E2,1.2268163E2,1.5275314E2,1.2963899E2,6.976214E2,9.705815E1,6.6564276E2,2.3357852E3,6.2719385E2,1.3973794E3,6.319357E2,4.095378E2,6.613553E2,2.2130115E2,4.7021445E2,1.9118782E2,3.0668274E2,7.569862E2,5.261541E2,7.847491E1,3.220377E1,9.047787E1,9.2502335E1,6.025081E1,1.4890518E1,1.14748474E2,1.8460951E2,5.1301184E2,7.106938E1,2.598877E1,4.5562628E2,2.100165E2,1.6967067E2,2.1661145E3,2.0937102E2,4.1782285E2,6.6219446E2,7.351849E2,1.4887166E2,4.8306406E2,1.3038469E2,2.7915314E2,4.5005212E2,2.1130318E2,1.2632717E2,9.497397E1,1.0845049E2,3.6176395E2,1.1462763E2,7.6560196E1,2.7100214E2,3.568059E1,3.3701956E2,4.199666E2,7.362625E1,4.5252783E2,2.9660116E1,4.881479E1,2.2821321E0,2.9921638E1,9.304097E0,8.117377E1,8.10013E1,1.1501043E1,2.4117687E1,3.613312E1,2.6122246E0,1.2278294E1,6.776395E0,1.07972084E2,6.681517E1,1.1779434E2,5.0411478E2,8.897078E0,6.1117874E1,9.951508E0,1.0079686E1,1.5909083E1,3.4382605E2,1.1180023E2,4.5463554E1,1.6455293E2,8.403063E1,8.564004E1,1.0792666E2,2.058188E3,9.552188E1,1.1384914E2,2.1659906E2,2.012238E2,4.839166E1,6.138028E2,2.5643954E2,4.7874536E2,1.1452001E2,3.4351654E1,1.3467651E2,3.4838754E2,1.065419E2,2.384278E1,2.1388542E2,6.526772E1,1.5318292E2,2.968692E2,4.5150997E1,1.6615218E2,1.027132E2,2.361397E1,4.794889E1,4.702508E1],"tree_param":{"num_deleted":"0","num_feature":"768","num_nodes":"127","size_leaf_vector":"1"}},{"base_weights":[-5.6470386E-3,1.6543126E-1,-4.087992E-1,2.8991324E-1,-3.9109275E-1,-7.0446545E-1,-9.300479E-2,-1.9443133E-1,4.298276E-1,-6.309658E-1,5.5603877E-2,-6.2309667E-2,-7.9572445E-1,-5.524331E-1,1.7602988E-1,1.0209763E-1,-5.83754E-1,6.032823E-1,6.999357E-2,-2.0463471E-1,-9.22386E-1,-6.221334E-1,2.654043E-1,3.9668232E-1,-4.006055E-1,-4.4248843E-1,-9.2037183E-1,-9.7339466E-2,-8.128802E-1,4.6557269E-1,-1.6956422E-1,2.702673E-1,-4.826662E-1,-1.9171734E-1,-9.028366E-1,6.420817E-1,-8.71234E-1,-2.9747534E-1,3.9075565E-1,1.4981402E-1,-6.997428E-1,-1.1057764E0,-5.9242326E-1,2.9090512E-1,-9.327937E-1,4.9360764E-1,-2.6147747E-1,-8.248374E-1,6.0101604E-1,-7.432335E-1,2.2428675E-1,-7.310648E-1,9.394859E-2,-9.857174E-1,-4.332776E-1,1.74277E-1,-6.98749E-1,-9.7610134E-1,-2.584363E-1,-1.9538501E-1,6.1951786E-1,-3.32206E-1,6.256651E-1,1.3818364E-1,-6.659997E-2,6.9519943E-3,-2.3310329E-1,5.3337388E-2,-2.0719026E-1,-1.5334585E-1,-3.478442E-1,-1.9432612E-2,2.1311784E-1,-3.0838788E-1,-6.1654277E-2,3.0003378E-2,-1.7977828E-1,1.648285E-1,-3.6725257E-2,-7.372906E-2,1.7255387E-1,-3.2351094E-1,-9.8007955E-2,-3.691354E-1,-2.2332902E-1,-7.963662E-4,-2.6149312E-1,2.5946444E-1,-1.2930997E-1,-3.3804566E-1,-3.5989165E-2,2.0692636E-1,-3.7669715E-2,5.7459347E-2,-2.1146102E-1,1.414499E-1,-3.2504177E-1,7.668468E-2,3.2868505E-1,3.1052927E-2,-2.8121033E-1,-5.235689E-2,2.6418978E-1,-4.5851637E-2,-2.7629098E-1,1.5299019E-1,-1.7170742E-1,-2.3869973E-1,-3.334785E-1,-2.9127294E-1,5.8744783E-3,-1.4010888E-1,1.243983E-1,-2.8863314E-1,1.0278423E-1,-3.1523752E-1,8.6893395E-2,-1.5505283E-1,2.3765895E-1,5.246943E-2,-2.4282654E-1,1.5040341E-2,2.3783714E-1,-2.2185197E-1,-5.6337267E-3,2.6129967E-1,-4.1788756E-3],"categories":[],"categories_nodes":[],"categories_segments":[],"categories_sizes":[],"default_left":[0,0,0,0,0,0,0,0,0,0,0,0,0,0,0,0,0,0,0,0,0,0,0,0,0,0,0,0,0,0,0,0,0,0,0,0,0,0,0,0,0,0,0,0,0,0,0,0,0,0,0,0,0,0,0,0,0,0,0,0,0,0,0,0,0,0,0,0,0,0,0,0,0,0,0,0,0,0,0,0,0,0,0,0,0,0,0,0,0,0,0,0,0,0,0,0,0,0,0,0,0,0,0,0,0,0,0,0,0,0,0,0,0,0,0,0,0,0,0,0,0,0,0,0,0,0,0],"id":11,"left_children":[1,3,5,7,9,11,13,15,17,19,21,23,25,27,29,31,33,35,37,39,41,43,45,47,49,51,53,55,57,59,61,63,65,67,69,71,73,75,77,79,81,83,85,87,89,91,93,95,97,99,101,103,105,107,109,111,113,115,117,119,121,123,125,-1,-1,-1,-1,-1,-1,-1,-1,-1,-1,-1,-1,-1,-1,-1,-1,-1,-1,-1,-1,-1,-1,-1,-1,-1,-1,-1,-1,-1,-1,-1,-1,-1,-1,-1,-1,-1,-1,-1,-1,-1,-1,-1,-1,-1,-1,-1,-1,-1,-1,-1,-1,-1,-1,-1,-1,-1,-1,-1,-1,-1,-1,-1,-1],"loss_changes":[6.7170526E2,4.7379828E2,2.7084708E2,3.787819E2,1.3400172E2,8.775781E1,1.7365285E2,1.4473332E2,2.7059393E2,1.008855E2,6.2406593E1,2.927698E1,5.7352478E1,6.1415375E1,8.876877E1,7.016944E1,6.762213E1,1.6793518E2,1.6648546E2,5.829631E1,2.856839E1,2.9706066E1,4.0403706E1,2.0481314E1,2.3387423E1,5.333538E1,3.0407288E1,3.1155375E1,2.9597229E1,4.922016E1,5.2562088E1,5.199187E1,2.375637E1,4.518828E1,2.9414719E1,1.37719E2,7.6591034E0,7.903934E1,6.1467583E1,3.2796722E1,1.9213531E1,1.3016388E1,2.8762974E1,1.1605331E1,1.2113464E1,2.8514874E1,2.0600056E1,4.499399E0,1.1537472E1,1.1649677E1,1.0408074E1,2.4439651E1,3.3900345E1,1.9530762E1,2.8352203E1,2.0492353E1,1.6594608E1,2.4361053E1,2.1144985E1,2.104075E1,3.8597168E1,4.2970154E1,1.0851416E1,0E0,0E0,0E0,0E0,0E0,0E0,0E0,0E0,0E0,0E0,0E0,0E0,0E0,0E0,0E0,0E0,0E0,0E0,0E0,0E0,0E0,0E0,0E0,0E0,0E0,0E0,0E0,0E0,0E0,0E0,0E0,0E0,0E0,0E0,0E0,0E0,0E0,0E0,0E0,0E0,0E0,0E0,0E0,0E0,0E0,0E0,0E0,0E0,0E0,0E0,0E0,0E0,0E0,0E0,0E0,0E0,0E0,0E0,0E0,0E0,0E0,0E0,0E0,0E0],"parents":[2147483647,0,0,1,1,2,2,3,3,4,4,5,5,6,6,7,7,8,8,9,9,10,10,11,11,12,12,13,13,14,14,15,15,16,16,17,17,18,18,19,19,20,20,21,21,22,22,23,23,24,24,25,25,26,26,27,27,28,28,29,29,30,30,31,31,32,32,33,33,34,34,35,35,36,36,37,37,38,38,39,39,40,40,41,41,42,42,43,43,44,44,45,45,46,46,47,47,48,48,49,49,50,50,51,51,52,52,53,53,54,54,55,55,56,56,57,57,58,58,59,59,60,60,61,61,62,62],"right_children":[2,4,6,8,10,12,14,16,18,20,22,24,26,28,30,32,34,36,38,40,42,44,46,48,50,52,54,56,58,60,62,64,66,68,70,72,74,76,78,80,82,84,86,88,90,92,94,96,98,100,102,104,106,108,110,112,114,116,118,120,122,124,126,-1,-1,-1,-1,-1,-1,-1,-1,-1,-1,-1,-1,-1,-1,-1,-1,-1,-1,-1,-1,-1,-1,-1,-1,-1,-1,-1,-1,-1,-1,-1,-1,-1,-1,-1,-1,-1,-1,-1,-1,-1,-1,-1,-1,-1,-1,-1,-1,-1,-1,-1,-1,-1,-1,-1,-1,-1,-1,-1,-1,-1,-1,-1,-1],"split_conditions":[-1.7838316E-3,7.168421E-3,1.0584927E-2,-6.030081E-3,3.460658E-2,-4.1901045E-2,1.332227E-2,-2.7657308E-2,8.955717E-3,-2.3916357E-3,-2.997538E-2,-1.1721773E-2,1.2698812E-34,2.1730496E-3,8.069851E-3,1.0725443E-2,-6.571165E-3,2.241461E-34,-1.5621872E-3,-8.093534E-4,4.3562155E-2,-1.0835812E-2,-2.291033E-2,-2.8621431E-2,3.5945058E-2,-1.8010017E-2,5.383109E-2,-3.376277E-2,3.601829E-2,-1.4695448E-2,1.594452E-2,-8.1572505E-3,-2.1074306E-2,-7.4079605E-3,-1.1080119E-2,-5.413409E-3,3.478569E-2,-2.8373754E-2,7.1145673E-3,5.389978E-3,-1.5573914E-2,2.5035279E-2,1.4053122E-34,-3.962722E-2,6.5749814E-3,1.6240253E-34,-4.0473803E-3,-3.0444697E-2,4.2305995E-2,-3.8222432E-2,1.0218357E-2,-4.334902E-2,4.344218E-3,-1.5060386E-3,-8.119342E-3,1.3023089E-2,5.9009567E-2,8.416514E-2,5.487254E-2,9.545355E-3,-2.3381047E-2,-4.5458423E-3,2.4695868E-2,1.3818364E-1,-6.659997E-2,6.9519943E-3,-2.3310329E-1,5.3337388E-2,-2.0719026E-1,-1.5334585E-1,-3.478442E-1,-1.9432612E-2,2.1311784E-1,-3.0838788E-1,-6.1654277E-2,3.0003378E-2,-1.7977828E-1,1.648285E-1,-3.6725257E-2,-7.372906E-2,1.7255387E-1,-3.2351094E-1,-9.8007955E-2,-3.691354E-1,-2.2332902E-1,-7.963662E-4,-2.6149312E-1,2.5946444E-1,-1.2930997E-1,-3.3804566E-1,-3.5989165E-2,2.0692636E-1,-3.7669715E-2,5.7459347E-2,-2.1146102E-1,1.414499E-1,-3.2504177E-1,7.668468E-2,3.2868505E-1,3.1052927E-2,-2.8121033E-1,-5.235689E-2,2.6418978E-1,-4.5851637E-2,-2.7629098E-1,1.5299019E-1,-1.7170742E-1,-2.3869973E-1,-3.334785E-1,-2.9127294E-1,5.8744783E-3,-1.4010888E-1,1.243983E-1,-2.8863314E-1,1.0278423E-1,-3.1523752E-1,8.6893395E-2,-1.5505283E-1,2.3765895E-1,5.246943E-2,-2.4282654E-1,1.5040341E-2,2.3783714E-1,-2.2185197E-1,-5.6337267E-3,2.6129967E-1,-4.1788756E-3],"split_indices":[113,419,163,300,540,596,728,411,488,291,350,65,756,759,224,65,291,756,27,48,235,50,582,508,701,293,701,603,662,544,508,195,37,753,336,146,311,195,48,16,19,383,756,497,63,756,753,646,297,589,508,411,220,714,505,383,219,690,495,150,226,707,440,0,0,0,0,0,0,0,0,0,0,0,0,0,0,0,0,0,0,0,0,0,0,0,0,0,0,0,0,0,0,0,0,0,0,0,0,0,0,0,0,0,0,0,0,0,0,0,0,0,0,0,0,0,0,0,0,0,0,0,0,0,0,0,0],"split_type":[0,0,0,0,0,0,0,0,0,0,0,0,0,0,0,0,0,0,0,0,0,0,0,0,0,0,0,0,0,0,0,0,0,0,0,0,0,0,0,0,0,0,0,0,0,0,0,0,0,0,0,0,0,0,0,0,0,0,0,0,0,0,0,0,0,0,0,0,0,0,0,0,0,0,0,0,0,0,0,0,0,0,0,0,0,0,0,0,0,0,0,0,0,0,0,0,0,0,0,0,0,0,0,0,0,0,0,0,0,0,0,0,0,0,0,0,0,0,0,0,0,0,0,0,0,0,0],"sum_hessian":[9.73703E3,6.8365273E3,2.9005024E3,5.587261E3,1.2492664E3,1.4973551E3,1.4031473E3,1.2521783E3,4.335083E3,8.125305E2,4.3673587E2,1.865257E2,1.3108293E3,5.178189E2,8.853284E2,7.1121594E2,5.409624E2,2.9246204E3,1.4104625E3,3.3059344E2,4.819371E2,1.0277315E2,3.3396274E2,7.907117E1,1.0745454E2,3.4309326E2,9.6773615E2,1.889791E2,3.2883978E2,4.8154074E2,4.0378772E2,5.527817E2,1.5843427E2,2.4345071E2,2.9751166E2,2.850187E3,7.443335E1,6.5740454E2,7.53058E2,1.9307098E2,1.3752245E2,3.0825848E2,1.7367862E2,2.610715E1,7.666599E1,2.3307591E2,1.0088682E2,1.0896213E1,6.817496E1,6.9279335E1,3.8175194E1,2.2284886E2,1.2024439E2,8.523645E2,1.1537163E2,1.3067305E2,5.8306057E1,2.5346304E2,7.537675E1,9.09181E1,3.9062265E2,3.3570993E2,6.8077774E1,3.986862E2,1.5409552E2,5.8618332E1,9.9815926E1,1.4023402E2,1.03216705E2,1.1895585E2,1.785558E2,2.51175E2,2.599012E3,5.9808853E1,1.4624499E1,2.8400528E2,3.7339926E2,5.751512E2,1.7790685E2,1.00257065E2,9.281393E1,6.73127E1,7.0209755E1,2.2739532E2,8.086316E1,5.613015E1,1.1754847E2,1.4433673E1,1.1673477E1,6.158029E1,1.5085707E1,1.7691676E2,5.6159138E1,5.018325E1,5.0703568E1,1.6754508E0,9.220762E0,4.1035183E1,2.7139774E1,1.3008368E1,5.627097E1,2.4203022E1,1.3972174E1,5.5541145E1,1.6730772E2,7.4169914E1,4.607448E1,3.4252972E2,5.0983478E2,5.222565E1,6.3145973E1,3.536962E1,9.530342E1,4.6597595E1,1.1708458E1,2.395002E2,1.3962846E1,6.0905025E1,1.4471719E1,5.716251E1,3.375559E1,9.1438835E1,2.991838E2,1.4540094E2,1.90309E2,4.8942688E1,1.9135082E1],"tree_param":{"num_deleted":"0","num_feature":"768","num_nodes":"127","size_leaf_vector":"1"}},{"base_weights":[-5.5799833E-3,-3.0936036E-1,2.0269358E-1,5.143755E-2,-5.283214E-1,5.261174E-1,-2.426754E-2,3.7331927E-1,-3.4920204E-1,-2.627569E-1,-8.223321E-1,6.11448E-1,-1.10347986E-1,-2.4707475E-1,3.1248048E-1,-2.8727993E-1,5.211532E-1,-7.593791E-1,-1.7619925E-2,-7.674886E-2,-7.7184284E-1,-8.8799214E-1,-1.4251977E-1,7.4227905E-1,2.799149E-1,-5.834555E-1,2.6074025E-1,2.2007376E-1,-4.7739664E-1,-2.2896983E-1,4.73343E-1,-8.2113934E-1,2.0667757E-1,-6.1216224E-3,6.5845126E-1,-2.1681425E-1,-9.9899167E-1,-8.605468E-1,1.4978302E-1,-3.0433318E-1,3.490282E-1,1.180312E-1,-9.353309E-1,-1.041049E0,-6.197404E-1,-6.4538485E-1,3.2536528E-1,-2.189065E-1,7.799016E-1,-4.008628E-1,5.125741E-1,-2.51787E-1,-1.2845602E0,-4.020113E-1,5.175818E-1,-3.6554873E-1,4.2319453E-1,-6.435422E-1,1.2802002E-2,-5.659284E-1,1.93768E-1,6.6273665E-1,1.0595917E-1,-2.9748142E-1,8.893289E-2,-1.6788507E-1,1.6296521E-1,9.475399E-2,-1.6721278E-1,-1.00554414E-1,2.2058178E-1,1.7075448E-1,-1.6939068E-1,-7.345658E-2,-3.3068466E-1,-2.9104248E-1,1.4838363E-1,1.22690976E-1,-1.1103002E-1,1.5273522E-1,-1.3418938E-1,-1.890129E-1,1.4020169E-1,1.792527E-1,-1.5931489E-1,-2.9828006E-1,6.0155917E-2,-3.329124E-1,-2.0509197E-1,-2.3607178E-1,-1.5027079E-2,6.96471E-2,-2.796743E-1,